4 100
</s> 0.004003 0.004419 -0.003830 -0.003278 0.001367 0.003021 0.000941 0.000211 -0.003604 0.002218 -0.004356 0.001250 -0.000751 -0.000957 -0.003316 -0.001882 0.002579 0.003025 0.002969 0.001597 0.001545 -0.003803 -0.004096 0.004970 0.003801 0.003090 -0.000604 0.004016 -0.000495 0.000735 -0.000149 -0.002983 0.001312 -0.001337 -0.003825 0.004754 0.004379 -0.001095 -0.000226 0.000509 -0.003638 -0.004007 0.004555 0.000063 -0.002582 -0.003042 -0.003076 0.001697 0.000201 0.001331 -0.004214 -0.003808 -0.000130 0.001144 0.002550 -0.003170 0.004080 0.000927 0.001120 -0.000608 0.002986 -0.002288 -0.002097 0.002158 -0.000753 0.001031 0.001805 -0.004089 -0.001983 0.002914 0.004232 0.003932 -0.003047 -0.002108 -0.000909 0.002001 -0.003788 0.002998 0.002788 -0.001599 -0.001552 -0.002238 0.004229 0.003912 -0.001180 0.004215 0.004820 0.001815 0.004983 -0.003111 -0.001532 -0.002107 -0.002907 0.002815 0.001579 0.000425 -0.002194 0.001524 0.003059 0.000194 
Adam 0.002280 -0.004953 0.004315 0.000480 -0.001831 -0.002083 -0.000748 -0.002935 -0.004370 -0.002837 0.004277 -0.001770 -0.002679 0.002317 -0.001704 0.004757 -0.001605 -0.004589 0.002716 -0.000074 -0.003489 0.000976 0.001442 -0.000481 0.001824 -0.003958 0.000881 0.001817 -0.003009 0.000142 -0.000061 -0.002399 -0.002833 -0.004694 0.000023 0.000153 0.000010 -0.003934 -0.004962 -0.004747 -0.004326 -0.000547 0.001391 0.001184 -0.003182 0.004998 -0.002011 -0.001274 -0.001404 0.004733 -0.003764 0.001161 -0.001335 0.003188 0.000041 0.004270 -0.002819 -0.002605 -0.004192 -0.003667 -0.003199 -0.003115 0.002444 -0.001867 0.002680 0.003690 0.001356 0.002951 0.002476 0.002341 -0.003551 -0.003433 -0.003657 -0.000132 0.004131 -0.002737 -0.003060 -0.004196 0.003306 -0.004179 -0.000579 0.002179 -0.004618 -0.004479 0.001443 0.003525 0.004264 0.002146 0.003162 -0.003128 -0.003640 0.003975 -0.002765 0.001753 0.000574 0.001790 -0.001182 0.000199 -0.001686 -0.001127 
is -0.004434 -0.003260 0.003485 0.001005 -0.002363 -0.001592 0.002495 -0.003533 -0.002313 0.004734 0.004248 -0.003959 0.000871 -0.002250 0.000152 0.003007 0.004846 0.001987 0.004113 0.003147 -0.000231 0.004475 0.002536 0.004741 -0.001705 0.004747 0.004329 -0.001427 -0.004420 0.004833 0.000897 -0.002079 -0.000718 -0.000736 -0.003853 -0.001431 -0.000444 -0.004927 -0.003516 -0.001203 -0.000941 0.001790 0.000816 -0.000614 0.002946 0.001446 0.000548 0.003617 -0.001125 -0.001427 -0.000414 -0.002728 -0.003000 0.000202 0.004338 -0.001367 -0.000021 -0.004135 0.003709 -0.001520 0.002968 -0.002409 -0.000895 0.000094 0.003623 -0.000086 0.004433 -0.000743 0.002100 -0.000137 -0.003902 0.004251 0.001056 -0.003029 0.003008 -0.004145 -0.004354 0.003268 -0.003432 -0.002648 0.003528 0.003285 0.000685 0.004523 0.004857 0.004055 0.001765 -0.004350 0.002289 -0.004892 -0.001286 0.001512 0.000981 -0.001525 0.002938 -0.004608 -0.001411 -0.001312 -0.001656 0.003071 
awesome. -0.004731 0.002778 0.001338 0.002830 0.003678 0.000276 0.000826 -0.004550 -0.001028 0.003214 -0.001786 0.004213 -0.001194 -0.003878 -0.002591 0.004899 0.003338 -0.003967 0.004817 -0.004209 -0.004777 0.002476 -0.000656 -0.002331 -0.000381 -0.002516 0.002396 0.003815 0.004180 -0.004412 -0.002120 0.000009 -0.000937 0.003818 0.002202 0.004534 -0.003075 0.001707 0.004268 -0.001830 0.002922 0.001285 -0.004516 0.004198 0.004709 -0.002916 -0.000243 -0.001600 0.002444 -0.003865 0.003493 -0.000942 -0.001217 -0.002031 -0.004402 -0.003049 -0.001119 0.004618 -0.002521 -0.004637 0.000396 0.000612 0.003041 0.000073 0.003482 0.002983 -0.001309 -0.000637 0.000797 0.001263 0.003335 0.004014 -0.002503 -0.002518 -0.001620 -0.002691 0.001238 -0.003829 -0.002269 -0.004974 0.002176 0.004363 -0.002205 -0.004551 0.002968 0.001587 -0.002522 -0.000641 -0.001231 -0.000123 -0.001813 0.000036 -0.002764 0.003761 0.003827 0.003261 -0.001474 0.000273 0.000805 -0.002683 
