been 0.2514151334762573 0.024251602590084076 -0.20919133722782135 -0.2027233988046646 -0.2076735496520996 0.38930803537368774 0.0024646949023008347 0.2969706952571869 0.23548854887485504 -0.18230704963207245 -0.17666421830654144 0.33864825963974 -0.1639525443315506 -0.3777941167354584 -0.36321479082107544 0.19529975950717926 0.44650498032569885 0.25309258699417114 0.19128155708312988 -0.13635045289993286 -5.600161966867745E-4 -0.15280687808990479 -0.4939562678337097 -0.2050713300704956 0.07147517800331116 -0.20506784319877625 0.059389378875494 -0.25060486793518066 -0.21765783429145813 -0.0515904501080513 0.09790180623531342 -0.07956846058368683 -0.17606498301029205 -0.007620929274708033 0.1017470583319664 0.05617046728730202 -0.3080579340457916 -0.12226863950490952 -0.06621256470680237 0.500221848487854 0.02408120594918728 0.2953161299228668 0.05585803836584091 0.1250070035457611 0.028924887999892235 0.17581616342067719 -0.44387492537498474 -0.014941577799618244 0.3601892590522766 0.08764944225549698 -0.7264390587806702 0.024130648002028465 0.273483544588089 -0.08186353743076324 -0.07118134200572968 -0.3336091935634613 -0.026146339252591133 -0.5207233428955078 -0.5238352417945862 0.40423208475112915 0.007050467189401388 0.5213735103607178 0.2615009844303131 0.2922864258289337 0.0917116031050682 0.2559501528739929 -0.18143941462039948 0.2389928102493286 -0.24469217658042908 0.25987669825553894 0.3061378300189972 -0.024347176775336266 0.30458009243011475 0.5842064619064331 0.02292771451175213 0.09760472178459167 0.013918779790401459 -0.3637196719646454 -0.057286687195301056 -0.006131541449576616 0.5796388387680054 0.3575485348701477 0.3033764958381653 -0.460174024105072 0.3143354654312134 0.4174415171146393 -0.2672263979911804 -0.3493618071079254 0.36211344599723816 -0.0575873889029026 -0.09661072492599487 -0.28839731216430664 0.463427871465683 -0.013415665365755558 0.37873169779777527 0.14430685341358185 0.06934714317321777 -0.38161149621009827 -0.2015615999698639 -0.10403507947921753
year 0.37164607644081116 0.055461760610342026 -0.00901545025408268 -0.031239181756973267 0.23280148208141327 -0.09191863983869553 0.365649551153183 -0.11567816138267517 -0.06389167159795761 -0.42005470395088196 0.11550936102867126 0.2642836272716522 0.1586112082004547 -0.1349399983882904 -0.0012139405589550734 0.0042100632563233376 0.11343005299568176 -0.1721833497285843 -0.4640641212463379 -0.14406746625900269 -0.110002800822258 0.17685693502426147 -0.31649309396743774 0.0847882330417633 0.35924598574638367 -0.1655387580394745 -7.723624003119767E-5 0.09226503223180771 -0.09632805734872818 -0.15945260226726532 0.008513701148331165 -0.206598699092865 0.14741000533103943 -0.1168842613697052 -0.1645510047674179 -0.17312374711036682 -0.01642179861664772 -0.21548479795455933 -0.346792995929718 0.015195881947875023 0.0073485225439071655 0.4060865044593811 0.1294441819190979 0.333744078874588 -0.5014618635177612 0.4230384826660156 -0.13402943313121796 0.2583516240119934 -0.09377127885818481 -0.10792529582977295 0.18543115258216858 -0.05138349160552025 0.24239522218704224 -0.00883010495454073 0.034467656165361404 0.30871549248695374 0.18829435110092163 -0.052755214273929596 0.10834075510501862 -0.2906745970249176 0.07806502282619476 0.3436013162136078 0.1700933575630188 0.05725392699241638 -0.20546108484268188 0.12797188758850098 0.043309472501277924 0.5446487069129944 -0.05687393620610237 -0.01382383331656456 -0.15716134011745453 -0.10951480269432068 -0.009074480272829533 -0.07704071700572968 -0.05390160530805588 0.30678582191467285 0.16682684421539307 -0.06827975809574127 -0.052566491067409515 -0.09788316488265991 0.2784605920314789 -0.01986379735171795 -0.48164603114128113 -0.12530173361301422 0.03472039848566055 0.36841168999671936 0.17481908202171326 -0.12042739987373352 0.09803508222103119 0.18865831196308136 0.34415602684020996 -0.19717270135879517 -0.20636509358882904 -0.29509401321411133 0.48995307087898254 0.14553114771842957 0.10086586326360703 0.16187992691993713 0.24632324278354645 -0.10173619538545609
about 0.1508583128452301 0.37524545192718506 0.28301289677619934 -0.290408194065094 0.26178184151649475 -0.15154466032981873 0.5317938923835754 -0.3002186715602875 0.04596702754497528 -0.12610596418380737 0.04822053760290146 0.4671666622161865 0.11926606297492981 -0.18501010537147522 -0.009473530575633049 -0.17870739102363586 -0.09587445855140686 -0.2644835412502289 0.04326341673731804 0.252404123544693 -0.02639259211719036 0.3095709979534149 0.14542557299137115 0.04486376792192459 0.24924752116203308 -0.030337093397974968 0.47957125306129456 -0.24417418241500854 -0.030795220285654068 0.11527640372514725 -0.046084288507699966 -0.11099357903003693 -0.11812254041433334 0.01460991706699133 0.10984364151954651 -0.04167617857456207 0.06641470640897751 -0.22289393842220306 -0.09686955064535141 0.0703703761100769 -0.07895904034376144 0.45287254452705383 -0.1820545792579651 0.10863174498081207 0.22698256373405457 0.10647811740636826 0.06886681914329529 0.25654304027557373 0.18190789222717285 0.14445742964744568 0.16079553961753845 -0.20029988884925842 0.15713003277778625 -0.012858616188168526 -0.080461286008358 0.03365606069564819 -0.1602911353111267 -0.1978704035282135 -0.15697558224201202 0.15956763923168182 0.010335537604987621 0.14342178404331207 -0.3541787564754486 -0.18903519213199615 -0.13004568219184875 -0.3741033375263214 0.2315436154603958 -0.4170844256877899 -0.3168870210647583 0.1461562067270279 -0.1804889291524887 -0.23959490656852722 -0.2159411460161209 -0.2971005141735077 -0.019605718553066254 0.012809532694518566 0.11584588885307312 -0.22140689194202423 0.02590216137468815 0.09222085028886795 -0.032162539660930634 0.009331065230071545 0.12718534469604492 0.07158520072698593 0.0528293177485466 -0.10045632719993591 -0.09516867250204086 -0.3275349736213684 -0.002038148231804371 -0.4998960494995117 -0.1072394922375679 0.08731064200401306 0.18137730658054352 -0.051288969814777374 -0.1616312563419342 -0.3080502450466156 0.2628055214881897 0.025061069056391716 0.13246183097362518 -0.025723209604620934
your 0.3502669334411621 -0.27659520506858826 -0.10108963400125504 -0.1058896854519844 0.048902854323387146 -0.1486387997865677 0.03885047137737274 -0.18840041756629944 0.13780100643634796 -0.03709910809993744 0.08903316408395767 0.0824795737862587 0.13216276466846466 -0.08631372451782227 0.15287728607654572 -0.13334795832633972 -0.7680413722991943 -0.5822069644927979 0.002420797012746334 0.08424495905637741 0.25900840759277344 -0.004204773809760809 0.04865715652704239 0.07263109087944031 -0.034827038645744324 -0.12241668254137039 -0.10541534423828125 0.06143464893102646 0.24958615005016327 -0.15423548221588135 0.4058573544025421 0.06168542429804802 0.33706292510032654 -0.06644604355096817 -0.39469608664512634 -0.19808191061019897 1.5216578321997076E-4 0.1677488386631012 0.24668098986148834 -0.10624080151319504 0.037190407514572144 -0.0893435850739479 -0.09847500175237656 -0.12001150846481323 0.4469260275363922 0.34691035747528076 -0.08368229866027832 0.03653297573328018 0.25824064016342163 -0.08599702268838882 0.0983329713344574 0.3188796639442444 -0.04510044306516647 -0.17220093309879303 0.06546692550182343 -0.21256645023822784 0.11171545833349228 -0.23583878576755524 0.009860504418611526 0.28196418285369873 -0.1023043692111969 0.08077621459960938 -0.06995374709367752 -0.37559065222740173 -0.17744037508964539 -0.03819357231259346 -0.39454931020736694 -0.22623981535434723 0.4864773750305176 -0.03069332242012024 0.07791463285684586 -0.22158104181289673 -0.16964809596538544 -0.10413570702075958 -0.1265350878238678 0.21838325262069702 0.03998740017414093 0.03580820560455322 -0.2977560758590698 0.007132533937692642 -0.046359799802303314 0.2449471354484558 0.0461711660027504 -0.06782742589712143 -0.0052513969130814075 -0.12537221610546112 0.0864235907793045 0.27163511514663696 0.19481928646564484 -0.40842658281326294 -0.2508166432380676 0.023325707763433456 0.061032842844724655 -0.0024535381235182285 -0.04168430343270302 -0.08230847120285034 0.21009384095668793 -0.5153579711914062 0.05886971578001976 -0.17845110595226288
without 0.2899635434150696 -0.15729430317878723 0.0681508257985115 -0.25138410925865173 0.00560791464522481 0.07273378223180771 -0.016860846430063248 -0.23175808787345886 -0.13278791308403015 0.08406084775924683 -0.2016296088695526 0.01967831701040268 0.07835745066404343 -0.07397612184286118 0.010241763666272163 0.08948133885860443 0.06653966754674911 0.0449691116809845 -0.27158814668655396 0.13941897451877594 0.126993328332901 0.2508087754249573 -0.010580863803625107 -0.253973126411438 0.040988191962242126 0.2510620355606079 -0.006109015550464392 -0.36228784918785095 -0.042983680963516235 -0.42219945788383484 -0.030916301533579826 -0.19383473694324493 -0.2817044258117676 -0.1924075037240982 -0.09207752346992493 0.15268558263778687 0.00936906598508358 -0.2255207747220993 0.0856080874800682 -0.10003338009119034 0.016958002001047134 0.2411615401506424 0.3131299614906311 -0.05295617878437042 -0.09744454175233841 0.24104781448841095 -0.1483244001865387 0.07182858884334564 0.22036847472190857 -0.18469774723052979 0.05841794237494469 0.14408762753009796 -0.09025159478187561 0.08463555574417114 0.011861083097755909 -0.1406402736902237 0.061762530356645584 -0.1106100082397461 0.01185982208698988 0.02535300701856613 -0.04180280119180679 0.1676752269268036 -0.03663039579987526 0.29299694299697876 -0.05860608071088791 -0.08743945509195328 -0.04161027818918228 -0.22970284521579742 0.12128342688083649 0.01967664808034897 0.014693940058350563 -0.07942134886980057 -0.06439758092164993 -0.06193016096949577 0.2529565393924713 0.25344061851501465 -0.004205399192869663 0.13686472177505493 -0.10682030767202377 0.03378162160515785 0.11735459417104721 -0.17283344268798828 0.003600822063162923 0.07496856898069382 0.30350056290626526 0.24431908130645752 -0.09441637992858887 -0.05606568977236748 0.07809426635503769 -0.3763270974159241 0.2513851821422577 -0.025743145495653152 -0.04814471676945686 0.31775739789009094 -0.25286176800727844 -0.08013162761926651 0.09692110121250153 0.1802707016468048 0.13250760734081268 -0.44380006194114685
these -0.2018536776304245 -0.12113607674837112 -0.12493287771940231 -0.13781800866127014 -0.17418168485164642 0.1757241189479828 -0.04949554055929184 0.23098605871200562 0.3540332317352295 -0.09112051129341125 -0.15034827589988708 0.16538134217262268 0.011403827928006649 0.2290659248828888 0.012530538253486156 0.08915829658508301 0.13314945995807648 -0.1659405380487442 -0.0551767498254776 0.12000367045402527 -0.055432360619306564 0.1304834485054016 -0.31337276101112366 -0.1292327642440796 -0.1967659443616867 -0.012051984667778015 -0.1785770058631897 0.2321024090051651 -0.1859220415353775 -0.04449397698044777 0.2979244887828827 0.027188055217266083 0.09651532769203186 0.035887155681848526 0.27833083271980286 -0.022957682609558105 0.12578429281711578 -0.06398173421621323 0.08581000566482544 0.19162969291210175 -0.3061691224575043 -0.276170551776886 0.10590048134326935 -0.2655263841152191 0.009416059590876102 0.4824378788471222 0.0985419750213623 0.10184568911790848 0.14244739711284637 0.34050852060317993 -0.5388462543487549 0.11461838334798813 -0.2932024896144867 -0.030743513256311417 0.2786543369293213 8.219670853577554E-4 -0.08666761964559555 -0.03602903336286545 -0.22835205495357513 -0.14594002068042755 -0.31657281517982483 -0.08582843840122223 -0.1988191157579422 -0.3353864252567291 -0.1937086582183838 0.16084015369415283 -0.34197190403938293 -0.23492413759231567 -0.1526993364095688 -0.261956125497818 -0.31798458099365234 0.1310337334871292 0.2802610695362091 -0.2180805802345276 -0.02800856903195381 0.03528476133942604 0.08431226015090942 -0.009034222923219204 -0.05386282131075859 0.3685666620731354 -0.4740222692489624 -0.16446448862552643 -0.05802197381854057 0.2899884879589081 0.18432854115962982 -0.17597556114196777 0.027550984174013138 0.06622733175754547 -0.20925019681453705 0.02795964479446411 -0.13499416410923004 0.4377087652683258 -0.0018249349668622017 -0.04013078659772873 0.08452986925840378 0.14736394584178925 -0.01598634384572506 -0.0902232676744461 0.3131066560745239 -0.756212592124939
companies -0.16679231822490692 -0.03538264334201813 -0.1188635528087616 0.08641792088747025 -0.09152419120073318 0.07093008607625961 0.05740832909941673 0.056703679263591766 -0.014742827974259853 0.04601829871535301 -0.14411738514900208 -0.034805960953235626 -0.04306052625179291 0.10945440828800201 -0.14425796270370483 -0.0723782405257225 0.08829686045646667 0.12292180955410004 -0.04410048946738243 0.08836907893419266 -0.17816822230815887 0.1701546460390091 -0.19145382940769196 0.1190461739897728 -0.12165680527687073 0.1520167738199234 0.005165053531527519 0.1350747048854828 -0.04983188956975937 0.10178637504577637 0.11426036804914474 -0.05058556795120239 -0.13187532126903534 0.05585937574505806 0.03721892833709717 -0.07361596077680588 -0.14098212122917175 0.07157997041940689 0.08225291222333908 -0.031017811968922615 -0.1166205182671547 -0.14720259606838226 -0.07658004760742188 0.007096585351973772 -0.1301720142364502 0.24027487635612488 -0.03603822737932205 0.1533624827861786 0.14656539261341095 0.11715459823608398 -0.17093126475811005 -0.036613285541534424 -0.15916243195533752 -0.1354251652956009 -0.12478253990411758 -0.02563600428402424 0.023298140615224838 -0.025935962796211243 -0.05052218586206436 -0.12485066056251526 -0.1804724484682083 -0.12947548925876617 -0.04723650962114334 -0.247895285487175 -0.1716916412115097 0.21722975373268127 0.025338035076856613 0.030236143618822098 -0.03783124312758446 -0.10385861992835999 -0.1668207347393036 0.19873616099357605 0.11640065908432007 -0.011842252686619759 -0.015606798231601715 0.0930681824684143 0.00483412342146039 0.0714745968580246 -0.011067642830312252 0.19144155085086823 0.05191705748438835 -0.14115583896636963 -0.09421389549970627 -0.09392561763525009 0.15611977875232697 0.17746905982494354 -0.04508011043071747 0.24705930054187775 -0.07445750385522842 -0.03143635392189026 -0.012835205532610416 -0.07257024198770523 -0.05427924916148186 -0.0702865794301033 0.029741410166025162 0.2994098961353302 -0.03348627686500549 -0.14057303965091705 0.1376078873872757 -0.33842557668685913
music -0.1679784655570984 0.26558560132980347 -0.08351007103919983 0.15191543102264404 0.12591899931430817 -0.04188338294625282 0.1504279226064682 0.01513522770255804 -0.0694691464304924 -0.20804663002490997 0.23026703298091888 -0.06677497923374176 -0.005786065477877855 0.06790900230407715 -0.18878400325775146 -0.13470353186130524 -0.049291327595710754 0.0514165423810482 0.03994492068886757 0.3039512038230896 0.009166146628558636 0.07272070646286011 0.01758604496717453 0.10534212738275528 -0.09247096627950668 0.1704721450805664 -0.042383331805467606 0.1250070184469223 -0.007401027716696262 -0.0579538494348526 -0.021651800721883774 -0.08031746000051498 0.0653253048658371 0.05254173278808594 -0.029643839225172997 -0.0062977527268230915 0.04829225689172745 0.3243294954299927 -0.1949998289346695 0.20178088545799255 0.09714590013027191 -0.14923563599586487 0.1369326263666153 -0.0020898906514048576 0.011326045729219913 0.1382133662700653 -0.22518211603164673 0.10846658051013947 0.06651076674461365 -0.06800156831741333 0.1695479303598404 -0.21071140468120575 0.028929105028510094 0.09564667195081711 -0.36033114790916443 0.049626514315605164 0.011614822782576084 -0.002333099488168955 -0.010661561042070389 -0.028209617361426353 -0.05467747896909714 0.028704090043902397 0.17257091403007507 -0.14181196689605713 0.006548936013132334 -0.04150163754820824 0.07818768918514252 -0.039215490221977234 -0.09705901890993118 -0.03777356818318367 0.10211780667304993 -0.1077238991856575 0.040293674916028976 -0.04779112711548805 -0.14303024113178253 0.20146417617797852 -0.316866934299469 -0.08771374821662903 -0.07558400928974152 0.031030025333166122 -0.03535928204655647 0.051222123205661774 0.005412413738667965 -0.07765612751245499 -0.19119802117347717 0.03634071722626686 -0.020844798535108566 0.051107257604599 0.09196807444095612 -0.10004280507564545 0.059029191732406616 -0.1324310153722763 -0.20525433123111725 0.07641639560461044 -0.008115433156490326 -0.11556098610162735 -0.01712305098772049 -0.02903689444065094 0.016524463891983032 0.27481937408447266
would 0.1801024228334427 0.0020016964990645647 0.027441343292593956 0.14800143241882324 -0.07717269659042358 -0.03955225646495819 -0.14700573682785034 -0.34964919090270996 0.07042928040027618 0.16990455985069275 -0.26230770349502563 -0.4068904519081116 -0.18544462323188782 -0.12800201773643494 0.009787213057279587 -0.048164308071136475 0.052653342485427856 0.03750180825591087 -0.023784367367625237 -0.06757985055446625 -0.3059883117675781 0.0460539385676384 0.3280946612358093 -0.2256632000207901 -0.31439119577407837 -0.12343474477529526 -0.11617881804704666 -0.08906403928995132 -0.08232327550649643 -0.2497260570526123 -0.03542611002922058 -0.38193976879119873 -0.19071806967258453 -0.0028555241879075766 0.19007736444473267 -0.3061600923538208 0.1371946781873703 -0.06974396109580994 -0.0385776087641716 -0.012086458504199982 0.1867225170135498 0.2704952359199524 -0.1980421245098114 0.07174839079380035 0.19177377223968506 -0.18900708854198456 -0.20182013511657715 0.12192615121603012 -0.3356873691082001 -0.06364713609218597 -0.10957086831331253 0.061201322823762894 -0.22932793200016022 -0.027182472869753838 0.1636713296175003 -0.049471233040094376 0.07685586810112 0.09209910780191422 -0.02337579056620598 -0.25132638216018677 0.03960578516125679 -0.07161042839288712 0.11081276834011078 -0.3520607352256775 0.037914324551820755 0.18061740696430206 -0.16831180453300476 -0.24387426674365997 0.019276609644293785 0.042155325412750244 0.11741527169942856 0.09028023481369019 0.3449607193470001 -0.034044940024614334 0.17131440341472626 -0.042472101747989655 -0.0824163481593132 -0.11948122829198837 -0.10041727870702744 0.23980922996997833 0.21160534024238586 0.09260845929384232 0.04214424267411232 -0.10818756371736526 -0.17564955353736877 0.14550989866256714 0.26725995540618896 -0.3351631462574005 0.10206657648086548 0.14529787003993988 0.15504920482635498 -0.35144269466400146 -0.04795756936073303 0.20635755360126495 -0.23800645768642426 -0.22403579950332642 -0.10680711269378662 0.22429974377155304 0.26144036650657654 -0.20138312876224518
because 0.08993857353925705 0.20282337069511414 0.06266047060489655 -0.2156950682401657 -0.055686984211206436 -0.03473791107535362 0.02447604201734066 -0.11582034081220627 -0.12817025184631348 0.02990536391735077 0.06580996513366699 -0.12987424433231354 -0.14252081513404846 -0.06993461400270462 -0.025994885712862015 -0.19359879195690155 0.17405523359775543 0.010375048965215683 0.005438755266368389 0.05429840832948685 0.21946245431900024 0.07889875024557114 -0.01195136271417141 -0.24686910212039948 -0.26786109805107117 -0.06090002879500389 -0.010825710371136665 -0.10865157842636108 -0.0056006829254329205 0.03172004967927933 6.798180402256548E-4 -0.04398058354854584 0.16191641986370087 0.010398022830486298 0.0531034879386425 0.10132522135972977 -0.08819878101348877 0.002370503731071949 -0.13862380385398865 0.09236007183790207 -0.02024395391345024 0.02806757763028145 0.02729059010744095 -0.10091904550790787 -0.2094997614622116 -0.010684269480407238 0.0625232458114624 -0.07200119644403458 0.20530663430690765 0.16640593111515045 0.10551720857620239 0.03313684090971947 -0.0023100669495761395 0.08167574554681778 0.22493018209934235 -0.07266827672719955 0.02967505156993866 -0.028268231078982353 -0.052328016608953476 -0.1584126055240631 -0.079292431473732 0.24319803714752197 0.026111949235200882 -0.06099151074886322 0.011675823479890823 -0.1863422840833664 -0.0038190714549273252 -0.1439221352338791 -0.06720422953367233 -0.16800175607204437 0.06908713281154633 -0.12317189574241638 -0.04234699159860611 -0.06402673572301865 -0.06503768265247345 0.05830906704068184 -0.14968961477279663 -0.041890185326337814 0.08142919838428497 -0.005733304191380739 0.11379168927669525 -0.06645698845386505 0.05864490941166878 0.1805897057056427 0.1375928819179535 0.016111839562654495 -0.09503206610679626 -0.0816144272685051 0.28067418932914734 0.07676247507333755 -0.019675659015774727 -0.07728507369756699 0.12982617318630219 0.39009732007980347 0.062300488352775574 -1.0324558388674632E-4 0.21074633300304413 0.3744533061981201 0.0808897614479065 0.06890677660703659
state -0.17459498345851898 -0.00879571121186018 -0.09008961915969849 0.18393541872501373 0.17658263444900513 0.2743585705757141 0.21498697996139526 -0.11747722327709198 -0.041919540613889694 -0.2729445993900299 0.12723824381828308 0.04241383075714111 -0.026183530688285828 0.001947650103829801 -0.13686491549015045 -0.14598548412322998 -0.09044163674116135 0.034877873957157135 -0.20184539258480072 0.30250173807144165 -0.12122984230518341 -0.02503347024321556 -0.08658064156770706 0.1389220803976059 0.16933682560920715 0.13450758159160614 -0.019116049632430077 0.1352590173482895 -0.009007222019135952 -0.20168085396289825 -0.09337460249662399 0.13958242535591125 0.18525035679340363 -0.14683818817138672 0.1581195890903473 0.057931434363126755 -0.34515222907066345 0.0656573474407196 0.09625914692878723 0.04474065452814102 0.023390738293528557 0.018957234919071198 0.18412671983242035 0.10406278073787689 -0.12349484860897064 0.43922969698905945 -0.21381570398807526 0.0878201499581337 0.08403623104095459 -0.227611243724823 -0.026208769530057907 -0.043306756764650345 0.10817836970090866 -0.20197801291942596 -0.22722098231315613 0.12385068088769913 0.015163471922278404 -0.0883655771613121 -0.12156649678945541 -0.30985358357429504 -0.2822751998901367 -0.01345597580075264 -0.11170085519552231 -0.13071224093437195 -0.14647391438484192 0.18883396685123444 0.07248493283987045 -0.008951598778367043 0.09304914623498917 0.059825599193573 -0.0285544041544199 0.0021274720784276724 0.018914464861154556 -0.044098418205976486 -0.14271549880504608 0.4833141267299652 -0.06680411845445633 0.10084991157054901 -0.06870145350694656 0.03308356553316116 0.10800988227128983 -0.033348198980093 -0.25414517521858215 -0.16612215340137482 0.06807585805654526 0.0790444165468216 -0.05355166271328926 -0.03368313983082771 -0.11559699475765228 -0.11954429745674133 0.016050904989242554 -0.007287633139640093 -0.14012397825717926 0.03476361185312271 0.04260844737291336 0.08603478223085403 -0.030160902068018913 0.12904813885688782 -0.09024544805288315 -0.011606945656239986
they 0.1897404044866562 -0.12710459530353546 -0.2166125476360321 -0.05669429525732994 -0.08160612732172012 0.0020124807488173246 -0.2987850308418274 0.12778493762016296 -0.26959484815597534 -0.014928989112377167 -0.05825446546077728 0.03015832044184208 0.26952075958251953 0.15485191345214844 0.004829855635762215 0.2018146812915802 0.21272769570350647 -0.17189912497997284 -0.21599410474300385 -0.1999308168888092 -0.003790827002376318 -0.17804965376853943 0.15577907860279083 -0.13892601430416107 0.10487835854291916 -0.10214758664369583 0.041591793298721313 -0.0676928237080574 -0.03202739730477333 0.2016589492559433 0.22127974033355713 -0.053681984543800354 -0.2172222137451172 -0.1358802765607834 0.0698978528380394 -0.14547044038772583 0.012188677676022053 -0.21796172857284546 -0.11410461366176605 -0.15113215148448944 0.08237261325120926 -0.07546629756689072 -0.28476813435554504 -0.25194063782691956 -0.06489945948123932 -0.1150684580206871 0.4077087342739105 0.07664183527231216 -0.10318274050951004 0.036560334265232086 -0.2151610106229782 -0.2930406630039215 -0.16867181658744812 0.15783250331878662 -0.22480131685733795 -0.08876991271972656 -0.06266244500875473 -0.16513597965240479 -0.041878920048475266 -0.24753302335739136 -0.22237913310527802 -0.32510533928871155 -0.09624596685171127 -0.3374362587928772 -0.36726805567741394 0.06685874611139297 -0.06155233085155487 -0.28568610548973083 0.039036381989717484 -0.045927584171295166 -0.07337740063667297 -5.2456758567132056E-5 0.014607715420424938 -0.11609981954097748 0.23212067782878876 0.2122134566307068 0.2682383060455322 -0.212093785405159 -0.10939939320087433 0.12595953047275543 0.05452580377459526 -0.015915511175990105 -0.061976682394742966 -0.13673952221870422 -0.03385312482714653 -0.18664926290512085 0.12474063038825989 0.24883057177066803 -0.16837842762470245 0.04756378009915352 0.011153520084917545 0.22253677248954773 -0.06676661223173141 -0.08785755187273026 -0.15928830206394196 0.2661532163619995 -0.11232941597700119 -0.041111722588539124 0.11255349218845367 -0.03232192248106003
you 0.22340573370456696 0.24098362028598785 0.1558794230222702 0.08338742703199387 -0.1987532377243042 0.11391843110322952 -0.139400914311409 0.15858280658721924 0.07405325025320053 -0.1122782900929451 0.012784365564584732 -0.0343833826482296 -0.0568963922560215 -0.1934230476617813 0.1394306719303131 -0.047487080097198486 -0.0014173716772347689 -0.03825347125530243 0.24569134414196014 -0.13249941170215607 0.09115347266197205 0.05702335759997368 0.32344740629196167 0.2733480632305145 0.09385355561971664 0.07978372275829315 -0.03482605889439583 -0.19635936617851257 0.05124302953481674 -0.09519226104021072 0.1238456517457962 -0.14725112915039062 -0.45920050144195557 -0.05761179327964783 -0.008501257747411728 -0.31921693682670593 -0.18770284950733185 -0.16794152557849884 -0.220463827252388 -0.08554760366678238 0.023048270493745804 -0.30956190824508667 -0.23398005962371826 -0.03664345666766167 0.22954188287258148 -0.2349608987569809 0.49438875913619995 -0.07196567952632904 0.3106899559497833 0.10875057429075241 -0.09829281270503998 -0.21249553561210632 -0.14911702275276184 -0.13758514821529388 0.13832862675189972 0.09015452861785889 -0.07209458947181702 -0.15909774601459503 -0.06427349895238876 -0.10946832597255707 -0.09714178740978241 -0.2499995082616806 0.01748976856470108 -0.28999578952789307 -0.19397900998592377 0.10258041322231293 0.08496008068323135 -0.08757370710372925 0.27258631587028503 0.03203300014138222 0.29329991340637207 -0.25086480379104614 -0.11558502912521362 -0.22729341685771942 0.10914745926856995 0.1683199554681778 0.14864996075630188 -0.16457389295101166 -0.277476966381073 0.08738146722316742 0.19251011312007904 0.04883177578449249 -0.06191636994481087 -0.03153388947248459 0.015873348340392113 -0.11966545879840851 0.17566539347171783 0.1354561448097229 0.09347912669181824 0.07610727101564407 0.07489261031150818 0.22690658271312714 -0.13573071360588074 0.14883047342300415 0.017441561445593834 0.4763089418411255 -0.24054233729839325 -0.15156254172325134 0.1305147260427475 0.07522393018007278
$ 0.014255345799028873 -0.029323995113372803 -0.022430870682001114 0.011066864244639874 -4.427526146173477E-4 0.010329418815672398 -0.029006607830524445 -0.0027585416100919247 -0.02390901744365692 0.002333426382392645 0.026420991867780685 -0.020375847816467285 0.0037106098607182503 0.012719769030809402 0.0061377231031656265 0.014674264006316662 -0.010510381311178207 0.016181135550141335 -2.8427992947399616E-4 -0.018675170838832855 -0.005767314229160547 0.016760919243097305 -0.01554609090089798 -0.00852880347520113 -0.040646832436323166 0.027208508923649788 -0.02169106714427471 0.027137208729982376 0.0013334840768948197 -0.03491053730249405 0.01672051101922989 -0.01512935571372509 -8.329926058650017E-4 0.037978898733854294 -0.04038378968834877 0.014182621613144875 -0.019118621945381165 0.026849208399653435 0.03285963460803032 -0.00621148431673646 0.005032181739807129 -0.023228473961353302 0.005313528701663017 0.017367957159876823 -0.012745549902319908 0.020555417984724045 -0.034867607057094574 0.017220381647348404 0.023848872631788254 0.006577202118933201 -0.00605432502925396 0.032729655504226685 -0.03431810066103935 -0.00376935675740242 -0.019343052059412003 0.005307269282639027 0.01683834008872509 -0.02155463583767414 -0.022036483511328697 -0.02189186029136181 -0.014063766226172447 0.008909876458346844 8.127200417220592E-4 -0.02783283218741417 -0.0034076841548085213 0.015047857537865639 -0.020390741527080536 0.02579198218882084 0.0025406107306480408 -0.009936141781508923 -0.003135836683213711 -8.260747417807579E-4 -0.011926857754588127 -0.021988017484545708 -0.005816182121634483 0.035211168229579926 -0.03160308301448822 0.019851915538311005 -0.021096456795930862 0.011154429987072945 4.394729621708393E-4 -0.007307989988476038 -0.04035529866814613 0.003727930597960949 0.02693852409720421 0.02395656891167164 0.00917600467801094 0.048870593309402466 0.005990005098283291 0.02222370356321335 0.013902036473155022 -0.015746183693408966 -0.02229638211429119 0.004080380313098431 0.002735438058152795 0.02179178223013878 -0.015205753967165947 -0.0023469864390790462 0.02049456536769867 -0.0422290563583374
going 0.2486691027879715 0.08808144181966782 -0.016254285350441933 -0.21317234635353088 -0.5452792644500732 -0.22965213656425476 -0.20777377486228943 -0.21795322000980377 -0.3209083378314972 0.29348382353782654 0.110287606716156 0.07250083237886429 -0.1772506833076477 -0.12810295820236206 0.054872896522283554 -0.028696337714791298 -0.14308606088161469 -0.5636456608772278 -0.1444098949432373 -0.14919079840183258 0.27227774262428284 -0.03355318680405617 -0.05793216452002525 -0.09752015769481659 -0.04495792090892792 0.08899778127670288 -0.1721397191286087 0.22422990202903748 -0.15035441517829895 -0.41773590445518494 0.2099526822566986 -0.3942124545574188 0.12812164425849915 0.3349859118461609 0.054352231323719025 -0.3175494074821472 0.13999256491661072 0.24795237183570862 -0.2527879476547241 -0.1199207454919815 -0.20748686790466309 -0.049624718725681305 -0.1319335401058197 0.38935595750808716 -0.00664578378200531 -0.18461516499519348 0.32414379715919495 -0.0032306418288499117 0.4468972086906433 -0.2472461611032486 0.1114044040441513 0.420841246843338 -0.1604127585887909 -0.09051366150379181 0.08627194911241531 -0.025001350790262222 0.15678943693637848 -0.2369447499513626 -0.029732996597886086 -0.17727656662464142 0.18503347039222717 -0.04362896457314491 -0.0063346740789711475 -0.3116830587387085 0.08804779499769211 -0.2720623016357422 -0.11334394663572311 -0.3416763246059418 0.3826465904712677 0.18324367702007294 -0.47047221660614014 -0.030482426285743713 -0.17881275713443756 -0.10932909697294235 0.28261086344718933 -0.08730476349592209 0.016163816675543785 -0.13546594977378845 0.2710687816143036 -0.0214096587151289 0.1774902194738388 0.13593719899654388 -0.027942493557929993 0.06969901919364929 0.1339203119277954 -0.06435856968164444 -0.028718741610646248 0.27116858959198 0.045859694480895996 0.6091474294662476 -0.6305658221244812 -0.09004268050193787 -0.05322106555104256 0.1862582415342331 0.1660856008529663 -0.31740543246269226 -0.0671924501657486 -0.06669271737337112 -0.36620643734931946 0.1813860982656479
old -0.3246723711490631 5.547403125092387E-4 -0.11401326209306717 0.2282617837190628 -0.17019274830818176 0.1821034550666809 0.22593042254447937 0.1958356499671936 0.25642961263656616 -0.04237664118409157 -0.1268807053565979 0.0772828683257103 -0.08223417401313782 -0.051641397178173065 -0.10626427829265594 -0.01818154752254486 -0.03614663705229759 -0.09737779945135117 -0.13048532605171204 0.13863472640514374 -0.40280720591545105 -0.16840806603431702 -0.2717866897583008 0.26545441150665283 -0.15298564732074738 0.3573976755142212 -0.19739310443401337 0.1699650138616562 -0.03643287718296051 -0.049049012362957 0.0972258597612381 0.33205562829971313 0.40779823064804077 0.1437763124704361 0.18992102146148682 -0.2744322419166565 -0.09841649234294891 0.10909105092287064 -0.13596242666244507 0.01722465269267559 0.016754725947976112 -0.021264314651489258 0.22579994797706604 -0.02125438116490841 0.13764804601669312 0.0761839747428894 -0.1686743050813675 -0.1928701400756836 0.08528900146484375 -0.13186348974704742 -0.008102001622319221 -0.03972392901778221 -0.10231518000364304 -0.026362942531704903 0.16158343851566315 -0.01747102290391922 0.0417865552008152 -0.11732420325279236 -0.34510764479637146 -0.0754254087805748 0.07739502191543579 0.13197451829910278 -0.008159144781529903 -0.1735645979642868 -0.23240797221660614 -0.1034303829073906 -0.37744471430778503 -0.0805341899394989 -0.04304518550634384 -0.09144332259893417 -0.38326969742774963 0.11925967037677765 0.27620217204093933 0.108667753636837 -0.017528411000967026 0.05130079388618469 -0.23200659453868866 0.19494564831256866 0.22288474440574646 0.17436964809894562 0.012956454418599606 -0.21322409808635712 0.042021386325359344 0.189966082572937 -0.06669434905052185 0.3806644380092621 -0.15801531076431274 0.08897761255502701 -0.06740142405033112 -0.08434738963842392 0.017027460038661957 0.36703187227249146 0.004383644089102745 0.47825321555137634 0.19482900202274323 -0.04887428879737854 0.18550105392932892 -0.12347200512886047 0.08685865998268127 -0.006338084582239389
want 0.04506397247314453 -0.032277002930641174 0.16243906319141388 -0.08299041539430618 -0.14464718103408813 -0.22012539207935333 -0.13016118109226227 -0.2760867774486542 -0.033171024173498154 0.4713475704193115 0.2107188105583191 -0.3052741289138794 -0.145778626203537 -0.106812484562397 -0.006662467960268259 0.05881457403302193 -0.43757879734039307 0.002562203910201788 -0.17132003605365753 0.04170500487089157 0.07364339381456375 0.2883535325527191 0.10487962514162064 -0.06085033714771271 -0.20219786465168 0.07063516229391098 -0.005934479646384716 0.004034442361444235 0.32368916273117065 -0.2636612355709076 -0.3967478573322296 -0.47405943274497986 -0.4133566617965698 0.16419494152069092 -0.13331466913223267 -0.0017687920480966568 -0.052413903176784515 -0.2467913031578064 0.15100215375423431 -0.11214333772659302 -0.1246780976653099 -0.043128542602062225 0.1170322597026825 -0.16386736929416656 0.2544538974761963 0.08940060436725616 0.25934240221977234 0.25127145648002625 -0.03549422323703766 -0.16656723618507385 -0.09649109095335007 0.2363997995853424 -0.17398449778556824 0.0038555115461349487 0.19531463086605072 0.06785384565591812 0.10417591035366058 0.06989452242851257 0.23374530673027039 -0.014238040894269943 -0.09591182321310043 -0.11794231832027435 0.01815565675497055 -0.22593297064304352 -0.04543323069810867 0.09451531618833542 -0.2486194372177124 -0.3963417410850525 0.20089149475097656 0.43071550130844116 0.018615376204252243 0.09624157845973969 -0.16387607157230377 -0.43860286474227905 0.30019861459732056 -0.22305166721343994 0.07616567611694336 0.04757589474320412 -0.2698868215084076 -0.05397462099790573 -0.2744867503643036 0.21279524266719818 0.020835289731621742 0.395799458026886 0.1727311611175537 0.13518185913562775 -0.13229075074195862 -0.09527773410081863 0.039907991886138916 0.0036696314346045256 -0.058554891496896744 -0.20449447631835938 -0.3394153416156769 -0.06282736361026764 -0.49395468831062317 -0.16071297228336334 -0.07886980473995209 0.38138580322265625 0.3002002537250519 0.13584743440151215
night 0.24663881957530975 -0.13298210501670837 -0.23133954405784607 0.03336826339364052 0.19205786287784576 -0.018178481608629227 0.2660221755504608 -0.002591427881270647 0.13939520716667175 -0.15532101690769196 0.3897375464439392 0.2407735288143158 0.27045515179634094 0.041062187403440475 -0.08165492117404938 0.1884460151195526 0.12547098100185394 -0.0684085264801979 -0.18433505296707153 -0.06715763360261917 0.0837661474943161 -0.2819709777832031 -0.22901538014411926 0.3387018144130707 0.07340493053197861 0.057515859603881836 -0.1604677438735962 0.2540336847305298 -0.06947151571512222 -0.07156060636043549 -0.011264266446232796 -0.008789723739027977 0.03928209841251373 0.16681598126888275 -0.5841000080108643 -0.2428256869316101 0.06299610435962677 0.009745839983224869 -0.24047067761421204 -0.06763001531362534 -0.07843273133039474 0.07575249671936035 0.22160404920578003 0.16738034784793854 -0.18982551991939545 0.05802951008081436 -0.25811195373535156 -0.038228590041399 -0.5053986310958862 0.15073789656162262 0.03169839084148407 -0.13815303146839142 0.1310906559228897 -0.1508110910654068 -0.12248653918504715 0.39161577820777893 0.05844606086611748 -0.13546420633792877 0.11619193106889725 -0.052548766136169434 0.1959976851940155 0.39218196272850037 0.010589612647891045 0.3175303637981415 0.05944208800792694 0.059533026069402695 -0.21299196779727936 0.2375500351190567 0.08884192258119583 -0.08679912239313126 -0.16997544467449188 -0.13764017820358276 0.18049262464046478 -0.18898922204971313 0.07869917154312134 0.18335896730422974 -0.15849752724170685 -0.19958443939685822 0.09227100759744644 -0.12320557236671448 0.37014010548591614 -0.11037693172693253 -0.21855787932872772 -0.03260805830359459 0.2713826894760132 0.36186397075653076 0.016671260818839073 -0.21511779725551605 -0.13536256551742554 0.17435725033283234 0.25616389513015747 -0.13438165187835693 -0.29823511838912964 -0.17334862053394318 0.27444973587989807 -0.14699648320674896 -0.042760301381349564 0.1930125504732132 0.2537412941455841 0.16961674392223358
them 0.14094963669776917 -0.0975259318947792 -0.1418774127960205 0.002064822008833289 -0.15204843878746033 -0.15154702961444855 -0.19641543924808502 0.09633728861808777 -0.08877730369567871 0.0029089755844324827 0.09541408717632294 -0.19179518520832062 -0.1218511238694191 0.3569963276386261 -0.2699998617172241 -0.062304768711328506 0.04719950631260872 -0.03533145785331726 -0.03724902123212814 -0.1856638789176941 0.11780165135860443 0.1787186563014984 -0.07785702496767044 0.019874293357133865 -0.3067587912082672 -0.025855615735054016 -0.1544734686613083 0.2712574601173401 0.04526299983263016 -0.042103126645088196 0.16161566972732544 -0.035296596586704254 0.052110567688941956 0.27784672379493713 0.054845936596393585 0.17345881462097168 0.20296494662761688 -0.07773023843765259 -0.18153852224349976 -0.03474611043930054 -0.17841209471225739 -0.3738827705383301 0.05783659219741821 -0.19283509254455566 0.034781571477651596 0.0097958380356431 -0.29763901233673096 0.11435124278068542 0.21373425424098969 0.24063284695148468 -0.25460103154182434 0.02798527292907238 -0.07247002422809601 -0.01092784758657217 0.02686043456196785 -0.03367852047085762 0.15217021107673645 -0.4401645362377167 0.009896221570670605 -0.2269415408372879 -0.08887048065662384 0.13496848940849304 0.044918350875377655 -0.30939775705337524 -0.07878543436527252 0.1836284101009369 -0.015786977484822273 0.06207940727472305 -0.1324196755886078 -0.19611921906471252 0.13663692772388458 -0.3062392771244049 0.21563099324703217 -0.4890451729297638 0.023260632529854774 0.11543583124876022 0.123783640563488 0.023519348353147507 -0.23647509515285492 0.18625666201114655 -0.16868218779563904 0.13122794032096863 -0.18458864092826843 0.12554587423801422 0.03090757504105568 0.12902851402759552 0.005936271045356989 0.053735099732875824 -0.008049136027693748 0.5140900611877441 0.18204180896282196 0.004407193511724472 0.015562883578240871 -0.016803789883852005 -0.100889652967453 0.25072163343429565 0.12102234363555908 0.10791425406932831 0.3062790334224701 -0.09764079004526138
then 0.3838554918766022 -0.1503443717956543 -0.06825283169746399 0.09731369465589523 0.05374215170741081 0.06841479986906052 -0.10119464248418808 -0.16564589738845825 0.10397646576166153 -0.04456312209367752 -0.029840685427188873 0.11564889550209045 -0.027996612712740898 0.11935834586620331 0.06182510405778885 -0.024265961721539497 -0.06137142702937126 -0.12342940270900726 -0.2082146555185318 0.09589362144470215 0.09951213747262955 -0.0454460009932518 0.23286524415016174 0.0032088609877973795 0.11451121419668198 0.14040398597717285 0.022656237706542015 -0.03243676945567131 0.15127688646316528 -0.0565725602209568 0.16842877864837646 -0.16615471243858337 0.40539851784706116 -0.05289893224835396 0.059013862162828445 0.0215842854231596 0.0022556022740900517 0.027088075876235962 -0.16811665892601013 -0.13263867795467377 0.22116708755493164 -0.24058127403259277 -0.04628877341747284 -0.21736212074756622 -0.028179291635751724 0.25937601923942566 0.08408692479133606 0.03293819725513458 0.16105109453201294 0.012076746672391891 -0.1335785835981369 -0.005893284920603037 -0.19551581144332886 -0.14191439747810364 -0.10781435668468475 0.1717759072780609 0.15354913473129272 0.30162960290908813 0.1726333051919937 -0.3181167244911194 0.005033058580011129 0.22539980709552765 0.04954885318875313 0.33329516649246216 0.13247744739055634 -0.07251695543527603 -0.006027177907526493 -0.1399843394756317 -0.06937200576066971 0.07711757719516754 -0.4829786419868469 -0.07603604346513748 -0.04952307045459747 -0.04958602413535118 -0.05871353670954704 -0.20250488817691803 0.03373699262738228 0.035296451300382614 0.21177007257938385 -0.051534295082092285 -0.03190213441848755 0.05289345234632492 0.006126426625996828 -0.1761828362941742 0.13526619970798492 0.2047308087348938 -0.16149306297302246 -0.18275900185108185 -0.07863793522119522 0.0797881931066513 -0.056436941027641296 -0.1281057447195053 -0.0968688577413559 -0.12412101775407791 -0.02738565392792225 -0.10548727214336395 -0.25650206208229065 -0.0031801906879991293 0.22917525470256805 0.010152880102396011
court -0.00445952732115984 -0.11249649524688721 -0.08766801655292511 -0.00916026160120964 0.021020622923970222 0.13038824498653412 0.02178727276623249 -0.011032827198505402 -0.017804045230150223 -0.13928116858005524 0.2605564296245575 -7.632743800058961E-4 0.013394280336797237 0.1176140308380127 -0.012055882252752781 0.09517271816730499 -0.17880117893218994 -0.08820880949497223 0.0407361201941967 0.11298148334026337 0.156056210398674 -0.20740044116973877 0.03365880250930786 0.08028044551610947 -0.11096574366092682 0.10359607636928558 -0.04911250248551369 0.11258632689714432 -0.006351619493216276 -0.37874719500541687 -0.10264238715171814 -0.11056773364543915 0.12091659754514694 0.06472314894199371 -0.09203628450632095 0.03888951987028122 -0.19712257385253906 0.14039382338523865 -0.036898814141750336 -0.014781174249947071 -0.014484410174190998 0.047391753643751144 0.12424620985984802 0.09111851453781128 -0.0992920771241188 0.04535311833024025 -0.03804682195186615 -0.028392406180500984 0.02806108444929123 -0.24547512829303741 -0.07815124839544296 -0.025019759312272072 0.19897855818271637 -0.15078529715538025 -0.13884270191192627 -0.005559638142585754 -0.03818032145500183 -0.11455198377370834 -0.1358473300933838 -0.20123793184757233 -0.10971350967884064 -0.004207812715321779 -0.053396984934806824 0.05807190760970116 -0.08693227916955948 -0.016427235677838326 -0.101308174431324 -0.16575947403907776 0.2960771918296814 0.06318526715040207 -0.0207065362483263 0.22730475664138794 -0.07929142564535141 -0.07442024350166321 -0.10782507807016373 0.2697073221206665 0.017853910103440285 -0.008765405975282192 0.004813182167708874 -0.22036796808242798 0.14687256515026093 0.1005655825138092 -0.20845507085323334 -0.13425618410110474 0.23461981117725372 0.02980668842792511 -0.00463868398219347 0.14377422630786896 -0.12141475826501846 -0.0700606182217598 0.004906505346298218 -0.027368616312742233 -0.10344208776950836 0.2341783195734024 0.1250729262828827 -0.0756940022110939 -0.0972474068403244 -0.05579846352338791 -0.042133115231990814 0.26673486828804016
an 0.04917922616004944 -0.42563703656196594 -0.04152834042906761 -0.04795554280281067 0.06054849922657013 -0.01055210456252098 0.3239027261734009 -0.03746350482106209 -0.07955574244260788 0.11437151581048965 0.021859997883439064 -0.10605967789888382 -0.06731727719306946 -0.11682241410017014 0.032176822423934937 -0.15517303347587585 0.2287885844707489 -0.2998989224433899 -0.22663012146949768 -0.060603246092796326 0.029233023524284363 -0.1363745480775833 -0.09831372648477554 0.1368965357542038 -0.06442638486623764 0.13046635687351227 -0.026741856709122658 0.11460775882005692 0.10670509934425354 -0.22837741672992706 -0.1093444898724556 -0.09128762781620026 -0.12881839275360107 0.08160410076379776 -0.1773912012577057 -0.1395985186100006 -0.18148958683013916 0.11266680061817169 -0.05530233308672905 -0.06852026283740997 0.07647642493247986 -0.024126654490828514 0.20052985846996307 0.2417648881673813 0.08616948127746582 0.20408913493156433 -0.06733788549900055 -0.09145399928092957 0.37316179275512695 -0.09655512869358063 0.09321603178977966 0.06471090018749237 0.07991070300340652 -0.19255296885967255 -0.026093611493706703 0.225701242685318 0.06639071553945541 -0.06966272741556168 -0.04822644591331482 0.07698960602283478 0.2159269154071808 0.07421798259019852 -0.18538081645965576 0.06467724591493607 0.131725013256073 0.0062181223183870316 -0.26077908277511597 0.07482771575450897 0.151295006275177 -0.028376255184412003 -0.01954113319516182 0.03722614422440529 0.03637150675058365 -0.13903336226940155 0.12434692680835724 0.2616822421550751 -0.0575144998729229 0.29725563526153564 -0.13368605077266693 0.03405502811074257 0.3216245174407959 -0.05617985874414444 -0.06543038785457611 -0.08213917165994644 0.13158343732357025 0.20595292747020721 -0.2282634675502777 0.12779714167118073 -0.23852328956127167 0.06988260895013809 0.06890209764242172 0.030271831899881363 -0.0689660981297493 0.08890946954488754 -0.027716320008039474 0.15734261274337769 0.03137195482850075 -0.15761397778987885 -0.12133710086345673 0.0554475300014019
- 0.03575179725885391 -0.02915314771234989 -0.03544963151216507 -0.05784161761403084 0.08336815983057022 -0.1313048154115677 0.1374688744544983 0.017507871612906456 -0.012207676656544209 -0.12739337980747223 0.06882349401712418 0.09642969816923141 0.009407442063093185 -0.027780406177043915 0.044436343014240265 0.007890797220170498 -0.0370064340531826 -0.012478571385145187 -0.04015078768134117 0.04494524002075195 -0.16483938694000244 -0.04500971734523773 -0.07004809379577637 0.041683826595544815 -0.007735130377113819 0.033713288605213165 0.03615197166800499 0.010090264491736889 0.004083734005689621 -0.0565149262547493 -0.01275007426738739 0.03099064715206623 0.08264138549566269 -0.008257608860731125 0.0535794198513031 0.0882066935300827 0.10407466441392899 0.021811434999108315 -0.09214744716882706 -0.04508688300848007 0.008536120876669884 -0.02771274745464325 0.08938288688659668 0.054104872047901154 -0.040004584938287735 0.1714688390493393 0.017157964408397675 -0.014580399729311466 0.14705735445022583 -0.003550330875441432 -0.07921285927295685 -0.06052307412028313 0.07577892392873764 -0.04999570921063423 -0.12633882462978363 0.06502507627010345 0.015145555138587952 0.016242649406194687 -0.03454769402742386 -0.03415931761264801 0.002016218611970544 -0.009229020215570927 0.005061084404587746 0.020146401599049568 -0.11303051561117172 -0.05930221825838089 0.002129195025190711 0.017140498384833336 -0.10832184553146362 0.006696497090160847 -0.1352139711380005 -0.05761607736349106 0.018656423315405846 -0.06429705023765564 -0.04386063665151596 0.08246468752622604 -0.04412343353033066 0.019752468913793564 -0.01620194874703884 0.016446109861135483 0.09492470324039459 0.03453492000699043 0.015457992441952229 -0.018797870725393295 0.04595908150076866 0.1285664290189743 -0.10712329298257828 0.13163070380687714 -0.010715970769524574 0.04418261721730232 0.06638585031032562 -0.11312396824359894 -0.06175479665398598 0.017407042905688286 0.07713688910007477 0.03420122340321541 6.916517741046846E-4 -0.05303172022104263 0.0588921494781971 -0.08539561927318573
each -0.021490398794412613 -0.382687509059906 -0.16250546276569366 0.02815786935389042 0.10009895265102386 -0.04387161135673523 -0.031961750239133835 -0.07961157709360123 -0.3251130282878876 0.15984970331192017 0.16975617408752441 -0.31802356243133545 -0.4202633500099182 0.26428550481796265 -0.14177384972572327 0.22467638552188873 0.0551769845187664 -0.02321680076420307 -0.1275063306093216 -0.1925853043794632 -0.14324097335338593 0.17854052782058716 -0.1849299669265747 0.11321278661489487 -0.5412171483039856 -0.08343382179737091 -0.24833635985851288 0.36598092317581177 0.2637198269367218 0.093089260160923 -0.15186850726604462 -0.18824738264083862 -0.5308972597122192 0.21894311904907227 -0.41334429383277893 -0.029686564579606056 -0.27315062284469604 0.2774248421192169 0.02934013307094574 0.0949871838092804 -0.2147124707698822 -0.33322733640670776 -0.10241620242595673 0.1495303362607956 -0.3403831720352173 -0.063675157725811 -0.2669447064399719 0.03741486370563507 0.04377926513552666 0.44952094554901123 -0.1790880411863327 0.15326949954032898 0.12275410443544388 -0.4300056993961334 -0.1396101415157318 0.11945946514606476 0.10405775904655457 -0.07215883582830429 -0.28867673873901367 -0.3701716363430023 -0.22249731421470642 -0.13301728665828705 -0.21116434037685394 -0.12794168293476105 0.1193661168217659 0.1380823850631714 -0.03174760565161705 -0.004454344045370817 -0.10697676241397858 -0.16787634789943695 0.07599037140607834 0.05440596118569374 0.22575539350509644 -0.30090948939323425 0.03599809855222702 0.026787646114826202 -0.016633471474051476 0.25416022539138794 -0.11441713571548462 0.24344491958618164 -0.30304428935050964 -0.15382257103919983 -0.04350142553448677 0.024951541796326637 0.2792292535305023 0.15932732820510864 0.011116521432995796 0.20980483293533325 0.0037075262516736984 0.30573633313179016 0.020519478246569633 -0.2606465518474579 -0.03295677527785301 -0.1508457511663437 0.17586305737495422 0.1880633533000946 0.05114496126770973 0.09208247065544128 0.3672434389591217 -0.24058936536312103
former -0.08151809871196747 0.002632437041029334 -0.05973479151725769 0.07014300674200058 0.05038832128047943 0.017103467136621475 0.097023606300354 -0.03864354267716408 0.025749903172254562 -0.05517767369747162 0.013821359723806381 -0.012517256662249565 -0.00817754864692688 0.010187636129558086 -0.03728321194648743 -0.04771547392010689 -0.018088700249791145 -0.004657690413296223 -0.03247207775712013 0.0430511049926281 -0.01718563213944435 0.005159298423677683 -0.07912513613700867 0.025290928781032562 -0.012722421437501907 0.0302896648645401 0.016735676676034927 0.040452051907777786 -0.006548362318426371 -0.0265927966684103 -0.005200244020670652 0.009449483826756477 0.018376929685473442 -0.01043958030641079 0.0178079754114151 -0.01321055181324482 -0.024250738322734833 0.07432243227958679 -0.0015284926630556583 0.04572565108537674 -0.028630193322896957 0.033868636935949326 0.047297876328229904 0.047063056379556656 0.005102275405079126 0.06090041995048523 -0.019724765792489052 0.019596446305513382 -0.0045629278756678104 -0.024207333102822304 -0.04807892441749573 -0.007238959427922964 0.043289896100759506 -0.05248450115323067 -0.02827603742480278 0.04982403665781021 -7.908077095635235E-4 -0.047929540276527405 -0.04632001742720604 -0.031402137130498886 -0.022284667938947678 0.026681479066610336 -0.01063358411192894 0.001842136844061315 -0.025591542944312096 0.03145502507686615 0.011585061438381672 0.021355221047997475 0.015079018659889698 -0.0015486804768443108 -0.021838219836354256 0.01680307276546955 0.024248939007520676 0.004367609973996878 -0.07818256318569183 0.06118382513523102 0.020154381170868874 0.03114459663629532 -0.0028486179653555155 0.01535492017865181 -0.008024356327950954 -0.03530789539217949 0.010161669924855232 -0.014114257879555225 0.0246700718998909 0.04715834558010101 -0.009106885641813278 0.024044150486588478 0.0019137091003358364 -0.04634024575352669 0.004386447370052338 -0.02462395839393139 -0.0013462866190820932 7.842837367206812E-4 0.04287555068731308 0.00579322874546051 -0.01315589901059866 -0.02260926552116871 -0.025538530200719833 -0.019334891811013222
as 0.361911416053772 0.0749739557504654 -0.37090736627578735 0.18808935582637787 -0.34723401069641113 -0.16419219970703125 -0.021443339064717293 0.42605939507484436 -0.20914262533187866 -0.2211044281721115 -0.3035353422164917 0.12773098051548004 -0.1241392195224762 0.043712615966796875 -0.11637694388628006 0.1272381991147995 -0.1748681217432022 0.07733763009309769 0.03145081549882889 -0.32921069860458374 -0.3928040862083435 -0.23414292931556702 -0.4443269968032837 -0.22203299403190613 0.0315336212515831 0.2636564373970032 -0.016510605812072754 0.02655106410384178 -0.33123400807380676 0.25764983892440796 -0.3037784993648529 -0.17356760799884796 -0.044379644095897675 0.03545878827571869 -0.12412314116954803 -0.07477668672800064 -0.10792312026023865 -1.4742056373506784E-4 -0.019811371341347694 -0.11060477048158646 -0.10446209460496902 -0.19351182878017426 0.09352024644613266 0.009003307670354843 0.036837536841630936 0.1347390115261078 0.1654926836490631 0.10976244509220123 0.04048019275069237 0.22421903908252716 0.4181683361530304 0.02719219960272312 0.28018584847450256 0.24117253720760345 0.15135711431503296 -0.17873479425907135 -0.13438978791236877 -0.02340748906135559 -0.09030407667160034 0.08307229727506638 -0.3527390658855438 0.2627624571323395 0.06902404874563217 0.21232004463672638 0.10861853510141373 0.19858480989933014 0.23896430432796478 0.10756704211235046 0.2852432131767273 0.28458625078201294 0.17418266832828522 -0.42051568627357483 0.20260706543922424 -0.07195395231246948 -0.17746929824352264 0.22424373030662537 -0.17765995860099792 -0.01247657835483551 -0.06912679970264435 0.09674561023712158 0.1615060716867447 -0.09892352670431137 0.14066362380981445 0.5474125146865845 0.29340049624443054 -0.2072821408510208 -0.46470966935157776 0.09582024067640305 0.10259852558374405 -0.20305763185024261 0.16113778948783875 -0.32268041372299194 -0.08966881036758423 0.16582021117210388 -0.1377881020307541 0.39073503017425537 0.10684764385223389 0.1278710812330246 -0.22054913640022278 -0.17959655821323395
at 0.15358637273311615 -0.03956987336277962 -0.31741219758987427 0.07561583071947098 0.04638921469449997 -0.2845071852207184 0.22566038370132446 -0.3866310715675354 0.004163290839642286 -0.07223942130804062 0.23368896543979645 0.16093562543392181 0.13789543509483337 0.3593125641345978 -0.07718319445848465 -0.09959659725427628 0.4598705768585205 -0.13319844007492065 -0.10175306349992752 0.04581513628363609 0.0358072966337204 -0.10511765629053116 -0.11964020133018494 -0.02452201396226883 -0.24143025279045105 0.058825597167015076 -0.036467697471380234 -0.19740307331085205 -0.16583989560604095 0.051472388207912445 -0.21267803013324738 -0.11018090695142746 0.3953332006931305 -0.28876298666000366 -0.23756982386112213 0.11184345930814743 0.19438304007053375 0.025788087397813797 0.03849492594599724 0.18571719527244568 -0.139060378074646 0.303498774766922 -0.15006496012210846 -0.16489335894584656 0.019621513783931732 -0.19870425760746002 0.08113102614879608 -0.16268493235111237 -0.1263704001903534 0.11645592004060745 -0.38655784726142883 0.2851634919643402 0.05163029953837395 -0.14768704771995544 -0.44065341353416443 0.3817128539085388 0.24087725579738617 -0.34001466631889343 -0.12865841388702393 -0.1682499349117279 -0.037251707166433334 0.15564961731433868 -0.3287614583969116 0.061866696923971176 0.03877275437116623 0.054390039294958115 -0.3976559042930603 0.34771162271499634 -0.1580348014831543 0.07082587480545044 -0.14536669850349426 -0.011649368330836296 0.31178921461105347 -0.33585840463638306 -0.23158684372901917 0.10887520760297775 0.2870514392852783 -0.11275379359722137 0.12203323096036911 0.2668340802192688 -0.36226117610931396 -0.11602406948804855 0.15565961599349976 0.07476690411567688 0.2382727414369583 0.04707528278231621 -0.17698301374912262 0.007478833198547363 -0.18001016974449158 -0.05611618980765343 -0.14043429493904114 0.12898963689804077 0.20503319799900055 0.36873966455459595 0.04341299831867218 -0.030111756175756454 0.2595727741718292 0.34123826026916504 -0.060814082622528076 0.3492265045642853
left 0.08846171200275421 0.05354401469230652 0.12045745551586151 -0.1007821187376976 0.06356792896986008 0.19094190001487732 0.0031769736669957638 0.21991172432899475 0.1312732845544815 -5.858908407390118E-4 0.08610589057207108 0.12930133938789368 -0.01841963455080986 -0.09234984964132309 -0.01334101241081953 -0.00383817870169878 0.2371595948934555 0.009681775234639645 0.09334258735179901 -0.016516461968421936 -0.018169419839978218 -0.02661857195198536 0.0710134208202362 -0.04115446284413338 -0.17939622700214386 0.15552778542041779 -0.053524065762758255 -0.1352844536304474 -0.10174843668937683 -0.21159107983112335 0.07361587136983871 -0.021829579025506973 0.18596529960632324 0.09807807207107544 0.10832250118255615 0.1910146176815033 -0.061781853437423706 0.1504911184310913 0.06796157360076904 0.22103352844715118 0.1714707762002945 0.138861283659935 -0.0016615570057183504 0.003903991775587201 0.15923216938972473 0.2610986828804016 -0.2620013356208801 -0.1281532198190689 0.3144420087337494 -0.01270600501447916 -0.4200245141983032 -0.004732088185846806 -0.07774874567985535 -0.029394540935754776 -0.020905382931232452 0.04893583431839943 -0.0263658557087183 -0.1862175613641739 -0.20446418225765228 0.07004234939813614 -0.04553268104791641 0.3251773715019226 0.23177330195903778 0.06696270406246185 -0.030147498473525047 0.040889691561460495 0.017570555210113525 -0.07484317570924759 -0.3646165132522583 -0.04613219574093819 -0.423160582780838 0.1338973343372345 0.04132409766316414 0.21443577110767365 -0.10273444652557373 0.10288441181182861 -0.035958681255578995 -0.06315510720014572 0.2114800661802292 0.13812999427318573 0.25202709436416626 -0.08118094503879547 0.16859760880470276 -0.10699324309825897 0.21206681430339813 0.48772376775741577 -0.12348760664463043 0.010769154876470566 0.1981736719608307 0.031032223254442215 -0.08741490542888641 -0.1256498545408249 0.008753253147006035 0.16771671175956726 0.10973188281059265 0.1555199921131134 -0.22366903722286224 -0.1967238336801529 0.044747110456228256 -0.2009778916835785
much -0.027306074276566505 0.14509686827659607 0.3623909652233124 -0.33843666315078735 -0.09713025391101837 0.06791123747825623 0.025239016860723495 0.1643744707107544 -0.29770320653915405 0.022768761962652206 0.21865445375442505 -0.13027295470237732 -0.39897438883781433 -0.037203315645456314 -0.4302882254123688 -0.24527615308761597 -0.04062122106552124 -0.4104157090187073 -0.10579796135425568 0.2797122299671173 -0.3705652058124542 0.11953907459974289 0.35889461636543274 0.302723228931427 -0.3682585656642914 0.1041850745677948 -0.1434524655342102 -0.1349436491727829 0.1249459832906723 0.24475134909152985 0.195475772023201 0.10948432236909866 -0.2897728383541107 0.026833556592464447 -0.25120115280151367 -0.13823752105236053 0.06294666230678558 -0.12258298695087433 -0.03636203706264496 0.01808650605380535 0.32375168800354004 -0.0690992996096611 0.022843651473522186 -0.3483824133872986 -0.4542297422885895 -0.2796369791030884 -0.481931209564209 -0.41350188851356506 0.36908870935440063 -0.131249338388443 0.2796955108642578 -0.3249451220035553 -0.20577813684940338 0.45479512214660645 0.1222333163022995 -0.042499929666519165 0.176984041929245 0.044354427605867386 -0.017365528270602226 0.23735645413398743 0.30001944303512573 0.06345396488904953 0.45430347323417664 -0.42086514830589294 0.003095037769526243 -0.3173897862434387 -0.2817714214324951 0.021161949262022972 -0.474870502948761 -0.20287251472473145 0.25712263584136963 0.24892805516719818 0.11595221608877182 0.18099071085453033 -0.07077191770076752 -0.05042967200279236 -0.08973314613103867 0.07937898486852646 -0.07127169519662857 -0.002144239377230406 -0.027922730892896652 0.059185490012168884 0.1367775797843933 -0.1827670931816101 -0.317568838596344 0.1945636123418808 -0.15005238354206085 0.31963592767715454 0.14356423914432526 0.013835911639034748 0.0658026784658432 0.24195589125156403 0.29137861728668213 0.22187171876430511 -0.04324471205472946 0.18155810236930847 0.2831290364265442 -0.12383916229009628 0.4910382032394409 0.19342423975467682
be 0.04548810422420502 -0.19064076244831085 0.07656954228878021 -0.13075481355190277 -0.013044132851064205 0.22287850081920624 -0.04780193045735359 0.14086750149726868 -0.04610754922032356 0.07861660420894623 -0.48177170753479004 0.09037458151578903 0.02741928957402706 0.0382017120718956 -0.1735209971666336 -0.2303980588912964 0.35456809401512146 0.1513560563325882 -0.1467190831899643 -0.17881140112876892 -0.10945651680231094 0.09218591451644897 0.20203961431980133 -0.5816975235939026 0.28280773758888245 -0.20349633693695068 0.2276313304901123 -0.1327514946460724 -0.11089660227298737 -0.35193735361099243 -0.23062126338481903 -0.118916355073452 -0.15370683372020721 -0.12279283255338669 0.09014653414487839 -0.22590529918670654 -0.16682057082653046 -0.09984302520751953 -0.32719579339027405 0.06023990735411644 -0.005030306056141853 0.09773948043584824 0.0893031507730484 -0.04184067249298096 -0.29810625314712524 0.14647983014583588 -0.19466926157474518 0.19731241464614868 0.24247628450393677 0.11380521953105927 0.009823326021432877 -0.09896387904882431 0.4044555425643921 -0.0645570456981659 0.1249866634607315 -0.43515685200691223 -0.19420546293258667 -0.36447814106941223 -0.20625072717666626 0.26696696877479553 0.08537838608026505 0.12579984962940216 -0.0934821218252182 0.11388471722602844 -0.24988476932048798 -0.044424161314964294 -0.09552205353975296 0.16993066668510437 0.2160634696483612 -0.008083359338343143 0.39991363883018494 0.16036732494831085 -0.1769503802061081 0.23539060354232788 -0.04999418184161186 0.2397235780954361 0.06666404008865356 0.08756740391254425 -0.2693573832511902 0.09687647968530655 0.05918991565704346 0.11715901643037796 -0.1791229248046875 -0.1596166044473648 0.5243791937828064 -0.036787185817956924 -0.24805550277233124 0.04035768285393715 0.05325450748205185 -0.08999704569578171 0.20328189432621002 0.1279069185256958 0.13650164008140564 -0.021123241633176804 0.3002658486366272 0.19515328109264374 -0.08583417534828186 0.07263632118701935 -0.20548631250858307 0.3484417498111725
another -0.11256816983222961 -0.4733554422855377 0.15977036952972412 0.09375275671482086 0.13625214993953705 0.01881619729101658 0.09452112764120102 -0.2618381679058075 -0.04352021962404251 -0.06569600105285645 0.13388746976852417 -0.2297460436820984 -0.04264170303940773 0.017885709181427956 0.22386042773723602 -0.2070065438747406 -0.08748309314250946 0.015787336975336075 -0.3880265951156616 -0.30738186836242676 0.07676155120134354 -0.08149547129869461 0.11121407896280289 -0.2682657241821289 -0.1450684815645218 -0.12472005188465118 0.1638524830341339 6.622819346375763E-4 0.18259721994400024 0.04698840528726578 -0.16490215063095093 0.2824982702732086 0.08485841751098633 0.062321241945028305 -0.35183534026145935 -0.1221000999212265 0.010000034235417843 0.33616456389427185 -0.14343157410621643 -0.1382429152727127 0.12959352135658264 -0.18225504457950592 0.18945501744747162 0.10030936449766159 0.1095498651266098 0.06758960336446762 0.1445581167936325 -0.24379481375217438 0.05618713051080704 -0.1047455295920372 -0.17766287922859192 -0.15955261886119843 0.09292769432067871 -0.18906913697719574 0.022363711148500443 0.21124106645584106 -0.16335786879062653 -0.24291196465492249 0.09632211923599243 0.011444278992712498 0.3168417513370514 0.32254791259765625 0.145363450050354 0.02246665582060814 0.037436824291944504 -0.1589009314775467 0.01783691719174385 0.2961939573287964 0.36248448491096497 -0.10145782679319382 0.028382671996951103 -0.19764387607574463 0.1949027180671692 0.2292466163635254 0.1764826625585556 -0.002613219665363431 -0.013421887531876564 0.28531578183174133 -0.5240737199783325 -0.012980335392057896 0.29660579562187195 0.060916826128959656 0.05509868264198303 -0.1301354169845581 -0.14429089426994324 0.4065912961959839 0.06388463824987411 0.08403249830007553 0.25226694345474243 0.010552076622843742 0.17737643420696259 -0.16637082397937775 -0.08362554013729095 -0.1656549721956253 0.023182764649391174 0.013984384015202522 -0.2046617567539215 -0.2584052085876465 -0.005067443009465933 -0.20798015594482422
two 0.2433246374130249 -0.13146397471427917 -0.09546678513288498 -0.10824138671159744 -0.041923027485609055 -0.19814154505729675 -0.07895710319280624 -0.036483604460954666 0.32400020956993103 -0.20503179728984833 -0.027360493317246437 0.2582235336303711 -0.05776219442486763 0.0032996314112097025 0.10348117351531982 0.4474298357963562 0.028479700908064842 0.1390034556388855 -0.09235046058893204 -0.2450370490550995 -0.3382222354412079 0.012412662617862225 0.005880851298570633 -0.008226409554481506 -0.49976885318756104 0.04254930093884468 -0.2133629471063614 -0.016109829768538475 0.07980876415967941 -0.14118173718452454 0.18220458924770355 -0.002023855457082391 0.1611274629831314 0.3380415439605713 0.04974176362156868 0.008674419485032558 -0.01076426636427641 0.1844882071018219 0.1709745228290558 -0.23123767971992493 0.17799977958202362 0.016989892348647118 -0.007170385215431452 0.16825444996356964 -0.2487269639968872 0.3184913098812103 -0.010043284855782986 0.03103865124285221 0.15582020580768585 0.10981998592615128 -0.5060117244720459 -0.13770730793476105 -2.5062632630579174E-4 -0.4588622450828552 -0.05421893671154976 0.4137307405471802 -0.19537711143493652 -0.4921039938926697 -0.2256208211183548 -0.22582946717739105 -0.07487833499908447 0.45362016558647156 0.2256825715303421 -0.06693041324615479 -0.39325305819511414 -0.014398138970136642 -0.025743180885910988 0.1705659031867981 -0.03355405479669571 0.0597904771566391 -0.4908064603805542 0.06598711758852005 0.1311347633600235 0.2429010272026062 -0.32203593850135803 0.10405940562486649 0.26848557591438293 0.056105609983205795 -0.06907755136489868 0.054254524409770966 0.008829371072351933 -0.17194752395153046 -0.14427778124809265 -0.14467623829841614 0.22718648612499237 0.8170944452285767 0.059934668242931366 -0.005056588910520077 0.23725055158138275 0.09330710768699646 0.1944095641374588 -0.2159673571586609 -0.10387192666530609 -0.16987088322639465 0.438595175743103 0.20718804001808167 0.0029313748236745596 -0.4023284316062927 0.08458159863948822 -0.7149533629417419
long 0.30001676082611084 -0.4340103566646576 0.04914310202002525 -0.07835900783538818 -0.565475583076477 0.10829641669988632 0.11878105252981186 -0.1947551667690277 -0.05167153850197792 -0.036264508962631226 -0.1209070160984993 0.14995205402374268 0.1661049872636795 0.09255722165107727 -0.2542291283607483 0.22255778312683105 -0.01704597845673561 -0.2636551260948181 -0.32729145884513855 -0.5482012629508972 -0.3890002965927124 -0.2729760408401489 -0.30076929926872253 0.08183527737855911 0.03178785741329193 -0.2076915204524994 -0.08343468606472015 -0.04392914101481438 0.1779341846704483 -0.02211710251867771 0.20651084184646606 0.18838810920715332 0.11379626393318176 0.08306746184825897 -0.43173280358314514 -0.13783080875873566 -0.28081727027893066 -0.392734557390213 -0.4330277442932129 -0.4915652275085449 0.2170407623052597 0.15839263796806335 0.17836704850196838 0.14121264219284058 -0.30390816926956177 -0.08872825652360916 -0.11767231673002243 -0.32309776544570923 0.01962711289525032 -0.36566558480262756 0.22987151145935059 0.17758658528327942 0.37393149733543396 0.1764773726463318 0.14399702847003937 0.06381863355636597 0.2625419795513153 -0.25624820590019226 0.10141848772764206 0.36793437600135803 0.39953210949897766 -0.3072599768638611 0.17622846364974976 0.19151844084262848 -0.49763235449790955 -0.5626339316368103 -0.44775456190109253 0.3612549304962158 -0.2270604968070984 0.144673690199852 0.12497007846832275 -0.16161969304084778 0.47095155715942383 0.24044814705848694 0.1660415381193161 -0.22470642626285553 0.030740562826395035 0.12871022522449493 0.06733081489801407 -0.3536336421966553 0.7305744290351868 -0.013377510011196136 0.21569879353046417 -0.35543641448020935 -0.3588677644729614 0.5203867554664612 0.1369229108095169 0.024538271129131317 -0.24591468274593353 -0.027352910488843918 0.12526966631412506 0.18748392164707184 0.4146699011325836 0.07246015220880508 0.27721068263053894 -0.29044055938720703 0.636069655418396 -0.26560869812965393 -0.005963694769889116 0.11373475939035416
into -0.019747363403439522 -0.12499812990427017 -0.05802587792277336 0.0131413284689188 -0.008959106169641018 -0.04849700257182121 0.04741916432976723 -0.1341114342212677 0.10716988891363144 0.0020719554740935564 0.15706729888916016 -0.023767974227666855 0.12375818938016891 -0.031534381210803986 0.3560596704483032 -0.07369954884052277 0.0757736787199974 0.26889568567276 0.09190347045660019 -0.056331176310777664 0.19170145690441132 0.10270557552576065 -0.3333355486392975 -0.020023468881845474 -0.16786344349384308 0.23892250657081604 0.12332282960414886 -0.005120705347508192 0.16895358264446259 0.025604572147130966 0.026887591928243637 0.16093075275421143 0.09529668092727661 0.18331272900104523 -0.1578226238489151 0.018549732863903046 -0.04340353235602379 -0.06271754950284958 -0.1778893917798996 -0.3668055236339569 -0.07569953799247742 -0.061054423451423645 0.10889722406864166 -0.03191279247403145 0.005213052500039339 0.031152551993727684 0.1405782550573349 0.011638647876679897 -0.06213029846549034 0.11357001960277557 0.01341984048485756 0.08364765346050262 -0.10306990146636963 -0.16845780611038208 -0.2583327293395996 -0.14733950793743134 0.17807231843471527 -0.1648833155632019 0.06104705482721329 0.028022008016705513 0.24016572535037994 0.040011730045080185 -0.1631574183702469 0.06024615839123726 0.06724435091018677 -0.014962300658226013 -0.23457273840904236 0.12708780169487 0.2138274610042572 -0.13386067748069763 -0.09798721224069595 -0.10764579474925995 -0.21957428753376007 -0.2028985470533371 0.19347354769706726 0.011845126748085022 -0.07285082340240479 0.05778232961893082 -0.13398334383964539 -0.10740824788808823 0.32115432620048523 0.2897498905658722 -0.23169630765914917 -0.10276550054550171 0.10860095173120499 0.18971598148345947 0.038297444581985474 -0.10412196069955826 -0.24624522030353546 -0.057865872979164124 0.04575664922595024 0.04697130620479584 -0.1790590137243271 0.11607500910758972 -0.15138156712055206 0.134245365858078 -0.06078070402145386 0.11602349579334259 0.07518724352121353 -0.06344842165708542
how 0.4830704927444458 0.1860467791557312 -0.2570061683654785 -0.21280260384082794 0.07474105060100555 -0.034153230488300323 0.012649720534682274 -0.18896403908729553 -0.08072192221879959 0.10326582193374634 0.019083401188254356 -0.030664533376693726 -0.31748589873313904 0.14552822709083557 0.1268579363822937 0.2006177306175232 -0.4463825821876526 -0.04660598933696747 0.04279210790991783 0.08497089147567749 -0.3051534593105316 -0.0025851093232631683 -0.2095108926296234 0.15287819504737854 0.1967666894197464 0.18592125177383423 -0.07464717328548431 -0.06752845644950867 -0.15898406505584717 0.31592056155204773 -0.1587814837694168 -0.08193805813789368 -0.14173255860805511 -0.04693305864930153 -0.06343498826026917 0.11869261413812637 -0.2559995949268341 -0.19515308737754822 0.21526718139648438 -0.3542121350765228 -0.13941113650798798 -0.5011950731277466 0.10841050744056702 -0.25333094596862793 -0.13126179575920105 0.2781197428703308 -0.0236105564981699 -0.07509250193834305 0.22394466400146484 0.29405510425567627 0.5063793063163757 -0.3993646800518036 -0.2452651411294937 0.029162364080548286 0.13293293118476868 0.026638107374310493 0.03876667842268944 0.026783332228660583 0.1033490002155304 -0.10239943116903305 -0.15362627804279327 -0.07383499294519424 0.22378139197826385 0.4293665885925293 0.4311314523220062 -0.03557690605521202 0.2166702002286911 -0.026161467656493187 0.1686013787984848 0.20537069439888 0.06956316530704498 -0.45917531847953796 -0.11049564927816391 -0.24388225376605988 0.34007930755615234 -0.19982923567295074 -0.0049038417637348175 0.07954579591751099 -0.18986524641513824 0.1460426300764084 0.1596164107322693 0.17020703852176666 0.0857977345585823 0.2312958687543869 0.2604235112667084 -0.3497309386730194 -0.4016783535480499 0.16034863889217377 0.04048539325594902 0.4024185240268707 2.6397089823149145E-4 -0.3203049302101135 0.1001204252243042 -0.09314557164907455 -0.10523418337106705 0.3499605059623718 0.2401214838027954 0.20081599056720734 -0.06562058627605438 -0.04029252752661705
see 0.09999136626720428 -0.04451078549027443 0.24249547719955444 -0.2906455993652344 0.04670678451657295 -0.004839511588215828 -0.1020146980881691 -0.09825510531663895 -0.02911863848567009 0.35463008284568787 -0.06487613171339035 0.025597447529435158 0.149811252951622 -0.1604783833026886 -0.15692780911922455 -0.05741250887513161 0.013408668339252472 0.14709483087062836 -0.1368800848722458 0.08911707997322083 0.09985347092151642 0.19852851331233978 0.36709851026535034 -0.34244781732559204 -0.17371299862861633 -0.03916747868061066 0.14497391879558563 -0.07961676269769669 0.16264204680919647 0.00291560054756701 -0.04957607388496399 0.22990848124027252 -0.03736165910959244 0.10175331681966782 0.03541439771652222 -0.031568050384521484 0.06414886564016342 -0.21809330582618713 0.07054685056209564 -0.002115600509569049 0.021641958504915237 0.02872134931385517 0.1614311933517456 -0.09550482779741287 0.046986788511276245 0.22073325514793396 -0.17458905279636383 -0.01956804096698761 -0.09320122003555298 0.13228930532932281 0.02332724817097187 0.23670393228530884 -0.06281469017267227 0.02072719857096672 0.019551830366253853 -0.34122583270072937 -0.0028723077848553658 -0.1323988288640976 0.36721688508987427 0.13280326128005981 -0.10756504535675049 0.0015674768947064877 -0.11953143030405045 0.14140751957893372 0.014683369547128677 -0.1497029811143875 -0.07050145417451859 -0.2504265606403351 0.08433536440134048 -0.08411615341901779 -0.16428928077220917 -0.15968050062656403 -0.3355475962162018 -0.07481535524129868 -0.03247261792421341 0.16005221009254456 0.07641038298606873 0.13413406908512115 -0.2984539568424225 0.005531025119125843 0.03391769528388977 0.05699311941862106 -0.12240686267614365 -0.10484392940998077 0.10873930901288986 -0.05556653439998627 -0.10867120325565338 -0.1155681386590004 -0.06411059945821762 -0.2743299603462219 0.2903284728527069 0.06440062075853348 -0.16223877668380737 0.05822789669036865 -0.3842291831970215 -0.0643882304430008 0.03202524408698082 0.4441772699356079 0.12737689912319183 -0.03587702661752701
found 0.20241627097129822 -0.09518381953239441 0.32828494906425476 0.024666136130690575 0.09758550673723221 0.4199274182319641 0.1096067950129509 0.09149312973022461 -0.15343861281871796 0.05198504030704498 0.04012175276875496 -0.10147161036729813 -0.12274269014596939 -0.030763840302824974 0.00774424010887742 -0.03229560703039169 0.30684468150138855 0.11527024954557419 0.11389239132404327 -0.29787111282348633 -0.011735227890312672 -0.21239687502384186 0.02580777183175087 -0.15146902203559875 -0.16275513172149658 0.04265380650758743 -0.12154525518417358 0.01858893595635891 -0.1407574862241745 -0.12057382613420486 -0.1063886284828186 -0.0809180736541748 0.0034967735409736633 -0.08229754865169525 -0.15582185983657837 0.009785410948097706 0.005519714206457138 -0.012086517177522182 0.061551909893751144 0.24732705950737 0.11774139851331711 0.3640875220298767 0.06212477758526802 0.2097303867340088 0.02614711783826351 0.16814765334129333 -0.18791832029819489 -0.10443935543298721 0.0054412586614489555 0.07043726742267609 -0.20102648437023163 0.26288971304893494 0.014990188181400299 0.08790954947471619 -0.029810288920998573 -0.08239278942346573 0.026125891134142876 -0.12298721075057983 -0.17438648641109467 0.16435852646827698 0.07317467033863068 0.25059670209884644 0.23251891136169434 0.2023676335811615 0.24267615377902985 -0.08816893398761749 -0.006009277887642384 0.0033633247949182987 -0.22485971450805664 -0.07617916911840439 -0.3049663305282593 0.011626389808952808 -0.12181302905082703 0.07197335362434387 -0.0023729889653623104 0.04829806834459305 0.09810242056846619 -0.008103801868855953 0.11488271504640579 -0.055651869624853134 0.31848275661468506 0.009840737096965313 0.35714250802993774 0.008963122963905334 0.11296147853136063 0.30859848856925964 -0.009846454486250877 -0.16221830248832703 0.2022564560174942 0.04506228491663933 0.10498742759227753 -0.18446765840053558 -0.021833078935742378 0.22235573828220367 0.04511775076389313 -0.046042900532484055 -0.0981641337275505 0.03574049845337868 0.10752398520708084 -0.2085874229669571
same -0.34077075123786926 0.10860145837068558 0.025325311347842216 0.14243213832378387 0.003759582294151187 0.14089158177375793 0.007980667985975742 -0.31002873182296753 0.13629551231861115 -0.46996891498565674 0.3364614248275757 -0.1383945196866989 0.037573885172605515 0.011564758606255054 -0.2900815010070801 0.39958545565605164 -0.01537694688886404 0.03641748055815697 -0.3890165686607361 0.24705897271633148 0.1252918243408203 -0.31384363770484924 -0.3275766670703888 -0.16014164686203003 0.12068749219179153 0.2683027982711792 0.20931389927864075 -0.20459914207458496 0.1175536960363388 -0.33325204253196716 0.03143804520368576 0.23280060291290283 -0.10951314121484756 -0.22360223531723022 0.12421827763319016 0.30356884002685547 -0.05389270558953285 0.11824572086334229 0.0644473060965538 -0.06637059152126312 -0.06384854763746262 0.20909178256988525 0.41033846139907837 0.13543708622455597 -0.1423342078924179 0.040211111307144165 0.0738779678940773 -0.3159995377063751 -0.03761940076947212 -0.27725058794021606 -0.35353416204452515 -0.0911661833524704 0.18408052623271942 -0.20658865571022034 -0.3585871160030365 -0.08574523031711578 -0.019168445840477943 -0.2236369103193283 -0.45876044034957886 0.14298351109027863 0.16469943523406982 0.022952327504754066 -0.14412817358970642 0.4214801788330078 -0.049756910651922226 -0.3371451795101166 -0.11195779591798782 -0.04632498323917389 0.11977700889110565 -0.1067858412861824 0.06384380161762238 0.08369166404008865 0.337303102016449 -0.03057447448372841 -0.1704910844564438 0.4067451059818268 -0.10432837903499603 -0.018295256420969963 -0.1192537471652031 0.3502853810787201 -0.14471815526485443 -0.12927627563476562 0.18874356150627136 0.050485026091337204 0.1941378265619278 0.04589080438017845 0.0959428995847702 0.5142887234687805 -0.15262770652770996 -0.1626121550798416 0.3015053868293762 0.11144789308309555 0.023176105692982674 0.6176191568374634 0.23458877205848694 -0.35024750232696533 -0.22544294595718384 0.11738013476133347 -0.0756065770983696 -0.22456173598766327
are -0.07731714844703674 -0.2879056930541992 0.028607867658138275 0.3180049657821655 -0.12031801044940948 0.4533706307411194 -0.3025304675102234 0.04828421026468277 -0.1816205531358719 0.28290531039237976 -0.13295891880989075 -0.008150782436132431 -0.12982985377311707 0.2186339646577835 -0.2504807710647583 0.2204238921403885 -0.4216245710849762 -0.2229585349559784 -0.15731585025787354 0.271403968334198 -0.19845089316368103 0.20144501328468323 0.1817619353532791 -0.14705607295036316 0.0390668548643589 -0.13083845376968384 -0.048352859914302826 0.3200932443141937 0.05029109865427017 -0.12143916636705399 0.1284545660018921 -0.15891297161579132 -0.3226776123046875 0.4663334786891937 -0.16306182742118835 -0.17612579464912415 -0.06402361392974854 0.3544280230998993 -0.07315326482057571 0.11389834433794022 -0.1602146327495575 -0.13241693377494812 -0.10952917486429214 0.032474204897880554 -0.15835760533809662 0.13431105017662048 -0.09844844788312912 0.06534610688686371 -0.16910293698310852 0.10296981781721115 -0.3688717484474182 0.12013598531484604 -0.44745349884033203 -0.2701508700847626 0.3285575807094574 -0.13995784521102905 0.2343856543302536 -0.2183714061975479 -0.3410497009754181 -0.051031723618507385 -0.5592778921127319 0.24137380719184875 0.27424633502960205 -0.040564633905887604 -0.4453265964984894 -0.13539287447929382 -0.24119932949543 0.009698290377855301 -0.2803472876548767 -0.020907416939735413 0.23173566162586212 -0.17817218601703644 -0.4960450530052185 0.18565639853477478 -0.4579118490219116 -0.4433443248271942 -0.39041194319725037 0.09915038198232651 0.055869076400995255 0.4665299654006958 -0.059731315821409225 -0.160491943359375 -0.3823150098323822 0.5713505744934082 0.13439474999904633 -0.489764004945755 -0.4207300543785095 -0.21442213654518127 -0.1274798959493637 0.014523815363645554 -0.06955286860466003 0.010088670998811722 -0.010526920668780804 -0.01350916177034378 -0.013088255189359188 -0.09100839495658875 -0.3031297028064728 -0.010073106735944748 0.33836066722869873 0.2106960564851761
does 0.09865660965442657 0.16903376579284668 -0.0936092957854271 0.022573068737983704 -0.05798293277621269 -0.06582201272249222 0.13768842816352844 -0.07842105627059937 -0.010380204766988754 0.32921984791755676 -0.18215584754943848 -0.131036639213562 0.0824415534734726 -0.46270623803138733 -0.026683542877435684 -0.30260470509529114 -0.016964176669716835 -0.14740793406963348 0.02678682841360569 -0.2868102788925171 -0.284852534532547 -0.08877767622470856 0.005506617482751608 0.44077202677726746 -0.1558501422405243 -0.15771189332008362 -0.11469566076993942 0.21655860543251038 0.09814385324716568 -0.1306653618812561 0.017437053844332695 -0.25223225355148315 -0.3204140365123749 -0.33925607800483704 0.4391278922557831 -0.4808758795261383 0.018824225291609764 0.14654043316841125 -0.5876877307891846 -0.053886592388153076 0.22615793347358704 9.216148173436522E-4 -0.1852363795042038 -0.18558847904205322 0.26829180121421814 -0.05981893092393875 0.13778625428676605 -0.06438688188791275 -0.11733324825763702 0.10958867520093918 -0.08895676583051682 0.410245805978775 -0.2832421064376831 0.1267140507698059 -0.3192746639251709 0.15843458473682404 0.06284401565790176 -0.10781439393758774 -0.18413026630878448 -0.12842021882534027 -0.06563540548086166 -0.18649396300315857 -0.17380648851394653 0.2794908583164215 0.2372499257326126 0.37809431552886963 -0.5664721727371216 -0.0907340794801712 0.06185431778430939 -0.19665735960006714 0.07288932055234909 -0.33637571334838867 0.39328065514564514 0.1860572248697281 0.21478737890720367 0.2946045994758606 0.2656097114086151 0.018775176256895065 0.08662258088588715 0.22516579926013947 -0.034170351922512054 0.711151123046875 0.19793669879436493 -0.3908778131008148 -0.4662066698074341 -0.1359313726425171 -0.24414625763893127 -0.3166254460811615 -0.15186887979507446 -0.1646755039691925 0.12119489908218384 0.033100053668022156 -0.21593421697616577 0.13411086797714233 -0.4797144830226898 0.27111291885375977 -0.0449737049639225 -0.23182453215122223 -0.029484311118721962 -0.13594256341457367
by 0.06126464158296585 -0.21418018639087677 -0.08717290312051773 -0.02885865606367588 0.019731977954506874 0.03371155634522438 -0.06997783482074738 -0.1336410492658615 0.08319415897130966 -0.07589375227689743 0.04693124443292618 0.27117452025413513 0.17950798571109772 0.01485096663236618 0.24421167373657227 0.16865679621696472 -0.06874046474695206 0.06753648817539215 0.08768751472234726 -0.21970976889133453 0.001991491299122572 0.030704651027917862 -0.08938293159008026 -0.12907172739505768 -0.19390785694122314 0.16243982315063477 0.17873020470142365 -0.15151554346084595 -0.1379556506872177 -0.07307643443346024 -0.0683152824640274 0.11912165582180023 0.10052263736724854 0.26676908135414124 -0.27672404050827026 0.08551876991987228 -0.0026830583810806274 0.0968407616019249 0.02517029643058777 -0.1179196760058403 0.03066263161599636 -0.02460845746099949 0.04702657833695412 0.15173624455928802 0.13690869510173798 -0.05618645250797272 0.022531596943736076 -0.15059639513492584 -0.021732833236455917 0.04932040721178055 -0.17613016068935394 0.007404150441288948 -0.1312779039144516 -0.0456763356924057 -0.1369221806526184 0.09250206500291824 -0.016693780198693275 -0.3834526240825653 -0.02221834659576416 0.014103389345109463 0.06671606004238129 0.1552097350358963 -0.01241854764521122 0.18607868254184723 -0.03384716808795929 -0.10081639140844345 -0.12241572141647339 0.15005622804164886 0.007385640405118465 0.07759116590023041 -0.07777837663888931 -0.1504988968372345 -0.05909108743071556 0.045189790427684784 -0.02609889768064022 0.05219965800642967 0.012004243209958076 0.1456812173128128 -0.16160514950752258 -0.13064031302928925 0.13693435490131378 0.019777098670601845 -0.2426900565624237 -0.15000583231449127 0.17976951599121094 0.13552050292491913 0.003110076067969203 -0.0200132355093956 -0.07187829166650772 -0.12421292066574097 0.14543966948986053 0.02173362858593464 -0.06914861500263214 0.032186008989810944 -0.0851154774427414 0.06369246542453766 -0.11512073129415512 -0.19288747012615204 -0.07667399197816849 -0.12064961344003677
national -0.06840547919273376 -0.09922033548355103 -0.0736536905169487 0.06687251478433609 0.060466308146715164 0.012585931457579136 -0.01300054881721735 0.03400363028049469 -0.012517482973635197 -0.12444879859685898 0.09095112979412079 -0.02066444419324398 0.01091438252478838 0.07713846117258072 -0.029337236657738686 0.003014608984813094 -0.034595608711242676 -0.06911642104387283 -0.040112726390361786 -0.005339543800801039 0.0369642972946167 -0.01551904808729887 -0.2158592790365219 0.11147972196340561 0.027582764625549316 0.08344139903783798 -0.004354592878371477 0.054592568427324295 -0.007417592685669661 -0.087940514087677 0.006970317102968693 -0.006462148856371641 0.055138278752565384 0.026094725355505943 -0.0700618252158165 0.02183450758457184 -0.08586467057466507 0.13132521510124207 -0.035444535315036774 -0.043989550322294235 0.002470642328262329 0.0731879472732544 0.1379767805337906 0.015368764288723469 -0.052722930908203125 0.09525760263204575 -0.0446288138628006 -0.017405696213245392 0.00819874182343483 -0.1497161090373993 0.03852738440036774 0.0048279426991939545 0.15374600887298584 -0.012180657126009464 -0.07897578924894333 -0.007346712984144688 0.08269810676574707 -0.021461406722664833 -0.028777508065104485 0.017178138718008995 -0.02812485210597515 -0.002319703111425042 0.02937517687678337 0.06145348399877548 -0.07216896116733551 -0.008062245324254036 -0.044922128319740295 0.07544184476137161 0.04369264468550682 0.02777981385588646 0.04874550923705101 0.05916333943605423 -0.02637307159602642 0.04275848716497421 -0.11752542108297348 0.1498623490333557 -0.10213189572095871 -0.025044336915016174 0.026540309190750122 -0.08626259863376617 0.011772244237363338 0.011552982963621616 0.023116791620850563 0.06547465920448303 -0.024201510474085808 -0.0010277205146849155 -0.036313384771347046 0.0668618306517601 -0.06385131180286407 -0.08649653941392899 -0.016867388039827347 0.023785941302776337 0.010666766203939915 -0.008676240220665932 0.1532312035560608 -0.04664590209722519 -0.04726492613554001 -0.06841221451759338 -0.05301002785563469 0.09189286082983017
where 0.1832537204027176 -0.25387316942214966 -0.21313808858394623 -0.1512812227010727 0.04734322056174278 0.05442836880683899 0.19067883491516113 -0.45839032530784607 0.0675826296210289 -0.1046801283955574 0.00861100759357214 -0.14713196456432343 -0.2062787413597107 0.10373348742723465 0.6320134401321411 0.45415958762168884 -0.09124746918678284 -0.20000314712524414 0.12009768187999725 0.11578711867332458 0.17356574535369873 -0.15730534493923187 0.057778023183345795 -0.271790087223053 -0.08438049256801605 -0.11310336738824844 -0.1529206484556198 -0.11295022815465927 -0.16059042513370514 -0.13932470977306366 -0.10846932232379913 0.022893628105521202 0.2816997468471527 0.09060890227556229 -0.12798984348773956 0.2479160726070404 -0.24127459526062012 -0.06759046763181686 -5.914935900364071E-5 -0.3576499819755554 -0.009667281061410904 -0.11468512564897537 -0.056770261377096176 -0.21033373475074768 -0.175136998295784 0.33691155910491943 0.25284063816070557 -0.08972834050655365 0.2557540833950043 -0.13609439134597778 0.3386555314064026 -0.309174120426178 0.15981251001358032 -0.17019179463386536 0.2541011869907379 0.1599331647157669 0.06136282533407211 0.3643453121185303 -0.1393357813358307 -0.548764169216156 -0.12360532581806183 -0.027184996753931046 -0.3353293836116791 0.2645615041255951 0.13587521016597748 -0.2580861449241638 -0.1592167168855667 -0.17263785004615784 0.2507808208465576 -0.029900310561060905 -0.09841525554656982 -0.04394872486591339 -0.04471566528081894 -0.3281221091747284 0.029495056718587875 -0.08798865973949432 -0.31650352478027344 0.2792908847332001 -0.020455248653888702 0.0194268636405468 -0.024406563490629196 -0.07223063707351685 -0.4664546847343445 -0.12093699723482132 -0.08225938677787781 -0.5149000287055969 0.002007774543017149 -0.19151008129119873 -0.32668161392211914 -0.054160330444574356 0.25047963857650757 0.2243347018957138 -0.08986963331699371 0.2870415449142456 0.11707090586423874 -0.014034777879714966 0.24691107869148254 -0.01442919485270977 -0.13430342078208923 -0.10198506712913513
after 0.018733857199549675 0.15311497449874878 -0.06679962575435638 -0.13527141511440277 0.2265239804983139 -0.20828932523727417 0.3003620505332947 -0.19417095184326172 0.24686773121356964 -0.1423579603433609 0.2804919481277466 0.3607980012893677 0.06322189420461655 0.09717404842376709 0.2625996470451355 -0.03239116445183754 0.15817400813102722 0.12332571297883987 -0.10604975372552872 0.13745419681072235 -0.061117932200431824 0.16829386353492737 -0.13756318390369415 0.06199120357632637 -0.14612559974193573 0.05031546205282211 0.006472848355770111 6.283561233431101E-4 -0.09453243017196655 0.0014481511898338795 -0.015521524474024773 -0.1349858194589615 0.2608373165130615 0.1915302276611328 -0.30470016598701477 0.09788042306900024 0.0016222767299041152 0.25591152906417847 0.08114755153656006 -0.033969976007938385 -0.17613652348518372 0.2141968011856079 -0.05051109567284584 0.020014602690935135 0.10437697172164917 0.3638307750225067 0.09175659716129303 -0.22232870757579803 -0.005379717331379652 0.08174300938844681 -0.42876681685447693 -0.07761206477880478 -0.03983812406659126 -0.2717108130455017 -0.18249177932739258 0.2313847541809082 0.09232241660356522 -0.2870987057685852 -0.09796345978975296 -0.09828773140907288 0.09441251307725906 0.1282186657190323 -0.23572266101837158 0.2040862739086151 -0.04260358586907387 -0.29449525475502014 -0.2430810183286667 0.11572787910699844 -0.12230249494314194 0.02275119163095951 -0.18560007214546204 -0.168082594871521 -0.12430393695831299 -0.1434583216905594 -0.1213362067937851 -0.159965381026268 -0.009389843791723251 -0.12278871238231659 -0.06857863813638687 0.08074187487363815 0.13310134410858154 0.07952027022838593 -0.1119074746966362 -0.09753481298685074 0.13202747702598572 0.06942804902791977 -0.045499760657548904 -0.15780651569366455 -0.23026207089424133 -0.26578599214553833 -0.035020533949136734 0.12355856597423553 0.04048141464591026 -0.010088871233165264 0.017021289095282555 -0.11017460376024246 -0.04201529175043106 0.2208605259656906 -0.0438525564968586 -0.055431388318538666
so 0.3591879606246948 0.15848368406295776 -0.04925805330276489 0.03777046501636505 -0.14652220904827118 -0.22259509563446045 0.19196856021881104 0.19597139954566956 -0.08979130536317825 0.01335819810628891 -0.015429414808750153 0.1613159030675888 0.12374740839004517 -0.10276074707508087 -0.143763929605484 -0.07321911305189133 -0.15216071903705597 -0.009654752910137177 0.03402847796678543 0.11591390520334244 -0.300119549036026 0.06546353548765182 0.4018363654613495 -0.1293739676475525 0.07764629274606705 -0.05712496489286423 0.2871403098106384 -0.011755546554923058 0.03588693588972092 0.10703130066394806 0.05945666879415512 -0.2897544801235199 0.026238616555929184 0.2564009130001068 -0.014227171428501606 0.03502056747674942 -0.09219589084386826 0.03241363540291786 0.19206085801124573 0.15977273881435394 0.09175868332386017 -0.2603123188018799 -0.08819465339183807 0.09726886451244354 0.03275451064109802 0.15573498606681824 0.09300140291452408 0.1400410383939743 0.42235705256462097 0.20038658380508423 0.1319553703069687 -0.0798385739326477 -0.12261100113391876 0.006764737889170647 -0.11475792527198792 0.03842821344733238 -0.04886530339717865 0.19235557317733765 0.1397468000650406 -0.1386929303407669 -0.16701079905033112 0.08178746700286865 0.015509986318647861 0.11116865277290344 0.011491572484374046 -0.05573651194572449 0.3853819966316223 -0.1771141141653061 -0.08809039741754532 0.2458239644765854 -0.40089431405067444 -0.21260520815849304 0.12260906398296356 -0.005106162745505571 -0.20972034335136414 0.033509839326143265 -0.017694484442472458 -0.019683221355080605 0.10621792823076248 0.23378704488277435 0.27502939105033875 -0.1063094288110733 -0.08792833983898163 -0.18892569839954376 0.21661102771759033 -0.06013859808444977 -0.19933709502220154 -0.05157526209950447 0.12371854484081268 0.08508020639419556 -0.07517269998788834 -0.17057080566883087 0.039135586470365524 -0.09716235846281052 -0.1496068835258484 -0.07424534112215042 0.042450740933418274 -0.03613459691405296 -0.01064280141144991 -0.13358613848686218
a 0.12451090663671494 -0.07187624275684357 -0.003055690322071314 0.27418941259384155 0.13254880905151367 -0.3477954864501953 -0.04984414577484131 0.08219815045595169 0.021635007113218307 -0.16572724282741547 -0.10549129545688629 -0.17249147593975067 0.06804193556308746 -0.056903280317783356 0.022812241688370705 -0.21531802415847778 -0.23540273308753967 -0.18554921448230743 -0.1496749371290207 -0.4105647802352905 0.061415355652570724 -0.10627277195453644 -0.3349442183971405 -0.19864098727703094 0.1081993505358696 0.17029644548892975 0.6126028299331665 -0.29574358463287354 -0.2994239032268524 0.4461108148097992 0.09462299942970276 -0.022681934759020805 0.3027516007423401 0.23715834319591522 -0.2929646074771881 0.04292738810181618 -0.2657270133495331 0.29429373145103455 -0.13695761561393738 -0.07088208198547363 -0.0652969479560852 0.053253281861543655 0.0325254462659359 -0.10792765766382217 0.18281903862953186 0.09693500399589539 -0.058243148028850555 -0.07656523585319519 0.10513326525688171 -0.14983069896697998 -0.19168320298194885 0.2964743971824646 0.23815155029296875 -0.03799447789788246 0.10578355938196182 -0.06041547656059265 -0.04076302424073219 -0.03748396039009094 0.03127322345972061 0.06558650732040405 0.020497791469097137 0.13412147760391235 -0.08680826425552368 0.07983283698558807 -0.3336145281791687 -0.18032437562942505 -0.2692508399486542 0.30775031447410583 0.1390492022037506 -0.012872537598013878 0.050119832158088684 -0.021885940805077553 0.1640462577342987 0.14316843450069427 0.1841573268175125 -0.026544267311692238 -0.5254579186439514 -0.010494878515601158 -0.35634395480155945 0.20872557163238525 0.3912802040576935 0.24267736077308655 0.03641010448336601 -0.08327972143888474 -0.010145639069378376 0.17464691400527954 -0.14810825884342194 0.6505791544914246 0.541785717010498 -0.0729554072022438 -0.2181079089641571 -0.43772441148757935 0.36574995517730713 -0.3356761932373047 0.14332151412963867 -0.0318199098110199 0.0022525249514728785 -0.1455523669719696 0.08180012553930283 0.046395670622587204
think -0.008802865631878376 0.2282019406557083 0.3348170518875122 -0.12242085486650467 -0.20541809499263763 -0.3162766695022583 -0.01894894614815712 -0.13279198110103607 -0.03277174383401871 -0.029932798817753792 -0.1539696902036667 -0.04793279990553856 -0.28476017713546753 0.022649923339486122 -0.35870176553726196 -0.014484753832221031 0.052391983568668365 0.3837197422981262 -0.08683561533689499 0.02155645377933979 -0.19435882568359375 0.16208401322364807 0.14839377999305725 -0.101988285779953 0.10783602297306061 -0.156124085187912 -0.0418352372944355 -0.19662326574325562 -0.08634821325540543 -0.07524925470352173 0.010050973854959011 -0.11880044639110565 0.1792323738336563 -0.2630537152290344 -0.07473824918270111 0.31829291582107544 0.2540798783302307 -0.3802455961704254 0.1421591341495514 0.08063748478889465 -0.11984848976135254 -0.21970680356025696 0.045138392597436905 -0.23148274421691895 -0.32286906242370605 0.34772592782974243 0.09081532806158066 -0.03579734265804291 0.19390997290611267 0.07298236340284348 0.0020434048492461443 0.10338512063026428 0.045615363866090775 0.20972409844398499 0.1417183130979538 -0.26300254464149475 -0.1023264229297638 0.21062827110290527 0.2512643039226532 0.07778553664684296 0.07708989083766937 -0.08793675154447556 0.21433384716510773 0.1584702432155609 0.05035967007279396 -0.07190065830945969 -0.04140978306531906 0.15084560215473175 -0.17100104689598083 0.04597111791372299 0.13679182529449463 -0.20388998091220856 -0.004858647007495165 -0.2478495091199875 -0.03848139941692352 -0.03895677626132965 -0.12028469145298004 -0.12183338403701782 -0.14866258203983307 -0.04334435984492302 -0.3014688193798065 0.04090530797839165 0.20517107844352722 -0.12932461500167847 -0.10051866620779037 0.06261928379535675 -0.04371790587902069 0.1162320226430893 0.2629052996635437 -0.010287619195878506 0.2531474828720093 -0.12404054403305054 -0.18104560673236847 0.2296931892633438 -0.0888843908905983 -0.04719797894358635 -0.02456764318048954 0.5249212384223938 0.13379013538360596 0.05954878404736519
set 0.20489603281021118 -0.08833347260951996 0.010313808917999268 -0.20590054988861084 0.035957444459199905 0.1878356784582138 -0.11610478907823563 -0.033737823367118835 0.051352228969335556 0.12241337448358536 0.2267828732728958 -0.0526929646730423 0.03649380803108215 0.03942316398024559 -0.09349741786718369 0.043716102838516235 0.04235585778951645 3.91627661883831E-4 -0.09292935580015182 -0.024550244212150574 0.1498195379972458 -0.13911548256874084 0.09299100190401077 0.08238167315721512 -0.015282309614121914 0.01206162292510271 -0.2665546238422394 0.1264621764421463 -0.0187621358782053 -0.2735486626625061 0.07915467768907547 0.07433339953422546 0.10051928460597992 0.019022459164261818 -0.052269332110881805 0.10273593664169312 0.1791963279247284 0.006954370532184839 -0.08051804453134537 -0.11929351836442947 -0.013737636618316174 0.21401391923427582 0.07951506972312927 -0.05705557018518448 0.03809209540486336 0.12255053967237473 -0.184810072183609 -0.015263797715306282 0.011602843180298805 -0.08620845526456833 -0.0655028373003006 0.08120200783014297 -0.036922112107276917 0.034982211887836456 -0.07503502070903778 0.049021150916814804 0.08335825055837631 -0.23043526709079742 -0.07600532472133636 0.0925726369023323 0.12772613763809204 0.22483040392398834 -0.04335770756006241 0.04601971060037613 -0.12309829145669937 -0.22680163383483887 -0.1659201830625534 -0.06105174124240875 0.09130804240703583 -0.122329480946064 -0.17818394303321838 0.11911170929670334 -0.17455516755580902 -0.01789422705769539 0.08038752526044846 0.1182572990655899 -0.031785640865564346 0.04773754999041557 0.20183388888835907 -0.11880798637866974 0.3169804513454437 0.09010192006826401 -0.00717649282887578 0.042039040476083755 0.20300599932670593 0.18497958779335022 -0.06441493332386017 0.04838244616985321 -0.1076352670788765 -0.07707793265581131 0.21086545288562775 0.050685372203588486 -0.06666853278875351 0.09906642138957977 -0.009074314497411251 -0.15781863033771515 0.09942843019962311 0.17046445608139038 -0.047661084681749344 0.11473138630390167
