19 100
. -0.0065767 0.0044126 -0.0057959 -0.0038564 -0.0010005 0.0030597 0.0014148 -0.0022882 0.0086694 0.0065827 -0.0030316 0.0056518 0.0065509 0.0078967 -0.0023943 -0.00010579 0.0026683 -0.0010264 0.0045079 -0.0082562 -0.0041945 0.0062589 0.0050902 0.00038708 0.00047506 0.0012077 0.00024215 0.00065615 -0.0020962 0.0072009 0.00055631 -0.0030016 -0.00025523 0.00036363 -0.0028712 0.0019534 0.0028237 -5.6038e-06 -0.0026362 -0.00287 0.0031207 0.00063832 -0.0027041 0.0052845 -0.0050962 -0.0014002 0.0015183 0.0018463 -0.0061883 0.00045319 -0.0075138 0.00053889 -0.0089329 0.0042157 -0.0030944 -0.0012026 0.0054025 -0.0026993 -0.00035385 0.0006403 -0.0020496 -0.00037189 0.00026343 0.0042402 0.0028174 -0.0018071 -0.0062251 0.0044291 0.0021746 0.0074981 -0.0038292 -0.0036137 0.00066426 -0.0013479 -0.0004861 -0.0029332 0.0092977 0.0073018 -0.00067765 0.0013427 -0.00022879 0.00076611 0.00055341 -0.0043396 -0.0018751 -0.0035517 -0.0042303 0.00033975 -0.0049889 -0.0017893 0.0093473 0.0024886 0.0064654 -0.0041025 -0.001148 -0.0013571 0.0031325 0.0023865 -0.0042324 0.00241 
</s> 0.0023809 0.0050911 0.0083198 -0.0092702 0.0066115 0.0080729 -0.0064802 0.0013357 -0.0034364 -0.0021086 -0.00070896 -0.0063346 -0.00485 0.002211 -0.0060699 -0.0071741 0.0033869 0.0060367 -0.0068821 -0.00057144 -0.0048854 0.0098796 0.0039752 0.006947 -0.0086124 -0.0061643 -0.0098371 -0.0012069 -0.0022077 -0.0072869 -0.0050154 -0.00077216 0.0039678 -0.0058629 -0.0063548 -0.0021121 -0.0071508 0.004313 -0.00053761 -0.0027656 -0.0099938 0.0094422 -0.0051481 0.0030856 0.008804 0.0019251 0.0080772 -0.0033694 -0.0039191 0.003508 -0.0010043 -0.0018194 0.0023661 0.0048901 -0.0090531 0.0035207 -0.009636 0.0006935 0.0087635 -0.0024391 -0.00015379 0.003515 0.0056838 0.0078736 0.0045424 -0.0035697 -0.0070953 -0.0052563 -0.0057615 -0.0056899 0.0015635 0.0050563 0.0058047 -0.0073312 -0.0023909 -0.002529 -0.0039096 0.002896 0.0064536 0.0056558 0.00048762 -0.0058168 0.0026805 0.0027913 0.0047789 0.0036071 -0.0020119 -0.0098583 -0.004743 0.007278 0.002884 0.0024876 0.0025207 0.0017913 0.0093301 0.0023093 -0.0006344 0.0024203 -0.0068241 -0.0071501 
Football 0.001427 0.00081327 0.00012103 -0.00012846 0.00021342 0.0027102 -0.0015692 -6.3587e-05 -0.00016692 0.00033982 -0.00014878 -0.00018458 -0.00030156 -0.0020901 0.00053311 -0.00095633 -0.0010109 -0.00062192 -6.1754e-05 0.0016613 -0.0006452 -0.0026675 0.000226 -0.00067597 -0.00063841 -0.0026248 0.00077026 -0.00081658 0.00013864 -0.00033534 0.00037903 -0.0013165 -0.00103 0.001778 -0.00058368 -0.00061291 0.00062998 0.00070229 0.00061169 -0.0011882 -0.0014331 2.5129e-05 -0.002404 0.00081014 -0.00016428 -0.00092926 0.0007987 0.00057884 0.00075126 -0.0007155 0.00037278 -0.0014894 -0.00015682 0.00064202 -0.00012721 -0.00050366 -0.001251 0.00063131 -0.0011954 0.00013897 0.0016022 -0.00029959 0.00089712 -0.00055721 -0.000227 0.00078403 -0.0017223 0.00079351 -0.00026956 -0.00050578 0.0024613 0.0034999 0.0020558 0.00090855 -0.0021817 -0.00050744 0.00074221 0.001276 0.0011137 -0.00072102 0.00071619 -0.001057 0.00048724 0.0008655 -0.0023168 0.00035986 0.00056095 0.00049582 -0.0011915 0.0026829 2.3634e-05 -0.00040867 0.0018545 -0.0021344 0.00084868 0.00051897 -0.00047957 0.00041777 -0.0012154 0.0022404 
take -0.0015175 0.0014525 -0.00078421 -0.0011008 -0.00048944 0.0019022 0.00033981 0.0034675 0.00071869 0.0013168 -0.00066421 0.0029565 -0.0027252 -0.0015914 0.0027103 8.7895e-05 -0.0021634 -0.0044047 0.00098485 0.00088767 0.0028579 0.0014631 0.0011796 0.0025387 -0.0010308 0.00096872 0.0028624 0.0025738 0.00074291 -0.00067104 0.00040772 0.00087661 -0.0013642 0.0022649 -0.0013187 0.0004824 -0.0011982 0.001339 0.0012964 -0.0016634 0.0011448 0.0019555 -0.0019969 0.0005448 0.0021071 -0.0021932 0.00096261 0.00041124 0.002001 0.0024479 -0.0038725 -0.00019691 -0.0021502 -0.0018505 -0.0014826 -0.0018008 -0.0034904 0.00065197 -0.0013515 0.00048399 0.0015345 0.00043881 0.002618 -0.001825 0.00057572 0.00015126 0.00036869 0.0017338 -0.0011253 -0.0022545 0.0026262 -0.0025347 -0.0010372 0.0013672 -0.0020853 0.0029329 0.00086537 0.0020677 -0.00080085 -0.0040501 0.0007724 0.0014827 0.0026488 -0.0012923 0.0011064 5.0901e-05 0.0044982 0.0041377 -0.0042136 0.00031626 -0.001521 -0.0013856 0.0024458 -9.9907e-05 -0.0042025 0.0017776 0.00019877 0.0013697 0.0010601 0.0018883 
US -0.0010954 -0.0018541 0.00057818 0.00073375 0.00043656 0.0018889 0.0003829 -0.0055312 0.0019435 0.0012124 0.0015032 0.0012018 -0.00090306 -0.003127 0.0010427 -0.00070652 0.00057915 -0.00039817 -0.00071909 0.0023543 0.00077895 -0.0019229 -0.00092389 0.0004389 -0.0010609 -0.0011081 -0.00013076 -0.0030982 0.001375 0.0005138 -0.0022278 -0.0031706 0.0013792 0.0028586 -0.003461 -0.0012571 -0.0024974 0.0017231 0.0026786 0.0026136 -0.0012244 -0.0011544 0.0019613 0.0013381 -0.0020868 -0.0011802 -0.002775 0.0014861 0.0011648 0.0039848 -0.0030438 -0.0018774 -0.0022714 0.0052992 0.0038961 0.0043882 -0.0013758 0.0025032 -0.0018007 0.0019709 0.0040942 -0.0037844 0.0038726 -0.00067383 0.0059869 0.0016326 0.0017755 0.00037115 -0.001971 -0.0013245 -0.0017162 -4.8981e-05 0.0016329 0.0058275 -0.0014123 -7.2436e-05 -0.0014356 -0.0018566 0.0044304 0.0037333 -0.0025811 0.0027918 0.0025758 0.00057711 -0.00047243 0.0037807 0.0042229 0.00023579 -0.0020268 -0.00076651 0.0050482 0.0014653 0.0049524 0.00099402 0.0019466 -0.0021855 -0.0015022 -0.0042697 -0.0030986 0.0015629 
in 0.0027416 0.0027121 0.0022538 -0.0015099 0.0030888 0.0037686 -0.0039624 -0.00036695 -1.7181e-06 0.0028136 0.0011359 0.0054327 -0.0040122 0.0013592 0.0029762 0.0033365 0.0010317 -0.0021292 0.003069 0.00022779 -0.0057114 -0.0033269 0.0024584 0.0023306 0.0039441 0.00062638 -0.0012293 -0.00030982 -0.0015666 0.00031916 -0.0019001 0.0047334 0.0012125 5.9321e-05 0.0041019 0.00024191 -0.00059755 -0.00083454 -0.0023934 0.0012348 -0.0046842 0.0021236 -0.0028483 -0.00056478 0.0034712 -0.0055838 -0.0030007 -0.00071668 -0.0010804 0.0019183 0.0026678 0.0020557 -0.0020943 -0.00039665 -0.0048989 0.0012117 -0.0023884 0.00033295 -0.0037651 0.0029427 0.00092507 -0.0034213 0.0033808 -8.4978e-05 -0.0042299 0.00035549 0.0020029 -0.00063652 -0.0001341 0.0035534 -0.0023413 -0.0035982 0.0036907 -0.0023209 0.0019389 -0.00030754 0.00098142 -0.0019937 -0.0025792 -0.0017169 0.00027217 -0.001729 0.00091119 0.0035469 -0.00059126 -0.001477 0.003844 0.0037534 -0.0020311 -0.0023358 0.0026189 -0.0036579 0.00062632 0.0024694 0.0020222 0.0056654 -0.0010281 0.00057032 5.0824e-05 -0.0031842 
popular -0.0002303 0.0038719 0.00092981 0.00096067 -0.001226 0.00040037 -0.00073026 -0.00050915 0.0014059 7.3959e-05 0.00013034 0.0040731 -0.00058012 0.00043439 -0.001191 0.0022288 0.0024626 -0.00051525 0.0010428 0.00011894 0.00014998 0.00018096 -0.00084997 -1.8293e-05 -0.00071586 0.00049277 -0.00096162 0.0012311 -0.0015144 0.0013729 -0.00047637 4.8832e-05 0.0015399 0.0019116 0.00042529 -0.0010069 0.00038347 -0.00080722 -0.0020713 0.0040392 -0.0015446 0.0008437 -0.00099809 -0.00094582 0.0014156 -0.00082141 0.0028763 -0.001601 -0.0011775 -0.0022765 0.002378 1.1811e-05 4.3033e-05 0.00025339 -0.0020363 -0.0021417 -0.00066303 0.00015098 0.00097837 0.001241 0.0019823 0.0027909 -0.0025652 0.0016785 -0.00055468 0.0010462 0.00032914 0.001908 0.0017177 0.00081482 0.00013478 -0.0001996 -0.00010865 -0.00055603 -0.00037658 -0.00065499 -0.0005531 -0.001374 8.5981e-05 0.00077655 0.00013474 -0.0026055 -0.00095256 -0.00026088 -0.000773 0.0018724 0.0022378 0.0010984 -0.0031669 0.001747 0.0007406 -0.00096928 0.00071009 -0.00067648 0.0018235 0.00051883 -0.00085113 -0.00071799 0.0013355 -0.00050683 
very 0.0032938 -0.0018256 -0.0013831 -0.0016624 0.0015411 0.00078173 -0.001231 0.0034042 -0.0026593 -0.0033597 0.0039058 0.0012673 -0.00025778 0.00062501 0.0016322 0.00050043 0.00060161 -0.00071253 0.002488 0.0021032 0.00082624 -0.0022495 -8.1519e-05 0.0012764 -0.001596 0.0014901 -0.0009621 -0.00059052 0.0026842 0.0015806 0.00027161 0.00036874 -6.6083e-05 0.0018353 -0.0012689 -0.00031537 0.0013605 -0.0031517 -0.0017736 0.0024667 0.0015626 -0.0017999 -0.0015278 -0.0022735 0.0010274 0.0012842 0.0022333 -0.00063866 0.00080216 0.0031748 -0.0034765 -0.0022836 -0.001208 0.0027731 0.0002318 -0.0034399 -0.00045197 0.0010167 0.00066022 -0.0017311 0.0029867 -0.00038235 0.0021899 -0.0033538 -0.0033501 0.00041382 0.00044239 0.0016665 0.0020761 -1.9828e-05 -0.0041357 -0.0027282 -0.0016178 -0.0014376 -0.002914 -0.0022889 -0.0010644 0.002075 -0.0025772 -0.00013601 0.00024993 -0.0018847 -0.0005197 2.784e-05 0.00058268 0.00057481 0.0016806 0.00071274 -0.0018012 -0.002862 0.00020051 -0.00071835 0.0010059 -0.0058121 0.0013295 -0.0015438 -0.00080081 -0.00022087 -0.00072687 0.00064731 
is -0.00040824 -0.0033435 0.00083171 -0.0033265 -0.0014123 -0.0040938 -0.0021971 0.0029634 -0.00055129 -0.00079822 0.0016471 -0.001487 -0.0034834 0.0063665 -0.0031113 -0.0058734 0.0051331 -0.0021164 0.0060729 0.0017611 0.00049168 -0.0024512 -0.0028453 0.00045788 0.00042027 0.0016451 0.0023773 -0.0041533 0.0017978 -0.0010689 0.0052332 -0.0031027 -0.000961 -0.00051331 -0.0030935 -0.0026713 0.0038575 0.0043766 -0.0048738 -3.1407e-05 -0.00094676 -0.0048913 -0.00012432 -0.00086495 0.00056113 -0.00028677 0.00086257 0.0017261 -0.00017039 0.0013149 -0.0055279 0.0035614 -0.0036228 0.0064016 -0.0029981 -0.0010517 0.0014519 -0.00026205 -0.0035857 -0.00061545 0.001117 0.0021448 0.00018564 0.0033744 0.00037734 -0.0056432 0.0067589 -0.0033328 0.0020128 -0.0036411 -0.0038845 -0.0018353 0.004874 0.00072939 -0.0041321 -0.00073779 -0.0016408 -0.00021601 -0.0019455 -0.00016087 0.0041515 -0.00033115 -0.0011202 -0.002184 0.0032109 0.0040554 0.0024855 -0.0012587 -0.0015032 0.0021177 0.00011092 0.002727 0.0023041 0.0041691 -0.002175 -0.0022567 1.3988e-05 0.0049263 0.0026741 -0.0016042 
hours -0.0016961 0.0023925 -0.00027802 -0.00057925 0.00066744 0.0014043 -0.00099145 0.0029533 -0.00076843 -0.0014175 -0.00017824 -0.00036917 -0.0013037 0.00019693 -0.0049494 0.0015229 0.0018507 -0.0025931 0.00034928 0.00052255 0.0012649 -0.00028887 0.0014949 0.0013342 0.00032335 0.00022611 -0.00069885 0.00034177 -0.001218 -0.0017078 0.000156 -0.0019392 -0.0003475 -0.00069581 -0.0013661 -0.00042934 0.0017119 0.0027229 -0.001458 -0.00020209 8.1008e-05 0.00069285 -0.0011539 0.0013287 0.0017128 0.00060373 -4.2021e-06 0.0026233 -0.001705 -0.0023044 0.0013066 -7.4527e-05 -0.00040704 -0.00036637 -2.6759e-05 -0.0017875 -0.0013635 0.00058299 -0.00051136 0.0039662 0.0016131 0.0016353 0.00020052 -0.0014239 0.00085005 -0.0013156 -0.0012678 0.0021635 -0.00027039 -0.0012445 -0.00027421 -0.0021681 0.00039057 0.0020291 -0.0038722 0.001712 -0.0014261 -0.0011151 -0.00023775 0.00010749 0.00095581 -0.00054154 0.0022623 -0.0041806 -0.00063848 0.0028225 -0.00073961 -0.00082055 -0.0025524 0.0015045 -6.5204e-05 0.00060233 0.0032816 -0.0014127 -0.0012071 -0.0012526 0.0019585 0.0019503 0.0026688 -6.8244e-05 
3 0.0010595 0.0013895 -0.0059497 0.00046907 0.0020512 0.0026618 -0.00089615 -0.0030427 0.0016784 -0.00085245 0.0057501 0.0053019 0.0049789 0.0016931 0.003241 0.0012372 0.0038605 -0.0081545 0.0026228 0.0027957 0.0062217 0.0025135 0.0047251 -0.0034233 -0.0042608 0.0010806 0.00054621 0.0024881 -0.00068608 0.0022594 0.0022298 -0.0079918 -0.0015904 -0.0014253 0.0027834 -0.0051666 -0.0034248 5.0724e-06 0.0016659 0.00031228 -0.0044907 0.0035318 -0.0083465 0.0026579 0.0047885 0.0039001 -0.0036265 0.00024801 -0.0024193 0.0028895 -0.0067644 -0.0025544 0.0033201 0.00022383 -0.0027744 -0.00027631 8.6294e-05 0.0031416 -0.0015709 -0.003007 0.0047042 0.0042461 0.0027088 0.0067647 0.0020203 0.0086687 0.0053483 0.0040361 -0.0063313 0.0042757 0.0087698 0.004565 0.0049825 -0.0081562 -0.0044527 0.0031935 -0.00045391 0.004333 0.0017948 -0.007426 0.0010478 0.0032178 0.0011956 -0.0034167 0.0046355 -0.00029627 0.00030992 0.0051559 -0.0075991 0.0030549 -0.0052632 0.006443 0.0019352 -0.0045836 -0.0080594 -0.0037492 0.0075741 -0.0023122 -0.00036479 3.7727e-06 
than 0.0038488 0.0008077 -0.0011567 0.0042262 0.0011163 0.00029341 -0.0024006 -0.0033306 -0.00062071 -0.002178 -0.0006268 0.00097711 -0.00047629 0.0022641 -0.00099252 4.6516e-05 0.0028782 0.00012082 -0.00079192 0.0017097 -0.00081057 -0.0025516 -0.0011519 -0.0022568 -0.0030125 -0.00086633 -0.00041052 -0.001753 -0.0019676 -0.0018613 0.0037505 0.00060086 0.00042075 0.0011944 -0.00097502 -0.0014561 -0.0021303 -0.0024423 -0.0029301 0.0011254 0.0013641 0.0019239 0.0001653 0.00013 -0.00020132 0.0015948 0.00011453 0.00092519 0.0011658 -0.0027264 1.6704e-05 -0.0012609 0.0015876 0.0030086 0.0012718 -0.0003447 -0.0011382 -0.0020749 -0.00063538 0.00012302 0.0022372 -0.00025468 0.0017085 0.0016073 -0.0020878 -0.0025952 0.00095742 0.00056516 0.00086666 -0.00062898 -0.0016118 -0.00048922 0.0029659 0.0025631 -7.9602e-05 0.0015188 -0.0030823 -0.0017579 0.0014697 0.0025942 0.0037018 -0.0010264 -0.00010098 -0.00081559 -0.00060772 0.002439 -0.0006165 0.0020479 -0.0042383 -0.00071067 -0.00027426 0.0013614 0.00055925 -0.00040326 0.0014782 -0.0018643 0.00073802 -0.00017195 -0.00052977 -0.00080732 
more -0.00016498 -0.0016221 -0.00057637 -0.0018668 -0.00044885 0.0022405 -0.0028086 -0.00014058 0.00028093 0.00058561 -0.00035155 0.0034706 0.00020192 0.0033009 -0.0023145 0.00011378 0.0023674 -0.003507 0.00022328 -0.00043013 -0.00062717 -0.0017505 0.002002 0.00048814 0.00033833 -0.0021304 -0.0018015 -0.0017158 0.00058437 0.00074248 0.00010053 -0.0024075 0.0030027 0.00326 -0.0027745 0.00035582 0.0014041 0.00011154 -0.00080179 -0.00046113 -0.00097473 -0.0011522 0.0017542 -0.0019066 0.0016973 -0.0018629 -0.0018506 -8.9899e-05 -0.0012263 0.0043497 0.0022825 -0.0061677 -0.0015433 0.0017599 -0.0020429 0.0019559 -0.0030997 0.0017428 -0.0027351 0.0007598 0.0040436 -0.000225 5.9925e-05 -0.00094699 0.0002344 3.3534e-05 -0.00034004 0.002608 0.00072838 -0.0027653 0.002443 0.0026145 0.0019027 0.0022697 -0.00030339 0.0020896 0.0017487 0.00013378 0.00060691 0.0016891 0.0012411 -0.00026271 0.0003103 -0.0016358 0.00057638 0.0023126 -0.00054646 -0.0017904 -0.00064058 -0.00081783 0.00078169 0.00060471 0.0036143 -0.0025211 -0.00037839 0.00020405 -0.0024261 -0.0023921 -0.0016851 -0.0021059 
I -0.00050704 -0.0027297 0.0047817 6.8533e-05 0.00118 0.0055757 -0.00061431 -0.0040745 0.0045951 0.0054268 0.0054947 0.0067525 -0.0082218 0.00071836 0.0023122 0.00049611 0.0022695 0.0060375 -0.0073233 -0.0043862 0.0029065 -0.0043605 -0.0014116 -0.0032348 0.0030652 0.0043065 0.0073411 0.0073739 0.0019367 0.0057445 0.0047573 0.0051047 -0.0040835 0.0020662 0.005545 0.0043199 0.00043075 -0.0014512 -0.0012224 -0.0064241 0.0025173 0.0044981 -0.0040022 0.0014866 0.0068478 -0.0030302 -0.0032602 0.0026225 0.0022634 -0.0018369 -0.0036228 0.0062825 -0.0057002 0.0004536 -0.0030063 0.00087551 0.0013446 -0.0005421 -9.1159e-05 0.0011616 -0.009273 0.00016696 0.0037042 0.0063025 0.0025023 -0.0057825 -0.0032932 0.0031577 0.0064104 -0.0055527 -0.004426 0.0001021 0.00033909 -0.0016252 -0.0051887 -0.0083229 -0.0003482 -0.0020375 -0.0031099 0.0017602 0.004357 0.0049601 -0.0053859 -0.0003875 0.0029642 0.00059086 0.0079059 -0.0011165 -0.0053396 0.0041769 -0.0078797 0.0038712 0.00089232 0.00060631 -0.003527 -0.0041175 -0.0021538 -0.0017819 0.0093538 0.00014728 
usually -0.00043713 0.00025676 -0.00059347 -0.00087774 4.1381e-05 -0.0013179 -0.003041 0.002643 0.00026031 -0.00085034 -0.0014393 0.001151 -0.00051447 7.5455e-05 -0.0031137 -0.00074903 0.00034782 -0.00054182 -0.0015813 -0.00098732 -0.0031247 -0.00073144 0.0027938 -0.00016644 -0.0022142 -0.0011643 -0.0013846 2.8217e-05 0.00056107 0.0012305 0.00010856 0.0014564 -0.0028468 0.0018824 -0.00064288 -5.5644e-06 0.00094683 0.00090321 -0.003768 -0.0015851 -0.0028089 -0.0030653 -0.00088439 -0.00065557 0.0024058 0.00051802 0.00097426 0.0012632 0.00093132 -0.00076309 -0.001607 -0.0013737 -0.0012302 0.0012005 0.00069297 -7.7147e-05 -0.0015912 0.0024153 1.3035e-05 -0.00050425 0.0018739 -0.00054132 0.00071412 -0.00021461 0.0035381 -0.00067513 -0.0010267 0.00098233 -0.0014715 -0.00059505 0.0016792 -0.00060701 -0.00082253 0.0021796 -0.0023838 0.001579 0.00072514 -0.00091322 -0.0018979 -0.0020424 -0.0013435 0.001191 0.0013265 0.00044122 -0.0011896 -0.00022998 0.00077449 0.0012405 -0.002528 0.00019219 0.0020783 -0.0020413 0.0013071 0.00076125 -0.0018216 -0.00039244 -0.0016437 0.0020831 -0.0011972 0.00012003 
games 0.00013037 -0.0021383 -4.3298e-05 -0.002124 0.0020857 0.00057139 -0.0020544 -0.0017179 -0.0010204 -0.0014071 0.0016573 0.0020237 0.0019151 0.0032962 -0.0019367 -0.0018948 -9.6004e-05 -0.0035077 -0.0025304 -0.0040379 0.00019433 -0.00039103 0.0013604 0.002387 -0.0020504 -0.00039386 -0.0053574 -0.00081255 1.6931e-05 0.003197 0.00065878 -0.0023312 -6.5418e-05 0.0026736 -0.0026799 -0.00068705 -0.0022662 0.00011882 -0.0014345 0.00065201 0.0021136 3.4085e-05 -0.0014313 0.002201 0.0021713 -0.002974 0.0013241 0.00042119 0.00086098 -0.00026954 -0.0024659 -0.0015613 -0.0028782 0.002067 -0.0011838 0.0028013 0.0024098 -0.00061969 0.0012463 -0.00080116 0.0016396 -0.00056155 -0.00021895 0.0024639 0.001181 0.00043998 0.0028496 0.0002317 -0.0024358 0.0017282 -0.0016068 -0.00057815 -0.0014266 -0.00050905 -0.00082925 0.0016475 -0.00056691 0.00022089 -8.3813e-06 0.0016845 0.003107 -0.00071326 0.0018134 -0.00044286 -0.0022933 -0.00050045 -0.00017315 0.0002163 -0.0014225 -0.0016471 0.0002327 0.00036176 0.0008187 -0.0031471 0.00042587 0.00064632 -0.0021479 0.001238 0.0037092 0.0019386 
soccer 0.0016922 0.0010702 0.0015758 0.0011174 -6.0554e-05 0.0011464 -0.0032828 0.00016865 0.00097516 -0.0011933 0.00090878 0.0028949 0.0012216 0.0023182 -0.003835 0.00098183 0.0012346 -4.1366e-05 -0.0016598 0.0001073 -9.1065e-05 4.557e-05 -0.00046639 -0.00082563 -0.0012458 0.0016729 -0.00081258 -0.00014213 7.1465e-05 0.0015103 -0.0014367 -0.0017744 -0.000113 -0.00067462 0.00011929 -0.00096077 -5.3444e-05 -0.0019582 -0.0013716 -0.00066575 -0.00095136 0.00033013 0.00012902 -0.0023451 0.0025191 -0.00026263 0.0014404 0.0011885 0.0015182 -0.0018386 0.0015346 -0.0005356 0.00051751 0.00098626 0.00079985 -0.00048451 -0.0021001 0.0014772 0.00017834 0.00025745 0.0020928 0.00085336 0.0003599 0.00036448 -0.0027723 -0.0012324 0.0020845 -0.00017834 0.0017427 -0.001246 0.00052403 0.0013794 -0.0022356 0.00030836 0.0015739 -0.0010046 0.0016579 -0.0004488 -0.0015392 -0.00080665 0.00094828 -9.8081e-06 0.00058996 0.001314 -0.00029619 0.0018926 -0.00088803 0.00096711 0.00014247 -0.00083045 0.00037894 7.0501e-05 0.0015505 -0.0019525 0.001539 -0.0005219 0.00025659 0.0022221 0.0024628 -6.036e-05 
playing 0.002786 -0.00024026 0.0015493 0.0021071 0.0014111 -0.0012533 -0.00079755 0.00046784 0.00057372 -0.0011708 -0.00085465 0.0013396 -0.00049554 -0.0011453 -0.0019958 0.002367 -0.0013484 0.0022094 0.00047146 -0.0018771 -6.0185e-05 -0.00087439 -0.00044286 0.00044243 -0.001744 -0.0014625 0.0026703 0.0013244 0.0014659 0.0015667 -1.2833e-05 -0.0015887 0.0013099 0.0016871 -9.5709e-05 0.00043224 -0.00088972 -0.001843 -0.0016008 -0.0010886 0.00049684 0.0028705 -0.0005452 0.00046763 -0.0004043 -0.001725 0.0027145 -9.5662e-05 0.0025932 -0.0013769 -0.00090078 -0.00098401 0.0008564 0.0015092 0.0016861 -0.0013879 0.00016351 0.00033455 0.0013443 -0.00011312 0.0013041 0.00084273 -0.0001229 0.00087291 -6.785e-05 0.00022928 0.00069326 0.0017434 0.00029668 0.00070311 -0.0006038 0.002021 0.00033568 -0.00077243 -0.00094297 -0.00073204 0.00034921 9.529e-05 0.0030508 -0.00095691 0.0015263 -0.0011348 -0.00018066 0.0011981 -2.8529e-05 8.5073e-05 0.0011776 0.0021326 0.0001398 0.00035049 0.00029305 -0.001567 -0.00023685 0.00087331 0.0016647 -0.00064096 -0.0014312 -0.001096 -0.00036329 -0.00020415 
enjoy 0.00050405 0.001005 0.00028883 -0.00064133 -0.00017893 -0.0023157 -0.0022159 0.0027442 -0.00015345 0.00046274 -0.00014384 0.00037832 0.00025234 0.0018913 -0.0024742 -0.00049766 0.003922 -0.0017817 -0.00060106 -0.0024409 -0.00079862 -0.0010007 -0.0016402 0.00078971 0.00091316 -0.0013367 -0.001403 -0.00077553 -0.00042878 0.00069128 -0.0011825 -0.0036015 0.0043533 -7.0739e-05 -0.00096463 -0.0031849 0.0002336 -0.00029104 -0.0022991 -0.0023938 -0.001035 -0.0010726 0.0018285 -0.0013179 -0.00016632 -1.4666e-05 0.0005445 0.00029999 -0.0014367 -0.0023455 0.0011174 -0.00086884 -0.00183 0.0013242 -0.00088805 -0.00068883 -0.0036395 0.0021791 -0.00017201 0.0023651 0.0026888 0.0023956 0.0014693 0.0011804 0.00058715 -0.00070992 0.00075189 -0.00085991 -0.00066 -0.0027241 -0.00083653 0.0013173 0.0010832 0.001454 -0.00031699 -0.0002387 0.0001956 0.0020278 -0.0012741 -0.0013026 -0.00015212 0.0014194 0.00125 0.0013362 0.00036929 4.3198e-05 0.0011261 0.0017244 5.5646e-05 0.0021705 0.0014707 0.0013037 0.0055537 -0.0011097 -0.0013662 0.00141 0.0011812 -0.00066227 0.00078603 -0.00098119 
