second 0.01640179380774498 0.2023654282093048 0.28765347599983215 -0.21507297456264496 -0.1068798378109932 0.06985726952552795 -0.08138758689165115 0.2037334442138672 0.022222395986318588 0.09141937643289566 0.015510128811001778 0.2916640639305115 0.169983372092247 0.0579969547688961 -0.09951295703649521 0.18115359544754028 -0.15994450449943542 0.0430489256978035 -0.18296033143997192 0.08153888583183289 -0.2019040584564209 -0.38151243329048157 0.06890801340341568 -0.21151399612426758 0.09330286085605621 -0.08558745682239532 0.054173849523067474 0.27855515480041504 0.2247932106256485 0.06125812605023384 0.01123203244060278 0.0687020868062973 0.15808403491973877 0.1343490183353424 -0.07497388124465942 0.05108160898089409 0.060905106365680695 -0.10710158944129944 0.31431928277015686 0.029868457466363907 -0.03174198046326637 -0.19285596907138824 -0.010199508629739285 0.028517916798591614 0.005187646485865116 -0.06634381413459778 0.07784330099821091 -0.16977272927761078 0.07873903214931488 -0.08373864740133286 0.014088067226111889 -0.11900158226490021 -0.08417785912752151 0.0065072523429989815 -0.09191887080669403 -0.3073037266731262 -0.048696085810661316 -0.09109589457511902 -0.3269015848636627 -0.3294908404350281 -0.32716479897499084 0.0688038095831871 -0.010825815610587597 -0.138617143034935 0.23896507918834686 0.14533531665802002 0.11213930696249008 0.11152022331953049 0.18874911963939667 0.0651276484131813 0.012660384178161621 0.04854996129870415 0.10583502054214478 0.19166214764118195 0.09634149819612503 0.2962823510169983 0.36949846148490906 -0.1481379121541977 -0.11705861985683441 -0.15018990635871887 0.1820198893547058 0.031950969249010086 0.4580959975719452 0.05500481650233269 0.06277722120285034 -0.026439119130373 -0.03718820586800575 0.043176814913749695 -0.08334188908338547 0.1171475425362587 -0.18681056797504425 0.03166639059782028 -0.09349394589662552 0.07512056082487106 0.032412368804216385 0.11323926597833633 0.11780431121587753 -0.3320253789424896 -0.020537998527288437 -0.15169472992420197
as 0.03082989528775215 -0.28999975323677063 0.12790127098560333 0.17112600803375244 0.0431005023419857 0.2529471814632416 -0.37032753229141235 -0.07769365608692169 0.21761342883110046 -0.07096684724092484 0.14220060408115387 -0.23469115793704987 0.2260185033082962 -0.009574652649462223 -0.20876798033714294 -0.12193148583173752 0.004984405357390642 -0.14727047085762024 -0.24535375833511353 -0.08680987358093262 0.07655777782201767 -0.0475139319896698 0.1419096291065216 -0.234222412109375 -0.0910932868719101 0.11129777133464813 0.6296035647392273 -0.16930639743804932 -0.43558627367019653 0.006043030880391598 0.12867724895477295 0.14431041479110718 -0.14902029931545258 0.2692813575267792 0.48385104537010193 -0.08351651579141617 0.36421310901641846 -0.19417066872119904 -0.0990578681230545 -0.28859564661979675 0.3601393699645996 0.1257009655237198 0.2659013271331787 -0.055740468204021454 0.18673714995384216 0.1357988715171814 0.23220773041248322 0.13385137915611267 -0.1073383167386055 -0.044759601354599 0.014296145178377628 0.17158913612365723 -0.05749962106347084 -0.1824214905500412 0.27738216519355774 0.1110108494758606 0.17198026180267334 0.19886913895606995 -0.3484675884246826 -0.287933886051178 0.2817806601524353 0.07837256044149399 -0.11242929846048355 0.08038364350795746 0.1547612100839615 -0.027904413640499115 0.22213223576545715 0.10074528306722641 -0.004380364436656237 0.04456255957484245 0.04221586883068085 -0.10978521406650543 0.15306802093982697 -0.3389546573162079 0.1949189156293869 -0.48504018783569336 0.08497928082942963 0.2742600739002228 -0.5558139681816101 0.17548881471157074 -0.05088720843195915 0.36298054456710815 -0.15792082250118256 -0.10624748468399048 -0.05916760489344597 -0.2665262818336487 -0.3600277900695801 -0.1359950602054596 0.1125992015004158 0.1657097041606903 0.2722596228122711 -0.052448999136686325 -0.10532809793949127 0.33100199699401855 -0.10394585877656937 -0.35090556740760803 0.2961611747741699 0.1508675068616867 0.12347119301557541 0.11120898276567459
back -0.27126064896583557 0.4127074182033539 -0.19583238661289215 -0.3090011179447174 -0.029606759548187256 0.28179529309272766 0.3113692104816437 -0.008340217173099518 0.21021461486816406 0.04603001847863197 -0.3265233039855957 -0.06325667351484299 0.28502893447875977 0.10009942948818207 1.6640084504615515E-4 0.2493913471698761 0.13887600600719452 -0.3691045343875885 0.10658756643533707 0.34395143389701843 0.07897845655679703 -0.09609412401914597 -0.034751325845718384 0.2695026993751526 0.02852880209684372 -0.09225163608789444 0.17659617960453033 7.977751665748656E-4 -0.20382238924503326 0.41287946701049805 -0.11497887969017029 -0.10706590861082077 -0.2740040719509125 0.08999698609113693 -0.12579569220542908 -0.10819445550441742 0.2449020892381668 0.09679733216762543 0.022379077970981598 0.18193520605564117 -0.03144228458404541 -0.0289620254188776 0.05203877389431 0.0028237297665327787 0.34466227889060974 -0.16887503862380981 0.012061879970133305 0.006923988927155733 -0.2740522027015686 -0.4708942472934723 -0.18101461231708527 0.20890958607196808 0.20782198011875153 -0.09590468555688858 0.11722823977470398 -0.10367770493030548 -0.19464999437332153 0.29077428579330444 0.4699687063694 0.18194743990898132 -0.14577746391296387 -0.12576046586036682 -0.017349563539028168 0.026125526055693626 0.3207150995731354 0.09718126058578491 -0.10983686149120331 -0.4471132457256317 -0.1395857185125351 -0.020900456234812737 -0.07215649634599686 0.3599667549133301 0.02152050845324993 -0.24131472408771515 -0.008249792270362377 0.15334033966064453 -0.20694467425346375 -0.17203420400619507 -0.06331883370876312 -0.3320212662220001 -0.28838369250297546 0.004707197193056345 -0.07218076288700104 -0.009679741226136684 -0.058145053684711456 -0.1345791220664978 -0.4902266561985016 -0.17505256831645966 -0.13631930947303772 -0.08479967713356018 0.11298985034227371 0.2003222405910492 -0.038572803139686584 0.007777283433824778 -0.24969816207885742 0.3906383514404297 -0.15916213393211365 -0.06851432472467422 0.2507135272026062 0.27553069591522217
show -0.2126256674528122 0.2450712025165558 -0.29736414551734924 -0.1876661479473114 -0.08143028616905212 0.0010488929692655802 -0.10736996680498123 -0.0987713411450386 0.011908664368093014 0.05780685320496559 -0.045830994844436646 0.21263031661510468 0.0022799877915531397 -0.14479006826877594 0.19606098532676697 -0.21410687267780304 0.0014602013397961855 -0.023003600537776947 -0.3037647008895874 0.014452259987592697 0.13419145345687866 -0.22268787026405334 0.045780476182699203 -0.17783403396606445 -0.14524292945861816 0.05916012078523636 0.12135215103626251 0.1490311473608017 0.33897095918655396 -0.09017965942621231 0.15495693683624268 0.04779195785522461 0.005724262911826372 0.3020305037498474 0.032390594482421875 -0.2286573350429535 -0.013957726769149303 -0.09447192400693893 -0.154868945479393 0.03906284645199776 0.12418937683105469 -0.25018617510795593 -0.06702699512243271 0.09895794093608856 0.023846842348575592 -0.019145697355270386 0.08679132163524628 -0.016473032534122467 0.022584138438105583 -0.15346334874629974 -0.06410924345254898 -0.13666346669197083 -0.0327986516058445 0.0463254451751709 0.11812064796686172 0.0763416439294815 0.06418243795633316 -0.005461015272885561 0.07476736605167389 -0.08741050958633423 -0.06667912006378174 -0.02292349934577942 0.21824577450752258 -0.07201185822486877 0.2454959601163864 0.026160219684243202 -0.05796873942017555 0.26293501257896423 0.04049384593963623 0.1702433079481125 0.09174452722072601 0.11020173877477646 -0.04997727647423744 0.04031667485833168 0.16476266086101532 0.2937151789665222 0.06964043527841568 -0.13648541271686554 -0.05531494319438934 -0.13958100974559784 0.2162121832370758 -0.08786378800868988 0.15921826660633087 -0.08922632038593292 0.09463338553905487 -0.006408656015992165 0.008661243133246899 0.07131849974393845 -0.1476161628961563 -0.16555844247341156 -0.028646772727370262 0.06562801450490952 -0.012994490563869476 -0.018032588064670563 -0.13678455352783203 0.30208733677864075 -0.12617219984531403 0.08111543953418732 0.1210198923945427 0.16449764370918274
well -0.06701065599918365 -0.07236684858798981 -0.4787304997444153 0.014803284779191017 -0.14800924062728882 0.073020339012146 -0.33266764879226685 -0.2761847674846649 0.07640570402145386 -0.026846827939152718 0.1541009396314621 -0.3576314449310303 0.04439942538738251 -0.01738084852695465 -0.057303041219711304 -0.32527580857276917 -0.037109699100255966 -0.08689510077238083 0.0023500367533415556 -0.18284139037132263 0.4698370099067688 0.22375540435314178 0.09901805967092514 -0.2100515067577362 0.08657239377498627 -0.005762565415352583 0.04653558135032654 0.1029096394777298 -0.2094147503376007 -0.06079695001244545 0.368258535861969 -0.09603521227836609 -0.1060200035572052 0.10198698192834854 0.13825936615467072 -0.03420645371079445 0.07430780678987503 -0.10892631858587265 -0.13296785950660706 0.07370057702064514 0.1181400939822197 0.09465667605400085 0.41019585728645325 -0.27056577801704407 -0.03335799276828766 -0.10914095491170883 -0.19834908843040466 -0.036867812275886536 0.13554510474205017 0.22604696452617645 0.040663108229637146 -0.05983928591012955 -0.07861243188381195 0.13990579545497894 -0.12780821323394775 -0.054049257189035416 0.06809643656015396 -0.07547997683286667 -0.238883838057518 0.05945533141493797 0.1860126107931137 -0.05997028574347496 0.0786643847823143 -0.08263713866472244 0.26374685764312744 -0.5565420389175415 0.18896357715129852 0.05859648808836937 -0.33942073583602905 0.11825809627771378 -0.06824082136154175 0.011050410568714142 0.12112823128700256 -0.1823788434267044 -0.056064702570438385 -0.30005401372909546 0.14273174107074738 -0.01811155118048191 0.11425424367189407 0.1592492312192917 0.2751704752445221 0.20906202495098114 0.1266365647315979 0.2450486421585083 0.04777038097381592 -0.15999102592468262 -0.13558930158615112 -0.3631524443626404 -0.06674785912036896 -0.1875421702861786 0.045569341629743576 0.06486646085977554 0.08096788823604584 0.007167495787143707 -0.2794179320335388 0.18215294182300568 -0.03797869756817818 0.2372569739818573 0.16349317133426666 0.08705438673496246
put 0.07723503559827805 0.03173220530152321 -0.6559951305389404 0.03013351559638977 0.20137159526348114 0.17813529074192047 0.1331402063369751 -0.26705098152160645 -0.1916288584470749 0.1374102681875229 -0.09052712470293045 0.29872626066207886 0.053835105150938034 0.09555691480636597 -0.12381032854318619 0.1639401763677597 -0.2625837028026581 0.09766511619091034 0.034385744482278824 0.03959684446454048 0.4591580331325531 -0.32241448760032654 -0.009938962757587433 -0.07602325826883316 -0.08371828496456146 -0.08959469944238663 -0.03925521671772003 0.28743401169776917 0.4202236533164978 -0.03379548713564873 0.014573574997484684 0.24999314546585083 -0.18388362228870392 0.06902477145195007 -0.17907249927520752 -0.083387590944767 0.32152509689331055 0.017026714980602264 -0.22607101500034332 0.05848224461078644 0.17232750356197357 -0.05727841332554817 0.09650511294603348 0.04894809052348137 0.15324662625789642 -0.07305914908647537 -0.05373610183596611 0.06230924278497696 -0.09128756821155548 -0.06283020973205566 -0.16387735307216644 -0.08557597547769547 -0.16761896014213562 0.0060035791248083115 0.2564895749092102 -0.013180207461118698 -0.15285362303256989 -0.08389054983854294 0.21290314197540283 -0.19909676909446716 -0.23427800834178925 0.02292753756046295 0.031227027997374535 -0.026882626116275787 0.18416056036949158 0.03346877917647362 -0.08092105388641357 0.11299923807382584 -0.03246883302927017 0.030759388580918312 -0.096575066447258 0.19403856992721558 0.1709437519311905 -0.14875748753547668 0.2865869998931885 0.12328223884105682 0.17386692762374878 -0.16671286523342133 0.16885247826576233 -0.1544319987297058 -0.2309589982032776 -0.07413017004728317 0.3282337784767151 -0.08565890043973923 0.20297782123088837 -0.061029866337776184 0.14979444444179535 0.1238240972161293 -0.06937483698129654 -0.18179993331432343 0.012901169247925282 -0.06096530705690384 -0.05921346694231033 -0.2155209183692932 -0.34927329421043396 0.3773662745952606 -0.06567832827568054 0.03920821100473404 0.31505706906318665 -0.1703943908214569
its -4.8592413077130914E-4 0.15900586545467377 -0.019716596230864525 -0.30792081356048584 0.043301988393068314 0.2051454782485962 -0.12446564435958862 0.2956317365169525 0.10068069398403168 0.08478105813264847 -0.034066297113895416 0.0430745929479599 0.1284407079219818 0.13322125375270844 -0.10467856377363205 0.11482038348913193 -0.003285990795120597 -0.014377960935235023 -0.09826123714447021 0.13807278871536255 -0.17749512195587158 -0.3916475474834442 0.17130614817142487 -0.18717411160469055 -0.03633129596710205 0.021183861419558525 0.1826363205909729 0.02341553382575512 0.011046676896512508 0.1364135593175888 -0.04104652255773544 0.04406953603029251 -0.13961473107337952 0.004877686966210604 0.023272939026355743 -0.006760467775166035 0.06685071438550949 -0.08503003418445587 0.10349442064762115 0.006375079043209553 -0.13714838027954102 -0.03649114444851875 0.09640929847955704 -0.2032300978899002 0.15641504526138306 0.04844255745410919 -0.10230322182178497 -0.10072546452283859 -0.023039616644382477 -0.06500741094350815 -0.06824237108230591 -0.10993584990501404 0.10200191289186478 -0.028566692024469376 0.05526873469352722 -0.17815911769866943 -0.10848072171211243 0.10783274471759796 0.010783770121634007 -0.2505386471748352 -0.23854801058769226 -0.03795318305492401 -0.16003282368183136 -0.04707292839884758 0.2589747905731201 0.04089510068297386 0.10980549454689026 0.06280338019132614 2.591467637103051E-4 -0.18109558522701263 0.03569159284234047 0.11114773899316788 0.00956412311643362 0.18858680129051208 0.07288916409015656 0.007849210873246193 0.27989500761032104 0.03160421922802925 -0.02266126498579979 -0.12076747417449951 0.07568665593862534 -0.07623720169067383 0.2907448410987854 0.06148850545287132 0.021070469170808792 -0.16958868503570557 0.132574200630188 0.13820937275886536 0.2463802695274353 -0.058884311467409134 0.13622590899467468 0.05369995906949043 -0.012032433412969112 0.010616563260555267 0.06789903342723846 0.10044428706169128 0.22972482442855835 -0.36947882175445557 0.21074141561985016 -0.09989123791456223
market -0.16088011860847473 -0.010186506435275078 -0.0905749648809433 -0.07755646109580994 0.017780587077140808 -0.08129656314849854 -0.30977335572242737 0.06924055516719818 -0.13642002642154694 0.15160396695137024 -0.051900435239076614 0.24734725058078766 0.2566002905368805 -0.09809248894453049 0.019090624526143074 0.03044896386563778 -0.013857738114893436 -0.021622002124786377 -0.22099998593330383 0.07357224822044373 -0.15184907615184784 -0.2081473022699356 0.3410360515117645 -0.08874070644378662 -0.1792401224374771 -0.1127990260720253 0.05757874250411987 0.04446811228990555 0.08054226636886597 -0.23874619603157043 -0.05907914787530899 0.14059677720069885 -0.07718407362699509 0.17297649383544922 0.10156603157520294 -0.31812554597854614 0.10098743438720703 -0.0012924039037898183 0.1907709389925003 -0.001714765327051282 -0.025861458852887154 -0.171463742852211 -0.06461355835199356 0.008955375291407108 0.027345143258571625 -0.12056457251310349 0.010579455643892288 -0.2128419280052185 0.16970425844192505 -0.2666095495223999 -0.11828338354825974 -0.16346676647663116 -0.0684870257973671 -0.0189238078892231 -0.05592725798487663 -0.14444229006767273 0.0754079520702362 -0.06382613629102707 -0.09334804117679596 -0.24872542917728424 -0.2851572334766388 0.21616436541080475 0.008555361069738865 -0.2598896026611328 0.19094333052635193 0.1735062301158905 0.0895417258143425 0.033457670360803604 0.07321979850530624 0.20021848380565643 0.07360292971134186 0.07974503189325333 -0.025256149470806122 0.1642710119485855 0.13671480119228363 0.18201853334903717 0.033750224858522415 -0.22272050380706787 -0.11270900815725327 -0.014544609002768993 0.33974412083625793 -0.047061726450920105 0.25103530287742615 -0.005373794119805098 0.157494455575943 0.042226001620292664 -0.22966068983078003 -0.07043939083814621 0.25124043226242065 0.03923517465591431 -0.21455247700214386 0.21013757586479187 -0.06396622955799103 0.1846296489238739 0.10276754945516586 0.17757439613342285 0.10865484178066254 -0.08724517375230789 -0.1708512306213379 0.05578197166323662
in 0.001107409130781889 -0.009152436628937721 -0.24003541469573975 0.29672402143478394 0.10659205168485641 0.0754256397485733 0.2322433739900589 0.2628082036972046 0.1719861477613449 -0.18999898433685303 -0.1918470561504364 0.2323959469795227 0.3364422917366028 -0.07359792292118073 -0.09179357439279556 0.2784421741962433 -0.06795141100883484 0.2198571115732193 -0.08260789513587952 0.026620395481586456 -0.14276765286922455 -0.2999953329563141 0.009769197553396225 -0.1553090661764145 -0.23299634456634521 -0.12599432468414307 -0.14839068055152893 0.04220137372612953 -0.12279636412858963 0.15501908957958221 -0.0706905871629715 0.06423307955265045 0.21012604236602783 0.13840949535369873 -0.2760787308216095 0.01733582094311714 -0.21555055677890778 -0.0700698271393776 0.1685643196105957 0.003977928776293993 -0.022633647546172142 0.04807985946536064 -0.13482293486595154 0.0055734096094965935 0.10291135311126709 0.319358229637146 0.02749432809650898 0.06344201415777206 0.24474528431892395 -0.0049261776730418205 0.14575782418251038 -0.10152747482061386 0.17234762012958527 -0.01932869665324688 -0.1982724368572235 -0.2416069656610489 -0.4274083971977234 0.30326932668685913 0.12564294040203094 -0.14501646161079407 -0.10704079270362854 0.06724148243665695 -0.1817014366388321 0.13276198506355286 0.010460962541401386 0.04655619338154793 0.03766832500696182 -0.11893024295568466 0.30805525183677673 0.07351545989513397 0.0824112743139267 0.2358192652463913 0.07124944031238556 0.2611546516418457 -0.11204667389392853 -0.012756234034895897 0.09536390751600266 -0.1219622865319252 -0.15871256589889526 -0.10506132245063782 0.12389744818210602 -0.024513795971870422 0.05708955228328705 0.17078694701194763 -0.1127212643623352 -0.24002213776111603 -0.17056381702423096 -0.14328435063362122 0.2904201149940491 0.2618027925491333 -0.11737110465765 0.1732148975133896 -0.045016996562480927 0.0797792375087738 0.06670280545949936 -0.11494845151901245 0.08671437948942184 -0.35162556171417236 0.23640334606170654 0.17441308498382568
way -0.2984129786491394 0.028624581173062325 -0.311220645904541 0.11798736453056335 -0.10027457028627396 -0.12610410153865814 -0.09638629853725433 -0.32385921478271484 -0.07898741960525513 -0.03675125911831856 0.3187408149242401 0.1124289408326149 0.08318362385034561 -0.2713714838027954 -0.06297151744365692 -0.23641806840896606 0.055592332035303116 0.4146641492843628 0.02371107041835785 7.652757922187448E-4 -0.007087809033691883 -0.47530534863471985 0.2376120537519455 0.11212897300720215 -0.4052504003047943 -0.28739920258522034 0.11485420912504196 0.2735690474510193 -0.06948874890804291 -0.1347532421350479 0.20956696569919586 0.08816704899072647 -0.12532538175582886 0.05037067085504532 0.22033758461475372 -0.5600574016571045 0.30435654520988464 -0.05098031088709831 0.08082472532987595 0.07192635536193848 -0.2807093858718872 0.18228468298912048 0.1527436375617981 0.19372926652431488 0.15422895550727844 -0.4012376070022583 -0.3542453646659851 -0.3143925964832306 -0.3195817470550537 -0.2452375590801239 -0.08120779693126678 0.10806383192539215 -0.21091534197330475 -0.36828598380088806 -0.006530500017106533 -0.10770487040281296 -0.2095184326171875 0.0415278784930706 -0.2988383173942566 0.18007655441761017 -0.37693628668785095 0.30427590012550354 0.1254882961511612 0.05865830183029175 0.16136111319065094 0.12742844223976135 -0.23016104102134705 0.07871782034635544 0.14368796348571777 0.15301907062530518 0.1536242812871933 0.14144736528396606 -0.051245108246803284 0.21473143994808197 0.21712626516819 -0.019991382956504822 -0.10320121049880981 -0.03606564179062843 -0.15646852552890778 0.23251676559448242 0.21170662343502045 0.028836393728852272 0.18561579287052155 0.2538287341594696 0.2432125359773636 -0.2295738160610199 -0.39379820227622986 -0.08801818639039993 0.01585613191127777 0.17131498456001282 -0.032345037907361984 0.04029229283332825 -0.19571830332279205 0.5309445261955261 -0.049239739775657654 -0.009856331162154675 0.05397282913327217 0.11278636753559113 -0.08912874013185501 0.0590679906308651
each 0.03753049671649933 0.2664898633956909 -0.33889418840408325 -0.06432328373193741 0.010889032855629921 0.0048557668924331665 0.46225249767303467 -0.12446079403162003 0.20820793509483337 0.1887618452310562 0.09990197420120239 -0.010566167533397675 -0.22682413458824158 0.10077333450317383 0.007241245824843645 -0.06284842640161514 -0.22657665610313416 -0.10898169130086899 0.09208028018474579 0.38152408599853516 -0.1376972198486328 -0.39983853697776794 -0.06472429633140564 -0.237242192029953 -0.04381575435400009 -0.05484237149357796 0.04403379559516907 0.123055599629879 -0.16638676822185516 -0.3230815529823303 -0.2128833383321762 0.06601525098085403 -0.2832590341567993 -0.25255486369132996 0.4981216788291931 -0.10327079147100449 0.2997249960899353 -0.15227048099040985 0.1751125454902649 -0.169634148478508 0.15962007641792297 0.2474207729101181 0.1714082509279251 0.07457735389471054 -0.0469326376914978 -0.42539188265800476 -0.4445340931415558 -0.01852724701166153 -0.23869115114212036 0.12851136922836304 -0.052963994443416595 -0.13868467509746552 -0.32488736510276794 -0.27776899933815 -0.0725412517786026 -0.06578239053487778 0.065556600689888 -0.11333170533180237 -0.12637586891651154 0.24384257197380066 0.015743091702461243 -0.17705334722995758 -0.040936168283224106 0.07205583900213242 0.07237895578145981 0.28824764490127563 -0.1013636440038681 0.4269442558288574 0.2378377914428711 -0.39681416749954224 -0.29031407833099365 0.10771584510803223 -0.3479764759540558 0.033365968614816666 0.14235042035579681 0.2752172648906708 0.591770350933075 0.1919388324022293 0.035500284284353256 -0.04411008954048157 -0.09551095217466354 -0.07738170027732849 0.09167543798685074 0.22218096256256104 -0.07072501629590988 -0.09880747646093369 0.21209420263767242 -0.23410935699939728 -0.04418717697262764 0.17388328909873962 0.4982485771179199 -0.1272267997264862 0.25259286165237427 -0.051411353051662445 0.27765360474586487 -0.2351382076740265 0.16077040135860443 -0.24930714070796967 0.25653377175331116 0.046529851853847504
director 9.037182317115366E-4 0.10979592055082321 0.19333918392658234 -0.07515813410282135 -0.1203920766711235 0.028345562517642975 -0.37277543544769287 0.2529503405094147 0.01875884458422661 0.028606316074728966 -0.014462798833847046 0.18242201209068298 0.10859687626361847 -0.07337751984596252 -0.045659132301807404 0.009354034438729286 0.12241168320178986 0.06567279249429703 -0.12682366371154785 0.0027010368648916483 -0.13947881758213043 -0.2622718811035156 0.17038403451442719 -0.17550504207611084 -0.01574452966451645 0.038784269243478775 0.10382480919361115 0.029942447319626808 0.0020515741780400276 -0.0803586021065712 0.04039066284894943 0.06191760674118996 0.0645008459687233 -0.039948854595422745 0.020775729790329933 0.010471737012267113 0.01156622264534235 -0.022725079208612442 0.10218402743339539 -0.05629448592662811 -0.06019334867596626 -0.25522348284721375 -0.0156561266630888 0.016582777723670006 -0.010191862471401691 0.044241033494472504 -0.015152046456933022 -0.19761648774147034 0.06357220560312271 -0.013401119969785213 -0.024129601195454597 -0.04425898939371109 0.023158568888902664 -0.10668937861919403 -0.06668437272310257 -0.12203938513994217 0.04935565963387489 -0.1276136338710785 -0.1806323379278183 -0.18159231543540955 -0.23431971669197083 0.18047943711280823 -0.13070334494113922 -0.14468081295490265 0.1622799187898636 0.14713074266910553 0.17349302768707275 0.06473337113857269 0.024510443210601807 0.10654538124799728 0.15244491398334503 0.10673251748085022 -0.04496750980615616 0.17105506360530853 -0.039738915860652924 0.07953360676765442 0.1735750138759613 -0.10418318212032318 -0.10295527428388596 -0.008477008901536465 0.25610724091529846 0.054978497326374054 0.2919633984565735 0.1359071135520935 0.017862994223833084 -0.019393067806959152 -0.08012261241674423 0.005757485516369343 0.19741801917552948 0.02447219379246235 -0.2517481744289398 0.19033554196357727 0.0707557275891304 0.20885315537452698 0.1646188646554947 0.17046885192394257 0.0878608375787735 -0.12242403626441956 -0.16703949868679047 -0.05387300252914429
before -0.1337464302778244 -0.034948986023664474 0.12668897211551666 0.31074362993240356 0.21034330129623413 -0.0071752043440938 0.014728255569934845 0.0021740843076258898 -0.16154098510742188 0.20899593830108643 -0.13398517668247223 -0.1267479807138443 0.3137877285480499 -0.008680787868797779 0.0742926076054573 0.3624100387096405 0.14144419133663177 -0.11447178572416306 0.20501676201820374 -0.12261949479579926 0.005597166251391172 0.11037610471248627 0.09603218734264374 0.11917302012443542 -0.029506441205739975 -0.022945336997509003 0.08760340511798859 -0.06605637073516846 -0.2376633882522583 -0.04808386042714119 -0.08440398424863815 0.16117393970489502 0.12391817569732666 -0.12033601850271225 -0.22543691098690033 -0.05544876679778099 0.18090863525867462 -0.04606933146715164 0.062426235526800156 -0.05796419456601143 0.2574884593486786 -0.19789057970046997 0.010715171694755554 -0.006436420138925314 -0.025020604953169823 -0.08149810135364532 -0.4070354402065277 -0.0952623039484024 -0.17682036757469177 -0.08448925614356995 0.06349999457597733 -0.19353818893432617 0.15180730819702148 0.08314522355794907 -0.27805155515670776 0.04320310801267624 -0.06669776886701584 -0.12795794010162354 -0.5532844662666321 -0.02869533933699131 0.013134433887898922 0.18243451416492462 -0.04491813853383064 0.049379680305719376 7.272227667272091E-4 0.08096793293952942 0.04357175901532173 -0.22108094394207 -0.2089887261390686 -2.148594066966325E-4 0.11020222306251526 0.02927357703447342 -0.01055116206407547 -0.07316116243600845 0.011212681420147419 -0.19381944835186005 -0.1498357057571411 -0.015271203592419624 0.08656826615333557 -0.18807397782802582 0.18976850807666779 0.15123122930526733 -0.014539175666868687 -0.11057169735431671 -0.13171711564064026 0.07765507698059082 -0.016842752695083618 -0.029840394854545593 0.09611061215400696 0.07762502878904343 0.01545857172459364 0.06316999346017838 -0.18587607145309448 -0.2922588884830475 0.0036638935562223196 0.055193398147821426 -0.1295798420906067 -0.24357199668884277 0.024317525327205658 -0.06383141875267029
this -0.10498134791851044 0.16780361533164978 0.16742989420890808 0.051294755190610886 -0.25091931223869324 0.07834531366825104 -0.15581092238426208 0.11203794181346893 -0.16504351794719696 -0.1958068460226059 0.08300145715475082 -0.017581980675458908 -0.03693071007728577 0.08538642525672913 -0.17959831655025482 -0.118305504322052 -0.006384996697306633 -0.30824682116508484 -0.1803574562072754 0.07703697681427002 -0.272652268409729 -0.4148915708065033 0.004006014205515385 -0.3332395851612091 0.37456679344177246 -0.2301914542913437 0.052516184747219086 0.18612244725227356 -0.09776202589273453 -0.1095314621925354 -0.21036718785762787 -0.07663083076477051 -0.06154867634177208 0.1818007379770279 0.08972152322530746 0.008693354204297066 0.051153603941202164 0.012392334640026093 -0.024371184408664703 0.1701209396123886 -0.04168367758393288 -0.2122146040201187 0.24677500128746033 -0.1509139984846115 0.20003491640090942 0.05533609539270401 0.06919907033443451 0.10488851368427277 0.23403528332710266 0.30321204662323 -0.17283733189105988 0.0720498338341713 -0.19741709530353546 0.23716513812541962 0.29825589060783386 0.028856318444013596 0.05102727189660072 -0.08174164593219757 -0.08382686972618103 -0.09689044952392578 0.2611672580242157 -0.2501164376735687 -0.25950711965560913 -0.1408875286579132 0.07287033647298813 0.21207787096500397 0.13969063758850098 0.06611790508031845 0.25634872913360596 -0.27481552958488464 0.04452763870358467 0.08454159647226334 -0.29246214032173157 0.19151322543621063 -0.2108694463968277 0.42569801211357117 0.08462566137313843 0.23810870945453644 -0.003422534791752696 -0.010758776217699051 -0.03977373242378235 0.3600870370864868 -0.07618089765310287 0.19478969275951385 -0.06295807659626007 0.03353084623813629 -0.05634990707039833 0.13388840854167938 -0.011937604285776615 -0.18258212506771088 -0.08518919348716736 0.17159795761108398 -0.26347023248672485 0.17988230288028717 0.10872256010770798 0.38677752017974854 0.014580702409148216 -0.3157654106616974 0.29689180850982666 -0.1233646348118782
what -0.17903335392475128 -0.0627855435013771 0.07168744504451752 -0.14769692718982697 -0.005767560563981533 0.09395622462034225 0.08601300418376923 -0.1842685490846634 0.30862054228782654 0.1320013850927353 0.2131490409374237 -0.14426679909229279 -0.17725494503974915 0.25223204493522644 -0.07961242645978928 -0.09959372133016586 0.042399607598781586 -0.04557470604777336 0.04592796787619591 0.031596556305885315 -0.034368354827165604 0.06450042128562927 -0.08914017677307129 0.12374257296323776 0.0825268104672432 -0.2132924646139145 0.11444605141878128 0.16972778737545013 0.32091692090034485 0.1489068865776062 0.10604202747344971 -0.15759029984474182 -0.3509248197078705 -0.04450429975986481 0.011189163662493229 -0.018926439806818962 0.18121208250522614 0.302958220243454 -0.2924218475818634 -0.7089934349060059 0.03327154368162155 -0.06708263605833054 0.2536361515522003 0.04333719611167908 0.24373723566532135 -0.23574529588222504 -0.5448707342147827 0.28601327538490295 0.16283899545669556 -0.07851414382457733 0.36286866664886475 -0.028709016740322113 0.26472681760787964 -0.022848011925816536 -0.06911026686429977 -0.022107981145381927 0.06373035907745361 -0.3829856514930725 0.3053773045539856 -0.24919432401657104 -0.041369907557964325 0.22120307385921478 0.3810928761959076 -0.08160015940666199 0.0016836811555549502 0.02301022782921791 0.11794011294841766 -0.041075579822063446 -0.0392204150557518 -0.06036999821662903 -0.3087468445301056 -0.15514825284481049 -0.04807477816939354 0.36409735679626465 -0.18315154314041138 -0.14423911273479462 0.03852880373597145 0.42998644709587097 -0.3379383087158203 0.22182588279247284 0.08793924748897552 -0.018561823293566704 -0.3461979627609253 -0.057846784591674805 -0.10507546365261078 -0.042870789766311646 0.04372706264257431 0.15053068101406097 -0.41931915283203125 -0.14241698384284973 -0.10054676979780197 0.2031525820493698 -0.15768299996852875 -0.07650569081306458 0.12483035027980804 0.036688510328531265 0.08612151443958282 -0.034596528857946396 -8.058408857323229E-4 -0.006182100158184767
little 0.0056077842600643635 -0.3891060948371887 -0.17615294456481934 -0.2528611421585083 -0.04390503093600273 0.07363482564687729 0.19819921255111694 0.009094489738345146 0.0649818703532219 0.30719825625419617 -0.06336308270692825 -0.036484941840171814 0.06622833013534546 0.1742771565914154 -0.014285371638834476 -0.022837556898593903 2.1194748114794493E-4 -0.04957191273570061 -0.21204198896884918 0.1350756138563156 0.27423956990242004 -0.32222750782966614 0.07740799337625504 -0.27789607644081116 0.2283741980791092 -0.22435924410820007 0.036578308790922165 -0.06207960098981857 -0.058115020394325256 -0.16455142199993134 0.21970924735069275 0.11555493623018265 -0.452324777841568 0.06455735862255096 -0.1269291639328003 -0.07654743641614914 -0.02469131350517273 -0.3080748915672302 0.33522629737854004 -0.10740774124860764 -0.07525084167718887 -0.2354142963886261 0.019324569031596184 -0.2830584645271301 0.06538019329309464 -0.07699115574359894 0.011723930016160011 0.009365584701299667 0.41541799902915955 0.028982602059841156 -0.20855382084846497 -0.5740880370140076 0.1830199956893921 0.355162650346756 -0.22967715561389923 -0.2085433006286621 0.14195667207241058 -0.1858304888010025 -0.40101832151412964 -0.39090222120285034 -0.11802837997674942 0.35203537344932556 0.10680854320526123 0.1821105182170868 -0.10653048753738403 0.13952739536762238 0.1694369614124298 0.2553156614303589 0.2802204489707947 0.17994053661823273 0.0453866682946682 0.16087938845157623 0.0618424192070961 -0.10953609645366669 0.412643700838089 -0.0535743273794651 0.052890803664922714 -0.0020200235303491354 0.12076471000909805 -0.10572119802236557 0.1574472188949585 -0.03480498865246773 0.12715114653110504 0.010182470083236694 0.15713487565517426 0.0906030461192131 0.09587664902210236 -0.5251795649528503 0.13101737201213837 -0.010085061192512512 0.04184799641370773 0.17644129693508148 0.22109845280647278 0.043716661632061005 0.005847561173141003 0.012638922780752182 0.08043281733989716 0.11202595382928848 -0.44082483649253845 0.02304418385028839
president 0.06968231499195099 0.3949466645717621 0.0426633283495903 -6.305960123427212E-4 -0.005043788347393274 0.04188140854239464 -0.4105765223503113 0.41610586643218994 0.052739132195711136 0.0760766863822937 -0.037224866449832916 0.17728304862976074 0.0525180958211422 0.0531185045838356 0.15205566585063934 -0.21681779623031616 0.011312912218272686 -0.036081764847040176 0.08418925851583481 -0.11273767054080963 -0.2768029272556305 0.011695073917508125 0.04490357264876366 -0.20825372636318207 -0.09723169356584549 -0.04912923648953438 0.17458948493003845 0.1685851514339447 0.0441620834171772 -0.059784017503261566 -0.027520252391695976 0.05117708444595337 0.26227158308029175 -0.04456473886966705 0.1487334668636322 -0.19776152074337006 0.12784166634082794 0.36182472109794617 -0.04435567930340767 -0.1539822369813919 -0.01539376750588417 -0.11499389261007309 0.14302311837673187 0.0036281903740018606 -0.12840157747268677 0.02886366657912731 -0.10206347703933716 -0.1630706787109375 0.13298431038856506 -0.12382379919290543 0.12379419803619385 -0.16717810928821564 0.07316547632217407 -0.12448574602603912 -0.21617193520069122 -0.31082409620285034 0.07919003814458847 -0.12462686002254486 0.04274558648467064 0.007479196880012751 -0.21970267593860626 0.2406102865934372 0.05717301368713379 0.08742564171552658 0.2542570233345032 0.14699578285217285 0.03085128590464592 -0.015526963397860527 0.001797800068743527 0.0626954734325409 0.16636289656162262 0.07377041131258011 0.04637699946761131 0.3389925956726074 -0.1552395224571228 -0.04946650564670563 0.21106363832950592 -0.017987053841352463 -0.2723829448223114 -0.047087617218494415 0.15319521725177765 0.08573614060878754 0.3093954026699066 0.10426383465528488 0.1469378024339676 -0.20643587410449982 -0.1314336210489273 0.0023712499532848597 0.17033794522285461 0.11729199439287186 -0.2821214497089386 0.13440249860286713 0.07254485040903091 0.10809044539928436 0.5455350279808044 -0.004320464096963406 0.1326262503862381 -0.05939674377441406 -0.08341796696186066 -0.023193322122097015
until -0.25342756509780884 -0.03709237277507782 -0.042246706783771515 -0.08751750737428665 -0.05433723330497742 0.03566322103142738 -0.22904421389102936 -0.05719221383333206 0.0408053956925869 -0.08532949537038803 0.11353592574596405 0.03269559517502785 0.11902852356433868 -0.03182272985577583 -0.003554831724613905 0.1552586704492569 -0.113129161298275 -0.07590141147375107 0.003116986248642206 -0.02617333084344864 -0.11392143368721008 0.03879483789205551 -2.452265762258321E-4 -0.014577440917491913 0.09577526897192001 -0.05078974366188049 0.15982548892498016 -0.002883315086364746 -0.049351852387189865 -0.0224369578063488 -0.07944925129413605 0.0949159637093544 -0.036354247480630875 -0.08320104330778122 -0.18449845910072327 -0.11394310742616653 0.33342936635017395 0.07356315106153488 -0.08233679085969925 -0.15183526277542114 0.08876233547925949 -0.09916496276855469 0.01896578073501587 0.22343531250953674 0.012074578553438187 -0.2233039140701294 -0.03174985572695732 -0.08598390221595764 0.04858406260609627 -0.10062266141176224 -0.02986428141593933 -0.1847524344921112 0.13135622441768646 0.03077610582113266 -0.1350850611925125 -0.061596810817718506 -0.07565810531377792 -0.13862738013267517 -0.27529898285865784 0.023219607770442963 -0.09775939583778381 -0.08040140569210052 -0.11097083240747452 0.010322734713554382 0.21005068719387054 -0.1268562525510788 0.08421378582715988 -0.06573536992073059 -0.07398558408021927 0.08519959449768066 -0.009729512967169285 0.13857273757457733 0.09425199776887894 -0.11604148149490356 -0.06056532263755798 0.03962217643857002 0.09282337129116058 -0.010878877714276314 -0.1584557741880417 0.05612071231007576 0.2448415756225586 0.12967552244663239 -0.021562693640589714 0.08763818442821503 -0.014265725389122963 0.08974634855985641 -0.17490524053573608 0.0401240698993206 0.11515789479017258 -0.00940230954438448 -0.07375555485486984 0.23321762681007385 -0.21080072224140167 -0.08427194505929947 -0.0071308063343167305 0.12154901027679443 0.015734240412712097 -0.22626294195652008 0.20188230276107788 0.009495063684880733
who -0.06345489621162415 -0.1022481620311737 -0.1544990986585617 -0.07791770249605179 -0.11029629409313202 -0.26480528712272644 -0.11884994059801102 -0.1418513059616089 -0.02806839719414711 0.1938803493976593 0.2842377722263336 0.02752905897796154 -0.1304386556148529 0.10188493132591248 0.05564914643764496 0.0621151328086853 -0.03701410070061684 -0.11332865059375763 0.15011195838451385 0.3654220998287201 0.055343013256788254 0.1598377674818039 -0.13121451437473297 -0.06094884127378464 0.021105123683810234 -0.2370668351650238 0.002929274458438158 0.17125102877616882 0.14490626752376556 0.04678482562303543 -0.17552891373634338 0.07334641367197037 -0.21133360266685486 -0.17845195531845093 -0.08199319988489151 -0.05243489891290665 -0.0018681009532883763 0.06348442286252975 -0.08737999945878983 -0.1430499255657196 0.2722693383693695 0.1513659507036209 -0.16100066900253296 0.08138404041528702 0.04625628516077995 -0.12597844004631042 -0.25985434651374817 0.16638238728046417 0.23635417222976685 -0.08083661645650864 0.2563558518886566 -0.3814494013786316 -0.0034004843328148127 0.28503525257110596 -0.2270926535129547 -0.18647804856300354 0.12070930749177933 -0.034331291913986206 0.5335226058959961 0.03921343758702278 -0.22906777262687683 -0.13469934463500977 0.30495014786720276 -0.03436413034796715 -0.016102660447359085 -7.943778182379901E-4 0.19854317605495453 0.0848325714468956 0.05073989927768707 -0.054658014327287674 -0.12207305431365967 0.10827680677175522 0.041956230998039246 0.1215740367770195 0.13974085450172424 -0.3419609069824219 -0.050471194088459015 0.32742536067962646 -0.1972505748271942 0.053546663373708725 0.17809252440929413 0.002356799552217126 -0.2295006960630417 -0.14325465261936188 -0.140859454870224 0.0963142067193985 0.0019746648613363504 0.030768487602472305 -0.07612792402505875 0.12370649725198746 -0.10540873557329178 -0.01768794097006321 0.05288176238536835 -0.18757100403308868 0.15086844563484192 0.02172504924237728 -0.023460358381271362 -0.12428756058216095 0.035425666719675064 0.34527960419654846
him -0.08331597596406937 0.30403268337249756 -0.03356997296214104 -0.006686639506369829 -0.03461771085858345 -0.065048947930336 0.16725781559944153 0.08019424229860306 0.1446230113506317 0.06054981052875519 0.06766864657402039 -0.3990155756473541 0.05521983280777931 0.05242084339261055 -0.043749891221523285 -0.15978732705116272 0.0841064527630806 -0.25493547320365906 -0.33259445428848267 -0.14490973949432373 -0.012474680319428444 -0.14497502148151398 0.0036648085806518793 0.009790760464966297 0.014222903177142143 0.08928366750478745 -0.18264973163604736 -0.17836688458919525 0.09706716239452362 0.09087086468935013 0.23883719742298126 -0.03409404680132866 -0.25067660212516785 -0.036348436027765274 0.19830749928951263 -0.07288762927055359 0.08675145357847214 0.04411401227116585 -0.0361013226211071 -0.1332990527153015 0.37523382902145386 -0.17250533401966095 -0.00806249026209116 0.16914193332195282 0.3201732337474823 -0.27426406741142273 -0.15111273527145386 0.06686283648014069 -0.008345071226358414 -0.13085784018039703 -0.03790317848324776 -0.12589716911315918 -0.09867881238460541 0.04441800341010094 0.3888412415981293 0.10843008756637573 0.35418763756752014 -0.09913748502731323 0.02542968839406967 0.19232548773288727 -0.011046133004128933 -0.17112475633621216 0.23299704492092133 -0.03327023237943649 0.020769799128174782 0.07170870900154114 -0.07713747024536133 0.1963246613740921 -0.09005920588970184 -0.06223918870091438 -0.1481757014989853 -0.21492868661880493 -0.0909244492650032 0.19421915709972382 -0.07986659556627274 0.011594317853450775 -0.010206313803792 6.720268283970654E-4 -0.020045535638928413 -0.2655658423900604 -0.1356043815612793 -0.33812573552131653 -0.1514364331960678 0.03429613634943962 0.05594182014465332 -0.024800540879368782 -0.10978149622678757 0.037808626890182495 -0.4088209569454193 0.22466591000556946 0.05070513114333153 -0.16753427684307098 0.009946886450052261 -0.11923542618751526 0.01276346668601036 -0.1170995682477951 -0.054224200546741486 -0.21058058738708496 0.011076390743255615 0.10086295753717422
own 0.36175811290740967 0.2960224151611328 -0.3399164378643036 -0.30355262756347656 0.12537245452404022 0.1753920316696167 0.10592150688171387 0.30494192242622375 -0.1056605875492096 0.11460348218679428 -0.2702910900115967 0.47998982667922974 0.45761221647262573 0.1698026806116104 -0.0815386176109314 -0.2788692116737366 0.34734174609184265 -0.0940905287861824 0.21522849798202515 -0.09663321822881699 0.25070157647132874 -0.36753690242767334 0.2546430230140686 -0.4892582893371582 -0.11987127363681793 -0.04087148234248161 -0.06391092389822006 0.1847047060728073 0.41337209939956665 0.2010539323091507 0.32978561520576477 0.026177681982517242 -0.21959882974624634 0.4195692241191864 0.023538244888186455 -0.19143028557300568 0.05376975238323212 -0.03744546324014664 0.5108618140220642 -0.016521776095032692 -0.36423590779304504 -0.019616123288869858 0.1527518481016159 -0.5918620824813843 0.17250144481658936 0.5354278683662415 0.05569915473461151 0.33238255977630615 0.1264132857322693 0.005623253993690014 -0.07028704881668091 -0.06544215977191925 0.07456283271312714 0.0047497134655714035 0.05960823595523834 0.04011004790663719 -0.11686843633651733 0.008948010392487049 -0.15276458859443665 -0.7235488891601562 -0.16695034503936768 0.4012581408023834 0.2821251153945923 -0.013009045273065567 0.006467296276241541 0.182298481464386 0.181778222322464 -0.11345318704843521 0.07941277325153351 -0.15479542315006256 -0.3197723925113678 -0.17462356388568878 0.21110312640666962 0.09463810175657272 0.14487043023109436 0.409904420375824 0.2679169476032257 -0.28927361965179443 -0.08626741170883179 -0.22077709436416626 -0.4721473157405853 -0.08840746432542801 0.5369759798049927 0.2588798403739929 0.2815246284008026 -0.4699293076992035 0.18782910704612732 0.21052969992160797 0.08545007556676865 0.3009698987007141 0.15201473236083984 -0.2392147183418274 -0.1798984408378601 0.22673805058002472 -0.5466252565383911 -7.665343582630157E-4 0.17086978256702423 0.03748193383216858 0.33794844150543213 -0.004036569036543369
years 0.3205031156539917 0.01262727566063404 -0.05699573829770088 0.19396431744098663 0.7312474846839905 -4.6594254672527313E-4 0.0562758632004261 -0.07315670698881149 -0.04482581838965416 0.4556410312652588 -0.2770889699459076 -0.324074387550354 0.5616594552993774 0.14591632783412933 -0.09665242582559586 0.10430024564266205 0.24304580688476562 -0.2515018880367279 0.1959722638130188 -0.17678681015968323 0.0024414986837655306 -0.5734544992446899 -0.031335510313510895 -0.1925056129693985 -0.33429059386253357 0.47427472472190857 0.5065118074417114 -0.15200720727443695 -0.49172765016555786 -0.12219851464033127 -0.46776679158210754 0.37448397278785706 -0.1593719869852066 -0.2746178209781647 0.01777290180325508 -0.26309850811958313 0.5536673665046692 -0.19100427627563477 0.27496248483657837 0.35543522238731384 0.2780574560165405 -0.48379501700401306 -0.15905150771141052 -0.2980858087539673 0.18138167262077332 -0.03988048434257507 -0.6153075695037842 0.010124594904482365 -0.2382119745016098 -0.0383240170776844 0.3469148874282837 -0.5413475632667542 0.25397470593452454 -0.1264985352754593 -0.0047921352088451385 0.06394121795892715 0.017811955884099007 -0.4036025404930115 0.035811759531497955 -0.07434733957052231 -0.3788236081600189 0.08496589958667755 0.03902500867843628 -0.2289494127035141 0.24795876443386078 0.1659354865550995 0.337520956993103 0.09127290546894073 -0.5080564022064209 -0.48648256063461304 -0.19945697486400604 -0.3564819097518921 -0.3441300392150879 0.15908142924308777 0.02885095775127411 -0.17373360693454742 0.07220881432294846 4.4843374053016305E-4 0.40492168068885803 -0.397538959980011 0.5698291659355164 -0.30461984872817993 0.009372532367706299 -0.18726913630962372 -0.04313790798187256 0.020053153857588768 -0.03145209699869156 0.1964981108903885 0.6275252103805542 0.15493854880332947 0.29725053906440735 -0.18772530555725098 0.24539971351623535 -0.4496510326862335 0.2519749104976654 -0.03263745456933975 0.016440976411104202 -0.568986177444458 -0.41967472434043884 -0.32230260968208313
now -0.058338701725006104 0.11962756514549255 0.03770987689495087 -0.23220227658748627 0.292860209941864 -0.083706796169281 -0.14889489114284515 -0.15639561414718628 -0.03482479974627495 -0.03987172991037369 0.03602614626288414 0.026633094996213913 -0.22237305343151093 -0.04558422788977623 -0.10180936008691788 -0.1260795295238495 0.023510852828621864 0.10356871038675308 -0.22221048176288605 -0.3852158188819885 0.11105422675609589 -0.2145088165998459 0.2885729670524597 0.027668582275509834 0.08054563403129578 -0.36040639877319336 -0.08716325461864471 0.08307529985904694 0.03646528348326683 0.01690748892724514 -0.16286683082580566 0.1695026457309723 -0.2118017077445984 -0.021030576899647713 -0.17211438715457916 -0.23642376065254211 0.016674276441335678 0.10013578832149506 -0.04679790139198303 0.23617054522037506 -0.09329318255186081 -0.059002701193094254 0.03133409470319748 -0.016065752133727074 0.0666651800274849 0.007831403985619545 -0.059930864721536636 0.08769741654396057 0.012814975343644619 -0.06259681284427643 0.059411466121673584 0.08917161077260971 0.06777575612068176 -0.10817421972751617 -0.24347351491451263 -0.0223721731454134 -0.1061175987124443 -0.03825461491942406 -0.04870560020208359 -0.13864782452583313 -0.0419754683971405 -0.10803261399269104 -0.03008205257356167 -0.01868969015777111 -0.061898086220026016 -0.10998387634754181 -0.41375771164894104 -0.0745832622051239 0.20431996881961823 -0.06129464879631996 -0.09638476371765137 -0.2583884000778198 -0.38843950629234314 0.11482259631156921 -0.1581404060125351 -0.11657892912626266 0.23157721757888794 0.37154799699783325 0.11950340867042542 -0.14321191608905792 0.16231709718704224 0.16680388152599335 -0.10921500623226166 -0.37253886461257935 -0.1236434057354927 0.2574872374534607 -0.014249587431550026 -0.21564596891403198 0.1550736129283905 -0.1581546664237976 -0.10327339917421341 -0.13548679649829865 -0.16820360720157623 -0.07587691396474838 -0.1869523972272873 0.11642410606145859 0.3741455674171448 -0.03873395174741745 0.005176033824682236 0.039466820657253265
officials 0.10105034708976746 0.09693649411201477 -0.05236470699310303 0.0489792600274086 0.04494187608361244 0.04512755945324898 -0.08150912821292877 0.10722894221544266 -0.09695463627576828 0.021427538245916367 -0.01777118630707264 0.13423652946949005 -0.022036008536815643 0.10787631571292877 -0.04410187155008316 0.10744556784629822 -0.12566839158535004 -0.016173232346773148 -0.046654313802719116 0.028934242203831673 -0.1302664577960968 -0.1776300072669983 0.03793400153517723 -0.14142873883247375 -0.06921117007732391 -0.08165569603443146 -0.04903111979365349 -0.058721888810396194 -0.11797431111335754 0.023468663915991783 -0.030166326090693474 0.07749149203300476 0.11814217269420624 -0.1136336699128151 -0.0035910385195165873 0.014035009779036045 0.09852439165115356 0.04235425591468811 0.018569044768810272 0.016943415626883507 0.13409894704818726 0.06454765796661377 0.04800257831811905 -0.07834608852863312 0.06635141372680664 -0.0013365340419113636 -0.15040276944637299 0.00849110260605812 0.011857056990265846 -0.06405813992023468 0.0634462907910347 -0.11518566310405731 -0.07094171643257141 0.002754364162683487 -0.09981916844844818 -0.14506781101226807 -0.01672375202178955 -0.006865615490823984 0.05091096833348274 -0.08939488232135773 -0.1153872162103653 0.026726223528385162 -0.09973882883787155 -0.04540177434682846 0.13026079535484314 -0.012161723338067532 0.17062024772167206 0.0022557079792022705 -0.13528594374656677 -0.04004667326807976 -0.05130409076809883 0.09003326296806335 0.04478598013520241 0.16385029256343842 0.006927487440407276 -0.005350208375602961 0.17919637262821198 -0.05362826585769653 -0.05985943600535393 -0.08731647580862045 0.10831491649150848 -0.12205276638269424 0.21243421733379364 0.032805755734443665 -0.008974306285381317 -0.02843775972723961 -0.1276710331439972 0.035951849073171616 0.2125549614429474 0.08137577027082443 -0.12295076996088028 -0.021690744906663895 0.07994375377893448 -0.05244298279285431 0.1025516614317894 -0.04799118638038635 0.042167432606220245 -0.27579474449157715 0.09070570021867752 -0.02768034301698208
any -0.034218817949295044 0.1476564109325409 -0.46526309847831726 0.09168878942728043 -0.17824123799800873 0.288867324590683 0.17278961837291718 -0.04561963677406311 -0.07281233370304108 0.08114539086818695 0.07074487209320068 -0.0748816654086113 -0.11575957387685776 0.21484321355819702 0.035360828042030334 -0.01699153520166874 -0.26401451230049133 -0.13492479920387268 0.20460167527198792 0.09889661520719528 0.024553775787353516 -0.13721585273742676 -0.24495917558670044 0.17235055565834045 0.051603078842163086 -0.08745703846216202 0.02494887076318264 -0.1534743309020996 -0.1917625367641449 -0.26700401306152344 0.10570594668388367 0.29769366979599 -0.2654012143611908 -0.16780470311641693 0.17869454622268677 -0.2748152017593384 0.21414496004581451 -0.08776867389678955 0.14056186378002167 -0.4268280267715454 -0.08212145417928696 0.3155873119831085 0.2064005732536316 -0.05074039846658707 -0.12026509642601013 -0.19455429911613464 1.6878076712600887E-4 -0.08748513460159302 -0.066421739757061 0.44168317317962646 0.0062180692330002785 0.13303035497665405 -0.2241097092628479 0.11970509588718414 -0.4073897898197174 0.028675129637122154 0.4790838658809662 0.0026693057734519243 0.02826208434998989 -0.04396155849099159 0.32446467876434326 -0.35819751024246216 0.0364203006029129 0.12673798203468323 -0.27022773027420044 0.02283283695578575 -0.16178493201732635 0.22563102841377258 0.5153763890266418 -0.2504373788833618 -0.08586227148771286 0.31820330023765564 0.10499323159456253 -0.2767943739891052 0.2258841097354889 0.07647088915109634 0.23172298073768616 0.23464567959308624 -0.11950881779193878 0.16194570064544678 -0.16945308446884155 -0.005726838018745184 -0.056662265211343765 0.46429166197776794 0.09792182594537735 -0.07796478271484375 0.3520342707633972 -0.004979113582521677 -0.0879107192158699 0.012074138037860394 0.12060856074094772 0.1245940625667572 0.17670534551143646 -0.1593788117170334 0.032934628427028656 -0.26078370213508606 0.12480290979146957 -0.06084368750452995 0.2111145704984665 -0.15523764491081238
then -0.001344585558399558 0.20862282812595367 0.1970805525779724 -0.26501238346099854 0.08230007439851761 0.05178866907954216 -0.025966815650463104 0.16884607076644897 0.08507974445819855 0.02605999819934368 -0.11074857413768768 0.17652393877506256 -0.10066559165716171 -0.20806799829006195 -0.09216175228357315 0.1308896243572235 -0.09340403974056244 -0.1218133196234703 0.18180528283119202 0.055458709597587585 0.11469677090644836 -0.009585300460457802 -0.0509742833673954 -0.15700103342533112 -0.010056708008050919 -0.17994172871112823 0.004957171157002449 0.11714340001344681 0.09627316892147064 0.16707560420036316 -0.4455638825893402 0.12657476961612701 -0.27401772141456604 -0.03562704101204872 -0.14495638012886047 -0.1100003570318222 -0.007768970914185047 -0.13432787358760834 -0.20314925909042358 0.24471227824687958 -0.04525233432650566 -0.09760042279958725 -0.3813210427761078 -0.06872551888227463 -0.05664767324924469 -0.05170808359980583 -0.05351579934358597 0.11801163107156754 0.04646102339029312 -0.10933950543403625 -0.0660485178232193 -0.249968484044075 0.22627677023410797 0.21531672775745392 -0.14513753354549408 -0.04736827313899994 -0.15099066495895386 0.037571899592876434 -0.2002459615468979 0.012139254249632359 -0.20437073707580566 0.19656522572040558 0.07146561145782471 0.1541323959827423 0.08720661699771881 -0.13961994647979736 -0.12000610679388046 -0.2837619483470917 -0.13533729314804077 0.2016589343547821 -0.200415700674057 -0.0663611963391304 -0.01439124345779419 -0.09983363002538681 -0.05365731939673424 0.0669657289981842 0.09256061911582947 0.12363476306200027 0.024478213861584663 -0.08767672628164291 -0.02942042425274849 -0.02824900671839714 -0.01270264107733965 -0.3074820637702942 -0.17706575989723206 0.007059175055474043 -0.06528468430042267 -0.0712880939245224 0.2585229277610779 0.08004165440797806 -0.06168703734874725 -0.19612202048301697 0.05199114978313446 -0.03227774426341057 -0.050632793456315994 0.3066423535346985 -0.3371028006076813 -0.23776420950889587 0.1626136749982834 0.09917981177568436
several 0.048800453543663025 -0.046450577676296234 0.03955070674419403 -0.03275781869888306 0.21993277966976166 -0.10896848887205124 0.03838766738772392 0.030495483428239822 -0.049890391528606415 0.11493581533432007 -0.16161996126174927 -0.24506191909313202 0.21880698204040527 0.2095482051372528 -0.034957896918058395 0.13590264320373535 0.024716375395655632 -0.13586775958538055 0.036116089671850204 0.09537242352962494 -0.05524210259318352 -0.17744512856006622 0.16875837743282318 0.04576287046074867 0.07705624401569366 -0.03972378000617027 0.13470767438411713 -0.18559715151786804 -0.4023228585720062 0.07343541085720062 -0.043419189751148224 0.17185893654823303 -0.05629560723900795 0.003592557040974498 -0.07821442931890488 0.040820203721523285 0.21308566629886627 -0.13625746965408325 0.05219031125307083 0.0654081255197525 0.06477642059326172 -0.1356925517320633 -0.06062109023332596 -0.1597478985786438 0.033468879759311676 -0.18952153623104095 -0.07726747542619705 -0.09253892302513123 -0.11422048509120941 -0.05978787690401077 0.022589419037103653 -0.3582654893398285 0.0376291498541832 -0.013830481097102165 -0.10453955829143524 -0.09824793040752411 0.12176122516393661 -0.23173430562019348 -0.28126436471939087 -0.12661580741405487 -0.08079040050506592 0.014331486076116562 -0.10310961306095123 0.11910712718963623 -0.03683227673172951 0.12916983664035797 0.10089603066444397 -0.04060787707567215 -0.09474708884954453 -0.12739552557468414 -0.06350381672382355 0.010158616118133068 -0.03546791151165962 -0.04191839322447777 0.06051253899931908 -0.03493437543511391 0.14350128173828125 -0.09448141604661942 0.034737102687358856 -0.20207980275154114 0.06573718041181564 -0.09621739387512207 0.1311994194984436 0.02971067652106285 -0.17555198073387146 -0.029257992282509804 -0.03900669887661934 0.07392793893814087 0.23639345169067383 0.050692468881607056 0.10411123186349869 -0.012581394985318184 0.07287773489952087 -0.10940905660390854 0.15674376487731934 -0.057527005672454834 -0.030651936307549477 -0.26691141724586487 -0.11117124557495117 -0.08310060948133469
west -5.586332408711314E-4 0.11401988565921783 0.06570461392402649 0.019826769828796387 -0.1053684875369072 0.1140083372592926 -0.3013123571872711 0.16795937716960907 -0.03177633881568909 -0.03485209867358208 0.07406315207481384 0.1638769507408142 0.027093080803751945 -0.029806623235344887 0.0286204032599926 -0.05639377981424332 -0.1289760172367096 0.0515076145529747 -0.08979090303182602 -0.032798077911138535 -0.22932520508766174 -0.1550050526857376 0.06555092334747314 -0.1497436910867691 -0.12048936635255814 -0.03207244351506233 0.024452002719044685 0.02750154584646225 0.03853048011660576 -0.13990478217601776 0.02255256101489067 0.040794603526592255 0.25592347979545593 0.02470768429338932 0.00959717482328415 -0.1329575926065445 0.03363628312945366 0.09202774614095688 0.08779816329479218 0.07477548718452454 -0.07062426209449768 -0.00978382769972086 0.0974264144897461 0.015395103953778744 -0.033965542912483215 -0.03588735684752464 -0.05089718848466873 -0.16746366024017334 0.06576599925756454 -0.11209213733673096 -0.09101878106594086 -0.031059103086590767 -0.13803017139434814 -0.05598127469420433 -0.03772534430027008 -0.10406209528446198 0.019565081223845482 -0.0015019592829048634 0.055972665548324585 0.007101907394826412 -0.03419928997755051 0.012974431738257408 0.02238953299820423 -0.07470656931400299 0.15418843924999237 0.04414832964539528 0.05504627525806427 0.06305243819952011 -0.021345283836126328 0.11628996580839157 0.10227176547050476 0.1073208674788475 -0.04139607399702072 0.21536889672279358 -0.012974295765161514 0.1748487800359726 0.11851523071527481 -0.12528719007968903 -0.17248690128326416 0.05470823869109154 0.08469782024621964 0.07188350707292557 0.1304718554019928 0.04149254411458969 0.0825471505522728 -0.053394973278045654 -0.15801061689853668 0.10632555931806564 0.11205784976482391 0.042054131627082825 -0.23447462916374207 0.07526268064975739 0.06605257838964462 0.024214591830968857 0.17352153360843658 0.015572593547403812 0.07708310335874557 0.010292703285813332 0.11875025928020477 0.011564063839614391
white 0.06986044347286224 0.055436260998249054 -0.05745874345302582 -0.21809765696525574 -0.09862557053565979 0.0663590133190155 -0.35270121693611145 0.30607870221138 -0.0560307651758194 -0.05244406312704086 -0.03878830373287201 0.1480502337217331 0.11060649901628494 -0.04137582704424858 -0.052007824182510376 0.09456715732812881 -0.19654759764671326 0.029570970684289932 -0.003942126873880625 0.24375584721565247 -0.0879516676068306 -0.075372114777565 0.13478468358516693 -0.12979671359062195 -0.1391763985157013 -0.13839247822761536 -0.08622939139604568 0.0569022037088871 0.09291937202215195 0.18714050948619843 -0.013302067294716835 -0.007627288345247507 0.19524574279785156 0.012900616973638535 -0.09062111377716064 0.18368178606033325 -0.007236048113554716 0.05679549276828766 0.05289774015545845 -3.656432672869414E-4 -0.009379350580275059 0.12594608962535858 0.04176405072212219 -0.22499887645244598 -0.025085438042879105 0.09437690675258636 -0.08241280168294907 -0.0676039382815361 0.16825956106185913 -0.19355738162994385 -0.007497482467442751 -0.10695026814937592 -0.02739519253373146 0.11472725868225098 -0.13169355690479279 -0.0718645453453064 -0.12274010479450226 0.12036021798849106 0.34625309705734253 -0.17501097917556763 -0.18797732889652252 0.18615388870239258 -0.02830718271434307 -0.04826568439602852 0.19892263412475586 0.02834879420697689 0.14680953323841095 -0.035111550241708755 -0.315032958984375 0.05287885665893555 0.01411313097923994 0.17761512100696564 0.20230351388454437 0.27228450775146484 -0.030943378806114197 -0.13221122324466705 0.20373764634132385 0.018179507926106453 -0.10948514938354492 -0.10128235071897507 0.0731372982263565 -0.012164054438471794 0.2297646701335907 -0.020186034962534904 -0.07321874797344208 -0.21355265378952026 -0.0964416116476059 0.011883066035807133 0.26404979825019836 0.07278021425008774 -0.05505312234163284 0.0971727967262268 0.13614970445632935 0.10716067254543304 0.052689701318740845 0.17949064075946808 -0.10035437345504761 -0.15392324328422546 0.1892431080341339 0.09813398867845535
by -0.20152723789215088 -0.13870367407798767 0.020164374262094498 -0.08033906668424606 0.13368938863277435 -0.06375287473201752 0.11304653435945511 0.08743327111005783 -0.07165007293224335 -0.1673320084810257 -0.1177944615483284 0.026591232046484947 0.17274725437164307 -0.05845930799841881 -0.046653203666210175 0.2033308893442154 -0.03718668594956398 0.04081292822957039 -0.14110903441905975 0.16656625270843506 -0.08295640349388123 -0.22374260425567627 0.08196566253900528 0.007010648492723703 -0.009084460325539112 0.009063534438610077 0.18649190664291382 -0.21448278427124023 -0.1768670678138733 0.0740751102566719 -0.09046492725610733 0.09219104051589966 0.02447323314845562 0.03018317185342312 -0.214543879032135 0.08110302686691284 0.3056236803531647 -0.07201855629682541 0.0766453742980957 0.056316304951906204 0.015536458231508732 -0.14418262243270874 -0.025794092565774918 0.13180534541606903 0.16684509813785553 -0.19580970704555511 0.11576937884092331 -0.12788476049900055 -0.11241956800222397 -0.017575165256857872 -0.08222058415412903 -0.11034940183162689 0.12119130790233612 -0.0980997160077095 0.09443555027246475 -0.05238844454288483 -0.27843841910362244 -0.013522892259061337 -0.07437438517808914 0.028544502332806587 0.031324900686740875 -0.16530342400074005 -0.09040898084640503 0.044440656900405884 0.09461497515439987 -0.21496424078941345 -0.07036064565181732 -0.045838985592126846 -0.1284846067428589 0.014898756518959999 -0.030726362019777298 0.13641475141048431 -0.1149507388472557 -0.10984602570533752 0.08907083421945572 0.10774211585521698 0.01158137060701847 -0.18329599499702454 -0.0966968908905983 -0.09348293393850327 -0.052041321992874146 0.14478276669979095 -0.06863915175199509 -0.07795870304107666 -0.19938327372074127 -0.008062954060733318 -0.20952637493610382 0.01512109860777855 0.0419587604701519 -0.09500182420015335 0.15553976595401764 0.1179644837975502 -0.0831211730837822 -0.17837490141391754 -0.13021963834762573 0.047207169234752655 -0.07732418924570084 -0.10537857562303543 0.22212767601013184 0.03158805891871452
women 0.12308589369058609 0.12460532039403915 -0.24634099006652832 0.014552518725395203 0.3048153221607208 0.0581367127597332 -0.05858920142054558 0.14679697155952454 -0.11120036244392395 0.28579285740852356 -0.02432502619922161 0.02778460644185543 0.002112718066200614 0.15059702098369598 0.05176525563001633 -0.23877930641174316 -0.20466381311416626 0.14482103288173676 0.059372857213020325 0.005143252667039633 -0.17730021476745605 -0.17175130546092987 0.11406122893095016 -0.1874459981918335 -0.24712476134300232 -0.20828193426132202 -0.16973093152046204 -0.1393384486436844 -0.09832710027694702 -0.07773667573928833 -0.22437137365341187 0.1391637623310089 -0.12096939235925674 -0.21483464539051056 0.07596451789140701 -0.0010719753336161375 0.008219155482947826 -0.08951039612293243 0.11393631994724274 -0.058187440037727356 0.10876696556806564 0.06619032472372055 -0.10186327248811722 -0.08360651880502701 0.1006273478269577 0.08125433325767517 -0.10058613121509552 0.14038029313087463 -0.008773718029260635 -0.10842546820640564 -0.06988053768873215 -0.134159654378891 -0.10622280836105347 -0.05888894200325012 -0.23369860649108887 -0.16922633349895477 0.06528658419847488 0.08161706477403641 0.3545987606048584 -0.03235353156924248 -0.12201418727636337 0.02286737598478794 0.08014600723981857 0.11166877299547195 -0.027417711913585663 -0.036487679928541183 0.16608867049217224 0.21545667946338654 -0.07826582342386246 -0.07570307701826096 -0.11773566156625748 0.08016027510166168 -0.03160252049565315 0.22445064783096313 -0.0657648891210556 0.05216385796666145 0.2801249027252197 0.05917353928089142 0.006243683397769928 -0.019630014896392822 0.020820377394557 -0.1810489296913147 0.08010979741811752 -0.0997466892004013 -0.06907425820827484 0.05261480063199997 -0.05774479731917381 -0.07909184694290161 0.2097003161907196 0.13159623742103577 -0.0347321555018425 -0.1143934428691864 0.42323940992355347 -0.1205044612288475 0.17430783808231354 -0.1977456957101822 0.10001444071531296 0.05512708052992821 0.02010943740606308 0.19474612176418304
part 0.014613228850066662 0.07723747938871384 -0.04974828660488129 -0.07536185532808304 -0.09272187948226929 0.13866375386714935 -0.5549978017807007 0.029862182214856148 0.29087063670158386 -0.007837834767997265 0.15412814915180206 -0.11796782910823822 0.12563084065914154 0.3597288727760315 0.28828054666519165 -0.1385185569524765 0.33561161160469055 0.1325920820236206 -0.04987979307770729 -0.1962706595659256 -0.21021756529808044 -0.4171973168849945 0.4754980504512787 -0.3815478980541229 -0.39503079652786255 0.10224168747663498 0.1371709555387497 0.5730410814285278 0.3008045256137848 0.3841245770454407 0.3729375898838043 0.08514363318681717 0.08402308076620102 -0.07559707760810852 -0.027452848851680756 -0.24211139976978302 0.0747472271323204 -0.43274959921836853 -0.15786488354206085 0.07808154821395874 -0.26014193892478943 -0.29402175545692444 -0.13804197311401367 -0.09019685536623001 0.4132062494754791 0.29343605041503906 0.15496444702148438 -0.22239184379577637 -0.07755900919437408 -0.20715002715587616 -0.23032380640506744 -0.2066279649734497 -0.24553783237934113 0.25943368673324585 0.040420904755592346 0.06057795137166977 0.09017881006002426 0.08906380087137222 -0.14547033607959747 -0.43279826641082764 0.04668119549751282 0.19705668091773987 0.5870053768157959 0.5093386173248291 0.08898908644914627 0.12870845198631287 -0.1404113620519638 0.2802039682865143 0.3940185308456421 0.0955728068947792 0.2750753164291382 0.43319517374038696 -0.21738067269325256 0.2500212788581848 -0.08997687697410583 -0.06588780879974365 0.19557476043701172 0.09547656774520874 -0.4791788160800934 -0.18666353821754456 -0.015095291659235954 0.00945101585239172 0.28267672657966614 0.49437108635902405 0.5249387621879578 -0.35403159260749817 0.42666056752204895 0.2143702208995819 -0.032905347645282745 0.045579466968774796 -0.17296764254570007 -0.04469961300492287 0.3007158637046814 0.2693583071231842 0.35992953181266785 -0.09396785497665405 0.010191579349339008 0.17615941166877747 -0.26287758350372314 0.31516847014427185
he 0.04554339125752449 0.1758912354707718 0.24468684196472168 0.2601982653141022 -0.06147817522287369 -0.018744392320513725 -0.08538202941417694 0.16001440584659576 -0.2799241244792938 0.2356177419424057 -0.017299963161349297 0.04665294662117958 -0.18405528366565704 -0.014623339287936687 0.164203941822052 0.13207140564918518 0.08411521464586258 -0.08727091550827026 -0.06520215421915054 0.04160173609852791 -0.12747254967689514 0.0946086049079895 0.35684293508529663 -0.0493093878030777 -0.012982086278498173 -0.15439683198928833 0.005442246329039335 -0.2314690500497818 -0.2879045605659485 0.13929174840450287 0.20836077630519867 0.07652395218610764 -0.25145164132118225 0.12255465239286423 0.3297921121120453 -0.17976513504981995 -0.08423522114753723 -0.24128764867782593 -0.12307067960500717 0.009137485176324844 -0.008288507349789143 0.1902150958776474 0.16955050826072693 -0.07037658989429474 -0.022329231724143028 0.006263034418225288 -0.2959631681442261 -0.05709552392363548 -0.03831958770751953 0.15271414816379547 0.059343986213207245 -0.1919344961643219 -0.13961836695671082 -0.030419573187828064 0.058942798525094986 0.05733364820480347 0.0850398987531662 0.21895401179790497 -0.009581009857356548 -0.18859577178955078 0.24044445157051086 0.10580828785896301 -0.04796668514609337 0.007840247824788094 0.14802193641662598 -0.03658808395266533 0.01907934434711933 -0.42227378487586975 0.07066719233989716 0.146579772233963 -0.08607620000839233 -0.04214470461010933 -0.05312446132302284 0.2369166761636734 0.1165536418557167 -0.1540745049715042 0.010665289126336575 -0.15724611282348633 0.26922959089279175 -0.07639221101999283 0.016158411279320717 -0.12224831432104111 0.2932206392288208 -0.1067054346203804 0.04209098219871521 -0.1400277465581894 -0.22028076648712158 0.21340635418891907 -0.21750755608081818 -0.3577724099159241 -0.20578156411647797 -0.15285710990428925 -0.1001245379447937 -0.2631385922431946 -0.1841651052236557 0.07343184947967529 -0.011859570629894733 -0.1956121325492859 -0.10846085101366043 -0.05708366259932518
state 0.16164208948612213 0.11615679413080215 -0.0999235212802887 6.790817133150995E-4 -0.06889200955629349 0.05508134886622429 -0.27527371048927307 0.13365088403224945 -4.511007864493877E-5 -0.12086506187915802 0.048165999352931976 0.37194353342056274 -0.008556414395570755 0.16065458953380585 -0.09624316543340683 0.050395816564559937 -0.038926560431718826 -0.07317065447568893 -0.20022539794445038 -0.039435528218746185 -0.26124852895736694 -0.202353373169899 0.1245625838637352 -0.21053355932235718 -0.11642453819513321 -0.08581249415874481 0.012181523256003857 0.17354336380958557 0.006113413255661726 0.02350369095802307 0.09008088707923889 0.07526484876871109 0.279551237821579 -0.10446908324956894 0.06023288145661354 -0.17970313131809235 0.19017930328845978 0.2369813621044159 -0.14078819751739502 0.03460261598229408 -0.0500345379114151 -0.07980120927095413 0.027549466118216515 -0.09252886474132538 -0.027677524834871292 0.04023439437150955 -0.01208290085196495 -0.08328290283679962 0.15144376456737518 -0.15369082987308502 0.11699704825878143 -0.17125985026359558 -0.09343522042036057 -0.05633062869310379 -0.14051933586597443 -0.22509683668613434 -0.054186251014471054 -0.10223639011383057 0.0420299768447876 -0.1720038801431656 -0.20875848829746246 0.09368292987346649 -0.16628217697143555 0.05312095209956169 0.103655606508255 0.13700483739376068 0.10266388952732086 0.05593005195260048 -0.07086396217346191 0.08603699505329132 0.1087845042347908 0.2628651559352875 0.017911965027451515 0.3441772758960724 -0.005595293361693621 0.0069076442159712315 0.22608327865600586 -0.03992742300033569 -0.29253461956977844 -0.06394069641828537 0.07442446798086166 -0.02345960959792137 0.3406391739845276 0.03793949633836746 0.12240760028362274 -0.2216516137123108 -0.21944984793663025 0.09936664998531342 0.3407050669193268 0.05869784951210022 -0.34945642948150635 0.04785891994833946 0.03588930144906044 0.16645441949367523 0.3525361716747284 -0.06612026691436768 0.10199537128210068 -0.2458043247461319 -0.0337333157658577 0.012731228023767471
ago -0.10310858488082886 -0.3263511657714844 0.22525031864643097 0.2089722752571106 0.07894767820835114 -0.3025113344192505 0.15307651460170746 -0.18200762569904327 -0.012798981741070747 0.15849225223064423 -0.31442680954933167 -0.5484205484390259 0.4102016091346741 0.007918254472315311 -0.1506037414073944 0.3447874188423157 0.039606284350156784 0.005875417962670326 0.20139051973819733 0.15511657297611237 0.004230397753417492 -0.6633673906326294 -0.09584582597017288 0.06361941993236542 0.19771091639995575 0.020843498408794403 0.11731739342212677 0.0029084072448313236 -0.8125090599060059 -0.11448228359222412 -0.19673459231853485 0.33986324071884155 -0.08710002154111862 -0.08746147155761719 -0.38963648676872253 -0.1359899491071701 0.3878163993358612 -0.39619365334510803 0.16700351238250732 0.31452667713165283 0.05036740377545357 -0.3558237850666046 -0.25805047154426575 -0.3185436427593231 0.11729686707258224 -0.38572290539741516 -0.44173309206962585 0.01687709242105484 0.04040895029902458 0.23047660291194916 0.3520539700984955 -0.8678370714187622 0.7297086119651794 -0.003792368108406663 -0.15101031959056854 -0.1850656270980835 9.726009011501446E-7 -0.39318928122520447 -0.7460909485816956 -0.13760745525360107 -0.04156468063592911 0.13379167020320892 -0.2349308729171753 -0.2798166871070862 -0.013027120381593704 0.0756671354174614 0.7123684287071228 -0.006243337877094746 -0.33924221992492676 0.10999121516942978 0.09836168587207794 -0.21762597560882568 0.007480359170585871 -0.1456836313009262 -0.1671788990497589 -0.35787540674209595 -0.27898162603378296 -0.47899553179740906 0.09821268916130066 -0.5572345852851868 0.517019510269165 0.08154419809579849 0.33419734239578247 0.31009915471076965 -0.12597160041332245 0.11570114642381668 -0.20825234055519104 -0.07359937578439713 0.5533421635627747 0.09554101526737213 0.24120880663394928 0.058270253241062164 0.07331045717000961 -0.4520895183086395 0.35316136479377747 -0.07630372792482376 -0.021455179899930954 -0.5874837636947632 -0.4522772431373596 -0.3095773458480835
every -0.4601967930793762 0.151807501912117 0.10086333751678467 -0.45526522397994995 0.0014290651306509972 -0.1884557008743286 0.0030988659709692 0.1812181919813156 0.027976173907518387 -0.18426063656806946 -0.24275518953800201 -0.07530827820301056 0.06320623308420181 0.09582826495170593 0.15386028587818146 0.16446256637573242 -0.25226208567619324 -0.14624330401420593 -0.30587130784988403 0.15679918229579926 -0.14941617846488953 -0.18898439407348633 0.1123998686671257 0.3119329810142517 0.13280819356441498 -0.04525531455874443 0.06930632889270782 -0.25957173109054565 -0.056929443031549454 0.29347968101501465 0.1155211329460144 0.02411573752760887 0.07252713292837143 0.38327452540397644 -0.3853141963481903 0.14002923667430878 0.41360124945640564 -0.07279021292924881 0.009414782747626305 -0.2560505270957947 0.057199567556381226 -0.0829177126288414 0.3198138475418091 0.10608117282390594 0.08029340207576752 -0.5060153007507324 -0.07207928597927094 -0.10550089180469513 -0.39777761697769165 -0.35216259956359863 -0.009389913640916348 -0.07146593928337097 0.18379446864128113 0.0026764082722365856 -0.10104713588953018 -0.1044171005487442 -0.25817278027534485 -0.24124103784561157 -0.4806632399559021 -0.08719679713249207 0.2387584149837494 -0.3242143392562866 -0.1429262012243271 0.0589195117354393 0.019952930510044098 -0.11483094096183777 -0.4272364675998688 0.09245412051677704 -0.013414395041763783 -0.20700067281723022 -0.02459343522787094 0.1631491333246231 -0.1774914562702179 0.009254064410924911 0.019553231075406075 0.2605151832103729 0.2481745183467865 -0.09299089014530182 -0.3312423825263977 -0.39989957213401794 -0.12283559143543243 0.13635781407356262 -0.2540816068649292 0.02895674668252468 -0.37186577916145325 0.19547638297080994 0.0213333647698164 0.25125229358673096 -0.23572587966918945 -0.2493080198764801 0.5495138168334961 0.12290307134389877 -0.36198270320892334 -0.2828036844730377 0.0768892914056778 0.06544887274503708 -0.17037682235240936 -0.4508581757545471 0.3062405288219452 -0.09390484541654587
days 0.12406998872756958 0.18385125696659088 -0.2252059131860733 -0.08250679075717926 0.27661871910095215 -0.013719112612307072 -0.17412877082824707 -0.02313409000635147 0.23828953504562378 0.2643011212348938 -0.2719169557094574 -0.06522787362337112 0.3158782422542572 0.026466479524970055 -0.024610325694084167 0.05139720439910889 -0.22252289950847626 -0.13136939704418182 0.06346441060304642 0.3336651623249054 -0.18318352103233337 -0.5325388312339783 -0.1670008897781372 -0.06205075606703758 -0.11455559730529785 0.11805935204029083 0.1838846206665039 -0.12126939743757248 -0.5042742490768433 -0.17572110891342163 -0.20791782438755035 0.30558639764785767 -0.07783714681863785 -0.10842280089855194 -0.0832175761461258 -0.049191031605005264 0.42020127177238464 -0.23286795616149902 0.12390798330307007 0.2656037509441376 0.3834161162376404 -0.11114313453435898 -0.15647417306900024 -0.27722397446632385 -0.025678621605038643 -0.09404373168945312 -0.18020345270633698 0.10488792508840561 -0.03627569228410721 -0.0398130863904953 0.1754142791032791 -0.4395785331726074 -0.026573335751891136 0.04000295326113701 0.01642562262713909 -0.04656405746936798 0.13354656100273132 -0.19949620962142944 0.19412246346473694 -0.09596357494592667 -0.26763609051704407 -0.09817339479923248 -0.0598081573843956 -0.025470556691288948 0.1982496976852417 0.26317062973976135 0.3031980097293854 0.31522542238235474 -0.1904565393924713 -0.14339254796504974 -0.25812238454818726 0.0403679683804512 -0.1317606419324875 -0.01704591140151024 0.2212975174188614 -0.10485059022903442 0.4416208565235138 -0.3008419871330261 0.023291222751140594 -0.47892919182777405 0.11267130076885223 -0.25675445795059204 0.2543643116950989 -0.11625996977090836 -0.1918349266052246 0.13472327589988708 -0.23977027833461761 -0.24970591068267822 0.5959945917129517 0.367168128490448 0.36751267313957214 -0.14514769613742828 0.4222615957260132 -0.32489579916000366 0.3302377760410309 0.0355566143989563 0.10297917574644089 -0.21205970644950867 -0.28384894132614136 -0.10070320963859558
political 0.0025266658049076796 -0.027932504191994667 0.011392451822757721 -0.06669551879167557 -0.1494753062725067 0.08937915414571762 -0.3192472755908966 0.061281364411115646 -0.0012070280499756336 0.1048608049750328 0.05060449242591858 0.014665425755083561 0.21255986392498016 -0.009947639890015125 0.027079645544290543 0.11228692531585693 0.0982142984867096 0.03244996443390846 -0.17960621416568756 0.02485305443406105 -0.1945682317018509 -0.1495985984802246 0.2629082202911377 -0.05376466363668442 -0.014914444647729397 -0.05433670058846474 0.011719295755028725 0.14577417075634003 0.06574586778879166 0.04122377932071686 0.06204980984330177 -0.010798708535730839 -0.047089532017707825 0.021181270480155945 0.015174243599176407 0.008766760118305683 0.09752040356397629 -0.07375914603471756 0.20390371978282928 -0.05787178501486778 -0.09395454823970795 -0.10692473500967026 -0.0056052119471132755 -0.04003085196018219 -0.014093868434429169 0.1007077544927597 0.008389436639845371 -0.16055989265441895 0.1748582124710083 -0.031357526779174805 -0.08158557862043381 -0.04109783098101616 0.009490122087299824 0.10901792347431183 -0.1988850235939026 -0.1347668617963791 0.004119153134524822 0.011524997651576996 -0.13486652076244354 -0.19935819506645203 -0.24020181596279144 0.028496816754341125 -0.1661914587020874 -0.07119618356227875 0.126309335231781 0.012637454085052013 0.09710713475942612 0.10766668617725372 0.027519242838025093 0.1265973448753357 0.12262125313282013 0.19058145582675934 0.12857156991958618 0.15874379873275757 0.0467400997877121 -0.15419021248817444 0.08893712610006332 -0.0022498953621834517 -0.07483483105897903 -0.05413835495710373 0.28669846057891846 0.07656853646039963 0.15721143782138824 0.039860960096120834 0.02644609473645687 -0.08165925741195679 -0.052363071590662 -0.10177945345640182 0.07508338242769241 -0.0810508280992508 -0.033796943724155426 0.14646203815937042 0.015129256062209606 0.22080160677433014 0.0399940051138401 0.1480236053466797 0.03792379051446915 -0.11737620085477829 -0.048102740198373795 -0.08577370643615723
more -0.09135419130325317 -0.10397326946258545 0.08674830198287964 0.13904330134391785 0.3677999675273895 0.12008042633533478 0.20685450732707977 0.008835002779960632 -0.340633362531662 0.16043047606945038 -0.18477749824523926 -0.18322591483592987 -0.2273702174425125 0.48381057381629944 0.04268278554081917 -0.11245738714933395 -0.21789592504501343 0.04026857763528824 -0.1678384393453598 -0.06994200497865677 -0.11085736751556396 -0.4412279725074768 0.04114725440740585 -0.2858513593673706 0.15867188572883606 -0.5387205481529236 -0.06684896349906921 0.025050029158592224 -0.18409296870231628 -0.12390884757041931 -0.21522271633148193 0.5325807332992554 -0.0015352849150076509 -0.07317472994327545 0.16652871668338776 -0.11330164968967438 0.37088459730148315 -0.2985491156578064 0.4595487415790558 -0.07191415131092072 -0.24574461579322815 -0.333207905292511 -0.4072110652923584 -0.21426986157894135 0.3577318489551544 -0.4898291826248169 0.21609371900558472 0.20205038785934448 0.2578968107700348 -0.11154284328222275 -0.01304271724075079 -0.23735150694847107 -0.07620475441217422 -0.019238561391830444 0.07480810582637787 0.10895969718694687 -0.14383433759212494 0.2619221806526184 -0.24621091783046722 -9.571693954057992E-4 -0.09344019740819931 -0.027335742488503456 0.20417377352714539 0.07875986397266388 -0.2628931701183319 -0.23789167404174805 -0.35554930567741394 -0.204817533493042 0.09218841791152954 0.021068409085273743 0.04234637692570686 0.24717959761619568 -0.4176877737045288 0.12051728367805481 0.2209823727607727 -0.2890671193599701 -0.379156231880188 0.16787132620811462 -0.42466336488723755 0.10416809469461441 -0.19685296714305878 0.06408727914094925 -0.24283528327941895 -0.6353489756584167 0.09626416862010956 -0.030963363125920296 -0.08298031985759735 -0.013978463597595692 0.02396620623767376 0.15746580064296722 -0.009484381414949894 0.08099652826786041 0.26146483421325684 0.09929106384515762 0.1397836059331894 -0.137694850564003 -0.04464205726981163 0.16756290197372437 -0.2708030939102173 -0.23225191235542297
up -0.027405139058828354 0.024046093225479126 -0.08532595634460449 0.03869614750146866 0.20341849327087402 0.2694088816642761 0.07408437132835388 0.049103401601314545 -0.04837079346179962 0.12298351526260376 0.0033668477553874254 0.015241153538227081 0.10087458789348602 0.15641608834266663 0.12318572402000427 0.1328512281179428 0.011430002748966217 0.0929064080119133 0.04996674507856369 -0.1292252093553543 -0.07703099399805069 -0.04405974596738815 0.1225023940205574 -0.0608292855322361 -0.20278766751289368 0.1724398136138916 0.1826886236667633 -0.08146431297063828 0.17859013378620148 0.14467433094978333 -0.26229533553123474 -0.14273452758789062 -0.35714825987815857 0.1311568170785904 -0.21003639698028564 0.04959540814161301 -0.06911154836416245 -5.184712936170399E-4 0.055835265666246414 0.15208914875984192 0.055681243538856506 -0.2198270857334137 -0.146973118185997 0.22715933620929718 0.39457255601882935 -0.10920114070177078 -0.30535319447517395 0.12037109583616257 -0.09266164898872375 -0.3670467734336853 -0.24873030185699463 -0.10822325199842453 -0.05139535665512085 0.08105690777301788 0.17789119482040405 0.09688405692577362 -0.4652445316314697 0.1709694117307663 0.1675608605146408 0.18682505190372467 -0.33428046107292175 -0.04985228180885315 0.2620599865913391 -0.007911053486168385 0.34077566862106323 -0.14245130121707916 -0.10484948754310608 -0.05105358362197876 -0.21798157691955566 -0.07748190313577652 -0.14739517867565155 -0.040899261832237244 -0.24572299420833588 0.06867960095405579 0.1751711517572403 0.05437218397855759 -0.10819515585899353 -0.02124473825097084 0.025503620505332947 0.07159671187400818 0.17111632227897644 -0.25370165705680847 -0.3464616537094116 -0.12469826638698578 -0.12194212526082993 0.07871747761964798 -0.07275718450546265 0.08980235457420349 -0.0372588075697422 -0.050790030509233475 0.2732541263103485 -0.17969301342964172 -0.05863643437623978 -0.009965128265321255 -0.25814253091812134 0.3232400715351105 -0.16354486346244812 -0.1142020970582962 0.3757505416870117 0.17286443710327148
few 0.020317651331424713 -0.1992425173521042 -0.6033656597137451 -0.10231683403253555 0.12869124114513397 -0.23469692468643188 0.16011598706245422 -0.01596073992550373 -0.19030959904193878 0.21848708391189575 -0.13819541037082672 -0.21278752386569977 0.31699901819229126 0.2366522252559662 0.07541468739509583 -0.09579434245824814 0.017747674137353897 -0.04492713510990143 -0.0072876764461398125 0.26066020131111145 0.18224592506885529 -0.13408255577087402 0.24670977890491486 -0.024902580305933952 -0.03359507769346237 -0.21809789538383484 0.05062100663781166 -0.294337660074234 -0.3914572596549988 0.1470734030008316 -0.05656548961997032 0.4018087685108185 -0.4145113527774811 -0.03932928666472435 -0.15845802426338196 0.11051919311285019 0.09345608204603195 -0.4553070664405823 -0.05769440531730652 -0.03809640184044838 0.20449531078338623 -0.17840179800987244 -0.11382101476192474 -0.13403573632240295 0.11848714202642441 -0.18595071136951447 0.05975612252950668 -0.1340753734111786 0.1980777233839035 -0.13543862104415894 0.09016825258731842 -0.9798011779785156 -0.006074544508010149 0.11118705570697784 -0.5061731338500977 -0.278654009103775 0.16490212082862854 -0.334610253572464 -0.2351270467042923 -0.2934020459651947 -0.22459574043750763 0.14933417737483978 -0.12345179170370102 0.38679736852645874 -0.21301120519638062 -0.013822496868669987 0.2860431373119354 0.2537124454975128 -0.12929405272006989 0.12415925413370132 -0.038471560925245285 0.21354110538959503 0.10047562420368195 -0.10468631982803345 0.22881397604942322 -0.05203044414520264 0.25166842341423035 -0.14717353880405426 0.06483058631420135 -0.32506078481674194 0.31194475293159485 -0.22787101566791534 0.26733043789863586 0.1618281602859497 -0.10623118281364441 0.1176784485578537 -0.23031434416770935 -0.26650476455688477 0.3377453684806824 0.060527630150318146 -0.10397977381944656 0.028404371812939644 0.6697638034820557 -0.020248936489224434 0.1967652440071106 -0.17634956538677216 -0.11792855709791183 -0.0632171481847763 -0.2920149862766266 0.17382504045963287
but -0.049927450716495514 0.12326081097126007 -0.19743186235427856 0.07596204429864883 0.11846163123846054 -0.14928299188613892 -0.161403626203537 -0.16429643332958221 -0.0015085209161043167 0.08779432624578476 0.20320208370685577 -0.19572953879833221 0.17254772782325745 -0.18468263745307922 0.08815613389015198 0.06361190974712372 0.024506021291017532 0.051478464156389236 -0.03570372983813286 -0.20791994035243988 0.0506531298160553 0.16673938930034637 0.12491985410451889 -0.20568935573101044 -0.025710327550768852 -0.027239173650741577 -0.04981052130460739 -0.03396773338317871 -0.00436085881665349 -0.22460781037807465 0.2361808568239212 -0.08232863247394562 0.030595246702432632 -0.013884307816624641 0.0710124522447586 -0.2260189801454544 0.363008052110672 0.25097087025642395 0.2442389279603958 0.10000710934400558 -0.010836179368197918 0.024752799421548843 0.0021145110949873924 0.128960520029068 -0.012948176823556423 -0.09381765872240067 0.2392464429140091 0.05938958749175072 0.25682058930397034 0.12647128105163574 0.010208100080490112 -0.03822188824415207 0.02456645295023918 0.23053783178329468 -0.2104906588792801 -0.05520749092102051 0.20164737105369568 -0.06720946729183197 0.11787854135036469 -0.08921226859092712 0.07145257294178009 -0.12575127184391022 -0.03626691550016403 0.04540320485830307 -0.14164231717586517 0.09671439230442047 -0.0973658636212349 -0.004509177524596453 0.12783290445804596 -0.06106417626142502 -0.07548242062330246 0.20126670598983765 0.10275821387767792 -0.012381202541291714 0.08509045094251633 -0.27136656641960144 -0.22756873071193695 -0.15314266085624695 0.08673669397830963 0.34230610728263855 0.0685100108385086 -0.002984521444886923 -0.07172641158103943 0.09424294531345367 0.06637803465127945 0.11526242643594742 -0.14007321000099182 -0.13576236367225647 0.18809190392494202 0.013817724771797657 -0.07252827286720276 0.04786600172519684 -0.28063616156578064 0.09864194691181183 0.005327788647264242 -0.11538325995206833 0.02602090686559677 -0.14358288049697876 0.18271790444850922 -0.0753299817442894
may -0.13563285768032074 0.06864453852176666 -0.24070145189762115 -0.03391611576080322 0.13553279638290405 0.2684497535228729 0.053835928440093994 0.02558271214365959 -0.2831786274909973 0.19657568633556366 0.4132840037345886 -0.380506306886673 0.24904508888721466 -0.03997470811009407 0.16960197687149048 0.5655045509338379 -0.24568890035152435 -0.25687921047210693 -0.053649093955755234 -0.33725428581237793 -0.1755208820104599 0.023780319839715958 -0.05524776130914688 -0.2975226640701294 -0.10643038898706436 0.01664922572672367 0.0905686765909195 0.06115710362792015 -0.14906291663646698 0.006557633634656668 -0.17322877049446106 0.22641220688819885 0.12924346327781677 -0.3009661138057709 -0.020090941339731216 0.13378600776195526 0.19107626378536224 -0.026089278981089592 0.06227885186672211 -0.3638650178909302 0.1673203706741333 -0.03751013055443764 0.3461981415748596 0.1519928276538849 -0.16393694281578064 0.019977707415819168 -0.09095413237810135 -0.2733469009399414 -0.07832468301057816 -0.3636852204799652 -0.29480990767478943 0.019876880571246147 0.1626102477312088 -0.09767540544271469 -0.09150026738643646 -0.18749985098838806 -0.25262781977653503 -0.135316401720047 -0.5735137462615967 0.2249038815498352 -0.196955144405365 0.25842994451522827 -0.1873413324356079 0.12443245202302933 0.08804923295974731 0.053206074982881546 -0.08058648556470871 0.015981236472725868 -0.03663323447108269 0.3462979793548584 0.2738332748413086 -0.09701099246740341 0.3147740066051483 -0.31715187430381775 -0.3322892487049103 -0.2120768129825592 0.1750420182943344 0.39700847864151 0.3350456953048706 -0.22879290580749512 0.16071763634681702 0.2627212405204773 -0.2731626033782959 -0.31160837411880493 0.5303141474723816 0.1725182682275772 0.05086961016058922 -0.03663397952914238 0.10512872785329819 0.010803950019180775 0.09833473712205887 0.13591645658016205 0.0878310427069664 -0.00539302546530962 0.028634103015065193 -0.12831449508666992 0.03167964145541191 -0.23510147631168365 0.2990392744541168 -0.08271173387765884
how 0.011768164113163948 -0.49786558747291565 0.012332629412412643 0.005644617602229118 -0.03819863870739937 -0.06212702766060829 -0.05401216447353363 -0.16296222805976868 0.3263537287712097 -0.13409164547920227 0.1610250622034073 -0.21446704864501953 -0.23982815444469452 -0.24706733226776123 0.13114960491657257 -0.2724519670009613 -0.18424545228481293 -0.15746881067752838 0.04447924345731735 0.17318707704544067 0.18918389081954956 -0.07982569932937622 -0.25283026695251465 -0.07596754282712936 -0.03035823069512844 0.059382252395153046 0.18202152848243713 -0.005036213900893927 -0.18987159430980682 -0.04968016594648361 0.04352481663227081 0.059482891112565994 -0.3970963954925537 -0.0751652792096138 0.03795655071735382 -0.40549200773239136 0.5364916920661926 0.10727903246879578 -0.19142445921897888 -0.37517639994621277 -0.10203815996646881 0.2728119492530823 0.05516492575407028 0.060242339968681335 -0.11701606959104538 -0.05819566175341606 -0.364550918340683 0.12081435322761536 0.22046008706092834 0.041371166706085205 0.04550512135028839 -0.02846028469502926 0.10262181609869003 0.30095481872558594 0.10730529576539993 0.11581198871135712 0.14122851192951202 -0.04401763156056404 -0.1326388567686081 0.20097115635871887 0.011725172400474548 0.2391670048236847 -0.05275615304708481 0.43334779143333435 0.23617656528949738 -0.07058969140052795 0.131226047873497 -0.10490956157445908 0.28163942694664 0.12354154139757156 -0.33444586396217346 -0.26001012325286865 0.0788738951086998 0.08832776546478271 0.24638444185256958 -0.3619037866592407 -0.1187184676527977 0.2809947431087494 -0.5697746276855469 0.07749290019273758 -0.045427173376083374 0.17172881960868835 -0.6071035265922546 0.029121343046426773 -0.2060835212469101 -0.18668319284915924 -0.3708782494068146 -0.220125213265419 0.0920860543847084 0.36232292652130127 0.19080279767513275 0.04840438812971115 -0.2847147285938263 0.15187975764274597 -0.12276626378297806 -0.1832524687051773 0.09141035377979279 -0.3450552523136139 -0.1261252462863922 0.09828384965658188
those 0.43345746397972107 0.0258465763181448 -0.14713087677955627 0.0488128699362278 0.4213828444480896 -0.13614784181118011 -0.1667015552520752 0.14230477809906006 -0.11717550456523895 0.15437817573547363 -0.08441757410764694 -0.29732179641723633 -0.01607455499470234 0.30841201543807983 0.07283424586057663 -0.18222592771053314 -0.018542282283306122 -0.029370125383138657 0.05241270363330841 0.09523800015449524 -0.08143594115972519 0.016825968399643898 0.10324127972126007 -0.2769874334335327 -0.022269586101174355 -0.0015737138455733657 0.03667309135198593 -0.3240261673927307 -0.456592321395874 0.14090095460414886 -0.23056206107139587 0.25126567482948303 -0.07564544677734375 -0.40337157249450684 -0.04796149209141731 0.48177292943000793 0.06248452514410019 -0.225406214594841 -0.1373523324728012 0.07293330878019333 0.22529321908950806 -0.16505789756774902 -0.13427279889583588 -0.04847198724746704 0.07289349287748337 -0.0012426780303940177 0.12269691377878189 0.061772558838129044 0.03281232714653015 -0.14454224705696106 -0.08253487199544907 -0.4522557258605957 -0.3249020278453827 0.016699984669685364 -0.30296310782432556 -0.01581474393606186 0.32974371314048767 -0.15300187468528748 0.15431953966617584 -0.022837815806269646 -0.13818691670894623 -0.14999788999557495 0.011563746258616447 0.4098319411277771 -0.20893257856369019 0.14421118795871735 0.2053171545267105 0.23104049265384674 -0.19865360856056213 -0.24210421741008759 -0.19296146929264069 0.1855875849723816 -0.03331349045038223 0.019868049770593643 -0.06363202631473541 -0.16524638235569 0.3983766734600067 0.11935032904148102 -0.058731768280267715 -0.1321992576122284 -0.19246910512447357 -0.26398149132728577 0.17857709527015686 0.021021822467446327 -0.1715613305568695 -0.02260090596973896 0.09798647463321686 0.23058563470840454 0.29599735140800476 0.3145485818386078 -0.0068253278732299805 -0.3101651072502136 0.45794159173965454 -0.019353171810507774 0.16579975187778473 -0.2743569612503052 -0.16608409583568573 -0.35660815238952637 0.09447129815816879 0.17482371628284454
music -0.06280846893787384 0.2039041519165039 0.2195194661617279 -0.039616744965314865 -0.19066591560840607 0.17093634605407715 -0.17849330604076385 0.19419728219509125 -0.07279518991708755 -0.047690197825431824 -0.014414358884096146 0.21810314059257507 0.013853531330823898 0.03596900776028633 0.08896509557962418 -0.09463705867528915 0.025949625298380852 0.041099146008491516 -0.13862159848213196 -0.24908976256847382 -0.2139800637960434 -0.27727678418159485 0.14682406187057495 -0.355758398771286 -0.07934416085481644 0.0018349380698055029 -0.154836505651474 -0.01367841474711895 0.14437738060951233 -0.20075581967830658 0.1354258507490158 -0.0302704107016325 0.09322481602430344 -0.05032176896929741 0.07942485064268112 -0.18670271337032318 -0.012790870852768421 -0.04189718887209892 0.16648095846176147 -0.14482784271240234 -0.09928636997938156 -0.2346518635749817 -0.03935995697975159 -0.008250419050455093 0.13309693336486816 0.0026967155281454325 -0.07337383180856705 0.06710303574800491 0.12196763604879379 -0.11041629314422607 -0.2660817503929138 0.07517517358064651 -0.07783760875463486 0.040790677070617676 0.04497024044394493 0.03647710010409355 0.007915923371911049 -0.01803268864750862 -0.06283172965049744 -0.13806942105293274 -0.16493509709835052 0.2717447280883789 0.3462861180305481 -0.1114061176776886 0.09273393452167511 0.14295141398906708 0.07022802531719208 0.12974928319454193 0.07130136340856552 0.10198783129453659 0.016781678423285484 0.09799008071422577 -0.09552285075187683 0.24895429611206055 -0.07207120954990387 0.23138034343719482 0.06827139109373093 -0.02755066007375717 -0.13815709948539734 0.09488685429096222 0.09133797883987427 0.020144930109381676 0.08076875656843185 0.0922149270772934 0.15339714288711548 -0.03953690081834793 0.01828146167099476 8.318795589730144E-4 0.03435298427939415 0.16415256261825562 -0.08624183386564255 0.012711985036730766 -0.07753285020589828 0.2377111166715622 0.0449654795229435 0.03898774832487106 0.036224499344825745 -0.04838474467396736 -0.056486379355192184 0.043846651911735535
street -0.05699261277914047 0.21702075004577637 -0.158433198928833 -0.23324112594127655 0.09993089735507965 -0.1898299753665924 -0.2530345320701599 0.11838222295045853 -0.10668947547674179 0.014701291918754578 -0.09874472767114639 0.2353716939687729 0.15978984534740448 -0.18806371092796326 0.11985902488231659 -0.10667000710964203 -0.10226500779390335 0.16431383788585663 0.02561725676059723 0.005100983660668135 -0.024464359506964684 -0.22830338776111603 0.26519134640693665 -0.06355079263448715 -0.3371569812297821 -0.03633829206228256 0.004946539644151926 -0.1671617329120636 0.11009109020233154 -0.0015538379084318876 0.028284473344683647 0.1790211945772171 0.0750269666314125 0.07917995005846024 -0.14591678977012634 -0.17316201329231262 0.16922244429588318 0.051719553768634796 -0.030329925939440727 0.007119111251085997 0.06403844803571701 -0.025007659569382668 -0.08888715505599976 0.23038844764232635 -0.06024898216128349 -0.10558101534843445 -0.13754083216190338 -0.19207972288131714 -0.10221027582883835 -0.26787373423576355 -0.13241510093212128 -0.12055527418851852 -0.0919635146856308 -0.27830034494400024 0.018085215240716934 0.0825168639421463 -0.16884392499923706 -0.048564109951257706 0.1684282124042511 -0.11203454434871674 -0.3388786017894745 0.2601660192012787 0.221186563372612 -0.08573146909475327 0.3507772982120514 0.11471638083457947 0.03092382475733757 -0.034688111394643784 -0.17782168090343475 0.13412238657474518 -0.15546292066574097 -0.030226493254303932 0.0913822203874588 0.20154984295368195 0.06609450280666351 0.233657568693161 0.2804631292819977 -0.30532482266426086 0.03600199893116951 -0.06996670365333557 0.23103652894496918 -0.06959061324596405 0.3427708148956299 0.10613096505403519 0.035569097846746445 -0.01469434518367052 -0.1284468024969101 0.23021532595157623 0.1599256694316864 0.10185850411653519 -0.09763769805431366 0.0593714602291584 -0.07805444300174713 -0.055855341255664825 -0.11278117448091507 0.1460632085800171 0.02346956729888916 0.011265606619417667 0.11770724505186081 0.06885626912117004
a -0.16707934439182281 -0.3782532513141632 -0.006576077546924353 -0.0890028327703476 -0.11057339608669281 0.13143394887447357 -0.2403426468372345 0.23888808488845825 -0.03872254863381386 0.027286168187856674 -0.251661092042923 -0.29348859190940857 0.15447111427783966 0.11096607893705368 -0.28789445757865906 0.4339505136013031 -0.06421283632516861 -0.23725107312202454 -0.2447914332151413 0.080744668841362 -0.13650472462177277 -0.29338502883911133 0.03785572201013565 0.12947872281074524 -0.2777688503265381 0.2410956770181656 -0.02243458852171898 -0.19549137353897095 -0.1668996959924698 -0.0075593250803649426 -0.049328308552503586 0.05284292623400688 -0.013597555458545685 0.2550811469554901 -0.20399504899978638 -0.17974038422107697 0.011973151937127113 -0.3513619601726532 0.48236995935440063 0.07567165046930313 -0.0860448032617569 0.08764481544494629 0.2255399376153946 -0.6184195876121521 -0.04683467373251915 -0.15574346482753754 0.09867391735315323 -0.3379305601119995 -0.047993533313274384 0.04428022354841232 -0.3310733735561371 -0.09813699126243591 -0.03938343748450279 0.3473924994468689 0.2680714428424835 -0.10860802233219147 0.12754826247692108 -0.09184135496616364 -0.13380178809165955 -0.3481057286262512 0.09979641437530518 -0.17891618609428406 0.2831087112426758 -0.47855299711227417 -0.12321732938289642 -0.1224411129951477 -0.22676225006580353 -0.11335597187280655 0.12966929376125336 -0.20308935642242432 -0.04380183294415474 0.09471824765205383 -0.008451024070382118 -0.027455134317278862 0.07582288980484009 -0.4980609714984894 -0.162946879863739 0.2346176952123642 -0.24970979988574982 -0.3759729564189911 -0.16636952757835388 0.03265425190329552 -0.19212710857391357 0.027167249470949173 0.1597137600183487 -0.0724165216088295 0.18295778334140778 -0.007688091602176428 -0.051610417664051056 0.07156693190336227 0.5310236215591431 -0.03872783109545708 -0.18947958946228027 -0.1488516479730606 0.21297015249729156 0.26239457726478577 0.024856185540556908 -0.45432937145233154 0.23459762334823608 -0.16008824110031128
