been 0.15649382770061493 0.1940976232290268 0.09584230184555054 0.03343009203672409 -0.5057919025421143 0.3254137933254242 -0.37738174200057983 -0.4102783799171448 -0.35515496134757996 -0.4919759929180145 0.26912060379981995 0.32609525322914124 -0.27149325609207153 -0.23396404087543488 -0.10179658979177475 -0.04580814018845558 0.03173809126019478 -0.34481048583984375 0.3026055097579956 -0.48853063583374023 -0.12272284924983978 -0.13701024651527405 -0.09504110366106033 0.018686532974243164 -0.07947050034999847 0.22395513951778412 0.0517604723572731 0.18334026634693146 -0.05472250282764435 0.687908947467804 -0.045162834227085114 0.5932241678237915 -0.35315197706222534 0.6161623597145081 -0.006042936351150274 -0.12267444282770157 -0.21516093611717224 -0.017047937959432602 0.14050014317035675 0.4227384626865387 0.553095281124115 0.3839336335659027 -0.2949761152267456 0.08653045445680618 -0.6792792677879333 0.1631670594215393 -0.11260880529880524 0.31099361181259155 0.15137697756290436 0.018925826996564865 0.24973182380199432 0.01310498733073473 0.32628628611564636 -0.19360192120075226 -0.042554885149002075 -0.4611568748950958 0.07040002197027206 0.03723161667585373 -0.16596625745296478 -0.08007857948541641 0.01088727917522192 0.05054519698023796 0.10075493156909943 -0.15470917522907257 -0.17002767324447632 -0.27815011143684387 -0.039339542388916016 -0.25174495577812195 -0.20725907385349274 0.15528088808059692 -0.07624004036188126 0.28712156414985657 0.29479026794433594 0.07701630890369415 -0.005223119165748358 -0.1043001040816307 0.7190452814102173 0.3708871304988861 0.2146906554698944 0.23083166778087616 0.06973349303007126 -0.3568606674671173 -0.21413834393024445 -0.026972075924277306 -0.15928736329078674 -0.0457734540104866 0.13327480852603912 -0.6686065793037415 -0.04483657330274582 -0.28211769461631775 -0.4887184500694275 0.1816728711128235 -7.448779651895165E-4 -0.14952929317951202 0.015553992241621017 0.20145687460899353 -0.09523998200893402 0.36192676424980164 0.03513203561306 -0.21388407051563263
year -0.10797850787639618 -0.03873331844806671 -0.3076624572277069 -0.1716681569814682 -0.29712432622909546 0.10435469448566437 0.01801314763724804 0.14879170060157776 0.07540980726480484 -0.38941875100135803 0.0651426911354065 0.3217136859893799 -0.47984668612480164 -0.08799778670072556 0.17480012774467468 -0.3915698230266571 -0.04787968099117279 -0.3906640410423279 0.12118270993232727 -0.007009954657405615 -0.27499499917030334 -0.17528672516345978 -0.347239226102829 -0.2598671019077301 0.2618694603443146 0.11169864237308502 0.380473256111145 0.25879931449890137 -0.18007488548755646 -0.07749562710523605 -0.020928872749209404 0.08296145498752594 -0.31580018997192383 0.027515601366758347 -0.013533862307667732 0.006837380584329367 0.2111126184463501 -0.20483964681625366 0.10043211281299591 -0.13918526470661163 -0.0618925467133522 0.024504320695996284 -0.12337081134319305 0.1017235815525055 -0.14918825030326843 -0.3256974518299103 0.022182678803801537 -0.04514743760228157 -0.03493005782365799 -0.18968302011489868 0.030835600569844246 0.2534514367580414 0.04527825489640236 -0.011188831180334091 -0.003458735067397356 -0.13673560321331024 0.26417526602745056 -0.20447884500026703 0.21982286870479584 0.23050902783870697 -0.11265990138053894 0.17314213514328003 0.3363131880760193 0.11831222474575043 -0.04059404879808426 0.07202538102865219 0.2474963515996933 0.07611823081970215 -0.5840859413146973 -0.020979510620236397 0.13325203955173492 0.18710899353027344 -0.09589634090662003 -0.16671104729175568 -0.23225507140159607 -0.48457467555999756 -0.2794698476791382 -0.30389055609703064 0.09714192897081375 0.027790382504463196 0.32744282484054565 -0.09513740241527557 0.22411289811134338 0.297362357378006 0.27200421690940857 -0.36367008090019226 0.0798422321677208 -0.007813625037670135 -0.39644959568977356 -0.29825547337532043 0.2520018219947815 -0.19297245144844055 0.1731860637664795 0.15551258623600006 -0.008533744141459465 -0.018723148852586746 -0.12659816443920135 0.27577319741249084 -0.07131369411945343 -0.339420348405838
about 0.09902039915323257 -0.19851769506931305 -0.007458460982888937 0.03158588334918022 0.056406229734420776 -0.02172151766717434 -0.046409983187913895 -0.3623124361038208 0.29813042283058167 -0.22861309349536896 0.24382130801677704 0.1504274308681488 0.2811914086341858 -0.062450312077999115 0.16564443707466125 -0.45425355434417725 0.2927187383174896 -0.11789702624082565 -0.13706912100315094 0.17000409960746765 -0.4276835322380066 -0.029369300231337547 -0.15849779546260834 0.08293323963880539 0.41547536849975586 0.02110818400979042 0.014813493937253952 0.04878268390893936 0.21531124413013458 0.11012426763772964 0.19698749482631683 -0.18637992441654205 -0.14910487830638885 -0.1199929490685463 -0.23266875743865967 0.03620222210884094 0.08424316346645355 -0.0856751948595047 0.046148914843797684 0.30529680848121643 -0.27959370613098145 -0.13073162734508514 0.35382091999053955 0.09195869415998459 -0.048795633018016815 0.39149945974349976 0.3511432409286499 -0.19072063267230988 -0.1977137178182602 -0.2510228157043457 0.07515453547239304 0.22115683555603027 0.06151783466339111 0.2685895264148712 0.2296547144651413 -0.07230301201343536 0.05888492614030838 0.020647600293159485 0.23013058304786682 -0.060413479804992676 0.08133374154567719 0.499528706073761 -0.17250223457813263 -0.2474169284105301 0.13174787163734436 0.14399349689483643 0.18717777729034424 -0.3646090626716614 0.1698935478925705 -0.033930420875549316 -0.4112796485424042 -0.09984808415174484 0.055020444095134735 0.2404230237007141 0.21712838113307953 -0.2304273098707199 0.05983109399676323 0.09447591751813889 0.3689829707145691 0.27498874068260193 0.059081610292196274 0.07342980802059174 -0.24076810479164124 0.1791612207889557 0.11664167046546936 0.25089073181152344 0.06496798992156982 0.1746216118335724 -0.2090846449136734 0.3006957471370697 0.16989338397979736 0.14514577388763428 -0.00516582652926445 -0.2636943757534027 -0.009084997698664665 0.06844324618577957 0.11818910390138626 0.08325154334306717 -0.26361244916915894 0.03639879450201988
your 0.1530902236700058 0.14594382047653198 -0.3855833113193512 -0.19010913372039795 -0.035209283232688904 0.11828576028347015 0.25127172470092773 -0.1688188910484314 -0.14033514261245728 -0.24653249979019165 -0.27040350437164307 0.1349402815103531 0.0499139130115509 -0.38970261812210083 0.1606505811214447 0.158279150724411 0.14801199734210968 0.09200681000947952 -0.16593503952026367 0.21646426618099213 -0.2981281876564026 -0.06902244687080383 0.25529471039772034 -0.010006096214056015 -0.21295253932476044 0.17610101401805878 -0.2245359867811203 -0.19392237067222595 -0.40043357014656067 -0.027229344472289085 0.11627090722322464 0.10003446042537689 0.10859135538339615 -0.2811528146266937 -0.029185747727751732 -0.02647756040096283 -0.44348829984664917 0.1924804151058197 0.10230333358049393 0.023376215249300003 -0.30588406324386597 0.1823577880859375 0.3054021894931793 -0.06796964257955551 0.3952864110469818 -0.2593727707862854 0.02066168002784252 0.18493646383285522 0.11369689553976059 0.15886402130126953 0.015027758665382862 0.0024259628262370825 -0.20708422362804413 0.29592886567115784 0.41653212904930115 0.024180717766284943 -0.12668168544769287 -0.09505581855773926 0.44953688979148865 -0.19742843508720398 0.2452957034111023 0.0113562336191535 0.09945116937160492 -0.10703917592763901 -0.26200661063194275 -0.13392959535121918 0.09948775917291641 -0.05835210159420967 -0.011729982681572437 0.32387229800224304 -0.07177285104990005 -0.048702362924814224 0.08406286686658859 -0.08362936973571777 0.2472037374973297 -0.26079681515693665 0.2187918871641159 -0.028293928131461143 -0.3831283450126648 0.24644233286380768 -0.13277800381183624 0.08136600255966187 -0.09976433217525482 0.26325756311416626 0.035528864711523056 0.07512595504522324 0.16047270596027374 0.05217132344841957 -0.14760474860668182 0.44582101702690125 -0.12738804519176483 -0.2537563741207123 0.060700077563524246 -0.12362411618232727 0.5870487093925476 0.12316582351922989 0.3322656750679016 -0.17093585431575775 -0.13700740039348602 0.13951049745082855
without 0.1688525378704071 -0.2659561038017273 0.013130752369761467 -0.11590977013111115 -0.27819010615348816 -0.05946371704339981 -0.157535582780838 -0.20829743146896362 0.05521690472960472 0.10612765699625015 -0.06062600016593933 -0.009307082742452621 0.04072891175746918 0.12399765104055405 -0.14171825349330902 0.06312071532011032 -0.15722395479679108 -0.177435040473938 -0.08599904924631119 0.03297385200858116 -0.02964712306857109 0.143954336643219 -0.3594329059123993 -0.058892153203487396 0.31696009635925293 0.07706884294748306 -0.09098721295595169 0.13692621886730194 -0.24763795733451843 -0.03309342637658119 -0.36149296164512634 0.003232741029933095 -0.25227344036102295 0.0840674638748169 -0.12541243433952332 -0.059814389795064926 -0.2688913643360138 0.09979111701250076 -0.026526307687163353 0.1332676261663437 0.08610396832227707 -0.19930292665958405 -3.2610847847536206E-4 -0.04062820225954056 -0.1619470864534378 0.018504535779356956 -0.16606341302394867 0.052859678864479065 0.011271147057414055 0.08788803219795227 -0.15570320188999176 0.29920029640197754 0.20662559568881989 0.191446453332901 -0.04382549226284027 0.15464064478874207 -0.041535358875989914 0.3492465019226074 0.213361456990242 -0.06688637286424637 0.08999182283878326 0.26582470536231995 3.4316355595365167E-4 -0.22164644300937653 -0.20214039087295532 -0.036742743104696274 0.36095768213272095 -0.033645886927843094 0.2559570074081421 0.06622852385044098 -0.16651329398155212 0.11025684326887131 -0.3066631555557251 -0.08451071381568909 0.06863123178482056 0.014428527094423771 -0.05317192152142525 -0.11975530534982681 -0.08934035152196884 0.15346598625183105 -0.13065987825393677 -0.04649860039353371 -0.1900440752506256 -1.6271181812044233E-4 0.22538501024246216 0.1351584494113922 0.10815071314573288 0.08899109810590744 -0.20375372469425201 -0.19976556301116943 0.04293113946914673 -0.24943764507770538 -0.17487703263759613 0.03449117764830589 0.3789184093475342 -0.15858489274978638 -0.16292507946491241 1.409300311934203E-4 0.0934339091181755 -0.15589593350887299
these 0.15655304491519928 0.048483315855264664 0.3433316648006439 0.3416149616241455 0.03420593589544296 -1.9506776880007237E-4 0.3637116849422455 0.1178291067481041 -0.17427407205104828 -0.16369785368442535 -0.14861313998699188 -0.11587987840175629 0.15263725817203522 -0.2132578045129776 -0.15848906338214874 0.3883077800273895 0.10703789442777634 -0.1506752371788025 -0.004491826519370079 0.3466978073120117 0.297320157289505 0.2410094290971756 -0.4040074646472931 0.19940714538097382 0.008583113551139832 0.17888198792934418 0.17440995573997498 -0.07464773952960968 -0.07702723145484924 -0.09604930132627487 -0.15355397760868073 0.0998554453253746 -0.271801233291626 -0.029685702174901962 0.0333002507686615 -0.13636745512485504 0.1331072449684143 0.014565245248377323 -0.24028904736042023 -0.09540263563394547 -0.3058537244796753 0.31441402435302734 0.4370257258415222 0.14403635263442993 -0.02134617045521736 -0.04785004258155823 -0.06302102655172348 0.3270951509475708 0.16589981317520142 0.08146265149116516 -0.04929696395993233 0.33260980248451233 0.1645912379026413 -0.3142230212688446 0.3403558135032654 0.2886042892932892 -0.429330438375473 0.039880964905023575 -0.1666690856218338 -0.19407297670841217 0.5166147947311401 0.25088953971862793 0.17020049691200256 -0.34908944368362427 0.038176409900188446 -0.29401832818984985 -0.020305946469306946 -0.05465961992740631 -0.1807011514902115 0.3282073140144348 -0.12742958962917328 -0.03347964957356453 0.21391522884368896 0.08250162750482559 0.5295976996421814 0.1555037647485733 -0.202015221118927 -0.13504047691822052 -0.14420516788959503 -0.19613423943519592 -0.026664365082979202 0.20584118366241455 0.18875306844711304 0.2420264482498169 -0.1370314359664917 -0.2283189743757248 -0.08881256729364395 -0.3371390402317047 0.2579059302806854 0.12303953617811203 0.15997973084449768 -0.006669294089078903 -0.011928808875381947 0.1854221522808075 -0.31282666325569153 -0.06372784823179245 -0.20818300545215607 -0.26519304513931274 -0.2688804864883423 -0.21221978962421417
companies 0.04392377287149429 -0.0909254252910614 -0.014825277030467987 0.035747114568948746 -0.07328451424837112 0.10129597038030624 0.11965692788362503 0.11740756779909134 -0.03363921120762825 -0.0061152009293437 -0.10382431000471115 -0.21177411079406738 0.09944568574428558 -0.11514726281166077 -0.04579011723399162 0.124922014772892 0.08936414122581482 0.01506827399134636 0.11309639364480972 0.12595559656620026 0.10841210931539536 0.17315323650836945 -0.11737087368965149 0.1276857554912567 -0.0399702750146389 -0.06366705894470215 -0.07534462213516235 0.07154431194067001 -0.14921227097511292 -0.15602335333824158 0.08945252746343613 0.1809043288230896 0.01878420263528824 -0.048856280744075775 0.010673523880541325 0.08290320634841919 0.1436130404472351 -0.03226694092154503 -0.1543349027633667 0.023410649970173836 0.08423318713903427 0.08686654269695282 0.055105458945035934 0.06301606446504593 -0.17337991297245026 -0.076431505382061 -0.16988645493984222 0.06985700875520706 -0.011523370631039143 -0.0512249618768692 0.01675494574010372 0.12769293785095215 -0.09276273101568222 -0.27834227681159973 0.05067119747400284 -0.11115286499261856 -0.2258441299200058 -0.11682116240262985 -0.13162066042423248 -0.04788104444742203 0.260606586933136 0.05834445729851723 0.1788424253463745 -0.10657208412885666 0.057390764355659485 -0.21290259063243866 -0.02997109666466713 -0.11735604703426361 -0.11756598949432373 -0.02825014665722847 -0.01646883599460125 0.06609880179166794 0.014039630070328712 -0.06621035933494568 0.06029454246163368 0.08283869922161102 -0.27209487557411194 0.07116829603910446 -0.18291142582893372 -0.18043425679206848 0.10237465798854828 -0.08403728157281876 0.05782879889011383 0.06641563028097153 -0.23428966104984283 -0.09427960216999054 0.097890704870224 -0.2640007436275482 -0.18802402913570404 -0.15339426696300507 0.09410202503204346 0.043456804007291794 -0.2538750171661377 0.02454199083149433 0.08833587914705276 -0.06431648135185242 0.034295231103897095 -0.19971424341201782 -0.1039462760090828 -0.15300408005714417
music -0.04145757108926773 -0.0713505819439888 -0.07524522393941879 -0.15985316038131714 0.1953054964542389 0.09199001640081406 0.034625522792339325 -0.12000931054353714 0.042572230100631714 0.13427326083183289 -0.1851782351732254 -0.17876940965652466 -0.03684355318546295 0.023479672148823738 0.15345416963100433 -0.15421095490455627 -0.141701802611351 -0.09452369809150696 0.27177706360816956 0.22272376716136932 -0.26065582036972046 -0.13244418799877167 -0.020895017310976982 -0.2457701563835144 0.04494813457131386 0.06704380363225937 0.157773956656456 -0.1064784824848175 0.14537905156612396 -0.1598631590604782 0.08089093863964081 -0.08380765467882156 0.21162164211273193 -0.23627306520938873 -0.10549581795930862 -0.003499837126582861 -0.012876037508249283 0.10349785536527634 0.18293745815753937 -0.15094882249832153 0.09227240085601807 -0.23137621581554413 0.04602465778589249 -0.06393108516931534 -0.03700702637434006 -0.030482811853289604 0.05834736302495003 0.29601916670799255 0.131227508187294 -0.3129536211490631 -0.07964278757572174 -0.12525446712970734 -0.17202453315258026 0.04858521372079849 -0.19506676495075226 -0.27600035071372986 -0.20517069101333618 -0.2271863967180252 -0.09226855635643005 -0.09933934360742569 0.04825076088309288 -0.11188813298940659 0.0024108453653752804 0.058317311108112335 -0.10142958164215088 0.06063874065876007 -0.22480325400829315 -0.1121261864900589 -0.06046317145228386 -0.001264729187823832 -0.08726434409618378 0.025980157777667046 -0.17074862122535706 -0.045422133058309555 -0.13594967126846313 -0.0509151890873909 0.28217607736587524 0.02165248431265354 0.05553603544831276 -0.09810363501310349 0.18450991809368134 -0.03008522093296051 0.005122286267578602 0.09438127279281616 0.025741100311279297 0.07935864478349686 -0.11189857125282288 0.09835082292556763 -0.11339570581912994 -0.03756457194685936 0.05629488453269005 0.18066467344760895 -0.18632887303829193 -0.09392987191677094 -0.06942392140626907 -0.12549671530723572 0.10756558924913406 0.04514842480421066 -0.0528622604906559 -0.0664539709687233
would 0.09762240946292877 -0.48910295963287354 0.22694508731365204 0.1424393206834793 -0.12603919208049774 -0.20397987961769104 0.004629774484783411 0.18615826964378357 0.17677929997444153 -0.0497129000723362 0.10798925906419754 0.041832100600004196 0.1503637582063675 -0.16901236772537231 0.08148441463708878 -0.09563189744949341 0.08255071192979813 0.02422253042459488 0.07938595861196518 -0.2823837697505951 -0.002637860830873251 0.05900978669524193 -0.2565944790840149 -0.1263105720281601 -0.26647651195526123 -0.13463041186332703 0.17377468943595886 0.010164612904191017 0.2296295464038849 0.330217182636261 -0.31790101528167725 0.21888042986392975 0.28518834710121155 0.11913922429084778 0.02304401434957981 0.032047100365161896 -0.18994736671447754 0.023491812869906425 0.23317843675613403 0.02674402855336666 0.13208036124706268 -0.046358320862054825 -0.026750411838293076 0.023236140608787537 0.299748957157135 0.19801698625087738 0.15413057804107666 -0.29347938299179077 0.05624601989984512 0.34539422392845154 -0.22144754230976105 0.05257267877459526 -0.19511963427066803 0.18593864142894745 -0.19714903831481934 0.06954817473888397 -0.19367146492004395 0.11258838325738907 -0.027231035754084587 -0.04056577384471893 0.153709277510643 -0.2352462261915207 -0.1894405335187912 0.0678400844335556 -0.16295962035655975 -0.2032899111509323 0.2593931555747986 -0.2850164771080017 0.13456566631793976 0.053509000688791275 -0.27872756123542786 0.014582153409719467 0.07910532504320145 -0.09410248696804047 -0.23336531221866608 0.24356544017791748 -0.2070697546005249 -0.08455553650856018 -0.14797765016555786 0.1222144216299057 0.18131960928440094 0.010294313542544842 -0.07193243503570557 0.07566743344068527 0.1475009024143219 -0.17501285672187805 -0.15815967321395874 -0.18777135014533997 -0.14300251007080078 -0.15937717258930206 0.034120768308639526 -0.10365858674049377 0.07132591307163239 0.2068750560283661 -0.26158463954925537 -0.2537054717540741 0.19541753828525543 -0.12130620330572128 0.44623738527297974 -0.3155108094215393
because 0.16734716296195984 -0.09474177658557892 0.24543550610542297 0.28424614667892456 -0.2073870599269867 0.1986866593360901 0.04248083382844925 -0.09565658867359161 0.14674855768680573 0.16325829923152924 -0.015091514214873314 0.023772425949573517 -0.04935052618384361 0.04810040071606636 0.1159810796380043 0.10642310976982117 -0.2865118086338043 0.17507833242416382 0.12169049680233002 -0.13075056672096252 -0.13416799902915955 0.08098720759153366 -0.1753547489643097 -0.07991791516542435 0.24844448268413544 0.11682528257369995 0.1401568353176117 -0.15132462978363037 0.15005367994308472 0.1630980670452118 -0.13702484965324402 -0.03193195164203644 -0.002706966595724225 -0.16662272810935974 -0.08799844980239868 -0.08535594493150711 0.004199230577796698 -0.14410468935966492 0.1419602483510971 -0.056488242000341415 0.0012888367054983974 -0.29779139161109924 0.017028283327817917 0.05053215101361275 0.03299421817064285 -0.07870638370513916 -0.16013969480991364 0.16615743935108185 0.036638788878917694 0.11900727450847626 -0.04510073363780975 -0.08476629108190536 -0.06650924682617188 -0.02593490108847618 -0.10901867598295212 0.2631634473800659 -0.1553012579679489 0.10307054966688156 0.06905721127986908 0.07487659901380539 -0.061820272356271744 0.14812052249908447 -0.08440674096345901 -0.2659076750278473 0.001414016936905682 0.13004352152347565 -0.05036621540784836 -0.06205129995942116 -0.016772355884313583 0.06600267440080643 -0.1817796230316162 -0.07466737180948257 0.09689890593290329 0.13912895321846008 -0.07666697353124619 0.15548083186149597 0.15964755415916443 -0.011344373226165771 0.0325758270919323 -0.04494945704936981 0.02516610361635685 0.15684300661087036 -0.053113650530576706 0.11622390896081924 0.07189804315567017 0.019001275300979614 -0.12261102348566055 0.07474575191736221 -0.06372831016778946 -0.13402926921844482 -0.1288682371377945 0.06259097903966904 0.01859491877257824 -0.2529221773147583 0.12607263028621674 -0.048073235899209976 -0.24486534297466278 0.1666363626718521 0.06012457609176636 -0.1045970618724823
state -0.048475924879312515 -0.11971860378980637 -0.14775410294532776 0.09211961925029755 0.003104567062109709 0.047442998737096786 -0.07177351415157318 -0.03280189633369446 -0.09795006364583969 0.065458744764328 -0.13858304917812347 -0.19424934685230255 -0.04538673534989357 0.030826540663838387 -0.03626848757266998 0.06289279460906982 0.024920014664530754 -0.25047820806503296 0.33937326073646545 0.19479364156723022 -0.11683150380849838 -0.19662079215049744 -0.24475178122520447 -0.16248489916324615 -0.0934772714972496 0.08276745676994324 -0.04868941754102707 0.21798080205917358 -0.21375291049480438 -0.09701558202505112 0.2271600216627121 -0.03751082718372345 -0.06531332433223724 -0.031904932111501694 -0.06537806987762451 0.09444887936115265 -0.05014972388744354 -0.0530458427965641 -0.04499213397502899 0.3072372376918793 -0.04485579580068588 -0.08425421267747879 0.15630576014518738 -0.05094444751739502 -0.10313138365745544 -0.21884754300117493 -0.1868700385093689 0.0810977965593338 0.1898854672908783 -0.44890108704566956 0.03294643387198448 0.18048924207687378 -0.01316145621240139 0.01779519021511078 -0.12571114301681519 -0.06463576853275299 -0.19428250193595886 -0.1462935358285904 0.2045537829399109 -9.040171280503273E-4 -0.08212307095527649 0.193008154630661 0.3641117513179779 -0.002665097825229168 -0.21219968795776367 -0.1185428574681282 -0.01896686479449272 -0.02503543347120285 -0.27622032165527344 0.07158980518579483 -0.06251513957977295 0.16101184487342834 -0.2797478139400482 -0.09188275039196014 0.11834540218114853 -0.1368841975927353 -0.02085394226014614 0.08375602960586548 0.2232852280139923 0.0025887656956911087 0.2764173746109009 -0.1358320116996765 0.03749663382768631 0.08748196810483932 0.10063029080629349 -0.019397784024477005 0.019581429660320282 0.06994110345840454 -0.22645175457000732 -0.21119484305381775 0.10750780999660492 -0.029533427208662033 -0.3300241231918335 0.02819264680147171 -0.12656529247760773 -0.20735810697078705 0.09450926631689072 -0.1820913851261139 -0.0275547057390213 -0.17131876945495605
they 0.09602653980255127 -0.22291506826877594 0.15901726484298706 0.08225409686565399 0.006776249036192894 0.03690943866968155 0.15109366178512573 0.11150598526000977 0.22031229734420776 0.26752540469169617 -0.08691719174385071 -0.027184676378965378 -0.04825594276189804 0.23864978551864624 0.3104088604450226 0.038925901055336 0.23026180267333984 -0.011525104753673077 -0.13122062385082245 0.19173161685466766 0.25715896487236023 0.0454527772963047 -0.22048836946487427 0.1330629587173462 -0.03831210732460022 0.008901040069758892 0.09532776474952698 0.12294310331344604 -0.5207957029342651 0.05604056641459465 -0.15213324129581451 -0.005823601968586445 0.18542318046092987 0.129742830991745 -0.04818909615278244 0.2778227627277374 -0.07908383011817932 -0.16606149077415466 0.07286086678504944 0.18186593055725098 -0.13463787734508514 0.15755970776081085 -0.16192421317100525 0.21630282700061798 -0.18712857365608215 -0.10023371130228043 0.12259677797555923 0.15690840780735016 -0.2186337411403656 0.2884003520011902 -0.20884019136428833 0.0910157859325409 -0.07951317727565765 -0.18030694127082825 -0.099436454474926 0.16336198151111603 0.09987953305244446 -0.1807185411453247 -0.048556506633758545 -0.06662791222333908 0.25857216119766235 -0.025189850479364395 0.04288703575730324 -0.0027906897012144327 0.17423556745052338 -0.09771861881017685 0.040285199880599976 0.011364060454070568 0.014225069433450699 0.06667165458202362 -0.17895662784576416 -0.16638004779815674 -0.0989612340927124 0.1101694256067276 0.34670594334602356 0.056924596428871155 -0.39361369609832764 0.20269335806369781 -0.024352457374334335 -0.17409342527389526 -0.20932216942310333 -0.0781686082482338 0.0023589041084051132 0.029624653980135918 -0.15263669192790985 -0.20630012452602386 0.020937060937285423 -0.27028679847717285 0.03851141408085823 0.42693236470222473 0.20092815160751343 -0.1458606868982315 -0.02993222512304783 0.2546388506889343 -0.07011546939611435 0.16849075257778168 0.13922132551670074 -0.059125203639268875 -0.06405822932720184 0.18414871394634247
you 0.09613760560750961 -0.2009762078523636 -0.11755138635635376 0.23523826897144318 0.050898633897304535 0.3213028907775879 0.17932969331741333 -0.050601378083229065 0.21317479014396667 -0.010856200940907001 0.07354132831096649 -0.13331404328346252 -0.07386287301778793 -0.12600047886371613 0.2525058686733246 -0.26251041889190674 0.036966655403375626 0.1777401566505432 -0.0725007876753807 0.01921219751238823 0.26618778705596924 -0.19792482256889343 -0.03058449923992157 0.21127162873744965 0.20613020658493042 -0.33754342794418335 -0.037364210933446884 -0.15303866565227509 -0.2535686790943146 0.10263527929782867 0.147856667637825 0.15488401055335999 0.04818500205874443 0.18671351671218872 -0.19623234868049622 0.27160733938217163 -0.1245950236916542 -0.15700049698352814 0.006184147205203772 0.4432273805141449 0.015570912510156631 0.27819201350212097 -0.08309214562177658 0.25005850195884705 0.07891888171434402 -0.052776772528886795 0.15149915218353271 0.1705610752105713 1.1003118561347947E-4 0.1901337206363678 0.040985122323036194 -0.03220044821500778 -0.02182082273066044 0.033653032034635544 0.20755848288536072 0.08210884779691696 -0.01643003523349762 -0.08864039182662964 -0.005610091146081686 -0.12283183634281158 0.0853317454457283 -0.27185049653053284 -0.06773804128170013 -0.05457215756177902 0.011757319793105125 0.10900750011205673 -0.007783171720802784 -0.11157744377851486 0.16766244173049927 -0.07184342294931412 -0.01371805090457201 -0.3599367141723633 -0.08516473323106766 0.0074928198009729385 0.2154916226863861 0.14489668607711792 0.006362360902130604 0.13440512120723724 -0.16780123114585876 -0.4760623872280121 -0.20260053873062134 0.13846932351589203 0.07748442143201828 0.11579058319330215 -0.24069224298000336 -0.46076351404190063 -0.09761367738246918 -0.025476742535829544 -0.006703375838696957 0.03843320533633232 0.3980245590209961 -0.20848698914051056 -0.19862297177314758 -0.007829103618860245 0.007463397923856974 -0.180500328540802 0.23980176448822021 0.1986440271139145 0.1544543355703354 0.16405080258846283
$ 0.03993401303887367 0.007080161012709141 -0.028687354177236557 -0.01315244846045971 -0.015096616931259632 0.006114989519119263 0.03515547141432762 0.03636126220226288 -0.029556220397353172 0.02822822518646717 0.007912147790193558 -0.03345993533730507 -0.0060026757419109344 -0.024869568645954132 -0.0020521217957139015 0.02241634391248226 -0.036719854921102524 -0.015261843800544739 -0.010339026339352131 0.005070679355412722 -0.011481225490570068 0.034400247037410736 -0.017590723931789398 -0.009047421626746655 -0.029918210580945015 0.006393610034137964 0.009304153732955456 0.017235253006219864 -0.0050304727628827095 -0.03474920988082886 -0.03456338495016098 0.03740182891488075 0.0029543626587837934 -0.03226262703537941 -0.0010764538310468197 8.73098149895668E-4 0.008876706473529339 0.015291723422706127 -0.011043885722756386 -0.023840492591261864 -0.00473816366866231 -0.007320521865040064 -0.002886306494474411 0.025411464273929596 0.005070400424301624 -0.006196124479174614 -0.06546569615602493 0.050309281796216965 0.01560406107455492 0.006217724643647671 -0.038225192576646805 -0.006948080379515886 -0.015261540189385414 -0.008626198396086693 0.027511753141880035 -0.01623014360666275 -0.019156448543071747 -0.032541919499635696 0.019973665475845337 0.01735067553818226 0.04554135352373123 -0.025542348623275757 0.007117887958884239 -0.015007776208221912 -0.016622595489025116 -0.05165392905473709 0.01570272259414196 -0.03188321739435196 -0.00408171396702528 -0.010780255310237408 0.018252616748213768 -0.015301117673516273 0.02316986210644245 -0.0035022704396396875 -0.00667812442407012 -0.007726443000137806 -0.028748570010066032 -0.00878160074353218 -0.07039389759302139 -0.012054081074893475 -0.011136242188513279 0.00226487684994936 -0.015813449397683144 -0.017295189201831818 -0.004171231295913458 -0.0017434938345104456 -0.00599913764744997 -0.002292910823598504 -0.0618075430393219 -0.044472675770521164 -0.010897049680352211 -0.03135174885392189 -0.010726485401391983 0.0014169528149068356 0.011789465323090553 -0.06931111216545105 -0.006668503396213055 -0.04185657203197479 -0.011060340330004692 -0.046540550887584686
going 0.07985801994800568 -0.4018937349319458 -0.781665563583374 0.38643673062324524 0.028690973296761513 0.0993470847606659 0.11285063624382019 0.3910083770751953 0.22420747578144073 0.18861235678195953 0.36178869009017944 0.25184935331344604 -0.07212799787521362 0.04989239573478699 -0.14031416177749634 0.02717936411499977 -0.0882728323340416 0.0722116157412529 -0.39679116010665894 -0.36497098207473755 -0.15623913705348969 -0.08163782954216003 0.13455034792423248 0.08325885236263275 0.14987170696258545 0.3812055289745331 0.2599443197250366 -0.1953243762254715 0.10871531814336777 -0.11894813925027847 0.06320825219154358 0.2632405757904053 0.22852028906345367 -0.18030959367752075 0.05980079993605614 -0.04556168243288994 -0.20313258469104767 0.10980641096830368 0.28561681509017944 -0.14726130664348602 -0.6397181749343872 0.2449406534433365 -0.06319214403629303 0.03901257738471031 0.26415982842445374 -0.07958406209945679 0.07963467389345169 -0.006491415202617645 0.4279583692550659 0.17252348363399506 -0.258314847946167 -0.1361238956451416 0.01407323032617569 0.19630327820777893 0.05361265316605568 0.5016341805458069 0.09666406363248825 -0.1601542830467224 -0.0704621896147728 0.11562732607126236 0.12160421162843704 -0.21056844294071198 0.048596762120723724 -0.5117124915122986 -0.10075753182172775 0.2621818780899048 -0.3276248872280121 -0.07514385879039764 0.028334947302937508 0.052768152207136154 -0.06121431663632393 -0.06525566428899765 0.3239908516407013 -0.08205731213092804 -0.04555479437112808 0.14148707687854767 -0.06810856610536575 0.2803798317909241 -0.41316935420036316 -0.03593399375677109 0.009589092805981636 0.4133490324020386 -0.03934425860643387 -0.3059806525707245 0.004667890723794699 0.06040198728442192 -0.3128977417945862 -0.23743771016597748 -0.13322311639785767 0.25725221633911133 -0.12915299832820892 -0.20878176391124725 -0.04389288276433945 -0.129371777176857 0.3040379285812378 0.09504110366106033 0.05428911745548248 0.19090844690799713 -0.037173762917518616 -0.19465534389019012
old 0.11962569504976273 -0.017271503806114197 0.08208964765071869 0.13242526352405548 0.12930220365524292 0.06143484637141228 -0.019379595294594765 0.0026430839207023382 -0.10451911389827728 0.10459710657596588 -0.13789987564086914 0.3663805425167084 0.22612524032592773 -0.1859210580587387 -0.46507471799850464 0.14156177639961243 -0.03267751261591911 -0.019462825730443 0.16237768530845642 0.15477514266967773 -0.1263553351163864 -0.02014155685901642 -0.053635597229003906 0.2135649025440216 0.16185234487056732 -0.0652652159333229 -0.12258408963680267 -0.05200633034110069 -0.14871613681316376 -0.5115044116973877 -0.003757256083190441 -0.23733384907245636 -0.16560597717761993 -0.14891353249549866 0.2422969490289688 -0.18879270553588867 0.026578299701213837 0.22755472362041473 -0.1725931465625763 -0.07981645315885544 -0.020222986117005348 0.36662641167640686 0.23155084252357483 -0.22062817215919495 -0.19005365669727325 -0.07445401698350906 -0.011195305734872818 0.22351320087909698 0.5078608393669128 -0.12366291880607605 -0.07820554077625275 -0.026049092411994934 -0.1519387811422348 -0.11282403767108917 -0.20486287772655487 0.18659842014312744 -0.2537606954574585 -0.1518731266260147 -0.38461101055145264 -0.05469172075390816 0.31536996364593506 -0.05433870479464531 0.43255388736724854 0.07410610467195511 -0.07046892493963242 -0.3324178159236908 -0.153468519449234 -0.281108558177948 -0.04628400504589081 0.006673416122794151 0.09803780168294907 0.0788809210062027 0.18557630479335785 0.016814343631267548 -0.17412571609020233 0.011233693920075893 0.1684017926454544 0.03130735084414482 -0.13499665260314941 -0.16213954985141754 0.4240555465221405 -0.04125988483428955 0.05849488452076912 0.13462039828300476 0.14032766222953796 0.046838320791721344 -0.14380384981632233 -0.11895526945590973 -0.06897833198308945 -0.07628262042999268 -0.010551136918365955 0.057351283729076385 -0.1680300235748291 0.01818922907114029 -0.12942498922348022 0.13292168080806732 -0.224274680018425 0.03120299242436886 0.03265548497438431 -0.14361579716205597
want 0.26852524280548096 -0.2515641152858734 -0.2676132917404175 0.07198931276798248 -0.07302112877368927 -0.22595621645450592 -0.0022847235668450594 0.21994861960411072 0.1802998036146164 0.13027116656303406 0.026769574731588364 -0.026650747284293175 0.11696411669254303 -0.026613224297761917 -0.15321020781993866 -0.2576409876346588 2.490871338522993E-5 -0.032101016491651535 -0.36251509189605713 0.059674978256225586 0.017200278118252754 0.4147319495677948 -0.006958310957998037 -0.21167758107185364 -0.13606637716293335 -0.03618469461798668 -0.007868769578635693 -0.1356162577867508 0.10353802144527435 0.3189203143119812 -0.018225189298391342 0.09596738964319229 -0.026006663218140602 -0.1056579053401947 -0.18994632363319397 0.04982847347855568 0.13775752484798431 -0.17731620371341705 0.06751620769500732 0.028522055596113205 -0.32397836446762085 -0.4082784950733185 0.08503211289644241 -0.2992664575576782 0.17764213681221008 0.2448388934135437 -0.2039753645658493 -0.2363155037164688 0.04682789742946625 0.3403738737106323 -0.15902160108089447 -0.12266673892736435 0.09893437474966049 0.4205337166786194 0.23542176187038422 -0.02435755543410778 -0.27666744589805603 0.016167059540748596 0.4105125069618225 0.3062613308429718 0.23238793015480042 -0.035279158502817154 -0.1583164930343628 -0.21514776349067688 -0.13182975351810455 -0.06300745904445648 -8.275920408777893E-4 0.0951242670416832 0.3375020921230316 -0.08511494100093842 -0.169738307595253 0.10402750223875046 -0.18931244313716888 -0.13854655623435974 0.3429640233516693 0.3644237220287323 -0.12471664696931839 0.11332911998033524 -0.4399440586566925 0.09551660716533661 -0.09568662196397781 0.14758636057376862 0.13408325612545013 -0.0748782604932785 0.2222956269979477 -0.0596160963177681 -0.23628681898117065 0.26830509305000305 0.19269564747810364 0.06612507998943329 0.18895095586776733 -0.20520290732383728 -0.06947030127048492 0.2588379383087158 0.17187081277370453 -0.5158271789550781 0.29774531722068787 -0.2114807367324829 0.2870098650455475 -0.0310236643999815
night -0.21679158508777618 0.15225239098072052 -0.2466844916343689 -0.3214693069458008 0.021949896588921547 -0.19371645152568817 0.16550420224666595 -0.04265601560473442 0.06456650793552399 -0.12945251166820526 -0.12719659507274628 0.25177526473999023 -0.29222753643989563 -0.04994698613882065 0.03503086790442467 -0.22709152102470398 0.2035953253507614 -0.5490599274635315 -0.012013418599963188 0.08682011067867279 -0.2639279067516327 0.10572753846645355 0.00914276484400034 -0.11565142869949341 0.08536937087774277 -0.13346248865127563 0.73557049036026 0.32773029804229736 -0.1597813218832016 -0.2691880166530609 0.012051422148942947 -0.01926562376320362 -0.11661135405302048 -0.07308873534202576 0.1095094382762909 -0.29112762212753296 0.2422974854707718 -0.10947056114673615 0.09917733073234558 -0.02425050362944603 0.11024611443281174 0.07985591143369675 -0.0390801802277565 -0.05846727639436722 -0.14521394670009613 0.0736648291349411 -0.10439428687095642 0.2056073248386383 0.08132901787757874 -0.08879169076681137 -0.20371639728546143 0.008326724171638489 0.10888942331075668 0.32733237743377686 -0.2275676280260086 -0.09905066341161728 0.17545728385448456 -0.19817298650741577 -0.08644763380289078 0.3801210820674896 -0.2240854948759079 -0.10086221247911453 0.2483321726322174 0.17599396407604218 -0.2347382754087448 -0.1587125062942505 0.2571292519569397 -0.07534895092248917 -0.34229496121406555 0.1271790713071823 0.28411540389060974 0.19896841049194336 -0.028275735676288605 0.2216513752937317 -0.19945243000984192 -0.2505154013633728 0.013817143626511097 -0.3705665171146393 -0.12099112570285797 -0.08956313133239746 0.010255148634314537 -0.27034178376197815 0.3027128279209137 -0.024165436625480652 0.11545722186565399 -0.0691753551363945 -0.19884489476680756 0.20856663584709167 -0.15920434892177582 -0.21215583384037018 0.13515226542949677 0.20023830235004425 0.3588986396789551 0.1225532814860344 0.07858499139547348 -0.09606067091226578 0.041379909962415695 0.29546645283699036 0.025777950882911682 0.008063475601375103
them -0.03372207283973694 -0.11491736769676208 0.18023726344108582 0.2188277691602707 0.08437380194664001 -0.07165759801864624 0.19740033149719238 -0.005014151334762573 0.10379818826913834 0.0031821047887206078 -0.008758056908845901 -0.09893998503684998 -0.15068446099758148 -0.4030735492706299 0.15049847960472107 0.1967553198337555 -0.12298547476530075 -0.008707156404852867 0.055471498519182205 0.2527632415294647 0.22138622403144836 0.1714402735233307 -0.27095016837120056 -0.18854452669620514 -0.181171253323555 0.14372007548809052 0.16356708109378815 0.05911535024642944 0.021175270900130272 -0.024131974205374718 0.0791051909327507 0.10643109679222107 0.04046570137143135 -0.011379096657037735 -0.08371935784816742 -0.021509552374482155 0.3034992218017578 -0.047532446682453156 0.018246522173285484 -0.24889545142650604 -0.22631153464317322 -0.16267159581184387 -0.22435115277767181 0.06309381127357483 -0.21975962817668915 -0.1455124467611313 -0.20894017815589905 0.4573807120323181 -0.1012272983789444 0.32421180605888367 0.05753777176141739 0.07136635482311249 0.046713411808013916 -0.03449569270014763 0.1909429430961609 -0.08256957679986954 -0.059429917484521866 -0.32720431685447693 -0.009677671827375889 0.16713695228099823 0.18625128269195557 -0.16142645478248596 -0.009788931347429752 -0.14634889364242554 0.14192432165145874 -0.45697692036628723 0.04738575592637062 -0.15052157640457153 -0.1525411307811737 0.0923868864774704 -0.05048208311200142 -0.24623949825763702 0.0919751301407814 0.006080713123083115 0.17465175688266754 0.042070694267749786 0.055415697395801544 -0.15756456553936005 -0.28786373138427734 -0.21222874522209167 -0.11443968862295151 0.25548431277275085 -0.007646877784281969 0.024452798068523407 -0.2584931254386902 -0.398387610912323 -0.05931130051612854 0.05317002907395363 -0.22513988614082336 -0.03878151997923851 -0.011698313988745213 0.01956462860107422 0.2163582146167755 -0.07760059833526611 0.07488995790481567 -0.36451029777526855 -0.2071515917778015 0.03283941000699997 0.020213386043906212 -0.2544209361076355
then -0.09038032591342926 0.05916502699255943 -0.29464423656463623 -0.1124381348490715 0.17417027056217194 -0.228871151804924 0.008164049126207829 -0.1980278044939041 0.13201650977134705 -0.12673033773899078 -0.1713857501745224 0.05000314116477966 -0.10095885396003723 0.09613219648599625 -0.15185654163360596 0.15315909683704376 0.010715637356042862 -0.08820801973342896 -0.26172369718551636 -0.026861684396862984 0.14658689498901367 0.011133887805044651 -0.13167336583137512 -0.20309723913669586 -0.06823903322219849 0.30594602227211 0.12883368134498596 -0.27735209465026855 0.04128409922122955 -0.23079782724380493 -0.28834885358810425 0.17159391939640045 -0.1145206168293953 0.056785810738801956 0.10015829652547836 -0.3030840754508972 -0.21860060095787048 0.1148640364408493 -0.04343302547931671 -0.026089316233992577 0.11265592277050018 0.10306186228990555 0.060339976102113724 0.06651245802640915 0.03710360825061798 -0.0836440920829773 0.12251783162355423 -0.025411412119865417 -0.2622707784175873 -0.004193645436316729 -0.14947368204593658 0.26590779423713684 -0.07165604829788208 0.1382635086774826 0.03706807643175125 0.09801726788282394 -0.02777862176299095 -0.13568583130836487 0.13296577334403992 0.21591682732105255 -0.1608804315328598 0.3853948712348938 0.26602205634117126 0.054469622671604156 0.16622847318649292 -0.11820856481790543 0.0522371381521225 -0.08186590671539307 0.011395776644349098 0.10509121417999268 0.06652309745550156 -0.20961987972259521 -0.18547819554805756 0.11227808892726898 -0.013850821182131767 0.05616661533713341 -0.07764894515275955 0.058612726628780365 -0.1464034914970398 -0.02119310572743416 0.15930309891700745 -0.19112810492515564 0.18595580756664276 -0.019930578768253326 0.14288026094436646 0.020965073257684708 -0.2535490393638611 0.10556163638830185 0.060821935534477234 0.06326712667942047 -0.17425712943077087 -0.10571195930242538 0.01276685856282711 0.21727485954761505 0.08535987138748169 -0.0052657523192465305 0.0662408098578453 0.23375894129276276 0.1332187056541443 0.003282698569819331
court 0.09715881198644638 -0.007933998480439186 -0.3104115128517151 0.007883024401962757 -0.019871048629283905 0.011645078659057617 0.15366773307323456 0.12830393016338348 -0.007609270513057709 0.12331507354974747 -0.11246433109045029 -0.06115483492612839 -0.17380809783935547 0.16199906170368195 -0.056667692959308624 0.005388672463595867 -0.09657161682844162 -0.13361521065235138 -0.01780308037996292 0.020586000755429268 -0.05874091386795044 -0.0849355086684227 0.10201351344585419 -0.011460750363767147 -0.15819023549556732 -0.00900396890938282 0.11644038558006287 0.09913899749517441 -0.210298553109169 -0.14786240458488464 0.02507641725242138 -0.0013430945109575987 0.07403206825256348 -0.11360746622085571 0.01735331304371357 0.041552022099494934 -0.22896835207939148 0.01890028826892376 0.08593615889549255 0.1879761666059494 -0.00819471012800932 0.060200296342372894 0.08823010325431824 -0.011423102580010891 0.08558952063322067 -0.1581295132637024 -0.14563117921352386 0.23633569478988647 0.1686394065618515 -0.11109436303377151 -0.023189719766378403 -0.14919282495975494 -0.042071178555488586 0.352547824382782 -0.20662422478199005 -0.1930217444896698 -0.12703192234039307 0.016748443245887756 0.041470643132925034 0.11997944861650467 -0.16771207749843597 0.06399407982826233 0.13419820368289948 -0.056931398808956146 -0.21715869009494781 0.17261354625225067 -0.11232484132051468 -0.10224080830812454 -0.23092323541641235 0.06313996016979218 0.11570096760988235 0.201351135969162 -0.1507434844970703 0.019486861303448677 0.0026391437277197838 -0.017816301435232162 0.28060072660446167 0.13240523636341095 0.10542581975460052 -0.20897485315799713 0.05422064661979675 -0.21665054559707642 -0.10568860173225403 -0.012143748812377453 0.05825629085302353 -0.028376344591379166 -0.15332454442977905 0.19254016876220703 -0.017437342554330826 -0.01904704049229622 -0.08832801878452301 -0.18325774371623993 -0.05949259176850319 -0.008442478254437447 0.14190137386322021 -0.04738258197903633 0.0030124993063509464 -0.01790517009794712 -0.12832379341125488 -0.35225510597229004
an -0.16750574111938477 -0.020128190517425537 -0.3124000132083893 0.006267511751502752 0.10331898927688599 -0.012181841768324375 0.08242489397525787 -0.15793377161026 -0.028255777433514595 -0.13080084323883057 0.03798922523856163 0.15168006718158722 -0.018473275005817413 -0.23134231567382812 -0.19195374846458435 0.052380241453647614 0.04023217782378197 -0.009440040215849876 -0.1973194032907486 -0.04595133662223816 -0.10439230501651764 -0.0584566630423069 0.030903266742825508 -0.0337299108505249 0.06877926737070084 -0.15409713983535767 -0.07446162402629852 -0.005860627628862858 -0.07049482315778732 -0.2764618992805481 0.12609732151031494 0.16722162067890167 -0.09514954686164856 -0.21270138025283813 -0.1063331812620163 -0.0013079633936285973 -0.16382497549057007 0.007439890410751104 -0.04357794672250748 0.1296275109052658 -0.149431973695755 0.010410169139504433 -0.19220486283302307 -0.0690390020608902 -0.36110273003578186 -0.11732056736946106 -0.22637660801410675 0.13121278584003448 0.19153951108455658 -9.058017167262733E-5 -0.15077631175518036 0.05473646521568298 -0.21991921961307526 0.2538147270679474 0.08536973595619202 0.05973908305168152 0.0169259924441576 0.10816878825426102 0.19682951271533966 0.08405300229787827 -0.0057991850189864635 -0.23438239097595215 0.3516605794429779 -0.08365324884653091 -0.28255295753479004 -0.2133895605802536 0.20878101885318756 -0.12630949914455414 -0.13883242011070251 -0.15803378820419312 0.11879556626081467 0.21923710405826569 -0.07449624687433243 0.1841253787279129 -0.09323734045028687 -0.05870203673839569 0.023878859356045723 0.17199955880641937 -0.2512672245502472 0.057073913514614105 0.14301030337810516 -0.008978525176644325 -0.22402358055114746 -0.18643391132354736 -0.006214766763150692 0.07188419252634048 0.13128557801246643 -0.03341882675886154 -0.09849449247121811 -0.21397340297698975 0.0767790824174881 -0.3558400571346283 -0.13116484880447388 0.12043929100036621 0.09742522984743118 -0.0524490624666214 -0.07001355290412903 -0.10508435219526291 -0.05466393753886223 0.015137959271669388
- -0.03444742038846016 -0.017398858442902565 -0.044588543474674225 -0.03262855485081673 -0.05511314794421196 -0.08178246766328812 0.054078180342912674 0.005862599238753319 -0.05156230181455612 -0.09821270406246185 -0.03887805715203285 0.06252720206975937 -0.04514983296394348 -0.05130142718553543 -0.04825780913233757 -0.09892530739307404 0.0527111291885376 -0.07265970855951309 -0.08511129766702652 -0.015700455754995346 -0.07280649244785309 -0.05641767010092735 -0.05849839374423027 -0.017789173871278763 0.03713653236627579 0.062264055013656616 -0.06447363644838333 -0.061011768877506256 7.146642310544848E-4 -0.07293298840522766 -0.012356368824839592 0.05377589911222458 -0.1059861108660698 -0.03471412509679794 0.09284133464097977 -0.06878524273633957 -0.03875940665602684 -0.020130043849349022 0.02710907720029354 -0.029927534982562065 0.03400949761271477 0.025772880762815475 -0.05026189237833023 0.03978681564331055 -0.11432675272226334 -0.043680738657712936 -0.021558748558163643 0.050571516156196594 0.03464105352759361 -0.08729241043329239 0.037585027515888214 0.03980076685547829 0.032080259174108505 -0.024773281067609787 0.061966922134160995 -0.019681841135025024 0.048903461545705795 -0.16628657281398773 0.025800874456763268 0.028448019176721573 -0.040653906762599945 0.0650622695684433 0.16631647944450378 -0.12390810996294022 0.0646255686879158 -0.021883096545934677 0.0759711042046547 0.03184827044606209 -0.052560944110155106 0.023315533995628357 -0.008359451778233051 0.06449742615222931 -0.0528426431119442 0.03652910515666008 -0.023753425106406212 -0.19834908843040466 0.07049216330051422 0.014201204292476177 0.09670110046863556 -0.09828341007232666 0.13166485726833344 -0.01313772052526474 -0.03765111416578293 0.005083595402538776 -0.030533894896507263 0.026212673634290695 0.01574070006608963 -0.034442752599716187 -0.08834665268659592 -0.0024298131465911865 -0.005790406838059425 0.016836877912282944 -0.06578465551137924 0.04976993054151535 0.03612483665347099 -0.04028111696243286 -0.006341378670185804 0.022352393716573715 -0.058283694088459015 -0.031394004821777344
each 0.04983365908265114 -0.07864189147949219 -0.09406508505344391 0.03146149590611458 0.07092370837926865 -0.093434639275074 0.5071122050285339 0.18207813799381256 -0.10561332106590271 9.661172516644001E-4 0.04484182596206665 -0.09620058536529541 -0.12218736857175827 -0.531935453414917 -0.030927108600735664 0.2343536913394928 0.10990998893976212 0.11378825455904007 0.12359131872653961 0.0061029670760035515 0.14594082534313202 0.4957077205181122 -0.20553280413150787 -0.002151855267584324 -0.43397295475006104 -0.08689866960048676 0.19995999336242676 0.3221592307090759 0.13320468366146088 -0.2991335690021515 0.1939356029033661 0.4218260943889618 0.08814862370491028 -0.4539318382740021 0.020314136520028114 0.0049729966558516026 0.028060121461749077 -0.31587404012680054 -0.22872483730316162 -0.11218893527984619 0.10822099447250366 -0.2220439314842224 -0.11853184551000595 0.11846504360437393 -0.3046623766422272 0.08874817192554474 -0.4105643630027771 0.2540434002876282 -0.004399435594677925 0.199333056807518 -0.3131323754787445 -0.1929776966571808 0.0861574336886406 -0.26603102684020996 0.2037065476179123 0.06269624829292297 -0.10211852192878723 -0.39652279019355774 0.17780594527721405 0.3917531967163086 0.004465002100914717 -0.15061496198177338 -0.0767776295542717 0.10064543038606644 0.11047772318124771 -0.32689762115478516 0.17841701209545135 0.0017290909308940172 -0.3126768469810486 -0.24260033667087555 0.1278614103794098 0.12155815958976746 0.010062105022370815 0.003486308269202709 0.26454997062683105 0.1114722266793251 -0.14431540668010712 -0.09833983331918716 -0.27664098143577576 -0.28886178135871887 -0.12988843023777008 -0.019969603046774864 0.02617614157497883 -0.31491050124168396 -0.5525868535041809 0.10692601650953293 -0.2970443367958069 -0.009138302877545357 -0.1626572459936142 -0.24453122913837433 -0.18398113548755646 0.016801156103610992 -0.16487166285514832 -0.12057127058506012 0.17728058993816376 -0.18145501613616943 0.1052919551730156 -0.304851233959198 0.097738116979599 -0.30985820293426514
former -0.018480729311704636 -0.04304051771759987 -0.02214987203478813 -0.007378942333161831 -0.008152572438120842 -9.448534692637622E-4 0.008256176486611366 0.032371677458286285 -0.02547905594110489 -0.02601596899330616 -0.03971000015735626 -0.04137178137898445 -0.0400836355984211 -0.03457461670041084 -0.0367233008146286 -0.0033227100502699614 7.956702029332519E-4 -0.02948770672082901 0.05963118374347687 0.025460543110966682 -0.012216630391776562 0.019449183717370033 -0.00678819278255105 0.01804223284125328 0.01978394389152527 -0.0024825576692819595 -0.016127360984683037 0.03248574212193489 0.001858461881056428 -0.053341418504714966 0.0471951887011528 -0.012910905294120312 -0.038865331560373306 -0.012633166275918484 0.03259432315826416 0.01586194708943367 -0.02120562084019184 0.033728212118148804 -0.0030693928711116314 0.010919731110334396 -0.02048896625638008 -8.401056984439492E-4 0.05979350581765175 -0.03759848326444626 -0.04924555867910385 -0.022663626819849014 -0.07392079383134842 0.05284549668431282 0.05073762685060501 -0.08288312703371048 -0.03309641405940056 -0.022137505933642387 0.008912831544876099 -0.005641942843794823 -0.05088381469249725 -0.07395712286233902 -0.08279641717672348 -0.07322724163532257 0.007447122596204281 -0.03206558898091316 -0.0068904641084373 -0.001516356598585844 0.09521917253732681 -8.71443553478457E-5 -0.009070570580661297 -0.03359239175915718 0.018388718366622925 0.012820477597415447 -0.0969691202044487 0.018162576481699944 0.013464723713696003 0.07866007834672928 -0.026138491928577423 -0.025169605389237404 -0.010107902809977531 -0.06042570248246193 0.021197820082306862 -0.003702729707583785 0.08318282663822174 -0.005639273207634687 0.056437600404024124 -0.032219380140304565 0.010882081463932991 0.02393464185297489 -0.01191675290465355 0.00616417545825243 0.011276856064796448 0.0067042517475783825 4.0681479731574655E-4 -0.06532250344753265 -0.011367976665496826 0.01694442704319954 -0.08223790675401688 -0.0028252177871763706 -0.019627036526799202 0.004232872277498245 -0.03378371149301529 -0.02727259323000908 -0.047190092504024506 -0.07353431731462479
as 0.09759660810232162 0.04995955526828766 0.22489714622497559 -0.1281740814447403 -0.19672656059265137 0.04835820198059082 -0.08028616011142731 -0.14963112771511078 -0.1326187252998352 -0.17484164237976074 -0.11862604320049286 -0.021895864978432655 -0.2396089732646942 0.0068098702467978 0.3455946445465088 0.34021690487861633 0.17437005043029785 0.07973246276378632 -0.32788383960723877 -0.4184698462486267 -0.44856151938438416 0.24836139380931854 -0.04077671840786934 0.055834658443927765 0.31505000591278076 -0.2608018219470978 -0.21322038769721985 0.061903588473796844 -0.18308445811271667 0.1637401580810547 0.0295246634632349 -0.06407760083675385 0.056025877594947815 0.19946441054344177 -0.27475565671920776 0.007556190248578787 0.24616427719593048 0.10161787271499634 -0.24656091630458832 -0.21890805661678314 0.039769239723682404 -0.3410875201225281 0.2766355872154236 0.5219623446464539 -0.4089187979698181 -0.1612391471862793 -0.18285544216632843 0.2614326775074005 0.100056491792202 -0.05958497151732445 0.15234825015068054 -0.35271739959716797 0.32462969422340393 0.18320858478546143 -0.1509939432144165 0.15912757813930511 0.13181892037391663 -0.1857675164937973 -0.28631237149238586 0.28424715995788574 0.19672246277332306 0.0777541920542717 -0.01004756335169077 0.031374409794807434 0.06684821099042892 -0.26710179448127747 -0.23670902848243713 0.27892109751701355 0.0616924948990345 0.33574604988098145 0.04709484055638313 0.06956198811531067 0.040147293359041214 -0.2153313308954239 -0.21602825820446014 -0.20831020176410675 -0.15036503970623016 -0.13061030209064484 0.09441716223955154 -0.0054857623763382435 -0.027601085603237152 0.11835815012454987 -0.017617708072066307 -0.04912590980529785 0.14995716512203217 -0.06747814267873764 0.0492297038435936 -0.3270187973976135 -0.0032924192491918802 -0.3061218857765198 0.4058908224105835 -0.09443498402833939 -0.47629013657569885 -0.13753122091293335 0.23068062961101532 -0.27943670749664307 -0.1103895902633667 0.37995225191116333 0.21678782999515533 0.13254640996456146
at -0.26273638010025024 0.09145355224609375 0.23796620965003967 0.0346195362508297 0.23204900324344635 -0.2939370572566986 0.5508034229278564 -0.052709028124809265 -0.01922115683555603 0.13301020860671997 0.07851722836494446 0.06418943405151367 -0.09186198562383652 0.006693817209452391 0.14180806279182434 -0.023912016302347183 0.26536819338798523 0.14773541688919067 -0.13663361966609955 0.11135035753250122 -0.017682230100035667 0.11539027839899063 -0.2310929000377655 0.14711666107177734 0.2883371114730835 0.1633065938949585 0.3075634241104126 0.09967824071645737 0.044204436242580414 0.010407764464616776 0.08777320384979248 -0.29985618591308594 -0.18806123733520508 0.10905156284570694 0.39739102125167847 -0.12383795529603958 -0.10274961590766907 0.16461312770843506 -0.04148197919130325 0.11523177474737167 -0.41721493005752563 -0.3279111087322235 0.2556792199611664 -0.09831312298774719 0.013905097730457783 0.17668648064136505 -0.38042202591896057 -0.3840315341949463 -0.16809988021850586 -0.03990129008889198 -0.4437514543533325 -0.05332295596599579 -0.12131394445896149 0.06476948410272598 -0.48433512449264526 -0.02033075876533985 0.008624522015452385 -0.14811517298221588 0.3699204921722412 0.16003870964050293 0.18565253913402557 0.007364993914961815 0.17063190042972565 -0.10985308885574341 -0.0027813706547021866 -0.5124853253364563 -0.051768600940704346 -0.17875126004219055 -0.22870337963104248 0.0486457496881485 0.3295961916446686 0.19999009370803833 0.04772341251373291 0.3017562925815582 0.1315019279718399 -0.14213593304157257 0.3788868188858032 -0.10727770626544952 0.015935691073536873 -0.20487751066684723 0.003580418648198247 0.0430719256401062 -0.20449350774288177 -0.08204305917024612 -0.19729456305503845 -0.05910247191786766 0.23282493650913239 0.0954585149884224 -0.05243663862347603 -0.0010249709011986852 -0.3102110028266907 0.1820090413093567 0.007623019628226757 0.015551689080893993 0.006517960224300623 0.2657086253166199 -0.2681303024291992 0.5842646956443787 -0.14497455954551697 -0.32721611857414246
left 0.05330556258559227 0.12348634004592896 0.06729082763195038 -0.0246047955006361 -0.13936151564121246 0.09650272876024246 0.11652109026908875 -0.11692322790622711 -0.1041550561785698 -0.07370970398187637 -0.005224205553531647 0.12293709069490433 0.021731603890657425 -0.05059940367937088 -0.4231147766113281 -0.2266853302717209 -0.10231746733188629 -0.30442336201667786 -0.04412469640374184 -0.1183742955327034 0.049415890127420425 -0.143887460231781 -0.07854203879833221 -0.050603803247213364 0.07458830624818802 0.20085442066192627 0.06727480888366699 -0.2647140324115753 0.007433761842548847 -0.008159230463206768 -0.23677287995815277 0.2458944171667099 -0.1602843999862671 0.24549567699432373 0.29619723558425903 -0.07900729775428772 -0.09158296883106232 0.21765966713428497 -0.1993466466665268 0.09059731662273407 0.2794555723667145 0.21902838349342346 -0.080703504383564 0.07191970199346542 -0.0884154886007309 0.047929730266332626 -0.10750658065080643 0.3274979889392853 0.08259309828281403 -0.10256313532590866 0.005838558543473482 0.08119422942399979 -0.05878752842545509 -0.02652670256793499 -0.14251822233200073 -0.17743143439292908 -0.15097053349018097 -0.005367910023778677 -0.1415611207485199 0.048210762441158295 0.05421217158436775 0.2166183441877365 0.03828657045960426 -0.232580304145813 -0.06718257814645767 -0.2109050303697586 -0.07321389019489288 -0.31758585572242737 0.11408146470785141 0.07514191418886185 -0.06666577607393265 -0.08864068984985352 0.16091056168079376 0.26995664834976196 -0.10484886914491653 0.0551673099398613 0.2541729807853699 0.12622909247875214 0.07722020894289017 -0.04973626136779785 0.2269107848405838 -0.015389783307909966 0.10107391327619553 0.10342716425657272 -0.005924720782786608 0.20518404245376587 -0.02238316647708416 -0.3165034055709839 -0.22282662987709045 -0.1966109275817871 -0.1279374063014984 0.11695899814367294 -0.038093701004981995 0.06173909083008766 0.04260324314236641 -0.07031054049730301 -0.2432578206062317 0.03520829230546951 -0.16278943419456482 -0.3057291805744171
much 0.14871129393577576 0.028954923152923584 0.06863946467638016 0.17502062022686005 -0.020376089960336685 0.2929712235927582 -0.05497094243764877 -0.25517958402633667 0.3189680874347687 -0.04142618179321289 0.045498695224523544 0.32773926854133606 0.1769646555185318 -0.28055378794670105 -0.16310077905654907 -0.28237658739089966 -0.36049598455429077 0.35909828543663025 0.44963476061820984 0.34148356318473816 -0.44491374492645264 -0.19989849627017975 -0.11786359548568726 -0.36343374848365784 0.0690278708934784 0.06839624047279358 -0.20461176335811615 -0.12568552792072296 -0.44963836669921875 0.02268230728805065 -0.16508282721042633 -0.21121981739997864 0.10083849728107452 -0.48175838589668274 0.06970586627721786 -0.07911631464958191 -0.008977736346423626 0.03771913796663284 -0.05026732012629509 -0.33117660880088806 0.30775022506713867 -0.09548114985227585 -0.6623896956443787 -0.11716137826442719 -0.25366073846817017 0.3146802484989166 0.012696076184511185 0.11132832616567612 0.0873648077249527 0.26878616213798523 -0.08381705731153488 -0.260755717754364 -0.5295659899711609 -0.1740572303533554 -0.20896057784557343 -0.029608722776174545 -0.1382625699043274 0.18506915867328644 -0.13812430202960968 -0.025426458567380905 0.34865859150886536 0.2364775538444519 -0.1252925544977188 0.33647891879081726 -0.2029283493757248 -0.0854024738073349 -0.15623420476913452 -0.14749126136302948 0.41562873125076294 -0.33415913581848145 0.206590473651886 -0.043288711458444595 -0.02648533508181572 0.08772323280572891 -0.04984532296657562 0.12977902591228485 0.04944965988397598 -0.1310829520225525 -0.27461662888526917 -0.4018036127090454 0.058020591735839844 0.07609135657548904 -0.035303745418787 0.3634437024593353 -0.3712003827095032 0.022907188162207603 -0.0040872967801988125 -0.1156570315361023 -0.1323830932378769 0.15809911489486694 0.027129441499710083 -0.04422425106167793 0.4304063320159912 -0.5046143531799316 0.04044786095619202 0.03244427219033241 -0.24853505194187164 -0.3019038736820221 0.21120619773864746 0.17503651976585388
be 0.355338454246521 -0.04748554900288582 0.15782871842384338 0.2624658942222595 0.07158851623535156 0.2785075604915619 -0.1691155582666397 -0.24546369910240173 -0.018921328708529472 -0.23664724826812744 -0.04612940922379494 -0.03267637640237808 -0.35447874665260315 -0.1406715214252472 0.06714320182800293 0.09078876674175262 -0.2081858515739441 0.0316983126103878 0.19778621196746826 -0.35466837882995605 0.18061597645282745 -0.2101021707057953 -0.3570743203163147 -0.03922829404473305 0.012911909259855747 -0.22579436004161835 0.17881247401237488 0.07249545305967331 -0.254742294549942 0.13282698392868042 -0.16943295300006866 0.018557697534561157 -0.17882484197616577 0.16044986248016357 -0.47773438692092896 -0.029466044157743454 -0.02948904037475586 -0.05976678431034088 -0.06209675595164299 0.39164334535598755 0.026793712750077248 -0.12470601499080658 -0.3265852928161621 0.1722477823495865 -0.2705254852771759 -0.21310463547706604 0.1650867760181427 0.0577666312456131 -0.16425661742687225 0.09611717611551285 -0.013668437488377094 0.031093496829271317 0.20431971549987793 0.023893725126981735 -0.16333410143852234 -0.36718013882637024 0.1312890201807022 0.44360750913619995 -7.743954483885318E-5 0.21237719058990479 0.17303988337516785 -0.06165233999490738 0.1592714488506317 -0.26780834794044495 -0.18192516267299652 0.054175253957509995 -0.30983641743659973 0.0010797982104122639 -0.4477064311504364 -0.21703076362609863 -0.11398343741893768 0.2327703833580017 -0.0031735559459775686 -0.2684321999549866 -0.09780554473400116 -0.13193249702453613 -0.08115077763795853 0.4767187237739563 0.21590477228164673 0.19207660853862762 -0.17253617942333221 -0.17101429402828217 -0.38206946849823 0.04808937758207321 -0.019199389964342117 0.15163113176822662 0.28598907589912415 0.009437884204089642 -0.0022907110396772623 -0.17506304383277893 0.015834834426641464 -0.19747327268123627 0.037262361496686935 -0.001358861569315195 0.23974767327308655 0.07663820683956146 -0.29128533601760864 0.07028690725564957 -0.12964759767055511 -0.06188591569662094
another -0.19866636395454407 0.14456723630428314 0.07844919711351395 0.05376916006207466 -0.240897536277771 0.1622999906539917 -0.03988978639245033 -0.20808550715446472 -0.04827240854501724 -0.221125066280365 -0.26345396041870117 0.01660054177045822 -0.21164120733737946 -0.34026220440864563 -0.14371846616268158 -0.15416665375232697 0.07641321420669556 0.10984596610069275 0.06411131471395493 -0.1906527578830719 0.002633690368384123 -0.08772706985473633 0.09491951018571854 -0.18425601720809937 -0.2161850780248642 -0.011529999785125256 -0.1845150887966156 -0.44341427087783813 -0.031793609261512756 -0.11413082480430603 -0.11613564938306808 0.22889092564582825 0.09131145477294922 -0.28505969047546387 0.2665073573589325 -0.1917024701833725 0.10784505307674408 0.07239419221878052 0.18119512498378754 0.2654300630092621 0.06331340223550797 0.040824756026268005 -0.2670269310474396 -0.21761630475521088 0.27747663855552673 -0.30876702070236206 -0.3545460104942322 0.3389613926410675 0.18600104749202728 0.24920761585235596 -0.2531720697879791 0.046711962670087814 0.10962682962417603 0.14378722012043 0.026448490098118782 -0.13067585229873657 0.362007737159729 -0.07712288945913315 0.039490193128585815 0.22348177433013916 -0.36568185687065125 -0.3599132299423218 0.29689672589302063 0.09354046732187271 0.15595844388008118 -0.04811694100499153 0.3506959080696106 -0.033114489167928696 -0.075342558324337 -0.03110452927649021 0.01225237175822258 0.09257644414901733 -0.07434407621622086 0.027321811765432358 -0.21110261976718903 -0.33174827694892883 -0.06098774075508118 -0.056336384266614914 0.06738123297691345 0.07785184681415558 -0.18375900387763977 -0.06183592602610588 -0.25295618176460266 0.0157114639878273 0.020055772736668587 0.07279451191425323 0.1349586695432663 0.05929940566420555 -0.23614199459552765 -0.11285971850156784 0.12233415991067886 -0.1539316326379776 0.11901634931564331 0.3659393787384033 0.1845739781856537 0.09602311998605728 0.11678986996412277 -0.1448877453804016 0.12023694068193436 0.21021148562431335
two -0.0764797255396843 0.050407491624355316 0.0882081612944603 -0.027572626248002052 -0.35960713028907776 0.019343478605151176 0.3912689685821533 0.22009240090847015 -0.3917366862297058 -0.2322918325662613 -0.2069152593612671 0.342729777097702 -0.05550659820437431 -0.22273187339305878 -0.315158873796463 -0.23168005049228668 0.12253624200820923 -0.06698886305093765 0.06828407198190689 -0.21581600606441498 0.10339994728565216 0.025631709024310112 -0.3070110082626343 0.002149278996512294 -0.11474750936031342 0.1961863934993744 -0.08652331680059433 -0.011863046325743198 -0.14858554303646088 -0.2739957273006439 -0.00365824019536376 0.17279231548309326 -0.21597756445407867 0.05860644951462746 0.4410388469696045 -0.1932552605867386 -0.060512788593769073 0.08268424868583679 -0.0911029502749443 0.19647268950939178 0.37284764647483826 0.44175323843955994 0.11759988963603973 0.3471108078956604 -0.0052700345404446125 -0.1946057826280594 -0.1531207114458084 0.43212246894836426 -0.11756861209869385 -0.10493496060371399 0.038004644215106964 0.4454040825366974 0.07263930886983871 -0.12826526165008545 0.12917529046535492 -0.4408169984817505 0.12129180133342743 -0.23533591628074646 -0.1924927830696106 0.43229395151138306 0.03133974224328995 0.14682477712631226 0.24445116519927979 -0.45264387130737305 0.49291470646858215 -0.029801730066537857 0.2795045077800751 -0.24829944968223572 -0.07761263102293015 0.17839893698692322 0.03984799236059189 0.29473909735679626 0.38381069898605347 0.04698077216744423 0.10502808541059494 -0.2841563820838928 -0.04743479564785957 -0.18134550750255585 -0.09181820601224899 -0.12213463336229324 0.1181001290678978 0.017925802618265152 0.19125477969646454 0.40269234776496887 -0.136467844247818 0.053152427077293396 -0.312737375497818 -0.3359510600566864 -0.33150261640548706 -0.24162942171096802 -0.027303509414196014 -0.3308812379837036 -5.124516901560128E-4 0.45056986808776855 0.18479642271995544 -0.12259089201688766 -0.09167719632387161 0.09421127289533615 0.007711911108344793 -0.7823787331581116
long 0.02369547076523304 -0.16708222031593323 0.05063536390662193 -0.052865397185087204 0.04898517206311226 0.05016523599624634 -0.20382587611675262 0.026919422671198845 0.036080166697502136 -0.2953442931175232 0.34520578384399414 0.6873540282249451 -0.2910313010215759 -0.2657001316547394 -0.18051356077194214 0.19692082703113556 0.14163923263549805 0.2696800231933594 0.21037150919437408 0.03971187025308609 -0.48829397559165955 0.03178537264466286 0.280299574136734 0.1250850260257721 0.12211444973945618 -0.22639013826847076 -0.2309882938861847 0.3330298066139221 -0.7651652097702026 -0.090552918612957 0.057373758405447006 0.10229367017745972 -0.21363408863544464 -0.26687362790107727 0.3300645351409912 -0.10230981558561325 -0.372010737657547 -0.2881270945072174 0.053992852568626404 -0.14933650195598602 0.1080775037407875 0.2727997601032257 -0.6816146373748779 -0.391073077917099 -0.42247632145881653 0.1254168450832367 -0.18084651231765747 -0.1926794946193695 0.23215074837207794 0.5641183853149414 -0.08968447148799896 0.16081108152866364 0.23164860904216766 0.01613258570432663 0.030733346939086914 -0.08002448081970215 0.5769596695899963 0.11158409714698792 -0.37585970759391785 -0.03766581788659096 0.08951263874769211 -0.4709433317184448 0.24278524518013 0.129726842045784 0.13418497145175934 0.2161356657743454 0.19114913046360016 -0.10807594656944275 0.07480919361114502 -0.2081218659877777 0.23994721472263336 0.28220972418785095 0.1829112470149994 -0.13171084225177765 -0.40555498003959656 -0.3998434543609619 0.030578898265957832 -0.1764625757932663 0.0038373051211237907 0.0058331238105893135 0.24705153703689575 -0.38554006814956665 -0.09377961605787277 -0.1823398917913437 0.6447535753250122 -0.29765793681144714 -0.13644908368587494 -0.08990120142698288 -0.31827619671821594 0.24825389683246613 -0.24182464182376862 -0.35339269042015076 0.41614577174186707 -0.14785239100456238 0.1794479638338089 0.494610071182251 -0.4585985839366913 0.16934072971343994 9.668071870692074E-4 -0.05870385468006134
into 0.16402974724769592 0.12542501091957092 -0.07066542655229568 0.007608543615788221 -0.010168304666876793 -0.1020958349108696 0.10051891952753067 0.06082357466220856 0.03100466914474964 0.2710983157157898 0.13520456850528717 -0.08683732151985168 0.0741095319390297 0.17257879674434662 -0.04902803152799606 0.0765402615070343 -0.1230967789888382 -0.04990184307098389 -0.31498968601226807 0.12287844717502594 0.013493457809090614 0.18793220818042755 0.025055576115846634 0.18143676221370697 0.04402267187833786 -0.06421904265880585 0.17071987688541412 0.04392082989215851 0.03293481096625328 -0.05918378755450249 -0.1483747512102127 0.10084231197834015 0.11400941014289856 -0.10954082012176514 -0.1909814327955246 -0.10746412724256516 0.05986427143216133 -0.010527143254876137 0.020250242203474045 0.18070416152477264 0.018490374088287354 -0.0776987075805664 0.11575436592102051 -0.154119074344635 0.0869080200791359 -0.06901423633098602 -0.33529841899871826 0.040405940264463425 0.08594159036874771 0.0549469031393528 0.1683952957391739 0.3493356704711914 -0.07201023399829865 0.0717783123254776 0.10305487364530563 -0.12764543294906616 0.12953339517116547 0.002145197940990329 -9.650267311371863E-4 0.17008739709854126 -0.2498139590024948 -0.1929236501455307 0.30609965324401855 -0.2047119140625 -0.0027101703453809023 -0.13970647752285004 0.31436601281166077 -0.2053709775209427 -0.03604893386363983 0.23491452634334564 0.10194630175828934 -0.0823187455534935 0.004185351077467203 0.05407324805855751 -0.17649683356285095 0.007863922044634819 -0.059415776282548904 0.07384368777275085 -0.23707176744937897 0.018107274547219276 -0.13030175864696503 -0.16730043292045593 -0.1561710238456726 -0.10797839611768723 0.12393242120742798 -0.2916291356086731 0.13243383169174194 0.1775946170091629 -0.054852090775966644 -0.10012709349393845 -0.03380202502012253 -0.00464276410639286 0.11411494016647339 0.0608648844063282 0.28779900074005127 0.06380350887775421 0.016289914026856422 0.09918448328971863 0.09702899307012558 0.014901360496878624
how 0.11622637510299683 0.12054894119501114 -0.3069552779197693 0.10886233299970627 0.12814851105213165 0.04671265557408333 -0.15139466524124146 -0.36430782079696655 0.05175304040312767 -0.05571566894650459 -0.02932199090719223 -0.1066853478550911 -0.18964147567749023 -0.07434983551502228 0.23060186207294464 0.21342945098876953 -0.023337166756391525 -0.0822332501411438 -0.3181685209274292 -0.3126431107521057 -0.2161542773246765 0.1320701688528061 -0.23310625553131104 -0.20720122754573822 0.18837186694145203 -0.04900055378675461 -0.4304579198360443 0.08733751624822617 0.016540944576263428 0.1703171581029892 0.29979828000068665 0.08333919197320938 0.25518718361854553 -0.2510802149772644 -0.1278463751077652 -0.11202923208475113 0.02018287032842636 -0.30858471989631653 -0.24508854746818542 -0.5809775590896606 0.21304252743721008 -0.02894715964794159 -0.02930346317589283 0.23670026659965515 -0.17364422976970673 0.027420932427048683 -0.26453834772109985 0.17385230958461761 -0.051870811730623245 -0.06372396647930145 0.36749693751335144 0.08317966759204865 0.028521088883280754 0.08212435990571976 0.07642767578363419 0.28741589188575745 0.22586067020893097 -0.15256395936012268 0.15467675030231476 0.24169594049453735 -0.22265540063381195 0.17673359811306 0.18572856485843658 -0.06456321477890015 0.18163390457630157 -0.23963943123817444 0.21398301422595978 0.3835342228412628 0.3977545201778412 -3.391069549252279E-5 -0.07163289934396744 0.05101186782121658 -0.07902880012989044 -0.18044646084308624 0.1867796778678894 0.026136599481105804 -0.2250397652387619 0.033946242183446884 -0.11298292130231857 -0.19904157519340515 -0.16109535098075867 0.3623450994491577 0.2436097264289856 -0.25680556893348694 -0.08772801607847214 -0.025651223957538605 -0.04646096006035805 0.1618310958147049 0.04932432621717453 -0.02815060503780842 0.04752042144536972 -0.14859260618686676 -0.1987285614013672 -0.3120376765727997 0.1936044842004776 -0.32320329546928406 0.03059099242091179 0.31334275007247925 0.5264441967010498 0.6989846229553223
see 0.19185905158519745 0.10765824466943741 0.04960373416543007 0.0029625457245856524 0.041602835059165955 0.012687603943049908 -0.07533577084541321 -0.16435882449150085 0.09679383039474487 0.01953706704080105 -0.09627442806959152 0.022213641554117203 0.22385843098163605 -0.017484065145254135 -0.05387289449572563 0.09283971786499023 0.0024081154260784388 -0.0720776692032814 -0.02068622224032879 0.05946508049964905 0.04920413717627525 -0.13363659381866455 -0.07437311112880707 -0.23180334270000458 -0.046871550381183624 -0.1459224969148636 0.04205463081598282 0.17472131550312042 -0.21940594911575317 0.03211313486099243 -0.40174126625061035 -0.12268342822790146 -0.007763799745589495 0.010758977383375168 -0.2233182042837143 -0.22167514264583588 0.15893544256687164 -0.022981325164437294 -0.042882051318883896 0.06881972402334213 0.0416516549885273 -0.4624089300632477 0.033741023391485214 -0.18324042856693268 -0.027083830907940865 0.013430501334369183 -0.06093217059969902 -0.1840991973876953 -0.19988268613815308 0.1759616881608963 0.0956486165523529 0.3887247145175934 -0.11207981407642365 0.24600350856781006 -0.12631815671920776 -0.02211078070104122 -0.06639861315488815 0.33141738176345825 0.09815654158592224 0.1622304767370224 -0.03413516283035278 0.12977614998817444 -0.3392358422279358 -0.3639712929725647 -0.13868266344070435 0.019743533805012703 0.18983283638954163 0.004120024852454662 0.10032209753990173 0.23510901629924774 -0.19606859982013702 -0.121317058801651 -0.2280622273683548 -0.037345897406339645 0.034760408103466034 0.08305928856134415 -0.08559022098779678 0.11150440573692322 -0.23652510344982147 0.2280389815568924 -0.2296043336391449 0.0863368809223175 -0.22508782148361206 0.09810671955347061 0.17429617047309875 0.12787066400051117 -7.001935155130923E-4 0.10132282972335815 -0.17362140119075775 0.17121537029743195 0.21716217696666718 0.041975099593400955 0.14469760656356812 0.13696815073490143 0.19181156158447266 -0.28805893659591675 -0.03227350488305092 -0.18681424856185913 -0.1273457258939743 0.13275405764579773
found -0.03270990774035454 0.13993383944034576 -0.08908353000879288 -0.12523125112056732 -0.2261090725660324 -0.10756854712963104 0.0516686737537384 0.13687101006507874 -0.07301726192235947 -0.20536558330059052 0.2744453251361847 0.25699687004089355 -0.07251579314470291 -0.08627989143133163 -0.14235083758831024 -0.08636686950922012 -0.10483657568693161 -0.35171079635620117 -0.06588277965784073 -0.20686222612857819 -0.10804875940084457 0.004728078376501799 -0.06841854006052017 -0.20081280171871185 -0.020627494901418686 -0.007921148091554642 0.21250145137310028 -0.1279604136943817 0.19269242882728577 0.16597498953342438 -0.3562718629837036 0.3408088684082031 0.014063621871173382 0.06843865662813187 0.10873273760080338 0.03397250175476074 -0.05169086903333664 0.01940312422811985 -0.18555043637752533 0.17733192443847656 0.3473342955112457 -0.00879605207592249 -0.2276567667722702 -0.1371561586856842 -0.02061583288013935 0.11510545015335083 -0.182669997215271 0.06996232271194458 0.2494848519563675 0.10380133986473083 -0.2960464656352997 0.13328127562999725 -0.006308008451014757 0.13665112853050232 -0.19319450855255127 -0.08246062695980072 0.04034064710140228 0.26330652832984924 -0.05414585396647453 0.030512582510709763 -0.18271824717521667 2.1727551938965917E-4 -0.052180688828229904 -0.015378251671791077 -0.10185671597719193 -0.13724566996097565 0.14878679811954498 -0.1393253207206726 0.1446145921945572 -0.06599324941635132 0.003928472753614187 -0.28568047285079956 0.03918074071407318 0.21766753494739532 -0.06456231325864792 -0.17404526472091675 0.21627438068389893 -0.014821813441812992 0.14447997510433197 0.16051901876926422 -0.01996014453470707 0.0046128458343446255 0.021394597366452217 -0.08481724560260773 0.11675243079662323 0.12962140142917633 -0.13313695788383484 -0.23789960145950317 -0.15713553130626678 -0.3193846046924591 -0.16682283580303192 0.08483205735683441 -0.06241462379693985 2.633317490108311E-4 -0.03488796576857567 -0.04832484573125839 -0.23939864337444305 0.06777980178594589 -0.16872164607048035 -0.20127959549427032
same 0.11261052638292313 -0.09679081290960312 0.008351558819413185 0.1126144677400589 -0.08609616011381149 -0.22370575368404388 -0.15130171179771423 0.12956060469150543 -0.04233284667134285 0.18318061530590057 -0.24499084055423737 -0.1044684499502182 -0.36436009407043457 0.281535804271698 -0.11660747230052948 0.15074710547924042 -0.09677914530038834 0.08891253918409348 0.3503514528274536 -0.10485830157995224 0.10816600918769836 0.07012432813644409 -0.3067052960395813 0.1912141591310501 0.151680126786232 0.0399397574365139 -0.3385920822620392 0.22303879261016846 -0.28587666153907776 -0.2744484543800354 -0.20730751752853394 -0.4335436522960663 -0.3051413893699646 -0.02495538629591465 0.3469962477684021 -0.24464286863803864 -0.14334431290626526 0.0887981504201889 0.07992109656333923 0.2603381872177124 0.10396672040224075 -0.1055101528763771 0.1496405452489853 -0.32840293645858765 -0.02247551456093788 0.26926323771476746 -0.2920655608177185 -0.004805038683116436 0.3751828372478485 -0.18369783461093903 -0.16410161554813385 -0.07195719331502914 0.214747816324234 0.07202566415071487 -0.247114896774292 0.13444069027900696 -0.08809269964694977 -0.3841981589794159 -0.12412171810865402 -0.32654473185539246 0.09954565018415451 0.0979999229311943 0.08354715257883072 -0.06291202455759048 -0.278730183839798 -0.012991146184504032 0.4128919541835785 -0.11136538535356522 -0.23779143393039703 0.07118649780750275 0.048363879323005676 0.19909629225730896 0.11240725219249725 -0.032011039555072784 0.16403844952583313 -0.11300140619277954 0.5449177026748657 -0.23270778357982635 0.27458494901657104 -0.4932663142681122 -0.18561255931854248 -0.17066539824008942 -0.35978055000305176 0.028227511793375015 -0.07146157324314117 0.36473292112350464 -0.020302627235651016 0.16448798775672913 -0.15993280708789825 -0.3194983899593353 0.14635534584522247 -0.058430012315511703 -0.3488352298736572 0.12796057760715485 0.22901353240013123 0.11047125607728958 -0.32484185695648193 -0.04285254701972008 -0.4259340763092041 -0.031006639823317528
are 0.6748349666595459 0.01177977118641138 0.08924378454685211 0.16393351554870605 0.40970078110694885 0.4145110547542572 -0.2793589234352112 0.2737117111682892 -0.31975990533828735 -0.40966475009918213 0.025394463911652565 0.08794664591550827 0.1716265231370926 -0.03264833614230156 -0.1386924535036087 0.25504088401794434 -0.24336616694927216 -0.049245864152908325 0.3040153682231903 -0.02697068266570568 -0.4305759370326996 0.38882094621658325 -0.06855597347021103 0.11791711300611496 -0.5007671117782593 -0.20301997661590576 0.3033131957054138 0.05892982333898544 -0.20436298847198486 -0.15290574729442596 0.009360816329717636 0.261618435382843 0.02880251035094261 0.14534831047058105 -0.23486220836639404 -0.24802596867084503 0.259458065032959 0.027323763817548752 0.002629523864015937 -0.023089580237865448 0.3643943667411804 0.08961533010005951 0.28378188610076904 0.048607103526592255 0.4284096360206604 0.14527758955955505 0.4218231737613678 0.19490990042686462 -0.19736532866954803 -0.19617970287799835 -0.4459117352962494 -0.34390950202941895 0.47628769278526306 -0.2044537365436554 0.02656780183315277 0.13761572539806366 -0.41772326827049255 -0.13100355863571167 0.25630736351013184 0.36555638909339905 0.5255736708641052 0.16667498648166656 -0.02506711333990097 -0.11120456457138062 0.08723119646310806 -0.4299623668193817 -0.47308480739593506 -0.05591307580471039 -0.08752340078353882 -0.026537610217928886 0.11844348162412643 -0.20540188252925873 -0.10558673739433289 -0.11403080075979233 0.13706080615520477 0.2791624963283539 -0.23566903173923492 0.004970627371221781 -0.3801438510417938 -0.13369950652122498 0.022833526134490967 0.21035845577716827 -0.029904739931225777 -0.12386728078126907 0.03214467689394951 0.1650291383266449 -0.30060476064682007 0.1866912990808487 -0.13980327546596527 0.15886780619621277 -0.23658387362957 -0.0801798477768898 -0.13185374438762665 0.15159611403942108 0.11853737384080887 -0.39644065499305725 -0.03194737434387207 -0.13900838792324066 -0.08353153616189957 0.22270865738391876
does -0.17804868519306183 -0.2338285744190216 -0.04613795503973961 0.030484860762953758 0.2875487208366394 -0.07459697127342224 -0.13154177367687225 -0.14766235649585724 -0.2237074226140976 -0.21117539703845978 0.08113986253738403 0.0506034754216671 0.14895904064178467 -0.2206205129623413 0.08078952133655548 -0.20474913716316223 0.06245827302336693 0.13751938939094543 -0.3326267600059509 -0.10232599079608917 0.3676387369632721 -0.03823113068938255 -0.3316892683506012 0.23806150257587433 -0.12819330394268036 0.02241787128150463 -0.042816825211048126 -0.08023439347743988 0.1372177004814148 0.07179146260023117 0.027636313810944557 0.047566261142492294 0.23570752143859863 -0.0031774684321135283 -0.5894439816474915 0.21863673627376556 -0.39897283911705017 0.026904916390776634 0.25077229738235474 0.4280342161655426 0.1350836306810379 -0.017575064674019814 0.025694316253066063 -0.2272070199251175 -0.2786719501018524 0.06499315798282623 0.19249828159809113 -0.4280262887477875 0.5663601756095886 0.18702241778373718 -0.3363858163356781 0.6370837092399597 -0.3596021234989166 0.2177862524986267 -0.16051645576953888 0.07744540274143219 -0.15618647634983063 -0.10839793086051941 -0.108878955245018 -0.044927310198545456 0.2843213975429535 -0.19669732451438904 0.07055942714214325 0.34164154529571533 -0.12356606125831604 -0.4592569172382355 0.07903505861759186 0.2844356298446655 -0.1475933939218521 0.11549172550439835 -0.11367885023355484 -0.3837331235408783 -0.036162808537483215 0.0788189247250557 -0.08187307417392731 0.01313833612948656 0.007205969654023647 -0.1766287088394165 -0.3394011855125427 -0.004219031892716885 0.1787998527288437 -0.16109591722488403 -0.016030222177505493 0.013009332120418549 -0.20627541840076447 -0.4793814718723297 0.053493279963731766 -0.6904512047767639 0.06545206159353256 0.3119915723800659 -0.10239014029502869 0.11822954565286636 -0.08447615057229996 -0.028604133054614067 -0.1683509796857834 -0.03621073067188263 0.11442968994379044 0.14499874413013458 0.41058942675590515 0.14957749843597412
by 0.06921453028917313 0.2231370210647583 0.09929762780666351 0.048388462513685226 -0.03762255236506462 0.06330092251300812 0.11604881286621094 -0.14441713690757751 -0.10709306597709656 0.04275086894631386 0.04879254475235939 0.020122356712818146 -0.00535269221290946 0.044045981019735336 -0.08708102256059647 -0.12488936632871628 0.02651316113770008 -0.16302022337913513 -0.11676402390003204 0.01389310136437416 -0.0022833861876279116 0.007847598753869534 0.01940903067588806 0.1299060732126236 -0.09228025376796722 0.0026902188546955585 -0.005741470959037542 0.022625703364610672 -0.085130475461483 -0.18218083679676056 -0.10366852581501007 0.02427089400589466 -0.03763159364461899 -0.011381814256310463 0.12808245420455933 -0.0761931985616684 0.02792234905064106 0.18773068487644196 -0.0198164414614439 0.28533607721328735 0.00216533150523901 0.12369360029697418 0.07915043085813522 -0.058907922357320786 0.18131953477859497 0.028466738760471344 -0.2509620487689972 0.1697928011417389 -0.03209145367145538 -0.0837702602148056 -0.03936861827969551 0.1949392855167389 0.18233691155910492 0.06028345599770546 -0.03548094630241394 -0.20434415340423584 0.342816561460495 -0.0831296369433403 -0.053467463701963425 0.1646779477596283 -0.09510191529989243 -0.04634801298379898 0.028091151267290115 -0.10573334991931915 0.19715924561023712 -0.12913192808628082 0.20670311152935028 -0.11749579757452011 -0.013339131139218807 0.1702672392129898 0.13207341730594635 0.030222386121749878 -0.02715153619647026 -0.004819010384380817 -0.10265276581048965 -0.21887558698654175 0.001993500394746661 0.01294923946261406 0.01572376862168312 -0.016965528950095177 -0.18964883685112 -0.07359462231397629 -0.25515657663345337 -0.13623392581939697 0.10517709702253342 -0.0046470616944134235 0.04723032936453819 0.014570977538824081 -0.21446526050567627 0.055825863033533096 -0.11156275868415833 -0.17825937271118164 0.1856766641139984 0.1329992562532425 0.06535613536834717 -0.03025141730904579 -0.02981317974627018 0.10611245781183243 0.034625548869371414 -0.11449965089559555
national 0.01072143018245697 -0.0070555550046265125 -0.09141980111598969 -0.13376908004283905 0.011074546724557877 0.01660839095711708 -0.005965979769825935 0.062326982617378235 -0.05177196115255356 0.011935517191886902 -0.0742327868938446 -0.0327954962849617 -0.16937656700611115 0.06531336158514023 0.01218205876648426 0.07600722461938858 -0.08644014596939087 0.02484305016696453 0.06619974225759506 0.11460493505001068 -0.10026734322309494 -0.0024130363017320633 0.05830464884638786 0.049482524394989014 0.04843810200691223 -0.012486336752772331 -0.034826911985874176 0.05507146567106247 -0.07715825736522675 -0.14910918474197388 0.05762721970677376 -0.06363844126462936 -0.02756359614431858 -0.04533941671252251 0.016099143773317337 -0.02003593184053898 -0.09383273124694824 0.08407062292098999 0.06333670765161514 -0.02123168483376503 -0.04687584564089775 -0.028881536796689034 0.0038897348567843437 -0.046060334891080856 -0.05958428606390953 -0.025667624548077583 -0.055407170206308365 0.13899289071559906 0.13006822764873505 -0.13116398453712463 -0.08250277489423752 -0.08123643696308136 0.025203727185726166 0.01041044294834137 -0.017156269401311874 -0.08160340040922165 -0.020822174847126007 -0.12823545932769775 8.630736265331507E-4 -0.0414983369410038 0.020475201308727264 -6.678448698949069E-5 0.14493702352046967 0.03201909363269806 -0.06352713704109192 -0.009946545585989952 -0.07180241495370865 0.042420394718647 -0.16316483914852142 0.002134548267349601 0.054158903658390045 0.10041490197181702 -0.06325355917215347 -0.0028064618818461895 -0.06661335378885269 -0.06901316344738007 0.09348297119140625 -0.03804468363523483 0.05278363451361656 -0.010991868562996387 0.0687871128320694 -0.0737551674246788 0.0030516975093632936 -0.04181888699531555 0.03798807039856911 0.06013002246618271 -0.06284195184707642 0.09391865879297256 -6.886178744025528E-4 -0.019052403047680855 -0.012190442532300949 -0.037659790366888046 -0.11485528945922852 0.02214822545647621 0.04144623130559921 0.04393620416522026 -0.08016293495893478 -0.029467668384313583 -0.15904675424098969 -0.07335279881954193
where -0.053558845072984695 0.20988665521144867 0.07131346315145493 0.17484450340270996 0.24971704185009003 -0.1563454270362854 0.25717514753341675 -0.07384835183620453 0.05959117040038109 0.2820247709751129 -0.15626642107963562 0.13868828117847443 -0.1462160050868988 0.21353299915790558 0.354810506105423 0.4624677300453186 -0.1476656049489975 -0.08911983668804169 -0.15265585482120514 0.08565348386764526 -0.15255704522132874 0.18645790219306946 -0.34217917919158936 0.274614542722702 0.028173789381980896 -0.18474756181240082 -0.21580304205417633 0.10529903322458267 0.0033831452019512653 -0.3296672999858856 -0.07085918635129929 0.15822771191596985 0.04836743697524071 -0.30570077896118164 -0.08375801891088486 -0.04689910635352135 -0.4096929728984833 -0.14750836789608002 0.18057502806186676 -0.1654355376958847 -0.0013383547775447369 -0.17581140995025635 0.3395821452140808 0.22356264293193817 0.1694687008857727 -0.1979674994945526 0.16215670108795166 0.16292603313922882 0.14411190152168274 -0.2772330045700073 0.14485926926136017 0.19009537994861603 -0.02770354598760605 0.09023250639438629 0.21980184316635132 0.47317269444465637 0.13785822689533234 0.18304482102394104 0.28946465253829956 0.1086956039071083 -0.17817002534866333 0.2542698085308075 0.03843431547284126 0.10182710736989975 0.06074905022978783 0.11449472606182098 0.4424839913845062 -0.08909578621387482 -0.17628474533557892 0.07377566397190094 0.015006234869360924 0.3308197557926178 -0.098387211561203 0.10356917977333069 -0.11744889616966248 0.03649799898266792 -0.20127515494823456 0.08016977459192276 0.05977793037891388 -0.08998464047908783 0.20124775171279907 0.23399972915649414 -0.177970752120018 -0.1346825808286667 0.33164897561073303 0.025780566036701202 -0.3096931576728821 0.48274460434913635 0.3706996440887451 0.1145615503191948 0.009943109005689621 -0.7848334908485413 0.030591759830713272 0.21430204808712006 -0.10153759270906448 0.14611376821994781 -0.4020936191082001 0.09221655875444412 0.33856162428855896 -0.018947267904877663
after 0.11949189752340317 0.1678878664970398 0.11613087356090546 -0.00775124179199338 0.21219658851623535 0.015273727476596832 0.16143698990345 -0.13506802916526794 -0.08268453180789948 -0.053513750433921814 0.15695889294147491 0.14807304739952087 -0.0975569412112236 0.15225407481193542 0.0927317887544632 -0.1426750123500824 0.0498330295085907 -0.30923181772232056 -0.008271968923509121 0.023330749943852425 -0.33957627415657043 0.07244643568992615 -0.14208021759986877 0.19526243209838867 0.1658366620540619 -0.02393035590648651 0.10156367719173431 -0.09996234625577927 0.07481825351715088 -0.3575414717197418 0.19597648084163666 0.031990017741918564 -0.28097841143608093 -0.12704071402549744 0.15191179513931274 -0.25918465852737427 -0.047531213611364365 0.03010309673845768 0.060579411685466766 0.2722923457622528 -0.12428335845470428 -0.06972439587116241 0.31787121295928955 -0.03602634742856026 0.17099927365779877 0.17500245571136475 -0.1805870085954666 -0.15736709535121918 -0.051963917911052704 -0.29842597246170044 0.02487863413989544 0.3287504017353058 -0.0786653682589531 0.030797632411122322 0.044006817042827606 -0.2796228528022766 0.05939221382141113 -0.07976475358009338 0.22689920663833618 0.15201488137245178 -0.13140153884887695 0.22001081705093384 0.2251824587583542 -0.33074459433555603 0.14232823252677917 -0.2612430453300476 0.2799298167228699 -0.271838903427124 -0.16396018862724304 0.2082948237657547 -0.07655031979084015 0.1446467638015747 -0.023438673466444016 0.16929802298545837 -0.018775302916765213 -0.10090780258178711 0.07782620936632156 0.008116647601127625 0.14216648042201996 -0.1545959711074829 -0.03327929228544235 0.010644505731761456 -0.05312184616923332 -0.22238092124462128 -0.01604670286178589 -0.047561824321746826 0.01012809295207262 0.1792786866426468 0.01597452722489834 0.1429387927055359 -0.20506204664707184 0.26637187600135803 0.1272881180047989 0.33262717723846436 -0.08627192676067352 0.04308081790804863 0.008059256710112095 0.23523738980293274 -0.12920919060707092 -0.1968822032213211
so -0.03867260366678238 -0.16715244948863983 -0.24154675006866455 -0.024845680221915245 0.20799145102500916 0.04141082242131233 0.07788867503404617 -0.23803313076496124 0.1005525141954422 -0.04778990522027016 0.03133349493145943 -0.04928849637508392 0.2851499319076538 0.04533327743411064 -0.0748271495103836 -0.04308075085282326 0.23108425736427307 0.062108591198921204 -0.15816326439380646 -0.2669668197631836 -0.18438883125782013 -0.06703140586614609 0.014244627207517624 -0.2135724276304245 0.0893256813287735 0.33225691318511963 -0.1952461302280426 -0.15549509227275848 -0.18698589503765106 -0.22270019352436066 0.04178950935602188 0.37954285740852356 0.0034095272421836853 0.08424167335033417 -0.02757754735648632 -0.17364908754825592 -1.1163225281052291E-4 -0.0035308292135596275 -0.14164574444293976 -0.20553144812583923 0.15142574906349182 -0.15392471849918365 0.21020904183387756 0.39298075437545776 -0.3581010699272156 -0.17224040627479553 0.2078591138124466 -0.02304680645465851 -0.3640705943107605 -0.16675418615341187 0.1757981926202774 0.033802542835474014 0.0970836654305458 0.11387649178504944 0.06602029502391815 0.026882484555244446 -0.1532607227563858 -0.189891517162323 -0.10609223693609238 0.21777327358722687 -0.05914344638586044 0.2059556096792221 -0.30516237020492554 -0.08111021667718887 0.18091091513633728 0.17429038882255554 -0.08127931505441666 -0.03193549066781998 0.17298834025859833 0.05452949181199074 -0.2452802211046219 -0.18692263960838318 0.09228450804948807 0.17346365749835968 -0.06180054694414139 -0.16957828402519226 -0.1368100792169571 0.2076433151960373 -0.01027299091219902 -0.07963497936725616 0.12500546872615814 -0.061049554497003555 0.04037369042634964 -0.024789778515696526 0.10491633415222168 0.07815155386924744 -0.01295743603259325 -0.13911378383636475 -0.11122871935367584 -0.04609866440296173 -0.013894457370042801 -0.06316275149583817 -0.1310778707265854 -0.0042172078974545 -0.06897961348295212 -0.22107703983783722 0.21194040775299072 0.25220412015914917 0.024446334689855576 0.06179085373878479
a 0.3317581117153168 0.18645378947257996 0.2628544270992279 -0.3259417712688446 -0.5467146039009094 0.16815899312496185 0.3767343759536743 0.06211869418621063 0.05361035838723183 -0.4479309618473053 -0.348479300737381 0.06579609960317612 -0.30168619751930237 0.0197854395955801 -0.05376739054918289 -0.030757874250411987 0.22639723122119904 0.060637108981609344 0.20814715325832367 -0.34340900182724 -0.2036767303943634 -0.03069526143372059 0.3056953251361847 0.03099154494702816 0.0778532475233078 0.07487072795629501 -0.4065605103969574 -0.3554339110851288 -0.03853734955191612 -0.024150384590029716 0.05306222289800644 0.36492282152175903 0.05202188342809677 -0.29559198021888733 0.10208988189697266 -0.1805647313594818 -0.03782562538981438 0.11123069375753403 0.28953036665916443 -0.018056616187095642 -0.25281602144241333 0.016795631498098373 -0.19755852222442627 -0.136642724275589 0.03525327518582344 -0.020695233717560768 -0.16713617742061615 0.003821472404524684 0.12656794488430023 0.2088126242160797 0.018590601161122322 -0.1760261505842209 -0.020562000572681427 -0.06316231191158295 0.2333698272705078 0.061369411647319794 0.2934677004814148 -0.4941786825656891 -0.060625411570072174 0.004115226212888956 0.011190642602741718 -0.016833914443850517 -0.02804720588028431 -0.1640416830778122 0.06046327203512192 -0.46707287430763245 -0.18288186192512512 -0.001606660196557641 -0.24244549870491028 0.11186385899782181 0.025922689586877823 0.07703227549791336 0.0734248235821724 -0.13591516017913818 -0.32137244939804077 -0.31222933530807495 -0.08194217830896378 0.5546578168869019 0.16322682797908783 0.08555067330598831 -0.004029227886348963 -0.26232361793518066 -0.10014806687831879 -0.12407824397087097 0.2415846735239029 -0.06165282800793648 0.4352898895740509 0.09216374158859253 -0.3859814703464508 -0.2822123169898987 -0.2901214063167572 -0.06296622008085251 0.07194491475820541 -0.18112538754940033 0.364136666059494 0.0723966583609581 0.19971127808094025 0.08871203660964966 -0.0072180358693003654 0.32709550857543945
think -0.030331458896398544 0.12133387476205826 0.07373223453760147 0.04210479184985161 -0.10198383033275604 -0.2588517367839813 0.11873903125524521 0.05177731066942215 0.2624388635158539 -0.10591932386159897 -0.13414520025253296 0.01632423885166645 -0.19978581368923187 -0.0635761022567749 0.244815856218338 0.04181806743144989 -0.3255176246166229 0.1468302607536316 0.19417935609817505 0.04661555215716362 -0.1062217429280281 -0.09981580078601837 -0.28665900230407715 -0.47898489236831665 -0.02224927395582199 0.051410894840955734 0.1260901391506195 -0.18372602760791779 0.07272221148014069 0.12200063467025757 -0.18765078485012054 0.004347316455096006 -0.29506877064704895 -0.0348951630294323 -0.17538541555404663 -0.259651243686676 0.1441565901041031 -0.016725772991776466 -0.1695536971092224 -0.28178003430366516 -0.006287605967372656 -0.549394428730011 -0.25682708621025085 -0.07594720274209976 -0.0042200894095003605 0.12464970350265503 -0.2103344053030014 -0.41170504689216614 -0.20262199640274048 0.21317917108535767 0.24294321238994598 0.13348253071308136 0.04261276125907898 -0.08234168589115143 -0.042630426585674286 -0.030098309740424156 -0.055427368730306625 0.08426553010940552 0.1079157218337059 -0.32552969455718994 0.1831963062286377 0.24486888945102692 -0.2044030725955963 -0.15887083113193512 0.09223335981369019 0.27689048647880554 0.027744347229599953 0.35580912232398987 0.39018192887306213 0.0612715519964695 -0.13057225942611694 -0.004903098568320274 -0.11494994163513184 -0.1584683656692505 -0.02296314761042595 0.011796132661402225 0.21370700001716614 -0.02632465586066246 -0.128551185131073 -0.20255227386951447 -0.0040261829271912575 -0.09791449457406998 0.005528286099433899 0.13954846560955048 -0.015571690164506435 0.05591953918337822 0.11058147251605988 0.12267408519983292 0.025596341118216515 -0.009930785745382309 0.19717638194561005 0.15997585654258728 -0.22349858283996582 0.06124098226428032 0.05414484441280365 -0.2029702216386795 -0.24107445776462555 0.2797550857067108 0.14925448596477509 0.004167398903518915
set 0.03245220333337784 8.21934372652322E-4 -0.11970942467451096 -0.05693560093641281 -0.054827094078063965 -0.021631894633173943 0.02622034214437008 0.03943507373332977 -0.019274482503533363 0.1353873312473297 -0.06139758974313736 0.18083257973194122 -0.18024314939975739 0.10031180828809738 -0.06600676476955414 -0.04792821407318115 -0.08506780117750168 -0.29918861389160156 -0.22028183937072754 0.1264418661594391 -0.13397939503192902 0.11593928933143616 0.012578501366078854 -0.025361575186252594 0.048962872475385666 -0.010203484445810318 0.22368773818016052 0.09638136625289917 -0.18898215889930725 -0.12843294441699982 -0.030253980308771133 -0.12557530403137207 -0.07414691895246506 -0.019726889207959175 0.05046022683382034 -0.12297342717647552 -0.13915792107582092 0.13829593360424042 0.08828583359718323 0.09337767213582993 0.15693385899066925 0.01906287856400013 -0.27260109782218933 -0.07119536399841309 0.05432504415512085 0.008889863267540932 0.0831887274980545 0.08278299868106842 0.1642974317073822 0.11621830612421036 -0.13167448341846466 0.1595126837491989 -0.03865661844611168 0.07497969269752502 -0.09556135535240173 -0.09707654267549515 -0.069668710231781 0.14670266211032867 -1.8940895097330213E-4 0.07986485213041306 -0.03864328935742378 0.02684462070465088 0.07473713159561157 -0.17719469964504242 -0.20702466368675232 -0.05284254997968674 -2.0973939172108658E-6 -0.1130664125084877 0.011910402216017246 -0.03537808731198311 0.010913481935858727 -0.0758129134774208 0.005289043299853802 0.11287857592105865 -0.040853988379240036 -0.14207495748996735 0.25880178809165955 -0.03338920325040817 -0.13049015402793884 0.12200809270143509 -0.10153944045305252 0.06178702786564827 5.617913557216525E-4 -0.021757381036877632 0.14663289487361908 0.11329284310340881 -0.1690444052219391 0.12658077478408813 -0.09698174148797989 0.08759266138076782 -0.1529175043106079 0.10316065698862076 0.21983103454113007 0.034721482545137405 0.11593392491340637 -0.08995059877634048 -0.2052508294582367 -0.02936701290309429 -0.14812953770160675 -0.13205493986606598
