been 0.19451165199279785 -0.18832699954509735 0.012151896953582764 -0.1864231824874878 0.2873256802558899 -0.4700640141963959 0.16354931890964508 -0.05388202145695686 0.03467176854610443 0.01950119063258171 0.3250647783279419 0.2628948390483856 -0.19890093803405762 0.13329342007637024 -0.08939876407384872 0.33071139454841614 0.10264091938734055 -0.32555344700813293 -0.23168496787548065 -0.24640201032161713 0.07005826383829117 0.47631290555000305 0.10180765390396118 -0.01055215299129486 0.04021009802818298 0.425353080034256 -0.29692307114601135 0.24211731553077698 -0.23374712467193604 -0.17803634703159332 -0.40848714113235474 -0.16368702054023743 -0.11466170102357864 -0.3971969783306122 0.8845620155334473 0.34493452310562134 -0.007328589912503958 0.27055835723876953 -0.537656307220459 -0.3565203547477722 -0.6500723361968994 -0.022442439571022987 -0.24437208473682404 0.2230714112520218 -0.2681567668914795 -0.2813202142715454 -0.05758640915155411 0.008687241934239864 0.39452052116394043 0.12701712548732758 0.29631033539772034 -0.20438805222511292 -0.23603782057762146 -0.25198546051979065 -0.47511982917785645 -0.4674077033996582 -0.2942872643470764 0.18169409036636353 -0.1484021246433258 -0.011719739064574242 0.4256329834461212 -0.24512410163879395 -0.325788676738739 -0.08608780056238174 -0.24252642691135406 -0.2327072024345398 -0.008383167907595634 0.2554769217967987 0.17538714408874512 0.452547162771225 -0.05904282629489899 0.09140978008508682 0.14981114864349365 -0.4125984013080597 0.08023808151483536 0.3537585139274597 0.2115747034549713 0.16092972457408905 -0.020156744867563248 -0.0902986004948616 0.07593625038862228 0.5261219143867493 -0.3399263620376587 0.3152657449245453 0.16416816413402557 -0.12398210912942886 0.00208289478905499 -0.1988915205001831 0.21701565384864807 -0.27341291308403015 -0.24303339421749115 0.7005749344825745 0.06347789615392685 0.37701401114463806 -0.07867646962404251 0.04348830133676529 0.3064589500427246 -0.30846506357192993 -0.2695012390613556 -0.13363707065582275
year -0.16931231319904327 -0.10139197111129761 -0.11185403913259506 0.06485870480537415 -0.10283483564853668 -0.30802127718925476 0.4266112744808197 0.009242933243513107 -0.09385780245065689 -0.19194144010543823 0.5217196941375732 0.012492109090089798 -0.563940167427063 0.20925910770893097 0.2897535562515259 -0.04582049697637558 0.2317477911710739 -0.23910340666770935 0.09364492446184158 -0.2741500437259674 0.03565880283713341 0.09414293617010117 0.06290236115455627 0.3139024078845978 -0.24765156209468842 0.4396728277206421 -0.08374050259590149 0.04328256845474243 -0.3381587266921997 0.02260686829686165 -0.8795236945152283 -0.05254509299993515 0.0970240980386734 -0.15386947989463806 0.11382469534873962 0.1514177918434143 -0.184383362531662 -0.07781179994344711 0.28920289874076843 0.05820200592279434 -0.06774391233921051 -0.0745655745267868 0.030652571469545364 -0.3315933346748352 0.1909155398607254 -0.1825505495071411 -0.1095842719078064 -0.05928308889269829 0.6172899603843689 -0.014121018350124359 0.06942224502563477 0.011759020388126373 -0.09837787598371506 0.18477211892604828 -0.09167471528053284 0.24224263429641724 0.232985720038414 -0.0770016685128212 0.15645086765289307 0.32190394401550293 -0.15255671739578247 -0.12672598659992218 0.038886576890945435 -0.24152019619941711 0.16603490710258484 -0.04649817571043968 -0.20417048037052155 -0.16144518554210663 -0.08030274510383606 0.18925008177757263 -0.06656552106142044 0.3228878676891327 0.09413426369428635 -0.1702866107225418 0.09149334579706192 0.24855275452136993 -0.16601818799972534 0.18267883360385895 0.09829838573932648 -0.023531341925263405 0.0545874647796154 0.07003779709339142 0.47255778312683105 -0.41727885603904724 -0.054818470031023026 -0.21190033853054047 -0.2273835837841034 -0.5693010687828064 -0.06720802187919617 0.3234163820743561 -0.05829242616891861 -0.08738300949335098 -0.34721359610557556 0.06740255653858185 0.3504275679588318 5.299331387504935E-4 0.07300089299678802 0.2753387689590454 0.4966380298137665 -0.12227988988161087
about -0.19847960770130157 0.03813999518752098 0.06258074939250946 -0.08218027651309967 0.11304261535406113 0.021992985159158707 0.041870370507240295 -0.13913583755493164 0.019813112914562225 0.0025494960136711597 -0.2671847939491272 -0.021801099181175232 0.24308563768863678 -0.25731009244918823 0.09762092679738998 0.10584259033203125 -0.022075403481721878 0.16585761308670044 0.0927048772573471 0.14944972097873688 -0.03873061016201973 0.44059333205223083 0.03111138381063938 0.11775334924459457 -0.07572176307439804 0.19726772606372833 0.10025647282600403 0.24036875367164612 -0.22767414152622223 0.17481976747512817 7.947877747938037E-4 0.008295306004583836 -0.44611790776252747 0.29321983456611633 0.13812333345413208 -0.03739415109157562 0.47561997175216675 0.06319710612297058 0.04494113847613335 -0.08774612843990326 0.03299783170223236 0.3275146186351776 0.3873794674873352 -0.33279380202293396 0.14864039421081543 -0.03658486157655716 -0.08528272807598114 0.13518014550209045 0.08794941753149033 -0.12369019538164139 -0.1163717582821846 0.26209425926208496 -0.5231543779373169 0.31208324432373047 -0.2462279349565506 0.10940197855234146 -0.22288748621940613 -0.0847252607345581 -0.3131376802921295 0.46109312772750854 -0.21735166013240814 -0.13702137768268585 -0.023873353376984596 -0.5162976980209351 -0.02242359146475792 -0.07857488840818405 -0.3848089277744293 0.13329795002937317 0.05599154904484749 -0.027892310172319412 -0.23233096301555634 0.38123488426208496 -0.18183615803718567 -0.3669329285621643 0.07096286863088608 0.09984572231769562 -0.04930689185857773 0.0879983901977539 0.24373705685138702 -0.24533259868621826 -0.04063849896192551 0.3137059211730957 0.17192701995372772 0.0340215228497982 -0.21725448966026306 -0.07370542734861374 -0.0787847489118576 -0.009883688762784004 0.36743268370628357 0.15522757172584534 0.13209666311740875 -0.30662769079208374 -0.014271406456828117 -0.020193079486489296 0.15958580374717712 0.6335093379020691 -0.2861994504928589 0.07969788461923599 -0.004931498318910599 -0.027274388819932938
your 0.13246850669384003 0.011711989529430866 -0.07028535008430481 0.09696942567825317 0.11954493820667267 -0.22042693197727203 -0.3188125789165497 0.2289879024028778 -0.16130216419696808 -0.044264741241931915 -0.23744802176952362 0.10511048138141632 0.1583665907382965 -5.990169011056423E-4 -0.2249930202960968 0.07364942878484726 -0.004281386733055115 -0.3210914134979248 0.2416265904903412 -0.258796364068985 -0.18380534648895264 -0.4877432584762573 0.23594969511032104 0.33931756019592285 0.2685549855232239 0.15771016478538513 0.32237905263900757 -0.04813582822680473 -0.006560015492141247 -0.020738402381539345 -0.24077311158180237 -0.054133497178554535 -0.4258487820625305 0.028481198474764824 0.3429434299468994 -0.33219262957572937 0.049199461936950684 0.08600616455078125 -0.18298736214637756 0.3222627341747284 -0.06336791068315506 -0.2657943367958069 -0.09307198226451874 -0.014853124506771564 -0.04364362731575966 0.17384883761405945 0.04712124168872833 -0.21645617485046387 -0.25957128405570984 -0.24336689710617065 -0.09766437858343124 -0.3038804829120636 -0.09680463373661041 -0.03808712214231491 0.052032407373189926 -0.13337287306785583 -0.25860801339149475 -0.005517964251339436 0.3339727520942688 -0.21197625994682312 0.061354830861091614 -0.0804431289434433 -0.2482563853263855 -0.5718037486076355 0.0479365773499012 -0.21270623803138733 -0.35853224992752075 0.15390297770500183 0.1269991099834442 -0.2506856918334961 0.20307393372058868 -0.05505143105983734 0.1834236979484558 0.08879988640546799 0.02235330455005169 -0.23678827285766602 0.14219674468040466 -0.2092357575893402 0.02209528349339962 -0.10449973493814468 0.25343018770217896 -0.16855564713478088 0.5760226845741272 0.16049857437610626 -0.2829115092754364 -0.04924286901950836 -0.05494702234864235 -0.10871542990207672 0.015855828300118446 0.0765535980463028 0.3789590299129486 -0.20397521555423737 -0.08208010345697403 -0.4872998297214508 -0.0012461186852306128 0.3439179062843323 0.09669576585292816 0.13611121475696564 0.05519983544945717 0.1621723622083664
without 0.18657797574996948 -0.24814076721668243 -0.0590658076107502 0.2947171628475189 0.04982464388012886 -0.09331529587507248 0.05117619037628174 0.14882513880729675 0.027593618258833885 -0.14510883390903473 -0.11426067352294922 0.022096771746873856 0.182110995054245 -0.14809884130954742 -0.22183792293071747 0.23338361084461212 0.005841206293553114 0.17294669151306152 0.23782508075237274 0.17457272112369537 0.3059760332107544 0.01217163447290659 -0.10759556293487549 0.17778141796588898 -0.11543634533882141 0.143921360373497 -0.09894932806491852 0.3690466582775116 -0.1241329237818718 -0.07912882417440414 -0.16209369897842407 -0.21940839290618896 -0.477588415145874 0.1340085119009018 0.29441186785697937 0.4425364136695862 -0.04561849683523178 0.11700134724378586 0.008708315901458263 -0.011413982138037682 -0.2939187288284302 0.08121159672737122 -0.29391470551490784 -0.24681641161441803 0.257401704788208 0.13941200077533722 0.05316803604364395 0.05949374660849571 -0.018485553562641144 -0.01626521535217762 -0.14438119530677795 0.3109769821166992 0.1833535134792328 -0.18702669441699982 -0.03196064010262489 -0.3389919698238373 0.004885451402515173 -0.05716369301080704 -0.05488705635070801 0.23043595254421234 -0.29221978783607483 -0.108179472386837 -0.5138016939163208 -0.255607545375824 0.04739905893802643 -0.3143604099750519 -0.22740274667739868 0.007710685953497887 0.08781459182500839 -0.03348499536514282 -0.08441019058227539 -0.10078762471675873 0.09070545434951782 0.0758846253156662 -0.010345812886953354 0.20817679166793823 0.12618184089660645 -0.1599532514810562 0.1770264059305191 0.06076604127883911 -0.224538654088974 0.10448096692562103 -0.0709633082151413 0.05550183355808258 0.11476542800664902 0.004860394634306431 -0.10485474020242691 -0.23195457458496094 0.07518744468688965 -0.029355375096201897 -0.15245148539543152 0.16616453230381012 -0.2259616255760193 0.23254503309726715 0.05627086013555527 -0.10068149119615555 0.13570712506771088 0.24499757587909698 0.42870715260505676 0.022312847897410393
these 0.06503522396087646 0.006686236709356308 0.027119740843772888 0.2206680029630661 -0.1573682725429535 0.22569654881954193 0.1435943841934204 0.25756603479385376 -0.07303493469953537 0.055187202990055084 0.2101636826992035 -0.11090053617954254 0.43778496980667114 -0.07313312590122223 -0.12599891424179077 0.1931675523519516 0.1106744185090065 0.4122008979320526 0.03690103068947792 -0.1782098114490509 0.07162640243768692 -0.07023873925209045 0.08938562124967575 0.016156580299139023 0.0741521343588829 0.4951665699481964 0.530235230922699 0.10334889590740204 0.27276551723480225 -0.3939496576786041 0.3946506977081299 -0.2293224036693573 0.027667663991451263 -0.42209896445274353 -0.17481157183647156 -0.03201773762702942 -0.15410956740379333 -0.33009105920791626 0.08999926596879959 -0.09427384287118912 0.2371976524591446 -0.07766571640968323 -0.0870511382818222 0.12128517776727676 0.0548677071928978 0.15323467552661896 -0.04379706457257271 -0.47276175022125244 0.16569796204566956 -0.30395054817199707 -0.2486998438835144 -0.24902018904685974 0.017551904544234276 -0.12012624740600586 0.21384814381599426 -0.11433643847703934 0.329836905002594 -0.3055365979671478 -0.23239688575267792 -0.040756504982709885 -0.22744397819042206 -0.2792651355266571 -0.07312148809432983 0.18246304988861084 -0.32140713930130005 -0.3087772727012634 -0.04158259555697441 -0.14440731704235077 0.17844243347644806 -0.5241957902908325 -0.24824228882789612 0.3963099420070648 0.02670345827937126 -0.07643089443445206 0.3118443191051483 -0.028504503890872 -0.23287612199783325 0.07194918394088745 0.1194935142993927 -0.40785011649131775 0.5812708735466003 0.06043676286935806 -0.27313026785850525 0.28244224190711975 -0.20732221007347107 -0.22584646940231323 -0.39090240001678467 0.2716251611709595 -0.006371069699525833 0.15974383056163788 -0.19644130766391754 0.0812993198633194 0.059983398765325546 0.0514046847820282 -0.03128945082426071 0.11147437989711761 -0.09195832163095474 -0.055259548127651215 0.09170306473970413 0.09762753546237946
companies 0.1751052737236023 -0.0046850345097482204 -0.1613379269838333 -0.18816035985946655 -0.060165341943502426 0.05745365470647812 0.09157704561948776 -0.08057475090026855 -0.19675315916538239 -0.09858974069356918 0.07934869825839996 0.056656643748283386 0.08246483653783798 -0.08734704554080963 -0.08841779828071594 0.1771114617586136 -0.09732320159673691 0.27377191185951233 -0.1899176985025406 -0.03700237348675728 -0.218718484044075 0.0602673701941967 0.11423927545547485 0.071182020008564 -0.1357128620147705 0.17937840521335602 0.02836870588362217 0.2144385725259781 0.08983726054430008 -0.1713091880083084 0.10469835251569748 -0.4128965437412262 0.09980034828186035 -0.08559653908014297 0.10185643285512924 -0.12004721909761429 -0.17269167304039001 -0.06133827567100525 -0.11168493330478668 0.11520419269800186 -0.05169111117720604 -0.17294181883335114 0.003696301020681858 -0.11798704415559769 0.12693847715854645 -0.05765166133642197 0.06079094484448433 -0.15517979860305786 0.23945151269435883 0.1346026360988617 -0.12603040039539337 -0.0801439955830574 0.15584272146224976 -0.2512946128845215 0.25870394706726074 -0.02707274630665779 0.3087232708930969 -0.09427317976951599 -0.012631089426577091 -0.15543289482593536 -0.15348513424396515 -0.2264723926782608 0.03739282488822937 0.10340563952922821 -0.22841644287109375 -0.16918964684009552 0.04061523824930191 -0.12455302476882935 0.016752103343605995 -0.06884398311376572 -0.0051620518788695335 0.06327231228351593 0.03520699962973595 -0.0049721188843250275 0.10438269376754761 -0.23077960312366486 -0.08910981565713882 -0.2636500895023346 0.39098185300827026 -0.09748219698667526 0.07152974605560303 -0.010778957046568394 -0.11423154920339584 -0.07121871411800385 -0.205826073884964 -0.11051560938358307 -0.16527804732322693 -0.00435444712638855 0.025013301521539688 0.06134742870926857 -0.11367107927799225 0.19269147515296936 -0.05395611375570297 0.038675617426633835 -0.0039109643548727036 -0.009489033371210098 0.020533548668026924 0.0913722813129425 -0.015330283902585506 0.2547326385974884
music 0.054355766624212265 0.11986705660820007 -0.12863975763320923 -0.2322467863559723 0.12520751357078552 0.10284221917390823 0.1390424370765686 0.12283129245042801 -0.16706597805023193 0.005692115053534508 -0.20973412692546844 0.06375591456890106 -9.719983208924532E-4 -0.05392547324299812 -0.06218472868204117 0.17566876113414764 -0.3310965299606323 -0.2398737072944641 -0.24911536276340485 0.05784373730421066 0.05587993189692497 0.11574995517730713 -0.0873890146613121 0.04381798580288887 -0.09069456160068512 -0.03653763234615326 -0.15649844706058502 0.0012007139157503843 0.10067404806613922 0.10224241018295288 0.10172472894191742 0.010982539504766464 0.09376517683267593 -0.07628299295902252 0.12135352194309235 -0.14123524725437164 0.05756043642759323 0.0022231913171708584 -0.1864822655916214 -0.11972169578075409 0.07149136066436768 -0.07250815629959106 0.17956148087978363 -0.23093359172344208 0.35951194167137146 0.2212793231010437 0.014626691117882729 -0.05612581968307495 0.14129720628261566 0.011808625422418118 0.21624261140823364 -0.053301580250263214 -0.20188483595848083 -0.043034911155700684 0.06395293027162552 0.07820894569158554 0.15418943762779236 -0.3397751748561859 0.038684260100126266 -0.030896097421646118 -0.04555870592594147 0.09841925650835037 0.3467770516872406 -0.053220923990011215 0.13348762691020966 0.038730721920728683 -0.36256688833236694 -0.22457514703273773 -0.14524522423744202 0.19291192293167114 -0.10351403802633286 -0.10313597321510315 -0.052368395030498505 0.0947813019156456 -0.12386704236268997 0.06491059809923172 -0.05152835696935654 0.10346464812755585 0.05394420400261879 0.2819053828716278 -0.016246376559138298 0.1122155413031578 -0.004104899242520332 -0.22945258021354675 -0.23545479774475098 -0.13060742616653442 -0.048130251467227936 8.1522052641958E-4 0.04090166091918945 -0.15372025966644287 0.37564054131507874 0.0016883618663996458 -0.2036583423614502 -0.1458636075258255 0.07582853734493256 -0.05742916464805603 0.06298333406448364 0.1477225422859192 -0.016927450895309448 0.17673100531101227
would -0.07124128937721252 -0.19168198108673096 -0.36985936760902405 -0.0043421583250164986 0.09341397881507874 -0.29258689284324646 0.053315769881010056 -0.03487013280391693 0.030302537605166435 -0.20072247087955475 -0.07812082767486572 0.0660836324095726 -0.11127965897321701 0.10235824435949326 -0.17756332457065582 0.033760327845811844 -0.11858006566762924 0.13344213366508484 -0.13712790608406067 0.19445788860321045 0.15024274587631226 0.061074864119291306 0.04903183504939079 -0.07020561397075653 -0.18340566754341125 0.16509677469730377 0.22850075364112854 -0.019299333915114403 0.11896178126335144 -0.09869735687971115 0.03549430891871452 -0.07285415381193161 -0.3349784016609192 -0.21399715542793274 0.0678412914276123 0.2053617537021637 -0.10979655385017395 -0.20260147750377655 0.17086751759052277 0.10097166895866394 -0.06148732081055641 -0.15866708755493164 -0.15084612369537354 0.24138368666172028 0.4192103147506714 -0.05192383751273155 0.20618318021297455 -0.15026895701885223 -0.183222696185112 0.4926645755767822 -0.43727806210517883 -0.08603677898645401 0.2269017994403839 -0.03038385510444641 -0.10520932078361511 0.41847577691078186 -0.14332829415798187 0.23599982261657715 -0.09789454936981201 -0.0353127121925354 -0.26827067136764526 -0.02449093945324421 0.07465650141239166 -0.006517067551612854 -0.007712858263403177 -0.3305392861366272 -0.029365114867687225 -0.04296037182211876 -0.07012876868247986 0.02906370908021927 -0.12139974534511566 -0.3107345998287201 0.15938147902488708 0.14423689246177673 0.23461060225963593 0.38988760113716125 -0.14155340194702148 0.10306030511856079 0.11610487103462219 0.07926522195339203 -0.3006453514099121 0.08567285537719727 0.16897864639759064 0.10697054862976074 0.1881566196680069 -0.1284693330526352 0.08213753998279572 0.14567776024341583 -0.1095271110534668 -0.23527368903160095 0.34423455595970154 -0.1138739362359047 0.03181504085659981 0.1866355836391449 -0.07685737311840057 -0.17706793546676636 0.2192154824733734 0.12952449917793274 0.041935086250305176 -0.15316832065582275
because -0.009716875851154327 -0.2418559491634369 -0.373006135225296 -0.05113370344042778 0.06888791173696518 0.017696883529424667 0.11080728471279144 0.21022839844226837 0.005931606981903315 -0.02805476449429989 -0.20012827217578888 -0.07570575922727585 0.262551873922348 0.1912999451160431 -0.10535844415426254 0.35063987970352173 -0.13653236627578735 -0.19759438931941986 0.18606051802635193 0.007949985563755035 -0.07248269021511078 0.002369960304349661 0.0964605063199997 2.5323842419311404E-4 0.06804961711168289 0.2427411675453186 -0.11707159131765366 -0.10036721080541611 -0.12284664809703827 -0.1451888531446457 -0.07057897746562958 -0.06452618539333344 -0.2722766101360321 -0.05048397555947304 0.02171390689909458 0.30170848965644836 0.11308543384075165 0.07232582569122314 0.03724917024374008 0.012083141133189201 -0.017616257071495056 0.028913768008351326 0.08478176593780518 -0.23503977060317993 0.20031462609767914 0.17823255062103271 -0.08577526360750198 0.10440833121538162 -0.12582485377788544 0.08622056990861893 -0.17101600766181946 -0.012173189781606197 -0.09500707685947418 0.010224604047834873 -0.02438970096409321 -0.12141913920640945 0.1977315992116928 -0.08195768296718597 -0.038313932716846466 -0.057801444083452225 -0.24977661669254303 0.00581733975559473 0.061680469661951065 0.2078799307346344 0.2530497908592224 0.015589630231261253 -0.14968964457511902 0.014569676481187344 -0.10594169050455093 -0.0868920311331749 -0.10342177003622055 -0.13463057577610016 -0.023552613332867622 0.07313604652881622 -0.02678540349006653 0.21595498919487 0.06421319395303726 0.16927054524421692 0.035532381385564804 0.09628116339445114 0.18561716377735138 0.10379932075738907 -0.3383837044239044 0.10663702338933945 -0.004198345821350813 0.07595199346542358 0.12570658326148987 -0.154074028134346 0.05479153245687485 0.14886797964572906 -0.14494165778160095 -0.11923898756504059 0.008184180594980717 0.021216057240962982 0.015537435188889503 0.07368528097867966 0.20769236981868744 -0.1826464682817459 -0.07806769758462906 0.0047985585406422615
state 0.13789543509483337 0.1925157904624939 0.07466792315244675 0.07172463834285736 0.1324007660150528 0.12297940999269485 0.15094120800495148 -0.0020236060954630375 -0.35781729221343994 -0.06859591603279114 -0.10620541870594025 0.09550810605287552 -0.1501489132642746 -0.11283241212368011 0.1292436420917511 0.2724159061908722 -0.3224049508571625 -0.19581545889377594 0.06302981823682785 -0.14182601869106293 0.19508717954158783 -0.1481519490480423 0.08029142767190933 0.15284673869609833 0.1281062364578247 0.14931821823120117 0.09869991987943649 0.2680194675922394 0.06277219206094742 0.03595986217260361 0.04461167752742767 -0.18423502147197723 0.040483180433511734 -0.08828529715538025 0.08075585961341858 0.058311425149440765 0.03160586208105087 0.04526183009147644 -0.14244553446769714 -0.3324626684188843 -0.07249496132135391 -0.17561765015125275 0.2089603692293167 -0.05857421085238457 0.1294831782579422 0.11042609065771103 -0.1784992218017578 0.15499122440814972 0.2501954138278961 -0.10428084433078766 -0.1440274566411972 0.13236640393733978 0.09582144767045975 0.0010806312784552574 0.1605815291404724 0.19083134829998016 0.13463161885738373 -0.2574380040168762 -0.022437240928411484 0.08559305220842361 0.007378428243100643 -0.23171421885490417 0.20486776530742645 -0.08389303088188171 -0.11540897935628891 0.05946290120482445 -0.38804328441619873 -0.16144339740276337 -0.0711170881986618 0.012591145932674408 0.023649506270885468 -0.22185322642326355 -0.1455087959766388 0.12985967099666595 0.08034683763980865 -0.13378775119781494 -0.04723218455910683 -0.03155810758471489 0.04538710042834282 0.07394827157258987 0.18564428389072418 -0.09660155326128006 0.18885311484336853 -0.3359147310256958 -0.13633884489536285 -0.17379136383533478 -0.19935224950313568 -0.21211788058280945 0.03732016310095787 -0.13585306704044342 -0.18830519914627075 0.44850653409957886 -0.158894881606102 0.129384383559227 0.2129470407962799 -0.2013654261827469 0.08575055003166199 0.26368892192840576 0.3368900418281555 0.12760613858699799
they 0.0831679254770279 0.0392768532037735 0.15888002514839172 0.06552382558584213 -0.014223039150238037 -0.07486730813980103 -0.1310248225927353 -0.2756621539592743 -0.14083267748355865 -0.016213543713092804 0.18789716064929962 -0.13808059692382812 0.009755010716617107 0.044213470071554184 -0.1451277881860733 -0.03390251845121384 0.2556387782096863 0.1709408164024353 0.17565160989761353 -0.011265251785516739 -0.059105318039655685 0.017611876130104065 0.10825477540493011 -0.01464119739830494 -0.2075011283159256 -0.025101976469159126 0.3659191131591797 0.12786461412906647 0.009015520103275776 -0.2908632159233093 0.0455530509352684 -0.12425165623426437 -0.19398286938667297 -0.22807936370372772 -0.14520363509655 -0.07219498604536057 -0.17534372210502625 -0.009118802845478058 0.010597869753837585 -0.03797798603773117 0.14349223673343658 -0.08742885291576385 -0.08534839004278183 0.25208643078804016 0.7213197946548462 0.0646929144859314 -0.15996721386909485 0.10707227140665054 0.03854217380285263 0.07507990300655365 -0.12592488527297974 -0.030820589512586594 0.3004803955554962 0.028378929942846298 -0.1971590369939804 -0.2749995291233063 0.11197200417518616 -0.3901843726634979 -0.1768651306629181 -0.22262756526470184 -0.08973842114210129 -0.049716703593730927 -0.24926632642745972 0.10430318117141724 -0.08839670568704605 -0.22858938574790955 0.02036050148308277 0.023110266774892807 -0.0065481895580887794 0.09762182831764221 0.12137945741415024 0.15881046652793884 -0.011435279622673988 0.08481314033269882 0.0631270632147789 -0.26509004831314087 -0.021273717284202576 -0.06674767285585403 0.09204334765672684 -0.2218388468027115 0.14224551618099213 0.21004939079284668 0.1543509066104889 -0.06710584461688995 0.009487517178058624 -0.11390739679336548 -0.4168630540370941 0.3418678045272827 -0.0678623840212822 0.14841575920581818 0.12247353047132492 -0.11132292449474335 -0.02146686613559723 -0.12183140218257904 0.01456006895750761 0.1318376213312149 0.14064396917819977 0.13445055484771729 -0.15888790786266327 0.3165343701839447
you 0.07252582162618637 -0.16946807503700256 -0.13311953842639923 -0.15761764347553253 0.009501478634774685 0.04819381982088089 -0.32153427600860596 -0.22084879875183105 -0.17349396646022797 -0.3798234760761261 0.08792512863874435 -0.32084226608276367 0.033623307943344116 -0.0782126784324646 0.03352918103337288 0.2655768096446991 -0.0803404375910759 0.07450755685567856 -0.039601679891347885 -0.1442013531923294 -0.36164039373397827 0.0671982616186142 -0.10909018665552139 -0.09695486724376678 -0.04696635901927948 -0.0850784033536911 0.3408103883266449 -0.03566015511751175 0.11571457982063293 -0.2874220311641693 -0.1463189572095871 0.033063821494579315 0.07644455134868622 0.06425736099481583 0.18613164126873016 -0.00601851474493742 -0.20121298730373383 0.15659989416599274 0.33712247014045715 0.07040736079216003 0.01500617153942585 0.05824674665927887 -0.17904850840568542 0.4050944745540619 0.3120063245296478 0.019362445920705795 -0.1641952395439148 0.3357943892478943 -0.2898169457912445 0.16620582342147827 -0.1156102865934372 -0.008782166987657547 0.10450385510921478 -0.100758396089077 0.1377844363451004 -0.1869954913854599 0.3445255160331726 -0.2876654267311096 -0.06089005619287491 -0.10344360768795013 0.17937959730625153 0.11005327850580215 0.169709250330925 -0.1678965985774994 -0.04845605045557022 -0.038853324949741364 0.00626518065109849 -0.08522970974445343 -0.16876913607120514 -0.033371761441230774 -0.11192890256643295 -0.07417826354503632 -0.013298723846673965 0.03078800067305565 0.08155402541160583 0.11597917973995209 -0.004827853292226791 -0.16043338179588318 -0.10668352246284485 -0.1752387434244156 -0.29620519280433655 0.21012040972709656 0.21526621282100677 0.23011843860149384 -0.09699544310569763 -0.20004546642303467 -0.2521725594997406 0.10522380471229553 -0.23265618085861206 0.13959772884845734 0.1975345015525818 -0.09981540590524673 -0.15691201388835907 -0.19067899882793427 -0.10574698448181152 0.3408068120479584 0.14791664481163025 -0.17688696086406708 0.08722975105047226 0.26367905735969543
$ 0.015078945085406303 0.00920746847987175 -0.00891795288771391 -0.004859637934714556 -0.0037433442194014788 0.022472819313406944 0.031251028180122375 0.05157231539487839 -0.05433661490678787 -0.011360812932252884 0.011991233564913273 0.02143922634422779 -0.03818805515766144 0.008631371892988682 -0.05048120394349098 0.04001928120851517 -0.05229852348566055 0.01645871065557003 -0.040390849113464355 -0.03232115879654884 0.017447462305426598 -0.001177706173621118 -0.0029000116046518087 0.08159688115119934 0.018930088728666306 0.02344442903995514 0.010023294016718864 0.011309185065329075 0.009461881592869759 -0.015496907755732536 -0.03534054011106491 -0.06534475833177567 0.024565964937210083 -0.034512195736169815 0.030651859939098358 0.04792628437280655 -0.04405367001891136 -0.026338772848248482 -0.03978594020009041 0.02328599989414215 -0.02096574753522873 -0.034129392355680466 -0.01129024289548397 -0.037272609770298004 0.0017134584486484528 -0.010144556872546673 0.01115424744784832 -0.06272870302200317 -0.009149150922894478 0.014990704134106636 -0.004741629119962454 -0.03241720795631409 0.015360979363322258 -0.04936952143907547 0.04249787703156471 0.024157579988241196 0.032131705433130264 -0.0186300165951252 0.04159719869494438 -0.015772180631756783 -0.0508304126560688 0.018984053283929825 0.014227678999304771 0.026425328105688095 0.01092543825507164 -0.008199448697268963 -0.05030820891261101 -0.0011290539987385273 -0.012202723883092403 -0.0159673523157835 0.007694556377828121 -0.01921640709042549 0.05903984233736992 -0.0018867116887122393 0.013175438158214092 -0.004124699160456657 -0.019802605733275414 -0.012522582896053791 0.04801736772060394 -0.0058921207673847675 -0.01938372105360031 -0.006340994033962488 0.0021744007244706154 -0.003013276495039463 -0.021717628464102745 0.017496200278401375 -0.014607205055654049 -0.05736995115876198 0.0043987068347632885 -0.02291455864906311 0.01872904784977436 0.007442336063832045 -0.06498198211193085 0.004494701977819204 -0.0349869467318058 -0.027904553338885307 0.029677042737603188 -0.011067112907767296 0.024132078513503075 0.0790134072303772
going -0.33147677779197693 -0.05937212333083153 -0.22246578335762024 -0.025192471221089363 -0.3344927430152893 -0.3982020914554596 -0.35660839080810547 0.25601714849472046 0.4035152792930603 -0.156449094414711 -0.1388326734304428 -0.356147438287735 0.11743983626365662 -0.060672156512737274 -0.37097877264022827 -0.21811489760875702 -0.09446172416210175 -0.17840233445167542 0.08379778265953064 -0.16183334589004517 0.09538215398788452 0.21293319761753082 0.24937045574188232 0.145660862326622 0.32752707600593567 0.044960133731365204 0.02966107241809368 -0.024250909686088562 -0.21989266574382782 -0.31813424825668335 -0.21379710733890533 -0.037918489426374435 -0.24075864255428314 0.19043800234794617 0.21895353496074677 0.0535111129283905 -0.12050884962081909 -0.3000814616680145 0.41050565242767334 0.3050649166107178 -0.0934392660856247 0.24776989221572876 0.20778250694274902 0.36585181951522827 0.034246742725372314 0.13211822509765625 -0.1347835212945938 -0.1399594247341156 -0.10497145354747772 0.05868937075138092 -0.14581593871116638 -0.8115458488464355 0.3288783133029938 0.17969655990600586 -0.0013678623363375664 0.2401265650987625 -0.024373160675168037 -0.04442115128040314 0.14331932365894318 0.07620041817426682 -0.02457258850336075 0.21488028764724731 0.21987079083919525 0.10225590318441391 0.10510536283254623 0.04519859701395035 -0.17006047070026398 0.13924334943294525 -3.7686084397137165E-4 0.14196527004241943 0.1358376443386078 -0.019302912056446075 0.4199249744415283 -0.03244287148118019 0.14048293232917786 -0.06987836211919785 0.1161583736538887 0.06489545851945877 -0.13324369490146637 -0.3121238946914673 0.028455538675189018 0.21584515273571014 0.08018654584884644 0.13348394632339478 -0.2711013853549957 -0.06895299255847931 0.29304665327072144 -0.1103632003068924 0.02174406498670578 0.009459856897592545 0.16982510685920715 -0.28877535462379456 0.10740025341510773 -0.3005763590335846 0.14033159613609314 0.24287141859531403 0.2108854353427887 0.12557174265384674 0.08991623669862747 0.567591667175293
old 0.07060116529464722 0.15455611050128937 0.133437380194664 0.10594458132982254 -0.05709085986018181 0.4514120817184448 -0.1512676179409027 0.16834789514541626 -0.05376270040869713 -0.12414988875389099 0.18047833442687988 -0.001085617346689105 0.27592962980270386 0.05948267877101898 -0.1940368115901947 0.3215174078941345 -0.39079034328460693 -0.21396706998348236 -0.15422314405441284 0.26943302154541016 -0.024366218596696854 0.10985081642866135 -0.045626185834407806 0.014692651107907295 -0.044940151274204254 -0.03931724280118942 0.2418484389781952 -0.10736377537250519 0.30316677689552307 -0.3235664665699005 0.29165413975715637 -0.250550776720047 0.11558400839567184 -0.22817684710025787 -0.21358487010002136 -0.0033138650469481945 0.03229530528187752 -0.11162248253822327 0.14033754169940948 -0.06375262141227722 0.02974533848464489 -0.23141497373580933 0.11754089593887329 0.20014521479606628 0.07086015492677689 0.08913204818964005 0.1909317821264267 -0.13849203288555145 0.18479979038238525 0.3662109971046448 -0.1584564745426178 -0.2738567888736725 -0.09303155541419983 0.09402695298194885 0.1569458395242691 -0.0857212096452713 0.03885221481323242 -0.001609128899872303 0.3140820264816284 0.37949296832084656 -0.2879211902618408 -0.12402466684579849 0.26890265941619873 -0.07535425573587418 -0.00253033684566617 -0.2964327037334442 -0.2865850031375885 -0.18939745426177979 0.3009922504425049 -0.24912112951278687 0.1693514883518219 0.3392840623855591 0.40154340863227844 -0.12505748867988586 -0.1402004361152649 -0.1906781792640686 0.1297682821750641 0.1597091257572174 0.1982395499944687 0.0511961430311203 0.3917379677295685 -0.0010147815337404609 -0.22633302211761475 0.028317173942923546 0.09906397759914398 -0.12173674255609512 -0.12568959593772888 -0.009307682514190674 0.14701472222805023 -0.48578011989593506 -0.1448562890291214 0.17488878965377808 -0.11534766852855682 -0.2441946566104889 -0.14124800264835358 0.255018025636673 0.1623852401971817 0.32235002517700195 0.15435442328453064 0.06283452361822128
want -0.10400991141796112 0.11916936933994293 -0.38364648818969727 -0.015324805863201618 -0.16177643835544586 0.3029601275920868 -0.24557113647460938 0.2192460000514984 0.06345286965370178 0.3434476852416992 -0.35712870955467224 -0.1114390417933464 0.06409204751253128 -0.3487125039100647 -0.3897024989128113 -0.15532070398330688 -0.16850608587265015 0.18380384147167206 0.11013118177652359 -0.1899441033601761 0.35440805554389954 0.265839159488678 -0.15109583735466003 0.21800930798053741 0.04717089235782623 0.029569169506430626 0.08318895846605301 0.07093735039234161 -0.2201411873102188 0.18779394030570984 0.27760621905326843 -0.06235235929489136 -0.1453952193260193 0.20015539228916168 0.28265804052352905 0.2723601460456848 0.07151437550783157 -0.3235396146774292 0.19633032381534576 0.3301980495452881 0.06979913264513016 -0.2484561651945114 -0.27970871329307556 -0.14549171924591064 0.13163694739341736 0.4003950357437134 0.2087382823228836 0.04801742732524872 -0.5645098090171814 0.14724035561084747 -0.15343208611011505 -0.0394272655248642 0.2941526770591736 0.21895530819892883 0.15357612073421478 0.0931951180100441 -0.08678648620843887 -0.1165739893913269 -0.34184831380844116 -0.04401126131415367 -0.024308225139975548 0.005654411390423775 0.10017497092485428 -0.14220930635929108 -0.06531109660863876 -0.06681933999061584 0.033486269414424896 0.27165207266807556 0.07848084717988968 -0.17316576838493347 -0.1352272629737854 -0.3402394652366638 0.22006914019584656 0.09180392324924469 0.09791490435600281 0.3881485164165497 -0.18891096115112305 -0.32132989168167114 -0.13461646437644958 0.12633010745048523 -0.3447912633419037 -0.17962537705898285 0.15419940650463104 0.3539793789386749 -0.4358806908130646 0.028492936864495277 -0.07300389558076859 0.06260202825069427 -0.11621665209531784 0.0589718297123909 0.38228780031204224 -0.1909407526254654 0.007882483303546906 0.12341971695423126 -0.09823262691497803 -0.026905925944447517 0.1072346568107605 0.1466536968946457 0.2786564230918884 -0.17103222012519836
night -0.3484208583831787 0.17417077720165253 0.16367687284946442 3.7593295564875007E-4 -0.004209179896861315 -0.14492110908031464 0.12154363095760345 -0.17916524410247803 -0.01064267847687006 -0.26669439673423767 0.27919480204582214 0.03697015717625618 -0.452023983001709 0.21206112205982208 0.14822880923748016 -0.10575386881828308 0.11127448081970215 -0.2900604009628296 -0.2794671058654785 -0.16340585052967072 0.40430909395217896 0.38078993558883667 0.046484433114528656 0.27084556221961975 -0.29740142822265625 -0.033685870468616486 -0.030263930559158325 -0.13783156871795654 -0.34002628922462463 0.10198375582695007 -0.21437114477157593 0.09334159642457962 0.4733665883541107 -0.214767187833786 0.21412953734397888 0.16820846498012543 -0.08018220216035843 0.0029212001245468855 0.08621066063642502 -0.24504928290843964 0.0573185533285141 -0.28038445115089417 0.04197380691766739 -0.15253035724163055 -0.04962224140763283 0.18918177485466003 -0.07531564682722092 -0.2452259659767151 0.34944790601730347 0.2973172068595886 0.11553413420915604 -0.19231677055358887 0.021680457517504692 0.2929908037185669 -0.0019353260286152363 0.19242094457149506 -0.05768134444952011 -0.20341703295707703 0.3660461902618408 0.27606919407844543 -0.37167876958847046 0.138864666223526 0.06258966028690338 -0.1502007097005844 0.4096671938896179 0.09181253612041473 -0.3146517276763916 -0.09285309910774231 0.1951800286769867 0.3491727113723755 -0.21848280727863312 -0.1892356127500534 0.04784668982028961 0.21970291435718536 0.22626720368862152 0.1131231039762497 -0.23284713923931122 0.13283109664916992 0.09178178757429123 0.145138218998909 0.2938844561576843 0.13794346153736115 0.18648289144039154 0.1551915556192398 -0.049914825707674026 -0.311000257730484 -0.21290534734725952 -0.24409259855747223 0.12921243906021118 0.3012896180152893 0.03718816861510277 -0.21006402373313904 -0.23961202800273895 -0.02235766500234604 -0.015868188813328743 0.16799546778202057 -0.0884365513920784 0.08499481528997421 0.29473862051963806 -0.06098423898220062
them -0.07956922054290771 -0.16043926775455475 -0.1483195275068283 -0.14442935585975647 -0.0896918997168541 0.21445061266422272 0.2140381634235382 0.21296720206737518 -0.3364841639995575 -0.20676936209201813 -0.05888787657022476 0.08201458305120468 0.09457209706306458 0.03651467710733414 0.0421694740653038 0.15781186521053314 0.07089559733867645 0.272942453622818 -0.11009671539068222 -0.24796141684055328 -0.03816261142492294 -0.054241910576820374 -0.04159403592348099 0.2461697906255722 -0.1692015528678894 0.26130247116088867 0.32623985409736633 -0.09028597921133041 -0.11117928475141525 -0.07859104871749878 -0.23724493384361267 -0.4483855664730072 0.16212773323059082 -0.29939624667167664 0.1886095553636551 0.18547989428043365 -0.15770448744297028 -0.28761813044548035 -0.04026905074715614 0.22631515562534332 0.3791099190711975 -0.2651733160018921 0.07114724814891815 -0.05092444643378258 0.09286026656627655 -0.03634027764201164 -0.00935252197086811 -0.38261958956718445 -0.17203602194786072 0.11944190412759781 0.20231229066848755 -0.21171177923679352 0.06723503768444061 -0.25691163539886475 0.07912226021289825 0.005523605737835169 0.3350391089916229 -0.4291943609714508 -0.2830689251422882 -0.13446782529354095 -0.1096649318933487 -0.07029267400503159 0.2806847393512726 0.13708743453025818 -0.3724091053009033 0.048988670110702515 0.10643918067216873 -0.10437439382076263 -0.03519895300269127 0.04247622191905975 0.06884477287530899 -0.018374627456068993 0.3202783167362213 -0.003950336016714573 0.3796006143093109 0.2097800374031067 0.01763838902115822 0.23533262312412262 -0.06586810946464539 -0.010875608772039413 0.17100773751735687 0.06787697225809097 -0.03799125552177429 -0.11624704301357269 -0.1392388790845871 0.09221460670232773 -0.02742600254714489 -0.059257227927446365 0.10164910554885864 0.3593335747718811 -0.006613289006054401 -0.10755877196788788 0.15444903075695038 0.12715038657188416 -0.07978872954845428 0.1801719069480896 0.22459730505943298 -0.35214924812316895 -0.12950101494789124 0.24038247764110565
then -0.004054860211908817 -0.18556374311447144 -0.38048017024993896 0.1655292958021164 -0.21790297329425812 -0.325016051530838 -0.18060202896595 0.17596687376499176 0.08918242901563644 -0.07127553224563599 -0.23501086235046387 -0.14174795150756836 -0.1951194703578949 0.02936442755162716 -0.05661717429757118 -0.03903054818511009 0.06452692300081253 -0.17849239706993103 0.1259964108467102 0.007473476231098175 0.20892643928527832 0.09473606944084167 0.010380031540989876 -0.14153821766376495 -0.187389075756073 -0.0804775282740593 0.21725620329380035 0.07654064893722534 -0.2187720239162445 0.08701887726783752 -0.167035773396492 0.12334535270929337 -0.1916719377040863 0.015779536217451096 -0.19946332275867462 0.04497624188661575 -0.0504319854080677 -0.19857589900493622 -0.14472384750843048 -0.0489613339304924 0.28613677620887756 0.13489235937595367 -0.16104945540428162 0.18463976681232452 -0.190675750374794 0.0646299421787262 0.10723181813955307 -0.14074064791202545 -0.26878347992897034 0.09736009687185287 0.10152383148670197 -0.13100269436836243 0.16717997193336487 -0.11391256749629974 0.1697220653295517 -0.10888243466615677 0.008479942567646503 -0.29559922218322754 0.09391536563634872 0.05268186703324318 -0.23827828466892242 -0.4751930236816406 -0.033372629433870316 0.050555795431137085 0.02777927741408348 0.2521607279777527 -0.1105753630399704 -0.06356243789196014 -0.15823182463645935 0.2291022390127182 -0.11522219330072403 0.15364614129066467 -0.021562622860074043 0.3045530915260315 0.05885176733136177 -0.06775844097137451 -0.08504702150821686 0.017517132684588432 0.18128372728824615 -0.10356075316667557 -0.014587294310331345 -0.24431052803993225 0.2286016196012497 -0.138533353805542 0.016222549602389336 -0.11766950786113739 -0.12062370777130127 -0.03017682582139969 0.11488799750804901 0.5028558969497681 -0.13704273104667664 0.28430572152137756 -0.1410938948392868 -0.30553606152534485 -0.40285342931747437 -0.12308087944984436 -0.06912480294704437 0.05755606293678284 0.11890017241239548 0.06464562565088272
court 0.06145148351788521 0.17126794159412384 -0.04054770618677139 0.01128242164850235 0.06458238512277603 -0.12400490045547485 -0.06768691539764404 -0.06379754841327667 0.02488754875957966 -0.20666861534118652 -0.08197247236967087 0.114874467253685 -0.0695987418293953 0.14811915159225464 -0.13530845940113068 0.22500278055667877 -0.31381264328956604 -0.320350706577301 -0.16922329366207123 -0.13940325379371643 0.5859607458114624 0.006798522546887398 0.12031329423189163 0.15374231338500977 0.0034783827140927315 -0.20880480110645294 -0.07112650573253632 -0.0625544935464859 0.04442862793803215 -0.014779169112443924 -0.1297575831413269 -0.11136679351329803 0.19706784188747406 0.09391697496175766 0.13676536083221436 0.1373339146375656 -0.1390872746706009 -0.009646586142480373 -0.1409371942281723 -0.16534410417079926 0.002769337734207511 0.05555158108472824 -0.04152731969952583 -0.012109601870179176 0.006230898667126894 -0.0754133015871048 -0.09842190891504288 0.1434374302625656 -0.1777292639017105 -0.03982696682214737 -0.08813643455505371 -0.15340815484523773 0.008858157321810722 -0.014680053107440472 -0.11529391258955002 0.05694142356514931 0.06113378703594208 -0.3106066882610321 0.1110696792602539 -0.06464851647615433 -0.06476657837629318 0.11924366652965546 0.19688771665096283 -0.008881707675755024 0.05008486658334732 -0.1526471972465515 -0.2334732860326767 0.04374754801392555 0.0783924087882042 0.06519127637147903 0.07282689213752747 -0.13198843598365784 0.01748177967965603 0.2347833663225174 -0.06002425402402878 -0.04286687821149826 -0.06480009108781815 0.006823559291660786 0.02741938829421997 0.07951395958662033 -0.10693620145320892 0.10093214362859726 0.07158003002405167 0.07826998829841614 -0.27938780188560486 -0.007771318778395653 -0.1471182107925415 -0.30420464277267456 -0.001034044660627842 0.03638525307178497 -0.027270108461380005 0.19110727310180664 -0.16251689195632935 -0.23508420586585999 0.24689795076847076 -0.13174034655094147 0.16295640170574188 0.16957147419452667 0.20398889482021332 0.3229328989982605
an -0.020181363448500633 -0.14585979282855988 0.2519325911998749 0.14424242079257965 -0.025304190814495087 0.18311862647533417 -0.10850029438734055 -0.12041311711072922 0.04230261966586113 -0.009357107803225517 0.09546229988336563 -0.013293103314936161 -0.14253289997577667 -0.08613915741443634 -0.005651799961924553 0.19552911818027496 -0.13342779874801636 -0.165668323636055 -0.2812662422657013 0.2246159017086029 0.02496485412120819 0.15422627329826355 0.09458865970373154 0.15190820395946503 -0.1513325273990631 0.08194564282894135 0.1716691106557846 -0.022881072014570236 -0.2665442228317261 -0.1440088152885437 -0.33892130851745605 -0.4701615571975708 -0.10930769145488739 0.14606145024299622 0.28131985664367676 0.24138696491718292 0.1360938996076584 -0.08650469779968262 -0.21812933683395386 0.09690258651971817 -0.21403545141220093 -0.042425911873579025 0.0258112121373415 -0.09431622922420502 0.010578525252640247 0.09517525881528854 0.16194623708724976 0.03947410732507706 -0.017768317833542824 0.18493029475212097 -0.12580260634422302 -0.2687976360321045 0.20498205721378326 0.05468104034662247 0.34080854058265686 -0.23362618684768677 -0.14869321882724762 0.005278111435472965 0.13719859719276428 0.3416517972946167 -0.08531998097896576 -0.11235195398330688 0.22330927848815918 -0.16381096839904785 0.2590843141078949 -0.06120297685265541 -0.08072912693023682 -0.09292017668485641 -0.00959804654121399 0.060107048600912094 0.08650097250938416 -0.08472191542387009 -0.06177340820431709 0.16352912783622742 0.07035227864980698 -0.26978766918182373 0.17891310155391693 -0.2529274523258209 -0.05589727312326431 0.24020785093307495 -0.11260966956615448 -0.16603076457977295 0.19936811923980713 0.04464523866772652 -0.20788122713565826 0.08309826999902725 0.07956808805465698 -0.2205401062965393 0.0300845168530941 0.09829394519329071 -0.1253676563501358 0.05838717892765999 -0.0035513238981366158 0.07989612221717834 -0.10944407433271408 0.06569776684045792 0.3482748568058014 0.26305776834487915 0.21721386909484863 0.39333251118659973
- 0.03849761560559273 -0.06419892609119415 0.023096604272723198 -0.012295721098780632 0.011640040203928947 0.026715362444519997 0.06545822322368622 0.06120710074901581 -0.08251355588436127 0.10265999287366867 0.0679648369550705 0.1237959936261177 -0.06001455709338188 0.0658641830086708 0.09329550713300705 -0.0045334049500525 -0.1313953399658203 -0.036053214222192764 -0.057291097939014435 -0.17153869569301605 0.04806118085980415 0.11786219477653503 -0.024041851982474327 0.09524063766002655 -0.07168589532375336 0.13474147021770477 0.15251697599887848 0.0466538704931736 -0.12302786111831665 0.025546493008732796 -0.14745689928531647 -0.04587598145008087 -0.10219848155975342 0.019020475447177887 -0.0790279433131218 0.13998235762119293 0.06318829208612442 -0.05491155385971069 -0.08602188527584076 -0.020363328978419304 0.026833856478333473 -0.08253374695777893 0.048103056848049164 -0.0035702590830624104 0.10864166915416718 0.07340419292449951 0.005654164589941502 -0.13053716719150543 0.04883299022912979 -0.03624208644032478 -0.05872604623436928 0.031043652445077896 -0.09952521324157715 0.03192073851823807 0.036814115941524506 -0.0351499579846859 -0.009343047626316547 -0.09997143596410751 0.05272354558110237 0.056202732026576996 -0.15781119465827942 -0.09079961478710175 0.048508454114198685 -0.09365079551935196 -0.0053945425897836685 -0.02590743452310562 -0.10169588029384613 -0.0772266611456871 -0.06560048460960388 0.09517935663461685 -0.03986570984125137 0.11921259760856628 0.02630108781158924 -0.024341106414794922 -0.03335709497332573 -0.08288539201021194 -0.053701914846897125 0.06649832427501678 0.12112199515104294 0.08610416203737259 -0.010701848194003105 0.07050587236881256 0.08867974579334259 -0.037222351878881454 -0.12484915554523468 -0.05637796223163605 -0.007042509503662586 -0.1332201510667801 0.05091618373990059 0.0666678249835968 -0.008376574143767357 -0.02269050106406212 0.04832015931606293 0.00926965195685625 -0.03686278313398361 0.03867055103182793 0.05905554071068764 0.09305845946073532 0.10239608585834503 0.13915449380874634
each -0.24997997283935547 -0.014125293120741844 -0.04241451621055603 -0.25977274775505066 -0.22520175576210022 -0.2245885282754898 -0.22228850424289703 -0.2843870222568512 -0.30686089396476746 0.020283376798033714 0.1997286081314087 -0.0184257160872221 -0.22345902025699615 0.20953106880187988 -0.39982870221138 0.10315556824207306 -0.04099896177649498 0.29873546957969666 -0.22576652467250824 -0.3090198040008545 -0.051632173359394073 -0.14305780827999115 0.08442381769418716 0.35769397020339966 -0.03980039060115814 -0.02089194767177105 0.14889168739318848 0.0885690301656723 -0.055328261107206345 -0.1613699346780777 0.008853721432387829 -0.7935898900032043 0.525364339351654 -0.10467017441987991 -0.0113019198179245 0.37793469429016113 0.026599528267979622 -0.07540717720985413 -0.15868248045444489 -4.3777364771813154E-4 0.21722422540187836 -0.34145814180374146 -0.11209335923194885 -0.26690182089805603 0.059760577976703644 -0.025879886001348495 -0.3083140254020691 -0.6020774245262146 0.2956986129283905 0.2340560108423233 -0.06116868183016777 -0.6303284764289856 0.10010559856891632 0.043420322239398956 0.23667621612548828 0.1482667624950409 0.03928269445896149 -0.09769973903894424 6.739019881933928E-4 -0.28592684864997864 -0.3622147738933563 0.17522047460079193 0.0011451219907030463 0.07738983631134033 -0.09804298728704453 0.12612171471118927 0.42695528268814087 -0.10521552711725235 -0.06902506947517395 -0.1146000474691391 -0.0719495490193367 -0.6345193386077881 0.09234783798456192 0.12855611741542816 -0.16056488454341888 -0.2159169316291809 -0.22144141793251038 -0.14782878756523132 0.42603665590286255 0.11626383662223816 -0.2468629777431488 -0.1456679403781891 -0.028269588947296143 -0.07030346989631653 -0.4392612874507904 -0.017262887209653854 0.2801847755908966 -0.11907511204481125 -0.1341729313135147 0.11530060321092606 -0.07838213443756104 -0.13671082258224487 0.24356622993946075 0.38318172097206116 -0.0897464007139206 0.15594123303890228 0.12276215851306915 -0.2818455100059509 -0.29663267731666565 0.44445618987083435
former 0.0947778970003128 -0.02587241120636463 0.03535659611225128 0.014189135283231735 0.06535869836807251 0.04897523298859596 0.05503912270069122 -0.011298125609755516 -0.06966858357191086 0.0018425708403810859 0.020779797807335854 0.10291577130556107 -0.047437988221645355 0.021750230342149734 0.038713570684194565 0.0864826887845993 -0.10550949722528458 -0.09085030853748322 -0.0696236863732338 -0.01224614679813385 0.08005081117153168 0.04257543012499809 -0.013988562859594822 0.09200849384069443 -0.04921283945441246 -0.02418249472975731 0.02060781791806221 0.054407842457294464 0.015223922207951546 -0.032504428178071976 0.04465651884675026 -0.03461018577218056 0.07123475521802902 -0.040113665163517 0.021231403574347496 0.04345458373427391 -0.01848584972321987 -0.02930496446788311 -0.08781808614730835 -0.00702318362891674 -0.017279352992773056 -0.07650785148143768 0.015022380277514458 -0.04885627701878548 0.01870357058942318 -0.01512228325009346 -0.0024528333451598883 -0.04169488698244095 0.15794256329536438 -0.059321317821741104 0.006547270342707634 -0.02902252972126007 -0.09000372141599655 -0.008039845153689384 0.06784839928150177 0.0514632947742939 -0.03852670639753342 -0.08803366124629974 0.011698591522872448 0.08999428898096085 -0.042240068316459656 -0.028719007968902588 0.11047511547803879 -0.08559456467628479 -0.04133393615484238 -0.09286288172006607 -0.11327283829450607 -0.10418856143951416 0.035476818680763245 0.051473818719387054 -0.06260891258716583 -0.009117364883422852 0.011473797261714935 -0.0019493959844112396 -0.050845712423324585 -0.07455477863550186 -0.01959066465497017 0.0794270932674408 0.052802108228206635 0.06502357125282288 0.05926069989800453 0.02575005777180195 0.01879854127764702 -0.023601975291967392 -0.08139686286449432 -0.012403139844536781 -0.03629680722951889 -0.11288628727197647 0.06223418936133385 -0.028864745050668716 -0.041616424918174744 0.07988812029361725 -0.03872326761484146 -0.02201635204255581 0.06172046810388565 -0.08293502032756805 0.07201182842254639 0.11945869773626328 0.0937255248427391 0.0629439428448677
as -0.133739173412323 -0.3722262680530548 -0.1269172877073288 -0.20848870277404785 -0.40007829666137695 0.09790882468223572 0.30449697375297546 0.20112201571464539 -0.07053057849407196 0.2674000859260559 0.1179518848657608 -0.38625508546829224 -0.10565347224473953 0.09160760045051575 -0.2049868404865265 0.2660718858242035 0.41127681732177734 0.23582293093204498 -0.43362095952033997 -0.2904251217842102 -0.15829649567604065 0.0626588687300682 -0.02204154059290886 0.023344984278082848 0.254361093044281 0.1553134173154831 0.13567622005939484 -0.14126931130886078 -0.2293538749217987 -0.04705928638577461 0.07219237834215164 0.0682600662112236 0.12406014651060104 0.1592193990945816 -0.361138254404068 0.43298932909965515 -0.1392478495836258 0.3800467252731323 0.13937599956989288 -0.11048838496208191 -0.7708874940872192 -0.340885192155838 -0.045292094349861145 -0.19323717057704926 0.31293126940727234 0.18875494599342346 -0.35638344287872314 0.09344977140426636 0.2726283073425293 0.011702025309205055 0.15617461502552032 0.20216912031173706 0.1639924943447113 0.17318350076675415 0.41954928636550903 -0.1807849258184433 0.15659837424755096 -0.2912614047527313 -0.2964093089103699 -0.17758490145206451 -0.14992588758468628 0.29592257738113403 -0.07104811072349548 -0.1339605450630188 0.10791108757257462 -0.013830464333295822 -0.07088276743888855 0.10028564929962158 0.211533322930336 -0.23644305765628815 -0.05786630138754845 -0.211223766207695 0.24009224772453308 -0.1873885542154312 0.0036279966589063406 0.04470700025558472 0.32707422971725464 0.32154297828674316 -0.0315275639295578 0.003424159251153469 0.05453353375196457 0.2588081359863281 0.2031674087047577 0.3735816478729248 0.5008711218833923 0.13768303394317627 0.05455847829580307 -0.2596692144870758 0.2766129672527313 0.14383210241794586 0.03987197205424309 0.17069320380687714 -0.09884300082921982 -0.21309591829776764 -0.23458300530910492 -0.08671000599861145 0.0765765905380249 0.08032581955194473 -0.025385374203324318 0.024076592177152634
at -0.12310797721147537 -0.23145784437656403 0.10412313044071198 -0.03083248808979988 -0.13662414252758026 -0.14380714297294617 0.08554615080356598 0.15976540744304657 -0.01230616495013237 0.05897131934762001 -0.27252572774887085 0.15358661115169525 -0.2676456868648529 0.41534754633903503 0.21010488271713257 0.2779769003391266 0.028910156339406967 -0.18396392464637756 0.03697069361805916 0.015381316654384136 0.32212185859680176 -0.011645335704088211 -0.31501638889312744 0.5091937780380249 -0.14235670864582062 -0.37939727306365967 0.04836069047451019 -0.08058701455593109 -0.11589128524065018 -0.21807363629341125 -0.08924703299999237 -0.2273666113615036 0.34128186106681824 -0.2828492224216461 -0.18544058501720428 0.32237333059310913 0.07019466906785965 0.020814336836338043 -0.015423787757754326 -0.045174844563007355 0.2509113848209381 -0.10719986259937286 0.1426936388015747 0.14097872376441956 0.19167588651180267 0.08805593848228455 -0.32910388708114624 -0.3233925700187683 0.04366229474544525 -0.16563595831394196 -0.08139902353286743 0.1249081939458847 0.274740070104599 0.18562717735767365 -0.1699923574924469 0.20760490000247955 -0.1830054074525833 -0.05619533732533455 -0.40297526121139526 0.40515217185020447 -0.15573392808437347 -0.4399639070034027 -0.08677937835454941 0.2758285701274872 -0.042165692895650864 -0.25252288579940796 0.054352596402168274 0.33376994729042053 -0.03651208057999611 -0.16654151678085327 -0.40152570605278015 0.11605416238307953 -0.17588576674461365 -0.09037025272846222 -0.00546646723523736 -0.10241329669952393 0.20879261195659637 0.2846130430698395 0.07191524654626846 0.07137396186590195 0.26502496004104614 -0.04400035738945007 -0.16617001593112946 0.20391348004341125 -0.1918594390153885 -0.1298549920320511 -0.15766356885433197 -0.17415423691272736 0.4418830871582031 -0.006209229584783316 0.05394284799695015 -0.026977572590112686 -0.003465598914772272 -0.36998647451400757 0.0379813089966774 0.6017758250236511 0.42831534147262573 0.02363012172281742 0.15687653422355652 0.10228024423122406
left 0.19205108284950256 -0.07825551927089691 0.021210182458162308 -0.010158466175198555 -0.07287134975194931 -0.08573895692825317 0.09302022308111191 0.04774003103375435 -0.06634970009326935 -0.0750470981001854 -0.06865090131759644 0.2160215526819229 -0.18312415480613708 0.325096070766449 -0.0881461426615715 0.23522460460662842 -0.2040482759475708 -0.15231721103191376 -0.08829040080308914 -0.09660929441452026 0.08637621998786926 0.38628488779067993 -0.04765211045742035 0.07925724983215332 -0.0624944269657135 0.13646486401557922 0.02057654783129692 0.22046342492103577 0.32733580470085144 -0.33949050307273865 0.005398828070610762 0.013562437146902084 -0.24084162712097168 -0.026763835921883583 0.255412757396698 0.24304938316345215 -0.09743752330541611 0.04353206232190132 -0.34739169478416443 -0.13010933995246887 -0.24922697246074677 -0.0057450272142887115 0.10866786539554596 0.1566288024187088 -0.0903581827878952 -0.4091596305370331 -0.06519462913274765 -0.19174012541770935 0.1443086415529251 0.12955406308174133 -0.05667689070105553 -0.29320064187049866 -0.013487143442034721 -0.24046243727207184 -0.013872906565666199 -0.030586302280426025 -0.09483181685209274 -0.11822263151407242 -0.034697432070970535 -0.028528906404972076 -0.029412640258669853 -0.3527449369430542 0.2475147545337677 0.05825765058398247 -0.0025365003384649754 -0.08317332714796066 -0.1123625636100769 -0.07211963087320328 0.10984288901090622 0.17389723658561707 -0.1141425296664238 0.36207684874534607 0.06888753920793533 -0.01383845042437315 0.2074158638715744 0.05954311043024063 -0.08375442028045654 0.1524255871772766 0.3329954147338867 -0.1040428876876831 -0.04502294585108757 0.16364257037639618 -0.4646926820278168 -0.07575663179159164 -0.07931378483772278 0.16329407691955566 -0.031080402433872223 0.025721998885273933 0.2518177032470703 0.0030281879007816315 -0.06657328456640244 0.23402273654937744 -0.15824556350708008 -0.12064272165298462 -0.2358924299478531 0.04518251493573189 0.13822737336158752 -0.08682051301002502 0.19902071356773376 0.37082886695861816
much -0.10259385406970978 0.1706760823726654 -0.2024141550064087 -0.4206206500530243 -0.10278589278459549 0.25843673944473267 -0.24044352769851685 0.045573893934488297 -0.2619077265262604 -0.11157803982496262 -0.1885041445493698 -0.2902134954929352 0.104192353785038 0.3304276466369629 -0.13756749033927917 0.3669367730617523 -0.11898129433393478 -0.06844716519117355 -0.2261587679386139 0.1843196004629135 -0.3421277105808258 0.05652746930718422 -0.1457800269126892 0.11951801180839539 -0.1017974317073822 0.5655016899108887 -0.2131810188293457 -0.05995771288871765 0.31709325313568115 -0.005183911882340908 -0.3008618950843811 -0.06203062832355499 0.0018869737396016717 -0.1268676221370697 -0.03237195685505867 0.2190697193145752 0.3783454895019531 0.10632184147834778 0.11774645000696182 0.02544628083705902 0.05720304697751999 -0.1996837854385376 0.10653118789196014 -0.264190137386322 0.22121816873550415 -0.3354109823703766 0.3084566593170166 -0.002180101117119193 -0.3000149428844452 0.5823653340339661 -0.07167360186576843 -0.09159918874502182 -0.2515389621257782 -0.3013377785682678 -0.4401966333389282 -0.6013330221176147 -0.2891606390476227 -0.029987940564751625 0.08491164445877075 0.15156586468219757 0.05530876666307449 0.09756799787282944 0.10710110515356064 -0.07408755272626877 0.25736841559410095 0.061869651079177856 0.06927832216024399 -0.03652074933052063 -0.1306837648153305 -0.11808199435472488 0.557185173034668 0.2782869040966034 0.35841497778892517 0.15500298142433167 -0.01195430662482977 0.11205605417490005 -0.1579427868127823 -0.2413693219423294 0.0490705631673336 0.3198092579841614 0.011890802532434464 -0.09289918094873428 -0.32117679715156555 -0.5790505409240723 -0.12140143662691116 0.08410804718732834 -0.18275780975818634 0.3545170724391937 -0.2175942361354828 -0.07384488731622696 0.31497952342033386 -0.2883978486061096 -0.38381242752075195 0.014151028357446194 -0.2239990383386612 0.45976874232292175 0.11542230099439621 0.13185173273086548 -0.39570242166519165 -0.03184694051742554
be 0.1804516762495041 -0.1274634450674057 0.19751174747943878 -0.09587647020816803 0.2254595011472702 -0.32243266701698303 0.21981196105480194 -0.12279102951288223 0.12961864471435547 0.061824195086956024 0.2955552339553833 -0.1448761224746704 0.17244063317775726 -0.011241702362895012 0.10745872557163239 0.256610631942749 0.08978370577096939 -0.13325248658657074 -0.24167078733444214 0.05250660330057144 -0.013844429515302181 -0.17200109362602234 0.14351098239421844 0.025615599006414413 -0.32483017444610596 0.14827989041805267 -0.20274853706359863 -0.19400037825107574 -0.355305016040802 -0.2311081737279892 -0.27608224749565125 -0.16531212627887726 -0.061935607343912125 -0.02516150288283825 0.1541665643453598 0.38262706995010376 -0.17455480992794037 -0.019120678305625916 -0.23403365910053253 -0.16386522352695465 -0.3490654528141022 0.22903823852539062 0.0848861038684845 0.07847483456134796 -0.03520255908370018 -0.15026696026325226 0.12540203332901 0.06810490787029266 0.017373468726873398 0.07583072036504745 0.17652219533920288 0.2934902608394623 0.36822548508644104 -0.027868760749697685 -0.362786203622818 -0.24621883034706116 0.11823948472738266 -0.10114018619060516 -0.2851531505584717 0.09791286289691925 0.08387162536382675 -0.3165490925312042 -0.2782888114452362 -0.14196541905403137 -0.04743053391575813 -0.12721584737300873 -0.09705882519483566 -0.1319032460451126 -0.12131836265325546 -0.09765498340129852 0.17483747005462646 0.05704823136329651 0.20910769701004028 0.0982586070895195 0.04213044047355652 0.44445404410362244 0.3348117768764496 -0.07018565386533737 -0.13960255682468414 0.016348501667380333 -0.10889057070016861 0.03797868639230728 -0.1138702780008316 0.20287743210792542 -0.3386176824569702 -0.019439784809947014 0.1256628930568695 -0.6560970544815063 -0.125214084982872 -0.14636728167533875 0.004356754943728447 0.40947356820106506 -0.2063000649213791 0.10742982476949692 0.30896493792533875 0.1371517926454544 0.30459684133529663 -0.08228959143161774 0.06499716639518738 -0.01647968403995037
another -0.023567436262965202 -0.06809082627296448 -0.023552365601062775 0.2619202136993408 0.17841996252536774 0.02447959966957569 -0.12695886194705963 -0.01970766671001911 -0.10150598734617233 -0.03474327549338341 0.3968662619590759 0.2648026943206787 -0.35650283098220825 0.017854316160082817 0.11206821352243423 0.2735912799835205 -0.07372895628213882 -0.18328015506267548 0.27305200695991516 0.15626299381256104 -0.21418094635009766 -0.03692309930920601 -0.1548289805650711 0.10362005233764648 -0.08193110674619675 -0.20626632869243622 0.23282641172409058 -0.2778800129890442 -0.2797839939594269 -0.3732732832431793 -0.35913971066474915 0.0219847671687603 0.11916057020425797 0.019031446427106857 0.07959838956594467 0.2885620892047882 -0.030998293310403824 -0.21547071635723114 -0.21622073650360107 0.007196619175374508 -0.38346314430236816 -0.11967858672142029 -0.1357208639383316 -0.05260760709643364 0.23361167311668396 0.011412806808948517 0.31528475880622864 -0.14242780208587646 -0.08958038687705994 -0.015717223286628723 0.011956702917814255 -0.30415233969688416 -0.009321143850684166 -0.11369505524635315 -0.00829309318214655 -0.06379057466983795 0.019645843654870987 -0.0473516471683979 0.2968302369117737 -0.09934928268194199 0.3254745602607727 -0.3446832299232483 0.03170230984687805 -0.29235294461250305 0.2978082299232483 0.05406118929386139 0.057187117636203766 -0.6060006022453308 0.0065084341913461685 0.1190534383058548 0.18446670472621918 -0.10321638733148575 0.01127205416560173 0.3144419193267822 -0.26781904697418213 0.07768475264310837 -0.11500123888254166 0.103973388671875 0.16304504871368408 0.1699121594429016 -0.05225646123290062 -0.13280700147151947 0.3989913761615753 0.30276399850845337 -0.10463598370552063 0.2228499799966812 -0.1062459871172905 -0.25893574953079224 -0.04372945800423622 0.019209278747439384 -0.15680019557476044 -0.3663346469402313 0.13090196251869202 -0.1849098652601242 -0.09134528040885925 -0.08555647730827332 0.01878136210143566 -0.2495170384645462 0.29835256934165955 0.11788025498390198
two 0.03835529461503029 -0.11400357633829117 -0.16947123408317566 0.02168988063931465 -0.4242231845855713 -0.29135027527809143 0.02320495992898941 0.15552370250225067 -0.33421072363853455 0.13023993372917175 0.44483861327171326 0.5701215267181396 -0.39772847294807434 0.3293870985507965 0.23976574838161469 0.23612941801548004 -0.20391176640987396 0.047738708555698395 0.1330934464931488 -0.37138068675994873 -0.0994764193892479 -0.03291784226894379 -0.04166962578892708 0.052583958953619 -0.2306673228740692 0.08808760344982147 0.13683322072029114 -0.008084602653980255 0.1056051179766655 -0.29569196701049805 -0.4708651006221771 0.032796233892440796 0.2987680435180664 -0.3471754789352417 -0.20092613995075226 0.07866676151752472 -0.2206118255853653 0.1940983384847641 -0.2757105529308319 0.0012009553611278534 -0.30583882331848145 0.1545400321483612 -0.12127789855003357 0.2649967670440674 -0.0032035675831139088 -0.4181744456291199 -0.16965258121490479 -0.3803351819515228 0.22338959574699402 -0.039947591722011566 -0.5266284346580505 -0.5163012146949768 -0.37724292278289795 -0.18462839722633362 0.08569367974996567 -0.009034414775669575 0.22077234089374542 -0.19050836563110352 -0.06901630759239197 0.011788081377744675 -0.317958265542984 -0.2045237421989441 0.26295074820518494 -0.2707291543483734 -0.17308346927165985 -0.45092567801475525 0.003306504338979721 -0.2593928873538971 0.15096613764762878 0.13753023743629456 -0.2638806700706482 0.46655523777008057 0.37469592690467834 -0.0077677518129348755 0.008905023336410522 -0.16805300116539001 -0.35504019260406494 -0.06254815310239792 0.552113950252533 -0.1442340761423111 -0.2346915602684021 0.14322571456432343 0.0414137989282608 0.004163707606494427 -0.20175588130950928 0.12057598680257797 -0.2758328318595886 -0.2921876609325409 0.3585742712020874 0.21761897206306458 -0.3495376706123352 -0.13907313346862793 -0.10780080407857895 0.09623349457979202 -0.1394243836402893 -0.07621800154447556 -0.14605149626731873 0.06615806370973587 0.35783258080482483 0.21878881752490997
long -0.5282232761383057 -0.16576187312602997 0.3238503336906433 0.22716578841209412 0.266372412443161 -0.3322265148162842 0.052940089255571365 0.019649406895041466 0.2864953577518463 -0.023423587903380394 0.6149356365203857 0.1719120889902115 -0.30883273482322693 0.5171821713447571 -0.11380096524953842 0.284798264503479 -0.2474600374698639 -0.22529010474681854 -0.08307944983243942 0.1874902993440628 -0.24483655393123627 0.05922111123800278 0.2421843558549881 0.15686756372451782 -0.2812763452529907 -0.0026111954357475042 -0.17748022079467773 -0.048377253115177155 -0.21655339002609253 -0.1987248808145523 -0.7960517406463623 -0.4071734547615051 0.3457443416118622 -0.008542638272047043 0.011870412155985832 0.323515921831131 0.37681907415390015 0.09043016284704208 0.4699232578277588 0.1339438408613205 -0.15705804526805878 0.04941393435001373 0.28157854080200195 -0.05438213795423508 -0.10122793167829514 -0.13824863731861115 0.24417783319950104 0.228310227394104 0.049893882125616074 0.7982550263404846 0.13583505153656006 -0.14052464067935944 -0.14321351051330566 0.17989079654216766 -0.4136611521244049 -0.3735499083995819 0.07993525266647339 0.6073029041290283 0.5112262964248657 0.3409411609172821 -0.026067281141877174 -0.018343942239880562 -0.18192487955093384 -0.3493173122406006 -0.07310115545988083 -0.3200582265853882 0.17928379774093628 0.2911165654659271 0.5361658334732056 0.1593562811613083 0.7325239777565002 0.3262336850166321 0.5388590693473816 -0.13160249590873718 -0.1760973036289215 -0.17785145342350006 0.18976038694381714 -0.3197927474975586 -0.15708531439304352 0.3128245770931244 0.32611215114593506 0.445502907037735 0.10869031399488449 -0.03255409747362137 0.3326430916786194 -0.006983935832977295 -0.21022360026836395 0.09407147020101547 -0.1934117078781128 0.20734938979148865 -0.014188254252076149 -0.2566653788089752 0.03212762996554375 -0.08854653686285019 -0.05028867721557617 0.03477473184466362 0.18874412775039673 0.42191365361213684 0.014727993868291378 -0.2658679187297821
how 0.13258753716945648 -0.1535988599061966 -0.1306591033935547 -0.1982199251651764 -0.6288855671882629 0.35706883668899536 -0.02311599627137184 0.17692831158638 0.035500042140483856 -0.2945665419101715 -0.010300882160663605 -0.22087503969669342 -0.11194144934415817 -0.2681999206542969 -0.49374330043792725 0.03000606596469879 0.13939565420150757 0.15837311744689941 -0.39306363463401794 -0.2106541395187378 -0.1961396485567093 0.20286718010902405 0.044825442135334015 0.022592587396502495 0.3691195249557495 0.2806260287761688 -0.016607169061899185 0.46786415576934814 -0.30371469259262085 0.22344107925891876 -0.0867781937122345 -0.018667856231331825 0.14624011516571045 0.140107199549675 -0.27117598056793213 0.20385992527008057 0.13208378851413727 0.0631641298532486 0.01908150315284729 0.030367152765393257 -0.39953744411468506 -0.15034815669059753 -0.1221700981259346 -0.03177948668599129 -0.052716176956892014 0.32763391733169556 -0.30971574783325195 0.07939476519823074 -0.04546598717570305 -0.16440679132938385 0.1199646070599556 0.01745878905057907 0.23299825191497803 0.09639668464660645 0.29891762137413025 -0.21039843559265137 0.0659780278801918 -0.04010795056819916 -0.14903412759304047 0.08735999464988708 -0.01409401185810566 0.02639119327068329 -0.20358191430568695 -0.1478903591632843 0.1837712824344635 0.5250328183174133 -0.09140186756849289 0.22523045539855957 -0.3020617365837097 -0.04678092896938324 0.19404667615890503 -0.39473050832748413 0.24532297253608704 0.2472611367702484 -0.10336969792842865 -0.029132526367902756 0.12182009965181351 0.06989070773124695 0.24005889892578125 0.07395696640014648 -0.12366395443677902 -0.01710033230483532 0.2333519458770752 -0.04242488741874695 0.10085587948560715 -0.11163196712732315 -0.17049095034599304 -0.10042306780815125 0.27743396162986755 0.5710729360580444 -0.2951878011226654 -0.12741386890411377 0.042364075779914856 0.17935647070407867 -0.14265532791614532 0.022135281935334206 -3.78479715436697E-4 0.1080058142542839 -0.3789036273956299 -0.0897073745727539
into -0.13675571978092194 0.022257862612605095 0.13468387722969055 0.3949204087257385 0.11276543140411377 0.1443295031785965 0.06429610401391983 0.07233437895774841 0.19535231590270996 -0.28746604919433594 -0.02766861952841282 0.22762416303157806 -0.2538832724094391 -0.05028466135263443 -0.17091254889965057 0.16354896128177643 -0.1456618458032608 0.16281144320964813 0.012984750792384148 0.1921404004096985 0.1168796569108963 0.08655089139938354 -0.01735801436007023 0.021414579823613167 -0.005961570423096418 -0.19882778823375702 0.03391764312982559 -0.16131950914859772 -0.09453772008419037 0.19353307783603668 -0.20747755467891693 -0.17328177392482758 0.31075823307037354 0.027418037876486778 0.1762905865907669 -0.05622623860836029 -0.17000849545001984 0.008282896131277084 -0.21776404976844788 0.13831456005573273 0.04812262952327728 0.1263979971408844 -0.11568322032690048 -0.2640099823474884 0.09519463032484055 0.32646507024765015 -0.03281516954302788 -0.12667237222194672 -0.17309778928756714 0.23963767290115356 -0.16377639770507812 0.10612467676401138 0.13741344213485718 0.11173076182603836 0.11904904991388321 -0.013660121709108353 0.3283088803291321 -0.12820860743522644 0.17590272426605225 0.0037017222493886948 0.04367475584149361 0.1151886060833931 -0.09821071475744247 -0.127211332321167 0.21237815916538239 0.02999081090092659 0.04734209179878235 0.13859175145626068 -0.09606872498989105 -0.037977349013090134 -0.008837980218231678 -0.09460117667913437 -0.041457660496234894 0.09232764691114426 0.1160481721162796 0.10197534412145615 0.1735292226076126 -0.12269081920385361 0.19698971509933472 -0.14242401719093323 0.07740400731563568 -0.09520451724529266 0.1554718315601349 0.31501153111457825 0.1110696867108345 -0.032009273767471313 -0.2632600963115692 -0.28037676215171814 0.2015656679868698 0.03284494951367378 -0.2098185420036316 -0.008947186172008514 -0.10178334265947342 -0.2987860143184662 -0.0403672456741333 0.3127637207508087 -0.027699341997504234 -0.021446168422698975 0.06126252934336662 0.12352209538221359
see -0.16543617844581604 0.09250804781913757 0.20687247812747955 0.1916283816099167 -0.043583985418081284 -0.10508442670106888 -0.04836489260196686 0.22765080630779266 -0.058837078511714935 -0.15545593202114105 -0.07887598127126694 0.22530850768089294 0.1439184993505478 -0.003934290260076523 -0.17604960501194 -0.013548871502280235 0.14597611129283905 0.4200475811958313 0.06023404747247696 0.08903655409812927 0.21898646652698517 0.05971109867095947 0.16092625260353088 4.480660427361727E-4 -0.20564359426498413 0.22811371088027954 0.10122362524271011 -0.055629707872867584 -0.12220551818609238 0.1248195618391037 -0.020968502387404442 -0.09255512058734894 -0.2308364361524582 0.1040775254368782 -0.025703296065330505 0.1117323711514473 0.1320587396621704 -0.0945718064904213 0.07287823408842087 0.0982031598687172 -0.11501588672399521 0.19557812809944153 -0.18882614374160767 -0.20234309136867523 0.23862473666667938 0.2189473807811737 0.20479001104831696 0.10546284168958664 -0.130401611328125 0.27826011180877686 -0.1692764312028885 0.27470868825912476 0.15468287467956543 0.12943997979164124 -0.11881209164857864 -0.03249838948249817 0.017090018838644028 -0.19097298383712769 0.04475034400820732 -0.2166823148727417 -0.14155589044094086 -0.11020002514123917 -0.21190418303012848 -0.19294433295726776 0.058831214904785156 0.11777409166097641 -0.33311545848846436 0.030545182526111603 -0.10610917955636978 -0.13520506024360657 0.09611670672893524 0.14206834137439728 -0.12357286363840103 0.0464826300740242 -0.12157785147428513 0.3095262944698334 -0.08447520434856415 -0.2791648805141449 0.10889402776956558 0.05092911794781685 -0.11869905889034271 -0.29840052127838135 0.008487273007631302 0.28400564193725586 -0.049487967044115067 0.04619210585951805 -0.08506792783737183 -0.26853445172309875 0.20349903404712677 0.12823514640331268 0.05120003595948219 -0.14005260169506073 -0.13286617398262024 0.06743399053812027 -0.13728655874729156 0.22048214077949524 -0.22930413484573364 -0.15307024121284485 0.10785631835460663 -0.07248780131340027
found 0.06618208438158035 -0.10586826503276825 0.2214985489845276 0.12411211431026459 0.1307126134634018 -0.23934857547283173 -0.12062972038984299 0.024563953280448914 0.10647780448198318 -0.13114981353282928 -0.09115952998399734 0.16610725224018097 -0.06836394220590591 0.3042036294937134 -0.10183001309633255 0.11462277919054031 -0.026135848835110664 0.08948435634374619 0.10250689089298248 0.009991200640797615 0.3013538420200348 0.21584710478782654 0.08660227805376053 0.11881709098815918 -0.06049695611000061 0.14908896386623383 0.10872998088598251 -0.05442675203084946 0.05556650459766388 -0.37249240279197693 0.009380415081977844 0.038221873342990875 -0.2139931172132492 8.478725794702768E-4 0.24627208709716797 0.5471512079238892 -0.23402266204357147 0.07106554508209229 -0.1486702710390091 0.029502762481570244 -0.22781552374362946 0.19876037538051605 0.11069878190755844 -0.030569875612854958 -0.30730050802230835 -0.32313859462738037 -0.152655690908432 0.018125832080841064 0.2446843385696411 0.2765609920024872 -0.21714019775390625 0.07078932225704193 -0.0661000981926918 -0.0722736120223999 -0.06510233134031296 0.11298593878746033 -0.23667235672473907 -0.09712782502174377 -0.052730802446603775 0.11421510577201843 -0.012666677124798298 -0.0465959832072258 -0.011789488606154919 -0.030198151245713234 0.2716631591320038 -0.010459684766829014 0.062084995210170746 0.002361929276958108 -0.08550386875867844 0.212254136800766 -0.25237607955932617 0.05216722562909126 0.0014468282461166382 0.11131918430328369 0.1257670670747757 0.22815419733524323 -0.2604270279407501 0.11099966615438461 -0.0043166279792785645 -0.022630689665675163 -0.02066589519381523 0.03278770297765732 -0.12261360883712769 -0.06095612049102783 0.16096168756484985 0.1667931228876114 0.19336377084255219 -0.16810865700244904 0.051476407796144485 -0.010115280747413635 -0.00826751347631216 0.11908738315105438 -0.18276023864746094 0.16513150930404663 -0.40769776701927185 -0.20568710565567017 0.2715338170528412 -0.11884349584579468 0.026269979774951935 -0.03822092339396477
same 0.18426163494586945 -0.3730113208293915 0.39615365862846375 0.2781691551208496 0.2501494586467743 0.28689852356910706 0.293437123298645 0.2688829004764557 -0.04700713977217674 -0.3280613422393799 0.2781940996646881 0.14511805772781372 0.02295377478003502 0.02468045987188816 -0.03868691995739937 0.5739450454711914 -0.5955869555473328 -0.10463510453701019 -0.13882379233837128 0.24578578770160675 0.5334145426750183 0.37536823749542236 -0.060659151524305344 0.26416656374931335 0.041344642639160156 -0.19932635128498077 -0.060575976967811584 0.15770632028579712 -0.13926514983177185 -0.1939711719751358 -0.16364777088165283 -0.26920202374458313 -0.08145619928836823 -0.2373190075159073 -0.3647526502609253 0.4111103415489197 -0.22973278164863586 0.015408242121338844 0.16976803541183472 -0.32226794958114624 -0.109359972178936 -0.2628360688686371 -0.24737869203090668 -0.04208800569176674 0.2802855372428894 -0.06540905684232712 -0.027350135147571564 0.12039091438055038 0.12705974280834198 -0.4268157482147217 -0.021644948050379753 0.31529131531715393 -0.18086256086826324 -0.1386459469795227 -0.09926009178161621 -0.14271192252635956 -0.25921890139579773 -0.330501914024353 0.1720823347568512 0.07196754962205887 0.058989398181438446 -0.040966350585222244 -0.24730531871318817 0.16120444238185883 -0.12338287383317947 -0.388631671667099 -0.5832452774047852 0.11990126967430115 0.3311348855495453 0.00716842757537961 -0.04878746345639229 0.17763693630695343 -0.1702517718076706 0.08640369027853012 -0.6088604927062988 -0.18004080653190613 -0.13457758724689484 -0.09341592341661453 0.23705050349235535 0.18689970672130585 -0.1376454085111618 0.23933345079421997 0.11419820040464401 -0.17251326143741608 -0.2995782792568207 0.004713393747806549 0.05320959910750389 -0.12555667757987976 -0.08985661715269089 -0.3436262607574463 -0.3844706118106842 -0.026500383391976357 -0.013765512965619564 0.05630936846137047 0.18310411274433136 0.1259354203939438 0.5418071150779724 -0.1566808670759201 0.21774403750896454 0.13387922942638397
are -0.1163409873843193 0.2786458730697632 0.11925239861011505 -0.07519258558750153 0.21573227643966675 -0.11330947279930115 -0.27481600642204285 0.08914916217327118 -0.3652331829071045 -0.03290671855211258 -0.033688150346279144 -0.3238961100578308 0.20374742150306702 0.2177484780550003 -0.25605666637420654 0.24834544956684113 -0.13137435913085938 -0.07266420871019363 0.006492694839835167 -0.25093790888786316 0.01944291777908802 -0.13962405920028687 0.2984165847301483 0.21776147186756134 0.21850094199180603 0.031327854841947556 0.14121681451797485 0.0023747156374156475 -0.08580389618873596 0.12643174827098846 0.6282954216003418 -0.4403260350227356 -0.024188663810491562 -0.03726738691329956 -0.08945461362600327 0.1891031563282013 0.024992479011416435 -0.0890037789940834 0.10394512116909027 -0.35664457082748413 -0.26903918385505676 -0.3780481815338135 -0.1995105743408203 -0.09386832267045975 -0.19561845064163208 0.23605135083198547 0.061463408172130585 -0.7241971492767334 -0.1429145485162735 -0.11193813383579254 0.3976503014564514 -0.40825361013412476 0.6323059797286987 -0.10627606511116028 -3.513040719553828E-4 0.275279700756073 0.3810878396034241 -0.2878342270851135 0.19249345362186432 -0.04526526853442192 -0.1141720563173294 -0.0668695867061615 -0.04308806359767914 -0.17564673721790314 0.06600791215896606 0.01676899567246437 -0.10021992772817612 0.01897618919610977 0.026911580935120583 -0.4862821698188782 -0.27337950468063354 0.30149751901626587 0.09273619949817657 -0.3206275403499603 0.11745260655879974 0.29032185673713684 -0.300260066986084 -0.22590826451778412 0.29404234886169434 -0.1633126437664032 -0.2778800129890442 -0.04474569112062454 -0.38236886262893677 -0.26493969559669495 -0.031045017763972282 0.10222535580396652 -0.08780070394277573 -0.12912918627262115 -0.3033266067504883 0.20445352792739868 0.43464139103889465 0.04853843152523041 0.13347601890563965 0.2237267643213272 0.03691975772380829 -0.03486939147114754 -0.27725061774253845 -0.07542554289102554 -0.07704911381006241 -0.005639845039695501
does -0.32111814618110657 -0.10763327777385712 -0.014560544863343239 -0.20413725078105927 0.16455070674419403 0.062340814620256424 -0.23598752915859222 -0.0908278375864029 0.030534368008375168 -0.11004285514354706 0.1493786871433258 -0.2537398934364319 -0.2183878868818283 0.132225900888443 0.010475214570760727 -0.2987968921661377 -0.09779722988605499 0.024813581258058548 -0.23939670622348785 0.4412975609302521 0.07010265439748764 0.650191605091095 0.4004613161087036 -0.028199056163430214 -0.11708319187164307 0.19638431072235107 0.3827544152736664 -0.017217392101883888 0.26975417137145996 0.15994608402252197 -0.08807624131441116 -0.04336309805512428 -0.05179844796657562 -0.2820608913898468 0.02832193300127983 0.1763569712638855 0.2541813850402832 -0.26392990350723267 0.0944606214761734 0.6029850244522095 0.02834921143949032 -0.06604542583227158 -0.11022438108921051 0.1626092493534088 0.5420727729797363 0.21439824998378754 0.12329807877540588 -0.3117353022098541 -0.46764349937438965 0.13115531206130981 -0.27654939889907837 -0.05278871953487396 -0.01937643624842167 0.0373263880610466 0.2131989300251007 -0.3149043321609497 0.10036478191614151 -0.20935556292533875 -0.318857878446579 0.16980043053627014 0.47903674840927124 -0.0526469387114048 -0.10802116990089417 -0.2251613587141037 -0.08436531573534012 -0.1562405824661255 0.07406555116176605 -0.10561893880367279 -0.3006550967693329 0.1956239640712738 -0.27070778608322144 -0.10637446492910385 -0.10769261419773102 -0.24111446738243103 0.19481441378593445 -0.16450193524360657 0.21543963253498077 0.038087982684373856 -0.08500553667545319 -0.2281879186630249 0.2534859776496887 -0.19231903553009033 0.5505136251449585 0.2500903904438019 0.24987997114658356 -0.30422621965408325 -0.2307470440864563 0.24687130749225616 0.081712506711483 -0.35597527027130127 0.15206924080848694 0.42801323533058167 -0.07268542051315308 0.07879354059696198 -0.2519497871398926 -0.23296022415161133 0.32537561655044556 0.17921166121959686 -0.002096096519380808 -0.05469025671482086
by -0.027977796271443367 0.05245710536837578 0.04701388627290726 0.18087764084339142 0.005421066656708717 0.04439999908208847 0.0654628574848175 0.06767778098583221 -0.00802042055875063 -0.11152859032154083 0.06281659007072449 0.3015522062778473 -0.3568744957447052 -0.015609990805387497 0.03623286634683609 0.24494098126888275 -0.014783876948058605 0.14571908116340637 -0.01624332182109356 0.0013094655005261302 0.010783222503960133 0.008578074164688587 -0.25141873955726624 0.24252226948738098 0.010008400306105614 -0.21498674154281616 0.12372885644435883 -0.1313464194536209 -0.061065830290317535 0.01171100977808237 -0.32802635431289673 -0.09724502265453339 0.1727210432291031 0.022218570113182068 0.050567131489515305 0.09712043404579163 -0.0020242452155798674 0.031002121046185493 -0.14689569175243378 0.043719884008169174 -0.19700567424297333 0.096906878054142 -0.14155669510364532 -0.001309635117650032 -0.08287764340639114 0.10453860461711884 -0.11259221285581589 -0.21525683999061584 -0.22910332679748535 -0.07784554362297058 -0.07142041623592377 0.07296689599752426 -0.04082756116986275 -0.03602311760187149 -0.14377669990062714 0.04630207270383835 0.10240834206342697 0.007720081601291895 0.16348916292190552 0.1385936439037323 0.021926168352365494 -0.04521523788571358 -0.1022038534283638 -0.14416559040546417 0.09468981623649597 -0.09941715002059937 -0.11949406564235687 -0.04566377028822899 0.11276528984308243 0.025314277037978172 -0.00896023865789175 0.14671030640602112 0.08666130900382996 -0.020321235060691833 -0.059356868267059326 0.17383281886577606 -0.026944467797875404 0.07646813988685608 0.1046866923570633 -0.27793505787849426 -0.2732456922531128 0.07842906564474106 0.03716856986284256 0.3928452730178833 0.1651066094636917 0.12653355300426483 -0.2804317772388458 -0.31033143401145935 0.1259472519159317 0.0994119793176651 0.03351215645670891 -0.12999847531318665 -0.12792804837226868 -0.22122244536876678 -0.17811539769172668 0.1003546267747879 -0.2679276466369629 -0.16155700385570526 0.22515012323856354 0.11681428551673889
national 0.07615828514099121 -0.044839952141046524 0.08088468015193939 0.05702740326523781 0.1268371045589447 -0.015438705682754517 0.12562942504882812 0.021318405866622925 -0.02245199866592884 0.07670363783836365 0.03307417035102844 0.09973648935556412 -0.07746610045433044 0.03870010748505592 -0.062154415994882584 0.19429054856300354 -0.15409497916698456 -0.20050574839115143 -0.016155626624822617 -0.06729459017515182 0.16786375641822815 -0.07146285474300385 0.0038958049844950438 0.1790582686662674 -0.012317908927798271 -0.07149293273687363 -0.07346300035715103 0.10034666955471039 -0.06394052505493164 -0.001043311320245266 0.010453405790030956 -0.08882885426282883 0.07040216773748398 0.011392741464078426 0.036516714841127396 0.07151336967945099 -0.011035092175006866 -0.022878753021359444 -0.008128941990435123 -0.029941249638795853 -0.025123875588178635 -0.0563182532787323 0.03803667426109314 -0.15879909694194794 0.07806971669197083 0.048644207417964935 -0.0014019575901329517 0.0053365048952400684 0.1316620111465454 -0.08480604737997055 0.11673121154308319 -0.03806079179048538 -0.05092199146747589 0.022882815450429916 0.0260707288980484 -0.04411148279905319 0.009147072210907936 -0.13194358348846436 0.11042236536741257 0.0660700649023056 -0.024518530815839767 0.07397835701704025 0.03604898229241371 -0.05564308539032936 0.050434768199920654 -0.037263114005327225 -0.14085759222507477 -0.013243655674159527 0.04580371454358101 0.045234158635139465 -0.023844566196203232 -0.06301440298557281 0.051136765629053116 -0.0419151596724987 -0.05796927958726883 -0.07616741955280304 0.07472283393144608 -0.006386862136423588 0.035846490412950516 0.12358042597770691 0.05987149849534035 0.023444807156920433 0.003714237827807665 -0.10183906555175781 -0.16355207562446594 0.033589042723178864 -0.0321517214179039 -0.10997873544692993 -0.027894610539078712 -0.030074456706643105 0.013080506585538387 0.07035789638757706 -0.09920685738325119 -0.09994172304868698 0.14054886996746063 -0.07260777801275253 0.09770819544792175 0.15022432804107666 0.12826982140541077 0.1467309147119522
where -0.22567181289196014 0.08949427306652069 0.045979954302310944 0.48067790269851685 -0.21030806005001068 0.2203453779220581 0.014601016417145729 -0.1664460450410843 0.2520207166671753 -0.21547247469425201 0.02230493351817131 -0.23047305643558502 -0.15955296158790588 0.0769481286406517 -0.042151015251874924 0.4778052568435669 -0.19383257627487183 -0.11263332515954971 0.22146856784820557 -0.07688667625188828 0.12033487856388092 -0.45209601521492004 0.06299394369125366 -0.17803923785686493 0.3172668218612671 0.13913418352603912 0.3326805830001831 0.025868389755487442 -0.2840830981731415 0.09893634915351868 -0.13323569297790527 -0.15733852982521057 0.009658325463533401 0.2121507078409195 -0.5681053400039673 0.09548307210206985 0.1618582159280777 -0.4765530824661255 -0.010080886073410511 0.007201371248811483 0.27146777510643005 0.04721558094024658 -0.11004207283258438 -0.20320627093315125 0.09042861312627792 0.35708802938461304 -0.07657497376203537 0.18929821252822876 0.06832021474838257 -0.46457886695861816 -0.30288976430892944 0.045396167784929276 -0.3525961935520172 0.27892234921455383 0.27310511469841003 -0.2264622151851654 -0.04028581082820892 -0.05025463178753853 0.15986010432243347 -0.007570785004645586 -0.549098789691925 0.14073175191879272 -0.3259880840778351 -0.028887886554002762 0.26210030913352966 -0.09149453788995743 -0.08182220160961151 0.35002753138542175 -0.08406935632228851 -0.08278051018714905 0.25025200843811035 0.027925025671720505 -0.27629849314689636 0.4146900773048401 -0.055332571268081665 -0.12510065734386444 0.04307054728269577 0.015329528599977493 0.17140711843967438 -0.033250898122787476 -0.37755078077316284 0.2145320326089859 0.08030476421117783 -0.07637106627225876 0.047125641256570816 0.047067075967788696 -0.2731035649776459 -0.10680850595235825 -0.2249899059534073 0.4194256663322449 0.12674932181835175 0.170126274228096 0.05781756713986397 0.016114795580506325 0.12957410514354706 -0.12676362693309784 -0.022523384541273117 0.22835983335971832 -0.15241192281246185 0.08727902919054031
after -0.21661676466464996 -0.14997243881225586 0.07883352786302567 0.23130476474761963 0.08307401835918427 -0.07382798939943314 0.014028036035597324 0.1185990422964096 0.2080288827419281 -0.278473436832428 0.08125089108943939 0.44531914591789246 -0.41277241706848145 0.12705951929092407 0.09366662055253983 0.3760422170162201 -0.13812005519866943 -0.025767961516976357 0.14779184758663177 -0.252380907535553 0.0969357043504715 0.20044778287410736 -0.26859086751937866 0.25780996680259705 0.013646136038005352 0.05042038857936859 0.07683712989091873 -0.003772429656237364 -0.17007586359977722 0.05380643904209137 -0.1529078632593155 0.004229607060551643 0.1521560400724411 -0.01398337073624134 0.00596178974956274 0.09682642668485641 0.21132804453372955 -0.18004633486270905 -0.11259829252958298 -0.11031737178564072 0.017726194113492966 0.045130059123039246 0.00364287500269711 -0.11849159747362137 -0.11448068916797638 0.4593554735183716 -0.14552120864391327 -0.14065922796726227 0.028868570923805237 -0.1715594232082367 -0.2200929969549179 -0.07904098927974701 -0.16609109938144684 0.30049657821655273 -0.08059033006429672 0.22538000345230103 -0.0677972361445427 -0.010660862550139427 -0.20655888319015503 0.41966715455055237 -0.3038439452648163 -0.2381254881620407 -0.1305823177099228 -0.056086134165525436 0.02222253754734993 0.08499918133020401 0.047127511352300644 0.12499821931123734 -0.24743512272834778 -0.08205272257328033 -0.22677305340766907 0.21029967069625854 -0.2421680986881256 0.09438072144985199 -0.01740558072924614 -0.03853597864508629 -0.042889151722192764 0.004023427609354258 0.3095944821834564 -0.14792820811271667 -0.1298225075006485 0.21181920170783997 -0.07152175158262253 0.3565466105937958 -0.14931781589984894 -0.2941529452800751 -0.2716901898384094 -0.2978600561618805 0.2537192702293396 -0.04601621627807617 -0.08833706378936768 0.039334215223789215 0.08266192674636841 -0.25921231508255005 -0.08429829776287079 0.3285241723060608 -0.40299683809280396 -0.05069645121693611 0.2881472706794739 0.10129520297050476
so -0.24396371841430664 -0.2586542069911957 -0.35173824429512024 -0.24408522248268127 -0.31151750683784485 -0.2296249270439148 0.1833469271659851 0.16080951690673828 -0.1339135617017746 0.24903732538223267 -0.010667979717254639 -0.24397295713424683 0.046225372701883316 -0.14732863008975983 -0.23636490106582642 0.0826771929860115 0.04470517486333847 -0.01925390399992466 -0.16739682853221893 -0.10502719134092331 -0.1913890838623047 0.26701855659484863 0.20965929329395294 -0.09256269782781601 -0.19108718633651733 0.035107385367155075 0.21656280755996704 0.1101289764046669 -0.21498382091522217 0.006746804341673851 0.026141798123717308 0.031520623713731766 -0.22402416169643402 0.20954908430576324 -0.05003216490149498 -0.022130398079752922 -0.011334114708006382 -0.06314575672149658 -0.30309998989105225 -0.03474767878651619 -0.19745416939258575 0.03683852776885033 0.1760455071926117 -0.008424274623394012 0.20288723707199097 -0.10256440937519073 -0.05678260698914528 0.018255196511745453 0.05905762314796448 0.10844073444604874 0.024896882474422455 -0.07787054777145386 -0.07249808311462402 0.07888947427272797 0.021217599511146545 0.08831387013196945 0.02246619015932083 -0.11907622218132019 -0.1380065679550171 -0.21394407749176025 -0.3986544907093048 -0.10730071365833282 0.19597145915031433 -0.18468745052814484 -0.0023759424220770597 0.19550611078739166 -0.26321130990982056 0.09046168625354767 -0.11079486459493637 0.19284456968307495 0.23134739696979523 0.2318272441625595 -0.14501874148845673 -0.008729925379157066 -0.047388747334480286 -0.04907360300421715 0.07662337273359299 -0.026368506252765656 0.0337449349462986 -0.174805149435997 -0.19539254903793335 0.03734879940748215 0.12083742022514343 -0.06283079832792282 0.11887994408607483 0.014077447354793549 -0.06268256902694702 -0.0605526864528656 0.324981153011322 0.1489844024181366 0.02152925357222557 0.12563739717006683 -0.05947650596499443 -0.09923753142356873 -0.29831358790397644 0.10819531232118607 -0.2975217401981354 -0.02815171331167221 0.04651664197444916 0.2543809115886688
a 0.01054284255951643 -0.17596471309661865 -0.2366270124912262 -0.07180316001176834 0.07256122678518295 0.20457877218723297 0.026404930278658867 0.04897526279091835 0.2925809323787689 -0.07467960566282272 0.328496515750885 0.40645480155944824 -0.012752489186823368 -0.07876299321651459 -0.09551694989204407 0.12875601649284363 0.026510726660490036 -0.4995897710323334 -0.04324335604906082 -0.19501392543315887 -0.36516106128692627 0.13519269227981567 0.06210646778345108 0.122030109167099 0.06272828578948975 -0.35331252217292786 0.04846985265612602 -0.34156423807144165 -0.29380375146865845 -0.3312637507915497 -0.16023482382297516 0.013821056112647057 -0.13815107941627502 0.036344368010759354 0.2828415632247925 0.2487289309501648 -0.05363979563117027 0.3046163320541382 -0.14915357530117035 0.2291262447834015 -0.4100410044193268 -0.2515459656715393 0.02924516052007675 -0.3603765368461609 0.16909264028072357 -0.2299147993326187 0.3428305387496948 -0.14442962408065796 0.2907264232635498 -0.1257276087999344 0.03426577150821686 -0.17401066422462463 0.11358917504549026 0.12327222526073456 0.1469007134437561 -0.09811269491910934 -0.22901885211467743 0.2860482633113861 0.37840741872787476 -0.2377670407295227 -0.06810808181762695 -0.18033309280872345 -0.32772746682167053 -2.9393727891147137E-4 -0.06681780517101288 0.2026103138923645 -0.06264360249042511 -0.029810650274157524 -0.12564176321029663 0.09481553733348846 0.4150654673576355 0.05277898162603378 0.20874886214733124 -0.3735043406486511 -0.3395608067512512 0.16900567710399628 0.11519889533519745 0.3874990940093994 0.4893175959587097 -0.012871522456407547 -0.027096787467598915 0.13795623183250427 0.11934808641672134 0.22147402167320251 -0.04661943018436432 0.07628528773784637 -0.40065938234329224 0.028778061270713806 0.05309011787176132 -0.04452669620513916 0.2474038153886795 -0.015002219937741756 0.14406442642211914 -0.21076104044914246 0.0929921492934227 0.38248410820961 0.12202539294958115 -0.1690453141927719 0.19403213262557983 0.07728683203458786
think 0.13385002315044403 -0.1407655030488968 -0.1905478984117508 -0.04245550185441971 -0.21866056323051453 -0.0458986796438694 0.1953544318675995 0.38871151208877563 0.039174050092697144 0.136785626411438 -0.10097533464431763 0.021543379873037338 0.26845571398735046 0.1643180102109909 0.061271872371435165 -0.2241441309452057 -0.2596474587917328 0.19738511741161346 -0.1542293280363083 -0.131668359041214 0.44282224774360657 0.10560371726751328 -0.35449978709220886 0.09097819775342941 0.0847678929567337 0.3949747383594513 -0.16938045620918274 0.05002980679273605 -0.11480751633644104 0.06176825240254402 -0.3768065869808197 -0.037134021520614624 -0.06852052360773087 0.09749091416597366 -0.3367823362350464 0.30025410652160645 -0.05372995138168335 0.06076674163341522 0.2834291458129883 0.02536601945757866 0.035183317959308624 -0.018538856878876686 0.10456573218107224 -0.07150668650865555 0.15292315185070038 0.20835088193416595 -0.008392343297600746 0.21513912081718445 0.037332870066165924 0.11671571433544159 -0.0034652797039598227 0.4076659381389618 0.2695784568786621 -0.018285419791936874 -0.023754693567752838 -0.23077383637428284 0.13196489214897156 -0.12001272290945053 -0.04595443978905678 -0.21570642292499542 0.021632160991430283 -0.16071385145187378 -0.24928699433803558 0.1352681815624237 0.09870655089616776 0.0771324411034584 0.15249566733837128 0.07452963292598724 -0.13947740197181702 0.013941575773060322 0.21903087198734283 0.14945481717586517 0.02482450380921364 -0.14208222925662994 -0.023023849353194237 0.35134270787239075 -0.09269826859235764 -0.056265220046043396 -0.0926864817738533 0.36103424429893494 0.07436373829841614 0.11485881358385086 -0.10115614533424377 0.011876757256686687 -0.11834131181240082 -0.07788930088281631 0.1344093233346939 0.03539044037461281 0.037707507610321045 0.013004092499613762 0.1475886106491089 -0.14731194078922272 -0.2881258428096771 -0.14077143371105194 -0.29424774646759033 -0.0033725372049957514 0.020496785640716553 -0.19022345542907715 -0.178324893116951 -0.21607817709445953
set -0.1241614893078804 -0.07051172852516174 0.2658618688583374 0.13834930956363678 0.0684380978345871 -0.2741497755050659 -0.19037018716335297 0.08133108168840408 0.053785618394613266 -0.12405296415090561 -0.2709747850894928 0.10954326391220093 -0.14495639503002167 0.25262048840522766 -0.014426926150918007 0.13643954694271088 -0.04332806169986725 -0.23371084034442902 0.12184595316648483 -0.1212565153837204 0.2141142636537552 0.22805608808994293 -0.13211457431316376 0.15184034407138824 -0.02702358178794384 -0.06932099163532257 0.02368899993598461 -0.035627588629722595 -0.05345894768834114 -0.03351966291666031 -0.12361447513103485 0.040367189794778824 -0.14544664323329926 -0.10191065818071365 0.1973598450422287 0.32299286127090454 -0.007236129138618708 -0.060050882399082184 0.0906277522444725 0.13403210043907166 0.08514203131198883 0.08771181106567383 0.11779116839170456 -0.004601805470883846 -0.3250370919704437 0.02440652996301651 0.08935803920030594 -0.05609223246574402 -0.27517610788345337 0.2575618028640747 -0.08904077857732773 0.048799533396959305 0.09257916361093521 0.01410817913711071 -0.16022460162639618 -0.0826004147529602 -0.10800259560346603 -0.20076696574687958 0.038208864629268646 0.1486288607120514 -0.1752815693616867 0.17575164139270782 0.03442278876900673 -0.09502613544464111 0.15846651792526245 -0.11642380058765411 -0.349107027053833 -0.031124986708164215 -0.10606970638036728 0.08033166080713272 -0.016627373173832893 0.032566577196121216 0.3147481679916382 0.14072175323963165 0.23649024963378906 -0.07156050950288773 -0.08913540840148926 0.035056062042713165 -0.0036821849644184113 0.0032268944196403027 0.15781311690807343 0.13347165286540985 -0.1675986647605896 0.03434523567557335 -0.21776367723941803 -0.052148379385471344 -0.06448227167129517 -0.10176374763250351 0.03451891243457794 0.10499046742916107 0.11321582645177841 -0.07666564732789993 -0.1732875406742096 -0.019976962357759476 0.060960691422224045 0.06572182476520538 0.08483031392097473 0.07706864923238754 0.031917739659547806 -0.018835140392184258
