been -0.11224543303251266 -0.09648194164037704 -0.12632347643375397 0.23158612847328186 -0.2939966917037964 -0.5936652421951294 -0.34683987498283386 -0.32522696256637573 -0.1836140751838684 -0.09417647868394852 0.36949577927589417 -0.2398453652858734 0.039190102368593216 -0.23090164363384247 0.26774969696998596 0.043290793895721436 0.7844740748405457 -0.16160836815834045 -0.32787632942199707 -0.04837975651025772 0.01363805029541254 -0.14059381186962128 0.3628559112548828 0.30112940073013306 -0.4471595883369446 -0.49377140402793884 0.1741182953119278 0.11924467235803604 -0.029095308855175972 0.012965559028089046 0.25053974986076355 -0.3273584842681885 0.2693765461444855 -0.05790766328573227 -0.0022553885355591774 0.06965136528015137 -0.2706087529659271 0.4309864342212677 0.5481669306755066 0.18880198895931244 -0.2853097915649414 0.015536477789282799 0.07291391491889954 0.19374026358127594 -0.2124151885509491 -0.22197309136390686 0.19789308309555054 -0.1528044492006302 0.19868157804012299 0.26488468050956726 0.18744908273220062 0.25882279872894287 0.4472695589065552 0.12274235486984253 0.02744901552796364 0.19506599009037018 -0.19051077961921692 0.26937365531921387 -0.3642425537109375 0.40645161271095276 -0.1761838048696518 -0.119048111140728 0.21800468862056732 0.20623797178268433 -0.13770927488803864 0.5838066935539246 -0.2103988528251648 0.5483093857765198 0.10898050665855408 -0.35471147298812866 0.4881941080093384 -0.16861583292484283 0.18213267624378204 -0.32812702655792236 0.01479543186724186 0.33901745080947876 0.07651308178901672 0.08522780984640121 -0.01713792234659195 0.04533038288354874 -0.053844306617975235 -0.1057446300983429 0.20582814514636993 -0.020051680505275726 0.6187021136283875 -0.5031595230102539 -0.11637493968009949 -0.6296463012695312 0.09684383869171143 -0.20657342672348022 -0.2310345470905304 0.5444661378860474 0.24634958803653717 0.137491837143898 0.2021927535533905 -0.15193074941635132 0.07011278718709946 0.07034716010093689 0.23270122706890106 0.028434965759515762
year -0.34732040762901306 -0.27566030621528625 0.1164354681968689 -0.3077923059463501 -0.18692784011363983 0.39939019083976746 0.1464041769504547 -0.17907623946666718 -0.036012083292007446 0.4236912727355957 0.029972150921821594 0.3463323712348938 -0.1707160621881485 -0.41016459465026855 0.13586875796318054 -0.14524443447589874 0.14119279384613037 -0.039140600711107254 0.05998218432068825 -0.505768895149231 -0.6112943291664124 -0.16873781383037567 -0.26926106214523315 0.24539926648139954 -8.039874956011772E-5 -0.6474282145500183 0.09888799488544464 -0.08497987687587738 0.08614074438810349 -0.5977188348770142 -0.026714041829109192 -0.1889646202325821 -0.02394750528037548 -0.4640139639377594 -0.17291679978370667 0.37183836102485657 0.13905513286590576 -0.0224596094340086 0.31802764534950256 -0.014753922820091248 0.17788100242614746 0.10549933463335037 -0.19431662559509277 -0.24245361983776093 0.04817232862114906 0.28890684247016907 -0.13320253789424896 0.0574299693107605 0.25486621260643005 -0.01447839755564928 0.22942528128623962 -0.37150123715400696 0.17593631148338318 -0.03262927383184433 0.12534867227077484 0.19832785427570343 0.21426120400428772 -0.17229540646076202 0.3078647553920746 -0.04076928272843361 -0.3900567591190338 0.07880215346813202 0.02051175944507122 0.056148428469896317 0.20813992619514465 0.34854432940483093 -0.14210465550422668 0.18299168348312378 0.059150926768779755 -0.30680933594703674 -0.03623361513018608 0.01477809064090252 -0.12601201236248016 0.09191430360078812 0.20667631924152374 0.04837418347597122 -0.427918404340744 -0.18682503700256348 -0.005711245350539684 -0.11349837481975555 -0.051538605242967606 0.4767407178878784 0.08047854155302048 0.18551720678806305 0.08639980852603912 -0.10227516293525696 -0.08770645409822464 -0.12376723438501358 0.10131403058767319 -0.10337908565998077 -0.057749778032302856 0.14120210707187653 -0.14329443871974945 0.26625701785087585 -0.13130703568458557 0.35328924655914307 0.13761411607265472 0.05041565001010895 0.487737238407135 -0.05659686028957367
about 0.05083249509334564 -0.26013824343681335 -0.16020295023918152 -0.22297847270965576 -0.13443468511104584 0.04140694811940193 -0.08643388003110886 0.19737693667411804 -0.22896884381771088 0.28399035334587097 0.041190870106220245 0.1116441935300827 0.11208318918943405 -0.13735932111740112 0.2584930956363678 -0.032664503902196884 0.11230158060789108 0.44514554738998413 -0.4004113972187042 -0.045653361827135086 0.347613126039505 0.11942774057388306 -0.008981010876595974 -0.16867324709892273 0.16827064752578735 -0.48134300112724304 -0.09459185600280762 -0.23443180322647095 0.20218783617019653 -0.01604192517697811 -0.11559536308050156 -0.31877362728118896 0.17727819085121155 0.11209225654602051 0.2369464486837387 -0.10032950341701508 0.082288958132267 0.15151052176952362 -0.19068405032157898 -0.32852208614349365 -0.0934256911277771 0.05814734473824501 0.16358916461467743 0.004390175454318523 -0.022362930700182915 0.08844751864671707 -0.39092373847961426 -0.04891013726592064 -0.0884803906083107 0.12861047685146332 -0.02140873111784458 -0.208609938621521 0.14936058223247528 0.17872613668441772 0.47568556666374207 0.14636468887329102 0.017432870343327522 0.1597684919834137 -0.041830338537693024 -0.44201505184173584 -0.08090536296367645 -0.21492864191532135 -0.15348972380161285 -0.40775802731513977 -0.07892639935016632 0.2207757830619812 0.413523405790329 -0.31873002648353577 -0.0855582058429718 -0.19577912986278534 -0.33868861198425293 -0.3610740900039673 0.22878949344158173 0.0753653347492218 -0.014179750345647335 0.16329365968704224 -0.09808872640132904 0.37479525804519653 -0.22244025766849518 -0.26557475328445435 -0.13362273573875427 0.1592026650905609 -0.040187448263168335 0.32954496145248413 -0.21858642995357513 -0.24903857707977295 -0.1353038251399994 -0.23301956057548523 -0.07006266713142395 -0.07471834123134613 -0.19537343084812164 -0.07391904294490814 -0.06448157876729965 0.27504727244377136 0.10763531178236008 0.1836182177066803 -0.0887792631983757 -0.022302202880382538 -0.09328796714544296 -0.15981729328632355
your -0.06529460102319717 0.13671579957008362 0.14867474138736725 0.3297232985496521 0.2927757799625397 0.22287733852863312 0.18808680772781372 0.20472431182861328 0.26598891615867615 0.007232030853629112 0.10789046436548233 -0.06520766019821167 -0.07767651975154877 0.16099373996257782 0.7390490174293518 -0.08064775168895721 -0.3618476986885071 -0.06351036578416824 -0.013386135920882225 -0.2987562417984009 -0.10145653039216995 0.27563202381134033 0.10460862517356873 -0.09302480518817902 -0.09568817168474197 -0.3278020918369293 0.15457406640052795 -0.08741868287324905 0.29009318351745605 0.2198561728000641 -0.060910724103450775 -0.10711345821619034 0.46078330278396606 0.166181743144989 0.24187110364437103 0.15927909314632416 0.15512162446975708 0.3398711085319519 0.07450157403945923 -0.2673289477825165 -0.015064366161823273 0.2050389051437378 -0.3906482458114624 0.10608570277690887 0.041183941066265106 -0.3671846091747284 0.13984912633895874 0.34259143471717834 -0.15142053365707397 -0.017359592020511627 -0.218769833445549 0.06372782588005066 -0.24723678827285767 -0.027526631951332092 -0.04303469508886337 -0.48880723118782043 0.020133383572101593 0.06757469475269318 0.1323544681072235 -0.6065338850021362 -0.28075265884399414 0.025901494547724724 -0.1573552042245865 0.012581447139382362 -0.19410575926303864 0.1449224054813385 0.15067176520824432 -0.11356846988201141 -0.32242023944854736 -0.08217461407184601 -0.0023252912797033787 -0.06587283313274384 0.18105188012123108 0.3987337052822113 0.050904158502817154 0.086552694439888 -0.16262051463127136 -0.0961264818906784 0.01339593343436718 -0.04387248307466507 0.08057492971420288 -0.20224669575691223 0.15249137580394745 -0.18008120357990265 0.045124441385269165 -0.047301746904850006 -0.027830351144075394 0.035554561764001846 -0.17201527953147888 -0.037192266434431076 0.2627364993095398 0.03109077922999859 -0.17275941371917725 -0.04502031207084656 0.27818241715431213 -0.19857719540596008 0.09175245463848114 -0.5036472082138062 -0.21937771141529083 -0.13706891238689423
without -0.06764601916074753 -0.0670332983136177 0.08579453825950623 0.03354708477854729 0.3851223587989807 0.15287962555885315 0.41551485657691956 -0.027503397315740585 -0.14823856949806213 0.24141782522201538 0.20178474485874176 -0.0017013679025694728 -0.039205729961395264 -0.3227470815181732 0.019305534660816193 -0.12729677557945251 0.10022669285535812 -0.014796276576817036 0.07410816103219986 -0.057744625955820084 0.083377905189991 -0.13767918944358826 0.029606256633996964 0.11970248073339462 -0.31762272119522095 -0.2752367854118347 0.19227993488311768 0.010043207556009293 -0.3224669098854065 0.0377664640545845 -0.20524922013282776 0.014318758621811867 0.28620272874832153 -0.10962472856044769 0.1942661702632904 0.30058351159095764 -0.016797134652733803 -0.01815406233072281 -0.2467893362045288 0.06528567522764206 -0.060041394084692 0.10447695851325989 0.277497261762619 0.029924796894192696 0.21001791954040527 0.1902625560760498 0.145844966173172 0.33083394169807434 -0.08903463184833527 -0.03956180810928345 0.03964785858988762 0.07173925638198853 -0.10824604332447052 0.04469134286046028 0.19642621278762817 0.1837693601846695 -0.011070530861616135 0.10220824182033539 0.09622298181056976 -0.18762382864952087 -0.008592350408434868 0.009271906688809395 0.5910429358482361 0.09631351381540298 -0.047176145017147064 0.43525758385658264 0.20546744763851166 0.05451489984989166 -0.2067847102880478 0.09965216368436813 0.12050135433673859 0.055165670812129974 -0.11077442020177841 -0.19697004556655884 0.005435172934085131 -0.021487167105078697 0.09789016097784042 0.11775436252355576 -0.1167752593755722 -0.0040559605695307255 0.011954879388213158 -0.01952630840241909 -0.1578497439622879 0.0031714884098619223 0.43605512380599976 -0.20740282535552979 0.12550301849842072 -0.139488086104393 -0.11833126097917557 -0.08307918161153793 0.10702720284461975 -0.05045565217733383 -0.19134511053562164 0.3596927225589752 -0.03874208778142929 -0.2462521195411682 0.044471513479948044 0.03433513268828392 0.03499159961938858 -0.3101131021976471
these -0.24610882997512817 0.2904358506202698 0.0023600675631314516 -0.047730498015880585 -0.10780543088912964 -0.3030102550983429 0.26015862822532654 -0.24581123888492584 0.3932081162929535 0.09099595248699188 -0.1087743267416954 0.011147290468215942 0.014188187196850777 -0.03726673498749733 0.15839199721813202 -0.10104487836360931 -0.06560873240232468 0.0611700601875782 0.2692706882953644 0.34048375487327576 0.09143834561109543 -0.009554300457239151 0.2579423487186432 0.4114777147769928 0.40517303347587585 -0.3270170986652374 0.10359686613082886 0.47460561990737915 0.11704496294260025 0.024444326758384705 -0.003712607081979513 -0.009924152866005898 0.061707399785518646 0.13970237970352173 0.13201890885829926 -0.1836661994457245 0.32373857498168945 -0.2330475002527237 -0.05204762518405914 -0.2328963428735733 0.362167626619339 -0.14779004454612732 -0.0537884496152401 0.1373940110206604 -0.12620849907398224 -0.23792442679405212 0.0693814679980278 0.12094064056873322 -0.07309019565582275 0.2922317683696747 0.20500057935714722 -0.1337953358888626 -0.06192956119775772 -0.19037680327892303 0.047714706510305405 -0.05141035094857216 -0.09274312853813171 -0.054260432720184326 0.007612461689859629 0.006906341761350632 0.28617602586746216 -0.045664384961128235 0.15358000993728638 -0.14827308058738708 -0.14725393056869507 -0.12632852792739868 0.16058900952339172 0.1270473301410675 -0.49098727107048035 0.38236770033836365 0.12720447778701782 0.16941893100738525 -0.29640617966651917 0.3315848410129547 0.30601590871810913 -0.4039631187915802 0.4191098213195801 0.04141797125339508 0.2560432255268097 -0.1690429449081421 0.014914670959115028 0.18127736449241638 -0.12313360720872879 0.5365926623344421 0.032694824039936066 0.1765337586402893 -0.3828524351119995 -0.08500143140554428 -0.06465256959199905 0.4101315438747406 -0.22754520177841187 -0.009465580806136131 0.20133548974990845 0.19067740440368652 0.06093936413526535 -0.3024229407310486 -0.08301658183336258 -0.5122215747833252 -0.08648207038640976 -0.29254263639450073
companies 0.016995573416352272 0.23484569787979126 0.2263028472661972 0.027517780661582947 -0.05217835307121277 0.0316869355738163 0.030655790120363235 -0.16934600472450256 0.04898137226700783 -0.04516548290848732 -0.16224490106105804 0.1815495491027832 0.07103832066059113 -0.03467798978090286 -0.1589011698961258 -0.004446943756192923 0.04930878058075905 -0.014844744466245174 -0.039989572018384933 -0.1015094518661499 0.17353555560112 -0.125090554356575 0.09967628121376038 0.10080431401729584 0.021355507895350456 -0.22348439693450928 -0.007817775011062622 0.3012095093727112 -0.059889789670705795 0.13409695029258728 0.1120348572731018 0.011551918461918831 -0.010762782767415047 -0.13913747668266296 0.181357279419899 0.1451219618320465 0.16413335502147675 -0.20057858526706696 0.14433619379997253 0.1653982549905777 0.11701995134353638 -0.20295940339565277 -0.1486968994140625 0.05038045719265938 -0.1014915332198143 -0.0778178796172142 0.0907861739397049 -0.15981923043727875 0.09273501485586166 -0.10283271968364716 0.24256271123886108 -0.15037892758846283 -0.13421699404716492 -0.06521102041006088 0.023163307458162308 -0.20067255198955536 -0.2243504673242569 -0.021405035629868507 0.36024928092956543 0.12466824799776077 -0.04585636034607887 -0.006169554311782122 -0.10747332125902176 -0.15827766060829163 0.018442867323756218 0.023532142862677574 0.11769122630357742 -0.0034335539676249027 -0.12374483048915863 0.1330917328596115 0.03187230974435806 0.25462648272514343 -0.18038219213485718 0.21105878055095673 0.11157716810703278 -0.27771538496017456 0.011939258314669132 -0.008859969675540924 0.08635876327753067 -0.09344007819890976 0.025434264913201332 0.04154529795050621 -0.07526320219039917 -0.10032075643539429 -0.0018043308518826962 -0.028536519035696983 -0.17606310546398163 -0.06162739545106888 0.1033606082201004 -0.09332965314388275 -0.15123604238033295 -0.05745670571923256 0.3155699670314789 0.020405037328600883 0.12019115686416626 -0.11900804936885834 0.03194759786128998 -0.14302761852741241 -0.18684855103492737 -0.17048485577106476
music -0.09876643121242523 0.07425682246685028 0.03000122494995594 -0.04599522799253464 0.1594620645046234 0.023459430783987045 0.0025189716834574938 -0.14073018729686737 0.10615915060043335 -0.08251885324716568 0.04395344853401184 0.019336143508553505 0.016206176951527596 0.06936539709568024 -0.16414611041545868 0.1750432252883911 0.07976578176021576 -0.09095480293035507 -0.10764288902282715 -0.06723916530609131 0.09704256057739258 0.1641937792301178 0.1467374712228775 -0.02099989727139473 0.10760323703289032 0.25850942730903625 0.12814146280288696 -0.38610702753067017 0.13904118537902832 0.22104695439338684 -0.09830782562494278 0.002523462986573577 -0.023763345554471016 -0.014713935554027557 -0.18835942447185516 0.009514093399047852 -0.09007403254508972 -0.09649096429347992 -0.01599791832268238 0.21347710490226746 -0.03719354420900345 0.00497465580701828 0.051859933882951736 -0.017721541225910187 0.1280912309885025 0.019180424511432648 -0.0547696016728878 -0.060490239411592484 0.005347252823412418 0.05885905399918556 0.25911736488342285 -0.08436806499958038 -0.020399458706378937 -0.02771688625216484 0.1382446438074112 -0.25361981987953186 0.008112593553960323 0.12118394672870636 0.29292792081832886 -0.07341309636831284 -0.12586140632629395 -0.04145360738039017 -0.40132755041122437 -0.0051211025565862656 -0.07780973613262177 -0.043472424149513245 0.05740394815802574 -0.007173100020736456 0.1508982628583908 -0.14468809962272644 -0.1452266126871109 -0.25873860716819763 -0.16969677805900574 -0.007843472063541412 -0.2343638390302658 0.025552749633789062 -0.035429805517196655 -0.21252384781837463 -0.2227960228919983 0.07887431979179382 -0.2781791090965271 0.3572634160518646 0.17444485425949097 -0.1470060497522354 -0.16771776974201202 0.02610231563448906 -0.1073707640171051 -0.09762977063655853 0.043998055160045624 -0.11334323137998581 -0.10350388288497925 -0.21914103627204895 -0.17600511014461517 0.009916486218571663 -1.4309491962194443E-4 -0.02222776599228382 0.2278885543346405 -0.052328746765851974 0.029912525787949562 0.012713668867945671
would -0.13325753808021545 -0.20682290196418762 -0.0937996581196785 0.15248799324035645 -0.1336485594511032 0.2545001208782196 0.26698410511016846 -0.3201597034931183 0.09965918958187103 -0.15531761944293976 -0.07961424440145493 -0.2651631236076355 -0.010031801648437977 -0.15253274142742157 -0.15524089336395264 0.022783635184168816 0.41797760128974915 0.12572412192821503 -0.2584415674209595 -0.19521267712116241 -0.1616062968969345 0.018634630367159843 -0.05359160527586937 0.3776687979698181 -0.10881152004003525 0.012673701159656048 0.06533259898424149 -0.1234065368771553 -0.08625751733779907 0.33544376492500305 -0.12613630294799805 0.07137808203697205 -0.03244687244296074 0.11038307845592499 0.0511590838432312 0.17895866930484772 0.2272898554801941 -0.11905611306428909 -0.07491829991340637 0.1207190677523613 0.15234579145908356 0.15187282860279083 0.4282008707523346 0.22214262187480927 -0.14627519249916077 0.1850641667842865 0.5266621708869934 0.22892647981643677 -0.06560618430376053 -0.06702735275030136 -0.028521491214632988 -0.027467846870422363 -0.26896366477012634 -0.2452160269021988 -0.22957946360111237 -0.18518267571926117 0.14222487807273865 0.028135769069194794 -0.18195447325706482 -0.10411866754293442 0.066682830452919 0.0846342220902443 -0.03926560655236244 0.11400647461414337 -0.05655611306428909 0.04208417981863022 0.028528206050395966 -0.20055346190929413 0.14701829850673676 0.23128172755241394 0.1679759919643402 0.1523909866809845 0.21093830466270447 -0.07691152393817902 0.11901921033859253 0.2681500315666199 -0.00793219543993473 0.2754676043987274 0.19208885729312897 0.09565192461013794 0.18743424117565155 -0.0013561880914494395 -0.32005441188812256 -0.017849178984761238 0.07817727327346802 -0.053492866456508636 0.027896910905838013 0.24024559557437897 -0.021645739674568176 0.01651132106781006 -0.11447577178478241 -0.004064107313752174 0.07803183794021606 0.15486250817775726 0.07723811268806458 0.12062260508537292 0.05982576683163643 0.06258992105722427 -0.08021270483732224 0.3722977042198181
because -0.1293187290430069 0.011906756088137627 0.22355642914772034 -0.1543690711259842 0.02080625109374523 -0.05886032432317734 0.013603715226054192 -0.2996545433998108 -0.1028485894203186 -0.05617103725671768 -0.055762194097042084 -0.18251803517341614 -0.1233326867222786 0.0070978631265461445 -0.013092639856040478 0.04728369787335396 0.16873659193515778 -0.08872120827436447 0.11312229931354523 0.3381098508834839 0.05798496678471565 -0.17614097893238068 0.1958417147397995 0.10807263851165771 -0.1465345174074173 -0.004846870433539152 0.33070167899131775 -0.16852818429470062 0.02763187512755394 0.16375699639320374 0.06548912078142166 0.023560909554362297 0.06719367951154709 0.01664165034890175 -0.06027740612626076 0.024617066606879234 -0.08721448481082916 -0.13730892539024353 -0.16497191786766052 -0.11538784950971603 0.08684580028057098 0.010823208838701248 0.3940313756465912 -0.2245100438594818 0.08651860803365707 0.16288131475448608 0.016748720780014992 0.002481241710484028 -0.08019137382507324 0.03241425380110741 -0.13845191895961761 0.21469628810882568 0.033705681562423706 -0.010380941443145275 0.02973225712776184 0.19820161163806915 0.27440354228019714 0.05333942174911499 0.22323666512966156 0.07209884375333786 -0.15310676395893097 -0.028759988024830818 0.022174768149852753 0.030469456687569618 0.07366979867219925 -0.07406897842884064 -0.008294235914945602 0.1429835557937622 -0.03275373578071594 -0.25778472423553467 -0.037036243826150894 -0.08210885524749756 0.06960314512252808 0.06596039980649948 -0.13790260255336761 -0.18073874711990356 0.026503974571824074 0.04358666017651558 -0.0044120848178863525 -0.17492365837097168 -0.03416207805275917 -0.07208055257797241 0.06339479237794876 -0.028709670528769493 0.10412982106208801 -0.144948810338974 -0.012078516185283661 0.015189345926046371 -0.25164225697517395 -0.06281936168670654 -0.16943205893039703 -0.10637924820184708 -0.10318160057067871 0.2111884206533432 -0.02547864429652691 -0.03069612756371498 0.0758109837770462 -0.058657269924879074 -0.055694833397865295 -0.1306927651166916
state -0.050110623240470886 0.16991807520389557 -0.12358438968658447 0.06591106951236725 0.16858021914958954 0.01677105948328972 0.21675413846969604 -0.07001637667417526 0.09146244823932648 0.14894741773605347 0.13549093902111053 0.1898457258939743 0.05961145833134651 -0.14659255743026733 -0.05943763628602028 0.015710843726992607 0.020171545445919037 -0.1327168494462967 -0.058736544102430344 -0.06484495103359222 0.09893875569105148 0.19673418998718262 0.07803472131490707 0.1550048291683197 -0.052199166268110275 -0.08935951441526413 0.04231811314821243 0.032204411923885345 0.14447541534900665 -0.22059987485408783 -0.08700814843177795 -0.040104057639837265 0.13203050196170807 -0.2987481951713562 0.31875020265579224 0.28371018171310425 0.20114347338676453 -0.11319275945425034 0.021106356754899025 0.11742346733808517 0.33031120896339417 -0.057734329253435135 0.018457243219017982 0.06127970293164253 0.08793829381465912 -0.10480759292840958 -0.06510970741510391 0.1161164790391922 0.041065532714128494 -0.16033408045768738 0.33774515986442566 -0.1683458387851715 0.006478581577539444 0.01726493611931801 0.2108665406703949 -0.25614669919013977 -0.03742549195885658 0.05803859233856201 0.31643375754356384 0.15243656933307648 0.05827642232179642 -0.011717215180397034 -0.12098264694213867 -0.06900772452354431 0.2893960475921631 0.11130117624998093 0.01241496205329895 0.13121946156024933 0.040091149508953094 -0.14178168773651123 0.07502150535583496 -0.20744523406028748 -0.4263569712638855 0.016367105767130852 -0.12376782298088074 -0.04032878205180168 -0.18262048065662384 -0.1437281370162964 -0.27856796979904175 0.048821642994880676 -0.07089114189147949 0.24951685965061188 0.1662455052137375 -7.760662119835615E-4 -0.13472935557365417 -0.15466952323913574 0.06591540575027466 -0.05252029746770859 0.2631087601184845 -0.09950441867113113 -0.11975876986980438 -0.18937626481056213 0.038483358919620514 0.06598290055990219 -0.20003214478492737 -0.25024348497390747 0.10513167828321457 0.1070718988776207 -0.019696513190865517 -0.07773620635271072
they -0.0023597003892064095 -0.11545311659574509 -0.03254397213459015 0.30308589339256287 -0.015052109025418758 -0.1967441737651825 0.03474220633506775 0.0688672661781311 0.4073723554611206 0.23301278054714203 0.04328909143805504 -0.09713447839021683 0.10382404923439026 -0.007264209911227226 -0.05502697080373764 0.10983732342720032 -0.28611770272254944 0.22891080379486084 -0.102393738925457 -0.08206421881914139 0.253449022769928 0.008264131844043732 0.003515650285407901 0.2041381597518921 0.06633897125720978 -0.07071778178215027 -0.03704134002327919 0.10536211729049683 -0.39959803223609924 -0.052355509251356125 -0.20795771479606628 -0.03193829953670502 0.23097211122512817 0.11863427609205246 0.12216529250144958 -0.09174101799726486 0.1428682655096054 -0.38017696142196655 0.06362117826938629 -0.13927523791790009 0.18751579523086548 -0.10185042768716812 -0.07796057313680649 -0.0802752897143364 -0.17471447587013245 -0.18797163665294647 0.15605272352695465 0.25893768668174744 0.015224500559270382 0.04977593943476677 0.15148578584194183 -0.10107341408729553 0.05887541547417641 0.09597654640674591 -0.028394564986228943 0.03473440557718277 -0.2511962056159973 -0.19912174344062805 0.01589459367096424 -0.06405769288539886 -0.07815852761268616 0.10167888551950455 0.03635121509432793 -0.3234803378582001 -0.06956524401903152 -0.3947663903236389 0.06817200034856796 -0.08481786400079727 -0.1712261140346527 -0.1299329698085785 0.008455011993646622 0.29329708218574524 0.18315543234348297 0.12391739338636398 0.006452250760048628 -0.04333291947841644 -0.11233896017074585 0.017544185742735863 0.0904703363776207 -0.1229245662689209 0.2087201625108719 -0.039522890001535416 -0.16947411000728607 0.05954727903008461 0.014466818422079086 0.33095601201057434 -0.001769871567375958 0.0560419000685215 0.06434739381074905 -0.05129408836364746 -0.06858699768781662 0.15069067478179932 0.2990064322948456 -0.08762836456298828 0.07969172298908234 -0.052394233644008636 -0.2182963490486145 -0.05803968384861946 -0.12673017382621765 0.2934184968471527
you 0.1266964077949524 -0.3290756046772003 0.06716743856668472 -0.10266724228858948 -0.056291915476322174 0.2335287630558014 0.1490018665790558 -0.07356522232294083 0.013841687701642513 0.21614517271518707 -0.02623315155506134 0.02420279197394848 -0.05473620072007179 0.20318704843521118 0.07427643984556198 -0.03301680460572243 -0.10805799067020416 -0.3769962787628174 -0.04955785721540451 -0.20582763850688934 0.24347993731498718 -0.053706247359514236 0.08643732219934464 -0.05407942086458206 0.16771267354488373 -0.0733717530965805 -0.1790539175271988 -0.21597141027450562 -0.19597308337688446 -0.08095081150531769 0.019890081137418747 0.100014828145504 0.31711214780807495 0.14051786065101624 -0.2528974115848541 -0.16356438398361206 -0.28432580828666687 -0.1765746921300888 0.19912511110305786 -0.1807100474834442 0.14710760116577148 -0.010387076996266842 -0.0968875139951706 0.03541247546672821 -0.21511302888393402 -0.2231007069349289 0.19818413257598877 0.030976368114352226 -0.4805401563644409 -0.1921718269586563 0.056977469474077225 -0.29849374294281006 -0.1467074304819107 0.12234542518854141 0.1292196810245514 -0.17895597219467163 0.15404248237609863 -0.1943449079990387 -0.061641812324523926 0.22612608969211578 0.039688024669885635 0.18105366826057434 -0.05309870466589928 -0.13854475319385529 0.0029145991429686546 -0.2753262221813202 0.12390265613794327 -0.10518507659435272 -0.028158660978078842 -0.30088484287261963 0.1728292852640152 0.3512224853038788 0.27150192856788635 0.06150241941213608 -0.04115552827715874 0.03776393085718155 0.009582841768860817 0.100028857588768 0.13808473944664001 0.2003525197505951 0.1329869031906128 -0.3431197702884674 -0.22111429274082184 -0.16459856927394867 -0.06838628649711609 0.28028228878974915 0.13370627164840698 -0.0452527180314064 0.15299493074417114 -0.13618721067905426 -0.2239338755607605 -0.1442209780216217 0.5171758532524109 -0.022283285856246948 -0.025073837488889694 -0.12807951867580414 -0.09832541644573212 -0.2850063741207123 -0.13050399720668793 0.046925876289606094
$ -0.042490340769290924 0.02771872840821743 0.02014123648405075 0.014958750456571579 -0.013983344659209251 0.03474223613739014 0.05273968726396561 -0.024892527610063553 0.020058486610651016 -0.017978524789214134 -0.013815618120133877 0.030298395082354546 -0.01948581449687481 -0.009678114205598831 0.009084147401154041 0.026022793725132942 -0.0029752105474472046 -0.006780229974538088 0.035558514297008514 -0.03323004022240639 -0.014862269163131714 -0.0016156681813299656 0.020116806030273438 -0.01200361829251051 -0.013586225919425488 -0.005464121233671904 -0.0010609319433569908 0.02788403630256653 -0.011190671473741531 0.03746667876839638 0.030400749295949936 0.021111754700541496 0.0032229870557785034 6.561335176229477E-4 -0.018257414922118187 0.032158926129341125 -0.008276467211544514 0.003062962321564555 0.0018709140131250024 0.009363938122987747 0.01773381605744362 -0.022076861932873726 0.012288020923733711 0.006968484725803137 0.009006930515170097 0.017919113859534264 0.029209120199084282 -0.01986299827694893 -0.019655387848615646 -0.005866068881005049 -0.00458212336525321 -0.0037239985540509224 -0.01025730837136507 -0.028787698596715927 -0.0029641424771398306 -0.008040240034461021 0.0037626149132847786 -0.031411062926054 0.0300903357565403 0.0014214136172086 -0.01853783428668976 -0.0025601095985621214 -0.008619002997875214 0.06093998998403549 0.003615813096985221 0.03680642321705818 -0.018671978265047073 0.012417257763445377 -0.003824452171102166 0.034607190638780594 0.012033211067318916 0.035893041640520096 -0.02339971996843815 0.0021380027756094933 0.004900981672108173 -0.018841011449694633 0.005246827844530344 -0.04165390506386757 0.009425842203199863 -0.0037500662729144096 0.018976915627717972 0.004878487437963486 0.025612827390432358 -0.055889781564474106 0.00494366604834795 0.005359110422432423 -0.036196738481521606 0.02941826358437538 0.02028459496796131 -0.047911353409290314 0.05877086892724037 -0.03028213232755661 -0.01202944666147232 -0.007785887457430363 0.004499915987253189 -0.010821309871971607 0.024780429899692535 -0.018270622938871384 -0.02963484637439251 -0.046087801456451416
going -0.11142080277204514 0.12685908377170563 0.5316050052642822 0.21423354744911194 -0.013739482499659061 0.3109913766384125 0.24856102466583252 -0.18592384457588196 0.37488698959350586 -0.2586682140827179 0.19130919873714447 0.09820667654275894 -0.08784093707799911 0.19481369853019714 0.6463797092437744 0.2773602604866028 0.07708490639925003 0.4291342794895172 -0.08583515137434006 0.2501380741596222 -0.20999892055988312 -0.09420377761125565 -0.052391167730093 0.1933022290468216 0.009126458317041397 -0.039343249052762985 -0.0726575031876564 -0.37420418858528137 -0.07027574628591537 0.22495293617248535 0.040998831391334534 0.1097969263792038 0.05166994780302048 -0.1682715266942978 -0.0416032113134861 -0.06075316667556763 0.22391170263290405 0.23009495437145233 -0.10945022106170654 -0.2877406179904938 -0.1925332397222519 -0.10589230060577393 0.1465539038181305 -0.005424222443252802 -0.21618737280368805 0.012594176456332207 -0.06048962101340294 0.08107835799455643 -0.43377307057380676 -0.11280196160078049 -0.5001399517059326 -0.10936316102743149 0.10245832800865173 0.3508843183517456 -0.07221203297376633 0.1049654632806778 0.31210586428642273 -0.08600792288780212 0.05034240335226059 0.15405374765396118 -0.24117811024188995 -0.3408512771129608 0.1256491243839264 0.22996008396148682 -0.06072007864713669 -0.12973906099796295 0.04901764541864395 -0.03766840323805809 0.008183570578694344 -0.18558423221111298 0.17363093793392181 0.1992468535900116 0.4699810743331909 0.3951929211616516 0.21679985523223877 -0.11735694110393524 -0.24786800146102905 -0.018827302381396294 0.39377397298812866 0.5083478093147278 0.14644847810268402 0.020796874538064003 -0.007422280963510275 -0.20077578723430634 -0.2742633819580078 0.2625111937522888 -0.028208721429109573 -0.09683524072170258 -0.12959705293178558 -0.050117798149585724 0.13779880106449127 -0.21854768693447113 -0.08739538490772247 -0.2506604492664337 0.006808437407016754 0.16709624230861664 0.028728904202580452 -0.2042468786239624 -0.23338866233825684 0.1290821135044098
old -0.1346360743045807 0.38641348481178284 -0.06376006454229355 -0.1574563831090927 0.2198934257030487 0.04349000006914139 -0.20559145510196686 0.03134739771485329 0.3587818443775177 -0.020288169384002686 0.19224493205547333 0.20041616261005402 -0.0871342122554779 -0.15213119983673096 0.39957427978515625 0.12652169167995453 0.09843277931213379 -0.17017844319343567 -0.09786907583475113 0.17485696077346802 -0.07155127823352814 -0.15726329386234283 0.233567476272583 0.22351668775081635 0.4319729208946228 -0.02321307547390461 0.17210499942302704 0.03630224987864494 0.15839406847953796 0.2588288187980652 0.10318300127983093 -0.23632606863975525 -0.2578089237213135 -0.21287183463573456 0.1774037480354309 0.03870813548564911 0.15953011810779572 -0.1479811668395996 0.159624844789505 0.2071925550699234 0.2943548858165741 -0.36224859952926636 -0.17321786284446716 -0.05704348906874657 0.20837271213531494 0.10082434862852097 -0.41706162691116333 -0.07328316569328308 -0.3075929582118988 0.06827826797962189 -0.06988048553466797 -0.1697552502155304 -0.20626139640808105 -0.05262875556945801 -0.2736220359802246 -0.3021034598350525 -0.2793715000152588 0.220528706908226 0.16893939673900604 0.06600575894117355 0.27859392762184143 -0.10598848015069962 0.08171791583299637 0.1311013549566269 0.029621001332998276 0.03371291235089302 0.10751896351575851 -0.10160496085882187 0.09173758327960968 0.38122060894966125 -0.00571882538497448 0.22220411896705627 -0.04530049115419388 0.07466652244329453 -0.1851457953453064 -0.06201793625950813 0.18870918452739716 -0.09367122501134872 -0.2062494158744812 0.20606254041194916 0.424640417098999 0.10378536581993103 -0.17005153000354767 0.02574123628437519 0.054490212351083755 -0.06071627885103226 -0.09487254917621613 0.04024381935596466 -0.13333797454833984 -0.1164708063006401 -0.35852962732315063 -0.04283084720373154 -0.14086611568927765 -0.03527078032493591 0.06638213992118835 -0.32972097396850586 0.27509674429893494 0.07428333163261414 -0.12693163752555847 -0.013101667165756226
want 0.20127108693122864 9.039582218974829E-4 0.16486787796020508 -0.10815787315368652 0.1214439645409584 0.3647502064704895 0.44092559814453125 -0.05971365422010422 -0.26205024123191833 -0.1770833432674408 -0.005340473726391792 -0.1196453794836998 -0.12918080389499664 -0.1220012679696083 -0.15857867896556854 -0.11960900574922562 0.04447251185774803 0.17194999754428864 0.15346896648406982 0.03768384829163551 0.1427733302116394 0.13530562818050385 -0.1092190369963646 0.061085280030965805 -0.03914009407162666 0.09663374722003937 0.0491366945207119 -0.34317293763160706 0.24231375753879547 0.19119255244731903 -0.10274385660886765 0.1558891236782074 -0.005599298980087042 0.0019218629458919168 0.1719518005847931 -0.09154259413480759 0.22506779432296753 0.12851914763450623 -0.4278104901313782 -0.04405347257852554 -0.2225801646709442 0.31764161586761475 0.21078930795192719 0.7371206879615784 0.014215043745934963 0.03811066970229149 0.5369124412536621 -0.11340481042861938 -0.3834022581577301 0.05629286542534828 0.14524324238300323 0.04449084401130676 -0.02660001814365387 0.20299209654331207 0.10971430689096451 -0.03147190809249878 0.37578490376472473 0.01645520143210888 -0.026425618678331375 -0.403693825006485 0.13185252249240875 -0.031169069930911064 0.3613060712814331 -0.0658588781952858 -0.0705990418791771 -0.10834552347660065 0.07786544412374496 -0.32857733964920044 0.2518106698989868 0.052227746695280075 0.014202066697180271 0.3594166040420532 -0.05245961248874664 -0.05299072712659836 0.138296976685524 0.14478372037410736 -0.2310202419757843 0.02039642073214054 0.341221421957016 0.028335880488157272 -0.12300556153059006 -0.20055566728115082 -0.043002646416425705 -0.09806026518344879 -0.15276628732681274 0.2292754203081131 -0.34805503487586975 0.12633302807807922 0.0033421674743294716 -0.19179826974868774 0.363835871219635 -0.26007959246635437 -0.4569815993309021 -0.05972591042518616 -0.1614079773426056 -0.005807395093142986 -0.344963401556015 -0.2880129814147949 -0.33430492877960205 0.050165947526693344
night -0.25406450033187866 -0.40387389063835144 -0.10743667930364609 -0.017765512689948082 -0.08662646263837814 0.17837512493133545 -0.11308549344539642 -0.14302626252174377 0.27732959389686584 0.20894931256771088 0.33791249990463257 0.029514925554394722 -0.23015917837619781 -0.22303292155265808 0.05055694654583931 -0.23451271653175354 0.12860417366027832 0.046960800886154175 0.1261170655488968 -0.4149763584136963 -0.18332411348819733 0.026866385713219643 -0.06427692621946335 0.023982331156730652 0.2532159984111786 0.1935206800699234 0.18581300973892212 0.25059419870376587 0.3044451177120209 -0.30912357568740845 -0.05172796547412872 0.27672749757766724 -0.5878351926803589 -0.5334535241127014 -0.17920391261577606 -0.0655764564871788 0.15668092668056488 0.03455567732453346 -0.010079514235258102 0.1135682687163353 0.06323785334825516 0.14996424317359924 -0.21073460578918457 -0.10529237985610962 0.12950266897678375 0.30941733717918396 0.01519709825515747 0.13823872804641724 -0.1298130601644516 0.30454856157302856 -0.08006901293992996 -0.34792882204055786 0.09254394471645355 -0.035885121673345566 0.29672250151634216 0.1560293585062027 -0.07650746405124664 0.10365375131368637 0.32696691155433655 0.04904956743121147 -0.25566697120666504 -0.09662909805774689 -0.23597805202007294 0.22064149379730225 0.1040378287434578 0.20259666442871094 0.20751014351844788 0.17457999289035797 0.19251026213169098 -0.3060443103313446 -0.0903245136141777 0.17857123911380768 -0.17031699419021606 -0.06325817853212357 0.1523481160402298 0.06210518628358841 -0.26875606179237366 -0.03342097997665405 0.10068861395120621 0.032826799899339676 -0.053783174604177475 0.3406883776187897 0.1600877195596695 -0.09818722307682037 0.10558201372623444 -0.19017839431762695 -0.09292568266391754 0.0502721406519413 0.18301734328269958 -0.08346596360206604 0.17850501835346222 0.3660171329975128 -0.2995283901691437 -0.08207958936691284 0.0026249210350215435 0.4744430482387543 0.4181939661502838 -0.06274551153182983 0.39658358693122864 -0.1717786341905594
them -0.48138272762298584 0.11536064743995667 0.22407887876033783 -0.27950114011764526 -0.4123678207397461 -0.011355810798704624 0.4522465765476227 -0.1596752256155014 0.031376827508211136 -0.3563369810581207 6.271228194236755E-4 -0.08313267678022385 -0.13905271887779236 0.12798087298870087 0.19383107125759125 0.1166960820555687 0.10440720617771149 -0.23941570520401 0.2997262477874756 0.1764770746231079 0.03484407812356949 0.23695693910121918 0.06871502846479416 0.15338879823684692 0.11173557490110397 -0.02474016696214676 -0.0026035034097731113 0.08676555007696152 0.02425622195005417 -0.08781218528747559 0.031206293031573296 0.08274279534816742 0.12076213955879211 -0.05015798658132553 -0.055228590965270996 0.1504867821931839 0.006033115088939667 -0.14406651258468628 0.11732841283082962 0.12257964164018631 0.07144178450107574 -0.15723761916160583 0.12865737080574036 0.053080931305885315 -0.16936081647872925 -0.13619399070739746 0.18073917925357819 -0.26812463998794556 -0.1092437207698822 0.20323988795280457 0.36420440673828125 -0.08810891956090927 0.1268387734889984 -0.18727318942546844 -0.12337181717157364 0.20430800318717957 -0.12264888733625412 -0.26445192098617554 0.2128453403711319 0.13190855085849762 -0.08300680667161942 0.16859941184520721 -0.17338153719902039 0.2677423655986786 0.04227360337972641 -0.19326099753379822 0.14314986765384674 0.038402315229177475 -0.2430342733860016 0.21381446719169617 -0.08216460049152374 0.10199180990457535 -0.29919716715812683 0.15891878306865692 0.09220181405544281 -0.07800336182117462 -0.07990065962076187 -0.1479247361421585 0.3549536168575287 -0.42708829045295715 -0.02486991137266159 -0.12429585307836533 0.03521174564957619 -0.04323504492640495 -0.024992238730192184 0.10991345345973969 -0.32274240255355835 0.017383331432938576 -0.11734748631715775 -0.28391033411026 0.2158510833978653 0.12354252487421036 0.20917224884033203 0.22847296297550201 0.004361751955002546 0.012373043224215508 0.14184363186359406 -0.4491298198699951 -0.12301218509674072 -0.03325802832841873
then 0.11752984672784805 -0.257232666015625 0.1622881144285202 -0.021858079358935356 0.18993410468101501 0.1352316439151764 0.13968360424041748 0.07543999701738358 0.09166405349969864 -0.11573106050491333 0.00645488454028964 -0.2598339319229126 -0.03188115358352661 -0.04460417851805687 -0.176894873380661 -0.2888536751270294 -0.2629219591617584 -0.031730253249406815 -0.032187219709157944 0.08255353569984436 -0.12066785246133804 0.22576843202114105 -0.3838486969470978 -0.004063032567501068 -0.11410126090049744 0.1685849130153656 0.040304962545633316 -0.031423140317201614 0.062033094465732574 0.07025937736034393 0.07866595685482025 0.11379402130842209 0.19688406586647034 -0.31787312030792236 -0.0011236369609832764 -0.040234729647636414 0.15317471325397491 0.337297260761261 -0.08600068092346191 -0.22851161658763885 0.20671549439430237 0.04860445857048035 -0.047156255692243576 -0.31874486804008484 -0.1844998300075531 0.1735289841890335 -0.1413908749818802 0.15930943191051483 0.11993326991796494 0.021029487252235413 -0.002413529437035322 -0.01977742649614811 -0.20180968940258026 0.07728913426399231 0.1300400346517563 0.0694495141506195 -0.16442784667015076 0.13222317397594452 0.04313298314809799 0.18960027396678925 -0.2363586574792862 -0.05019008368253708 0.16039104759693146 0.07867702841758728 -0.15421023964881897 0.05908586457371712 0.20378759503364563 0.0772942379117012 -0.11209167540073395 0.13820944726467133 0.15862977504730225 0.12981794774532318 -0.14501790702342987 0.23121652007102966 0.3627013862133026 -0.11639277637004852 -0.10506153106689453 -0.15218189358711243 0.1308014988899231 -0.1229429543018341 0.003094431711360812 0.2700592279434204 0.10816746205091476 -0.17195351421833038 0.0683240294456482 0.2983383536338806 -0.11635725200176239 0.17400316894054413 -0.03926761820912361 0.09382747113704681 -0.04697810485959053 0.04870807006955147 0.0034664799459278584 0.38488832116127014 -0.21837103366851807 -0.21786928176879883 -0.0262089055031538 -0.07659337669610977 0.1399192065000534 0.1244555339217186
court 0.016043659299612045 0.05035815387964249 0.18229375779628754 0.1959853619337082 0.2851804196834564 0.08097511529922485 0.2129729986190796 -0.2180892825126648 0.12401533126831055 0.018244972452521324 0.17221468687057495 -0.10786305367946625 -0.1531975418329239 -0.07041788846254349 0.22088031470775604 0.06504399329423904 0.15018348395824432 -0.15398786962032318 0.002782197203487158 -0.03162212297320366 -0.10305434465408325 0.05593207851052284 0.02593790367245674 -0.2379130721092224 -0.018341870978474617 0.19570223987102509 -0.034938011318445206 0.019306670874357224 0.09193923324346542 0.03307078033685684 -0.3233642876148224 -0.03492185100913048 -0.06817696243524551 -0.16476121544837952 -0.10801444947719574 0.033495496958494186 0.08839372545480728 0.09186521917581558 -0.1384463757276535 0.06155097112059593 0.09268202632665634 -0.14124782383441925 0.0782783254981041 0.16183830797672272 0.07427988201379776 0.05168787017464638 -0.12979841232299805 0.25401678681373596 -0.043612170964479446 0.018391378223896027 -0.0296749547123909 -0.0019653141498565674 0.051728226244449615 0.04496493563055992 0.14114627242088318 -0.17334148287773132 0.0699477270245552 -0.1108257845044136 0.24624726176261902 0.20061719417572021 0.024453479796648026 -0.04537360370159149 -0.08983298391103745 0.15494833886623383 0.19360075891017914 -0.020635290071368217 -0.15171818435192108 0.21035879850387573 0.07617507874965668 -0.2451028823852539 0.10608764737844467 -0.02144956961274147 0.11369208991527557 0.022448448464274406 -0.1014847382903099 -0.09690537303686142 -0.2268138825893402 -0.2098354995250702 -0.03960345312952995 0.050773736089468 -0.10369021445512772 0.028645940124988556 0.08724811673164368 -0.09425632655620575 0.15500067174434662 -0.09519979357719421 -0.025697622448205948 -0.10616540908813477 0.33107319474220276 -0.12905563414096832 -0.03449222445487976 -0.10941160470247269 -0.21280302107334137 -0.13663727045059204 -0.051672182977199554 -0.22185128927230835 0.2629428207874298 0.20152810215950012 -0.018883848562836647 -0.04417089745402336
an -0.04432801902294159 0.3203570246696472 0.16789397597312927 0.15691989660263062 0.09066449850797653 0.18528297543525696 0.06783953309059143 0.07732338458299637 0.08190209418535233 0.09022209048271179 0.2911229133605957 0.29827019572257996 -0.19977012276649475 0.026963263750076294 0.21320463716983795 -0.06374239921569824 0.1231963187456131 -0.14574608206748962 -0.16773004829883575 0.09497790783643723 -0.15604789555072784 -0.14735835790634155 -0.289061576128006 -0.007449470926076174 -0.032679714262485504 0.040364451706409454 -0.0775972306728363 0.10101522505283356 0.20340485870838165 -0.12359701097011566 0.1709355115890503 0.06394808739423752 -0.12451087683439255 -0.32091107964515686 0.4660101532936096 0.13330046832561493 0.02044723555445671 0.0822870060801506 -0.07229025661945343 0.1586693525314331 -0.04824158176779747 0.08074167370796204 -0.006801411043852568 -0.04267449676990509 0.1341310441493988 -0.11980440467596054 0.05182880535721779 -0.05863563343882561 -0.08922521770000458 -0.06063608452677727 -0.14535410702228546 -0.25811007618904114 -0.2259470820426941 -0.03278481215238571 -0.17120105028152466 0.1749165654182434 -0.07685250788927078 0.12337414920330048 0.1898660510778427 0.12040036171674728 -0.17180876433849335 0.08860307186841965 0.14244571328163147 -0.07459111511707306 0.01784425415098667 -0.03326866775751114 0.14665086567401886 -0.20755162835121155 -0.058817971497774124 -0.09559328109025955 0.10799624025821686 0.13322296738624573 -0.011156375519931316 -0.17439869046211243 -0.027282295748591423 0.15504272282123566 -0.2632937729358673 -0.3048958480358124 -0.013036669231951237 0.06866548955440521 0.16272877156734467 0.012301311828196049 -0.03706485405564308 -0.2564816474914551 0.2434675693511963 -0.18123385310173035 0.13103918731212616 -0.17104901373386383 0.04488178342580795 -0.2680315375328064 0.11033760756254196 -0.2597188651561737 -0.1823095828294754 0.2405097335577011 -0.12071200460195541 0.00797321368008852 0.2546725869178772 -0.0627942904829979 -0.031631022691726685 -0.17668448388576508
- -0.008808341808617115 0.016552869230508804 0.07104559987783432 -0.017250588163733482 -0.10740716755390167 0.01631905511021614 -0.03502930328249931 -0.0654400885105133 0.11059210449457169 -0.023467734456062317 0.0255424864590168 0.10681047290563583 -0.05939774587750435 -0.08162053674459457 0.09116192162036896 -0.050967469811439514 -0.02992299757897854 -0.05909930169582367 0.02968033216893673 -1.76203902810812E-4 -0.019616741687059402 -0.02792252227663994 -0.09781184792518616 0.014337904751300812 0.055727116763591766 -0.04592018947005272 0.06385190784931183 0.05396231636404991 -0.030805127695202827 -0.11031794548034668 0.049768928438425064 -0.05915188789367676 0.01726652681827545 -0.07057654112577438 0.031044283881783485 0.1323183923959732 0.05726791173219681 0.08788513392210007 0.018468443304300308 0.005553495604544878 0.13932031393051147 -0.08408409357070923 0.015808429569005966 -0.02299037203192711 0.05210324376821518 0.01901203580200672 -0.052195869386196136 -0.026466278359293938 0.07323983311653137 -0.05085264518857002 0.11269466578960419 -0.1484612226486206 -0.021942835301160812 0.008854515850543976 -0.004529537633061409 0.10269743949174881 -0.1306607574224472 0.07288879156112671 0.10514111816883087 -0.018642090260982513 -5.60792803298682E-4 -0.041545115411281586 -0.030059998854994774 -0.06313452869653702 -0.09338606894016266 0.03324281796813011 0.09485626220703125 -0.06223130226135254 -0.09568849951028824 -0.03667047992348671 0.04218481108546257 -0.04149483144283295 -0.05085286125540733 -0.013258427381515503 0.08706396073102951 -0.03448920324444771 0.008224369026720524 -0.08202461898326874 -0.004642820451408625 -0.042860209941864014 -0.1885889768600464 0.09899962693452835 0.019010622054338455 0.0049796197563409805 0.0034533217549324036 -0.006674559321254492 -0.08213229477405548 0.026673970744013786 -0.08594813942909241 -0.04820302128791809 -0.005109680816531181 0.010468595661222935 -0.04560818150639534 0.17642691731452942 0.018904410302639008 0.0279012992978096 0.06888824701309204 0.13140586018562317 0.04112799093127251 -0.03559020161628723
each 0.15542380511760712 0.21845346689224243 0.044263020157814026 -0.04586735740303993 -0.5864396095275879 0.27391380071640015 0.17486292123794556 -0.297502726316452 0.20230014622211456 -0.05280051752924919 -0.19915375113487244 -0.048992227762937546 0.013092072680592537 0.25841808319091797 0.13745255768299103 -0.29848670959472656 0.29353901743888855 -0.2624751627445221 0.3002229630947113 -0.18364933133125305 0.07163820415735245 -0.012323221191763878 -0.08054038882255554 -0.11648888140916824 -0.1865619719028473 0.2285037785768509 -0.11782728135585785 0.5885616540908813 0.05537712946534157 0.177959606051445 -0.17745822668075562 0.2573951482772827 -0.07872706651687622 -0.17641258239746094 0.411380410194397 0.08116238564252853 0.08385055512189865 -0.025723284110426903 0.1089281514286995 0.31423094868659973 -0.1040114164352417 -0.33109405636787415 0.11283932626247406 -0.08049937337636948 -0.06191856786608696 -0.08152978867292404 0.2520444393157959 -0.29122844338417053 0.12573948502540588 0.09517934918403625 0.07894285768270493 -0.4210534691810608 -0.013942049816250801 -0.2496565282344818 -0.022185537964105606 0.137168288230896 0.046626776456832886 -0.10336099565029144 0.362827867269516 -0.08597303926944733 0.05875394493341446 -0.09666122496128082 -0.39286008477211 -0.047302763909101486 0.16989965736865997 -0.2579725980758667 0.032897066324949265 0.4244995713233948 0.015740755945444107 0.14393658936023712 0.1700395941734314 0.5362647771835327 -0.08540607988834381 -0.02216307260096073 0.18867117166519165 -0.23110079765319824 0.008478636853396893 -0.1032259613275528 0.277349054813385 -0.10883786529302597 -0.22447320818901062 -0.15762563049793243 0.2882084548473358 -0.467736154794693 0.3416106402873993 -0.03986658155918121 -0.6089946031570435 0.418169230222702 0.030508456751704216 -0.20865322649478912 0.3850623369216919 0.16571037471294403 -0.0030818809755146503 -0.21618804335594177 0.10528936982154846 0.35992833971977234 0.15471835434436798 -0.1744450479745865 -0.33258265256881714 -0.2878601551055908
former 0.006272203288972378 0.05873613432049751 -0.012808962725102901 0.002171826781705022 0.043966811150312424 0.001122608664445579 0.00902132410556078 0.012535059824585915 0.047239750623703 -0.013869298622012138 0.01567746140062809 0.05601122975349426 -0.03914511948823929 -0.03390605002641678 0.029180455952882767 -0.007238532416522503 0.00984510313719511 -0.02812911383807659 -0.0042054918594658375 0.0030888915061950684 0.003868626896291971 0.00978230033069849 0.013041919097304344 0.01630227267742157 0.03475291654467583 0.011416846886277199 -2.067068126052618E-4 0.049939125776290894 0.08340822905302048 -0.03823823109269142 0.0012740748934447765 -0.0020362481009215117 -0.028692197054624557 -0.040362559258937836 0.12097465991973877 -0.00265107280574739 0.04145623743534088 0.001774363685399294 0.04206675663590431 0.06445310264825821 0.02910270169377327 0.006874085403978825 0.011501423083245754 -0.005593202076852322 0.027913205325603485 -0.02562403306365013 -0.056761231273412704 -0.02564886026084423 0.03684987500309944 0.008860347792506218 0.10704872012138367 -0.060345541685819626 0.0091486107558012 -0.027758317068219185 0.04572698101401329 -0.08832433074712753 -0.019124314188957214 0.007830167189240456 0.05741272494196892 0.018009740859270096 0.04351610690355301 -0.009053383022546768 -0.05688626691699028 -0.010423026978969574 0.046090733259916306 0.012653530575335026 -0.019203513860702515 0.06268554925918579 -0.013470557518303394 0.016080893576145172 -0.012457489967346191 -0.09997908771038055 -0.04177900031208992 -0.05143871158361435 -0.04297081381082535 -0.024858448654413223 -0.040317460894584656 -0.010153834708034992 -0.07622212171554565 0.0368475578725338 -0.08601754903793335 0.0927395299077034 0.027942856773734093 0.024392113089561462 -0.002691942732781172 -0.07670751214027405 0.033384643495082855 -0.046199847012758255 0.05934523046016693 0.037824954837560654 -0.060223937034606934 -0.07324202358722687 0.0035123934503644705 6.101129110902548E-4 -0.028723541647195816 -0.06736622005701065 0.0634077861905098 0.07244782149791718 0.05714920535683632 0.006750325672328472
as -0.2540951669216156 0.12363917380571365 -0.2947615385055542 0.05722424387931824 0.017438292503356934 0.12357991933822632 0.21592263877391815 -0.2063000649213791 -0.2898399829864502 -0.04320881515741348 0.3050025701522827 0.20738132297992706 -0.28417354822158813 -0.5284976363182068 -0.2110302448272705 -0.05330083891749382 -0.2897624671459198 -0.18447794020175934 -0.07211843132972717 0.1893436461687088 0.09103862941265106 -0.01059046108275652 0.2775370478630066 0.3916904032230377 0.03900748863816261 -0.28401967883110046 0.26510077714920044 0.21901249885559082 -0.2905791699886322 0.09481707960367203 0.020851848646998405 -0.17037545144557953 0.050332438200712204 0.051283977925777435 -0.13364604115486145 -0.1273309588432312 -0.15283052623271942 -0.3920421004295349 0.3929115831851959 -0.22935405373573303 -0.3309904634952545 0.14824625849723816 -0.10234430432319641 -0.20902694761753082 0.015889033675193787 -0.201908677816391 0.19357025623321533 -0.1874745786190033 -0.26185497641563416 0.14643818140029907 -0.21293382346630096 -0.13204769790172577 -0.16194166243076324 -0.05862884595990181 0.21593251824378967 0.35107365250587463 -0.09356681257486343 0.31086111068725586 0.2781810462474823 0.2134944200515747 0.14333677291870117 0.18399333953857422 0.03558966517448425 0.30133330821990967 0.2781349718570709 -0.07631130516529083 -0.13552267849445343 -0.0346808098256588 -0.12068532407283783 -0.30506762862205505 0.0031092967838048935 0.15111598372459412 -0.25414133071899414 -0.37465667724609375 0.03129198029637337 -0.021850254386663437 -0.3963559865951538 0.11207853257656097 0.18023447692394257 0.30609050393104553 -0.2798416018486023 -0.40351295471191406 0.20242013037204742 0.017334090545773506 -0.14696446061134338 0.09145443886518478 0.12856271862983704 0.09889525175094604 -0.501214325428009 -0.08797571808099747 -0.01460970751941204 0.3164360821247101 -0.0018062604358419776 -0.0663757398724556 0.11258064955472946 0.4190167188644409 0.0549519881606102 -0.11763185262680054 -0.3243758976459503 -0.2764010429382324
at -0.13469475507736206 0.1161898672580719 -0.24331331253051758 -0.046988267451524734 0.04713895544409752 0.3817470073699951 0.12699627876281738 -0.1234421581029892 0.38135260343551636 -0.19578182697296143 0.20510341227054596 -0.2413465529680252 0.23718789219856262 -0.030199460685253143 0.5657182931900024 0.2206781953573227 0.0787230059504509 0.2940666079521179 -0.07060719281435013 0.10615113377571106 -0.0753975510597229 -0.14236177504062653 -0.15322566032409668 -0.20297253131866455 -0.04743104428052902 0.05490824580192566 0.06567728519439697 0.16219082474708557 0.3127233684062958 -0.24630776047706604 -0.011987883597612381 0.16083307564258575 -0.059479743242263794 -0.22969360649585724 0.1509467363357544 -0.0454108826816082 0.22269627451896667 -0.2583921551704407 0.07154439389705658 -0.13417541980743408 0.579645037651062 -0.04998426511883736 -0.21498307585716248 0.0499456562101841 -0.049299970269203186 -0.10862953960895538 -0.13739582896232605 -0.13212484121322632 -0.05072735995054245 0.36428263783454895 0.278964638710022 0.10357343405485153 0.0558268241584301 -0.10667144507169724 0.33799228072166443 0.36180832982063293 -0.06018492206931114 -0.07739786803722382 0.10104731470346451 0.26936104893684387 0.04885708913207054 0.012535607442259789 0.19179755449295044 0.2143016904592514 0.35850629210472107 0.01040000468492508 0.23758026957511902 0.00430564908310771 0.048478301614522934 -0.08065062016248703 -0.10668139904737473 -0.22418086230754852 -0.07521888613700867 -0.17844054102897644 -0.31860774755477905 -0.4020293951034546 -0.20470285415649414 0.05269854515790939 -0.1311999410390854 -0.32691437005996704 -0.3375954031944275 -0.01347045972943306 0.011484816670417786 0.08182824403047562 0.5933993458747864 -0.19356361031532288 0.013003066182136536 0.19349844753742218 -0.37202516198158264 0.06879240274429321 -0.020196780562400818 0.04077019542455673 -0.23697805404663086 -0.1849822849035263 0.12564454972743988 0.23926840722560883 -0.030104199424386024 -0.027758289128541946 -0.04467277228832245 0.1832749992609024
left -0.1453946977853775 0.21160757541656494 0.37675943970680237 0.0776127502322197 0.1296692192554474 -0.24252571165561676 0.030002566054463387 -0.14913958311080933 -0.0032248154748231173 -0.16705916821956635 0.24829724431037903 -0.15863734483718872 -0.012024495750665665 -0.24720844626426697 0.24990646541118622 0.20686908066272736 0.327237606048584 0.011124233715236187 -0.025572361424565315 -0.09643297642469406 -0.08083939552307129 3.144670045003295E-4 0.10823682695627213 -0.04963315278291702 0.1296318620443344 -0.0790216252207756 0.07684928178787231 0.2376316785812378 -0.09779352694749832 0.11979149281978607 0.356936514377594 -0.09434324502944946 0.10177132487297058 -0.13404522836208344 -0.10390092432498932 0.16336077451705933 0.11674057692289352 0.2608693838119507 0.12583661079406738 0.10027770698070526 0.2870418131351471 -0.3916798532009125 0.12834572792053223 -0.07472358644008636 -0.18837839365005493 -0.03534127026796341 -0.09293811023235321 -0.05630951374769211 0.1286071538925171 0.2573269307613373 0.25827571749687195 -0.1294986754655838 -0.12438295036554337 0.06758582592010498 0.07413049787282944 -0.07246829569339752 -0.30020400881767273 0.16278645396232605 -0.1321723908185959 0.2851126194000244 -0.0036479076370596886 -0.26982223987579346 0.14551131427288055 0.09439319372177124 -4.2272789869457483E-4 0.2660158574581146 0.25902754068374634 0.2813817858695984 0.07260921597480774 0.020790820941329002 -0.018259137868881226 -0.04946392402052879 0.09951742738485336 -0.08602132648229599 0.0232028029859066 -0.09222415834665298 0.19951407611370087 0.02498673088848591 0.004023032728582621 0.04588233307003975 0.01528768241405487 0.0907093957066536 0.1424165517091751 -0.13743644952774048 0.13546815514564514 -0.3568774163722992 -0.16783353686332703 -0.21309107542037964 -0.012856480665504932 0.04487607628107071 -0.2138117253780365 -0.08197799324989319 0.0792340636253357 0.38503342866897583 0.16281010210514069 -0.1096268892288208 0.0559384785592556 0.1028793603181839 0.11070431768894196 0.007821266539394855
much -0.19135093688964844 -0.061326444149017334 0.436789333820343 -0.39090240001678467 -0.3415495753288269 0.11895063519477844 -0.1744130700826645 0.08132275938987732 -0.032065387815237045 0.2861480414867401 -0.012840287759900093 -0.32185453176498413 -0.009588672779500484 0.15202093124389648 -0.21629077196121216 0.34982144832611084 0.37012165784835815 -0.6552034616470337 0.04390417039394379 -0.05692135915160179 -0.05266749486327171 -0.11059493571519852 -0.15589024126529694 -0.14170408248901367 -0.009288197383284569 -0.11013344675302505 0.4537516236305237 -0.39483124017715454 -0.155635267496109 0.17470240592956543 -0.023196110501885414 -0.47530239820480347 -0.020623616874217987 -0.05321970954537392 -0.1859358251094818 0.24376772344112396 -0.5392071008682251 -0.09369953721761703 -0.020848410204052925 0.16221825778484344 -0.20475196838378906 -0.5658251643180847 -0.03642543405294418 0.032587144523859024 0.06700317561626434 -0.03627848997712135 0.03827681019902229 -0.16169987618923187 0.16331030428409576 0.13951857388019562 -0.06718625128269196 -0.043910324573516846 -0.09070447087287903 0.16955995559692383 -0.41787993907928467 -0.18924680352210999 -0.14829985797405243 -0.22025105357170105 -0.2362261265516281 -0.5489320158958435 -0.02795771323144436 -0.03692043200135231 0.07912764698266983 -0.09530936926603317 -0.29868045449256897 -0.1458909660577774 0.2901563346385956 -0.21183811128139496 0.27917787432670593 -0.07427521795034409 -0.30295637249946594 0.11189734935760498 -0.013607765547931194 -0.018637681379914284 -0.46066582202911377 0.28465691208839417 0.16353103518486023 -0.03382176533341408 -0.17570357024669647 -0.3562470078468323 0.6163639426231384 0.25423702597618103 0.011688753962516785 -0.2148313671350479 0.23648270964622498 0.2887331545352936 -0.050368256866931915 0.21424099802970886 -0.26907071471214294 -0.3660534620285034 -0.1828688085079193 0.18168845772743225 -0.16398322582244873 0.09178329259157181 0.34590664505958557 0.10580122470855713 0.2067929059267044 -0.03649524226784706 -0.44486117362976074 0.013384479098021984
be -0.22993303835391998 -0.18810582160949707 -0.008688473142683506 0.09138937294483185 0.11607377976179123 -0.29444363713264465 0.10997267812490463 -0.3151214122772217 -0.2572115957736969 0.3362230062484741 0.09883522242307663 -0.0954502522945404 -0.07547613978385925 0.25548699498176575 0.12599995732307434 0.003742176340892911 0.6180444955825806 0.1663641631603241 -0.392835408449173 0.06169142201542854 -0.005171956028789282 -0.33252108097076416 -0.0554732009768486 -0.005219390150159597 -0.15374217927455902 -0.6183322668075562 -0.15820251405239105 0.16563548147678375 0.03858175128698349 -0.15973149240016937 -0.1843082308769226 -0.29059621691703796 0.09896549582481384 -0.22636644542217255 0.10282249003648758 0.19339491426944733 -0.2561585307121277 0.19645898044109344 0.18339669704437256 -0.027162175625562668 -0.24302451312541962 0.34356948733329773 0.10844362527132034 -0.062117863446474075 -0.22115108370780945 0.07095281034708023 -0.05692916736006737 -0.005266411695629358 -0.1546386033296585 -0.09653527289628983 0.11318309605121613 0.23661154508590698 0.004864035174250603 -0.21204602718353271 -0.03707585856318474 0.22717750072479248 -0.19124390184879303 -0.16783317923545837 0.12109792232513428 0.11090046167373657 0.08135496079921722 0.3534906804561615 0.2971660792827606 0.11261766403913498 0.18282271921634674 0.041450127959251404 -0.16602611541748047 0.23277412354946136 0.212326779961586 -0.22423473000526428 0.19765782356262207 0.05258698761463165 0.03400309011340141 -0.005610212683677673 -0.14175155758857727 0.07815665006637573 -0.00635851826518774 -0.3111741542816162 -0.13616366684436798 -0.16390861570835114 -0.04402700066566467 -0.3278619050979614 -0.0028813525568693876 0.11324555426836014 0.3565693199634552 0.1595296561717987 0.3257019519805908 -0.11926412582397461 0.06629329174757004 -0.23392027616500854 -0.1327596753835678 0.055358096957206726 0.08638782054185867 0.05238894373178482 -0.17571121454238892 -0.1505235880613327 -0.15045686066150665 0.09431426972150803 -0.10854528099298477 -0.1389104425907135
another 0.10028056800365448 -0.020428074523806572 -0.016466256231069565 0.18369320034980774 0.31013762950897217 -0.3669682741165161 0.09406517446041107 0.14796888828277588 0.08468786627054214 -0.3724811375141144 -0.18267826735973358 -0.03514637053012848 -0.04280882701277733 -0.09191838651895523 0.44983184337615967 -0.27750617265701294 -0.10745546221733093 -0.13141891360282898 0.09112390875816345 -0.41446423530578613 -0.44918036460876465 -0.09616607427597046 -0.1018867939710617 -0.016225693747401237 -0.0011279068421572447 -0.17793534696102142 -0.09557759761810303 0.11388145387172699 -0.11721114814281464 -0.2906174063682556 0.15333448350429535 0.1480753868818283 -0.139118030667305 -0.0919206514954567 0.019153006374835968 0.27252987027168274 -0.22283659875392914 0.3070811927318573 0.022886382415890694 0.41536444425582886 -0.0579962357878685 0.20279942452907562 0.0391579270362854 -0.19469931721687317 0.15216214954853058 -0.323133647441864 -0.13698509335517883 -0.023782039061188698 -0.0964704379439354 0.02322927862405777 -0.13958166539669037 -0.3572436571121216 -0.30333518981933594 -5.629808874800801E-4 -0.06813462823629379 0.12220598012208939 0.17771771550178528 -0.061764176934957504 0.3564857244491577 -0.08082909882068634 -0.20994077622890472 0.06374507397413254 -0.024920012801885605 -0.0289301835000515 -8.026536088436842E-4 -0.1662854552268982 0.04819249361753464 0.030233634635806084 0.21032793819904327 0.04740781709551811 -0.0222170352935791 0.07788246124982834 -0.03480278700590134 0.01533246785402298 -0.26352933049201965 0.3044910132884979 -0.038833137601614 -0.12458048015832901 0.08819204568862915 0.06455797702074051 -0.05849701911211014 -0.4488619267940521 0.14827550947666168 -0.03935232758522034 0.2278887927532196 0.05911615863442421 0.030053410679101944 0.33514338731765747 -0.03772623836994171 -0.006198885850608349 -0.029144542291760445 -0.03816346451640129 0.01894722320139408 0.26806849241256714 -0.17577213048934937 -0.19687333703041077 0.20077426731586456 -0.13371507823467255 0.4462090730667114 6.790715269744396E-5
two -0.17347672581672668 0.08960641920566559 0.37111446261405945 0.21339327096939087 -0.27697136998176575 0.25004836916923523 -0.14095567166805267 -0.2804466485977173 0.14037401974201202 -0.43316850066185 3.5490537993609905E-4 0.30555829405784607 0.06055789813399315 -0.6918736100196838 0.27740249037742615 -0.17267684638500214 0.03103446029126644 -0.1759645789861679 0.1617984026670456 -0.44048237800598145 -0.33222463726997375 -0.027081452310085297 0.12041235715150833 0.04712314531207085 0.051455724984407425 -0.14099489152431488 0.07959716767072678 0.431458055973053 -0.27818626165390015 -0.33974629640579224 0.022074488922953606 -0.03450711444020271 -0.014159764163196087 -0.13993258774280548 -0.3385101556777954 0.3195345103740692 0.3008298873901367 0.3907080292701721 0.2865653932094574 -0.02927730791270733 0.5003095865249634 -0.22695018351078033 -0.11920833587646484 0.06005680933594704 -0.23758216202259064 0.008777241222560406 -0.4366287291049957 -0.04043581336736679 0.32420480251312256 0.1772381067276001 0.1691453456878662 -0.6258556842803955 -0.3256966769695282 -0.4113497734069824 0.2492973357439041 0.05250822752714157 -0.3740101158618927 -0.19854232668876648 0.2839089334011078 -0.05390166491270065 0.23017075657844543 -0.16742423176765442 -0.26259753108024597 -0.021543733775615692 -0.055310651659965515 0.19147640466690063 0.158246710896492 0.4801585078239441 0.030109120532870293 0.004364216234534979 -0.11051440238952637 0.04182080179452896 0.02499295584857464 -0.01034918986260891 0.19273532927036285 -0.3585275113582611 0.018804626539349556 -0.0935322642326355 0.33950114250183105 0.12968385219573975 0.1816028207540512 -0.15014837682247162 -0.07244785130023956 0.1685887724161148 0.41094157099723816 -0.12408773601055145 -0.46298325061798096 -0.012774879112839699 -0.061532121151685715 0.017115361988544464 -0.19202622771263123 0.13517192006111145 0.1995581090450287 0.40260785818099976 0.04684627428650856 -0.13968656957149506 -0.00846870243549347 0.2454635500907898 0.12443628907203674 -0.4331008791923523
long -0.2886035144329071 -0.1316380351781845 0.19197577238082886 0.20756912231445312 -0.10725803673267365 -0.0731901228427887 -0.6387662887573242 0.4460735619068146 -0.056245267391204834 0.2908017337322235 -0.04419999197125435 0.30589962005615234 0.13392435014247894 -0.28263548016548157 0.695187509059906 -0.06415317207574844 0.14310288429260254 -0.1294378787279129 -0.39715301990509033 -0.20280462503433228 -0.4718478322029114 -0.28537285327911377 0.07921773940324783 -0.0025537260808050632 -0.02726353518664837 -0.255889892578125 0.22582364082336426 -0.27281081676483154 -0.05591999366879463 -0.21697036921977997 -0.17796027660369873 -0.30124035477638245 -0.10783496499061584 -0.3359076678752899 -0.0063112350180745125 0.56339430809021 -0.03154677152633667 -0.012732886709272861 0.36107540130615234 0.28266382217407227 -0.19304430484771729 -0.3224688172340393 -0.20225638151168823 0.08159887045621872 -0.002543231938034296 0.1902579963207245 -0.34058117866516113 -0.14648981392383575 -0.1091858297586441 -0.08371195197105408 -0.1354718953371048 0.29506951570510864 0.006906335242092609 0.14748170971870422 -0.5352050065994263 0.30446362495422363 -0.051798418164253235 0.06906347721815109 0.11362867802381516 -0.017568500712513924 -0.19631728529930115 0.07064185291528702 0.6028950214385986 0.048711806535720825 -0.16915445029735565 -0.11192169785499573 -0.35379108786582947 -0.17507092654705048 0.3452971577644348 -0.2781286835670471 0.05226045846939087 0.26063695549964905 0.3938382565975189 0.04971051216125488 -0.07757623493671417 0.18784555792808533 -0.26209935545921326 0.2237345278263092 -0.13165485858917236 -0.2363305240869522 0.8449417352676392 -0.22912044823169708 -0.503314733505249 -0.20829962193965912 0.4599253535270691 -0.09559257328510284 0.12444451451301575 -0.09052461385726929 -0.025857385247945786 0.034371208399534225 0.4039941430091858 0.6692714691162109 -0.24333049356937408 -0.15454000234603882 0.08322058618068695 0.25228163599967957 0.8013642430305481 0.17883263528347015 0.1662771999835968 0.17580725252628326
how 0.28790831565856934 -0.09415005147457123 -0.43921613693237305 -0.012001797556877136 0.040958087891340256 0.24785250425338745 -0.09677465260028839 -0.22120915353298187 -0.2181994915008545 -0.12120770663022995 0.040565554052591324 0.09732116013765335 0.11686588823795319 -0.14906391501426697 -0.3379381597042084 -0.36047956347465515 -0.1752167046070099 -0.4604342579841614 0.3560436964035034 0.2752114534378052 0.3321608901023865 -0.09311091154813766 0.21016836166381836 0.21543698012828827 -0.4526175260543823 -0.14691807329654694 0.3182314932346344 -0.13319896161556244 -0.017951907590031624 -0.05682627111673355 0.2781241238117218 -0.10719333589076996 0.06919487565755844 -0.0960850939154625 0.2922165095806122 0.12559105455875397 -0.04275241494178772 -0.053786665201187134 -0.031666167080402374 -0.35585758090019226 -0.21391773223876953 0.05577453598380089 -0.10557089000940323 -0.47479531168937683 -0.18904462456703186 -0.05951785296201706 0.20591282844543457 -0.13674034178256989 -0.060042604804039 -0.12040222436189651 -0.17402365803718567 -0.33683842420578003 -0.06964423507452011 0.5333223938941956 0.005098615773022175 0.09353543072938919 -0.11474905163049698 0.13304822146892548 0.16561846435070038 -0.1189873218536377 -0.21948382258415222 -0.11540824174880981 -0.021732524037361145 0.138803631067276 0.04671464487910271 -0.11516762524843216 0.0961523950099945 -0.2160845398902893 -0.20843306183815002 -0.10265137255191803 0.2617822289466858 0.11661949008703232 -0.3134521543979645 -0.20497488975524902 0.17321765422821045 -0.07286372035741806 -0.259105920791626 -0.17544661462306976 0.22668154537677765 0.13962894678115845 -0.21527615189552307 -0.08458750694990158 0.2001166194677353 -0.05037473887205124 -0.27710217237472534 0.18574538826942444 0.0842558965086937 0.026135975494980812 -0.2539209723472595 -0.12345901131629944 0.3443607985973358 0.15953034162521362 -0.02066170983016491 -0.036447037011384964 0.08070167899131775 0.3196362555027008 0.15375536680221558 -0.11588499695062637 -0.38491731882095337 -0.2963218688964844
into -0.045349884778261185 -0.11418116092681885 -0.15342019498348236 0.08695749938488007 0.3402783274650574 0.19950196146965027 -0.017573509365320206 -0.06409496068954468 -0.039549570530653 -0.13428612053394318 0.04384437948465347 0.17795298993587494 0.2514606714248657 -0.12488436698913574 0.06782874464988708 -0.34378230571746826 -0.09143086522817612 -0.03029109723865986 -0.046424396336078644 -0.19864223897457123 -0.0761861577630043 -0.04771925136446953 0.08269034326076508 -0.09291122108697891 -0.03630484640598297 0.17974673211574554 0.034596607089042664 0.07618918269872665 0.03602057695388794 -0.042290300130844116 0.12809421122074127 0.1435934603214264 -0.1986822634935379 -0.022375157102942467 -0.10166259109973907 -0.1787193864583969 -0.11010921746492386 -0.15281392633914948 -0.14671070873737335 0.0732603594660759 0.1344366818666458 0.1968718022108078 -0.1763399839401245 -0.025349726900458336 0.09522003680467606 0.12534111738204956 0.26764318346977234 0.0660473108291626 -0.05774196609854698 0.08609795570373535 -0.3076572120189667 0.17819330096244812 0.15375828742980957 0.24478355050086975 0.27395889163017273 0.1371588557958603 0.04598487541079521 -0.006475669331848621 0.29781702160835266 0.10382617264986038 -0.05248022824525833 0.016577288508415222 0.1077549010515213 0.19881387054920197 0.005927203223109245 0.013904604129493237 0.09590165317058563 -0.2693515419960022 0.006492160726338625 0.19232437014579773 -0.14535053074359894 0.08798085898160934 -0.05164792388677597 0.1830081194639206 0.13908112049102783 -0.07010412216186523 -0.03686608001589775 -0.13828451931476593 -0.003395581152290106 -0.21369940042495728 0.15948592126369476 -0.2420586794614792 0.04385266453027725 -0.0911862924695015 0.07321644574403763 -0.15834395587444305 0.047256018966436386 -0.0030596547294408083 0.15276430547237396 -0.3064586818218231 0.10758037865161896 -0.049179647117853165 -0.0014182216254994273 0.02070905640721321 -0.06336653232574463 -0.08075664937496185 -0.008336218073964119 -0.22417816519737244 0.06585656851530075 -0.1805184781551361
see -0.11406977474689484 -0.03795434534549713 0.08009888231754303 -0.24167872965335846 0.040450938045978546 -0.09540869295597076 0.10414087772369385 -0.018982648849487305 -0.27724847197532654 0.17062239348888397 -0.0702272281050682 0.08112446963787079 0.2610493004322052 -0.053321290761232376 0.001357224304229021 -0.08708571642637253 0.03619786351919174 0.20878177881240845 -0.12666037678718567 -0.1605197638273239 0.2114260345697403 0.009607607498764992 -0.18838511407375336 -0.13352689146995544 -0.06599400192499161 -0.23543894290924072 0.22318987548351288 0.09488990157842636 -0.04851455241441727 0.08948499709367752 0.03205117955803871 0.063505157828331 -0.013479962013661861 0.1438998132944107 -0.0018794655334204435 0.02164280228316784 0.002122777048498392 0.08171997219324112 -0.30807408690452576 -0.14505836367607117 -0.10118447244167328 0.32301095128059387 0.0777059942483902 0.008607696741819382 0.10285982489585876 0.20162777602672577 0.15033726394176483 0.32376304268836975 -0.026307186111807823 0.006264125928282738 -0.28217706084251404 0.13139192759990692 -0.05654823035001755 -0.07163545489311218 0.1706261783838272 0.057482004165649414 0.01644761487841606 0.09139372408390045 0.09778540581464767 -0.3588315546512604 -0.15807601809501648 -0.016392743214964867 0.24164408445358276 -0.10813885927200317 0.15973860025405884 -0.14236144721508026 0.012958751991391182 -0.11508742719888687 0.029384145513176918 -0.01883385330438614 -0.12448163330554962 0.02260088175535202 -0.2692946791648865 0.012186483480036259 0.16724036633968353 0.0763959214091301 0.22335782647132874 0.034659530967473984 0.14177022874355316 -0.3046341836452484 0.14198452234268188 -0.225785031914711 -0.023021267727017403 -0.08024242520332336 -0.016832521185278893 -0.038323529064655304 -0.03127817064523697 0.39092788100242615 0.0873204916715622 -0.15376628935337067 0.11309776455163956 0.12758195400238037 -0.16576136648654938 0.24236437678337097 -0.18185876309871674 -0.29998305439949036 -0.12843428552150726 0.017491381615400314 -0.10262369364500046 -0.27892085909843445
found -0.26376014947891235 -0.0240252073854208 0.034584298729896545 -0.02636578120291233 0.036499813199043274 -0.15173494815826416 0.007306529674679041 -0.05552820861339569 -0.11736781150102615 -0.1004127562046051 0.12013697624206543 -0.06488306820392609 -0.16564054787158966 -0.35822299122810364 -0.006324273534119129 0.00975706521421671 0.416381299495697 0.005606835708022118 -0.08921415358781815 -0.145598366856575 -0.2083497792482376 -0.04727455601096153 -0.12656258046627045 -0.3485864996910095 -0.05401485413312912 0.04908303543925285 0.18661166727542877 0.37898877263069153 -0.15281252562999725 0.024732841178774834 0.35572606325149536 0.14367356896400452 0.19894146919250488 -0.11408132314682007 0.12847715616226196 -0.06154449284076691 -0.06084940582513809 0.1988830715417862 -0.09152597934007645 0.1505119651556015 0.17636878788471222 -0.08575674891471863 0.3699471354484558 -0.010168175213038921 -0.24803656339645386 0.02611330710351467 0.1730964034795761 0.10893592983484268 0.23960119485855103 0.09815654158592224 0.012552621774375439 0.044392652809619904 0.040407802909612656 -0.019937530159950256 -0.15383444726467133 0.14789114892482758 0.018574308604002 0.05503099039196968 -0.2910677194595337 0.09325826168060303 0.0553889200091362 -0.288831502199173 0.2618211507797241 0.2195616066455841 0.14192180335521698 0.2518996000289917 0.041338592767715454 0.22512522339820862 0.09705562889575958 -0.18885540962219238 -0.003894517896696925 -0.00529736652970314 0.14017389714717865 -0.13189101219177246 0.14462406933307648 -0.04751210659742355 0.12840279936790466 0.21772614121437073 0.05591459199786186 0.13346458971500397 0.1286851167678833 0.14933666586875916 0.270674467086792 -0.2013484537601471 0.2310193032026291 -0.2627061903476715 0.06020396947860718 0.03280579671263695 -0.02771192230284214 0.010960254818201065 -0.14161688089370728 0.025695156306028366 -0.06528681516647339 0.0859527513384819 -0.10546262562274933 -0.14180362224578857 0.22650820016860962 -0.04145479202270508 0.22217446565628052 0.06903593242168427
same 0.09548954665660858 -0.13799169659614563 -0.16002744436264038 -0.024104097858071327 0.30460456013679504 -0.3789679706096649 -0.18586035072803497 0.11079628765583038 0.2909269630908966 0.03247050195932388 -0.17216673493385315 0.26592689752578735 -0.11238203942775726 -0.3340909481048584 0.38075175881385803 0.2247323989868164 0.06145240366458893 -0.034688420593738556 0.19125346839427948 -0.09199130535125732 0.3256654143333435 -0.3125251531600952 -0.008339892141520977 -0.09233008325099945 -0.044268108904361725 -0.09910830855369568 0.29899343848228455 0.13104893267154694 -0.32481569051742554 0.02100941725075245 -0.3179973363876343 -0.03132101893424988 -0.09410616755485535 -0.08102623373270035 0.06662845611572266 0.20340654253959656 -0.18382640182971954 -0.15593065321445465 -0.12232647836208344 0.43349671363830566 0.19835256040096283 -0.0388072207570076 0.005316508933901787 -0.06785987317562103 0.2682839632034302 -0.08211362361907959 -0.22228416800498962 0.1262100487947464 -0.3871191442012787 -0.016884872689843178 0.2554548978805542 -0.2616938352584839 -0.1954333484172821 -0.01788114197552204 0.1644049733877182 0.03075043112039566 -0.1053190529346466 -0.107260562479496 -0.029142528772354126 -0.14257808029651642 -0.023703325539827347 -0.05353580415248871 0.48344719409942627 0.1926422417163849 0.25769302248954773 0.32023414969444275 -0.2807981073856354 0.11954799294471741 -0.22496111690998077 -7.547048735432327E-4 0.6424642205238342 -0.29081061482429504 -0.046381186693906784 -0.07868287712335587 -0.19232407212257385 -0.5251296162605286 -0.1291392594575882 -0.21771571040153503 -0.16952432692050934 -0.06367550790309906 -0.2634021043777466 -0.0024088905192911625 0.006954290438443422 0.17218831181526184 0.2957003712654114 -0.5412483215332031 -0.333893358707428 -0.09004173427820206 0.021980902180075645 -0.22883093357086182 -0.3298848867416382 -0.1454886943101883 -0.3375227153301239 0.060730352997779846 -0.08764669299125671 -0.33157089352607727 0.39984098076820374 0.34819677472114563 -0.058804403990507126 0.040397848933935165
are 0.3499213755130768 0.5271655321121216 -0.14617754518985748 -0.050527408719062805 -0.20932063460350037 -0.1950831562280655 0.11736131459474564 0.03919663652777672 0.10534027963876724 0.24980275332927704 -0.061434485018253326 -0.2218543142080307 0.17178086936473846 -0.08675286173820496 -0.2763392925262451 0.3715226948261261 0.04334009438753128 -0.07703942060470581 0.4389972984790802 0.3061510920524597 0.02398907020688057 0.11752940714359283 0.02652124874293804 0.06720275431871414 0.35050931572914124 -0.31201085448265076 -0.1019100621342659 0.3731176257133484 0.5413017272949219 0.27078843116760254 -0.14151571691036224 -0.12631849944591522 0.478229284286499 0.07860061526298523 -0.15976108610630035 -0.1560526192188263 0.04959658533334732 0.14524252712726593 0.25324809551239014 0.1123926043510437 -0.07288336753845215 0.10755664855241776 -0.011563602834939957 0.19373027980327606 0.3608745038509369 0.3228037357330322 0.07031897455453873 -0.038733579218387604 -0.4764651656150818 -0.16493633389472961 0.02570509724318981 0.05878988280892372 -0.12336836755275726 -0.21554315090179443 0.23626898229122162 -0.26284343004226685 -0.3333742320537567 -0.2096332609653473 0.08548471331596375 -0.050869762897491455 -0.007730563636869192 -0.3611855208873749 0.07088217884302139 0.228978231549263 -0.06811293214559555 -0.007740958593785763 -0.0032389150001108646 0.19127389788627625 0.46349817514419556 0.3834928572177887 0.2298184633255005 0.38332512974739075 0.02333342470228672 0.5642536878585815 0.07386070489883423 0.05720138177275658 0.23296310007572174 0.12020585685968399 0.23369701206684113 0.027664614841341972 -0.21739614009857178 -0.07835456728935242 0.11308203637599945 -0.1567654013633728 -0.09442407637834549 0.2704911231994629 -0.22821126878261566 0.35960814356803894 0.23850078880786896 -0.17010629177093506 0.14508214592933655 0.15037095546722412 -0.061807502061128616 0.004487272351980209 -0.124360591173172 0.4620145261287689 0.01741846650838852 -0.21065972745418549 -0.4351741671562195 -0.1005467027425766
does 0.09856154769659042 0.0030789992306381464 -0.20041993260383606 0.1794484406709671 -0.15846915543079376 0.33746251463890076 0.08125350624322891 0.3694058358669281 0.5453168153762817 -0.20603196322917938 0.09394888579845428 -0.27883172035217285 -0.041396044194698334 -0.1867668628692627 0.14060799777507782 -0.1677248179912567 0.056940026581287384 -0.3914579153060913 -0.8287914395332336 -0.12235289067029953 -0.15535283088684082 -0.16884006559848785 -0.282090961933136 0.4015728533267975 0.2624398469924927 0.037902798503637314 -0.05347994714975357 -0.21926848590373993 -0.09691117703914642 0.05194173753261566 0.34907883405685425 0.15379925072193146 -0.14711053669452667 0.20221823453903198 0.02071400173008442 -0.14165176451206207 0.06561709940433502 0.05701514333486557 0.1137198954820633 0.09487282484769821 -0.007849583402276039 0.1350252777338028 -0.26716873049736023 0.23383072018623352 -0.1891854852437973 0.023703427985310555 0.7210901975631714 -0.008044465444982052 0.08260403573513031 0.037457194179296494 0.1472005397081375 0.23976443707942963 -0.040131811052560806 0.16571329534053802 -0.12918855249881744 0.3893105685710907 -0.1230173334479332 0.2638813257217407 0.04879916086792946 -0.16466456651687622 0.09124001115560532 0.048957083374261856 -0.10950242727994919 -0.2267475426197052 -0.040561556816101074 -0.2401830106973648 -0.012667801231145859 -0.3157200217247009 0.09666527807712555 0.08209632337093353 0.37799373269081116 -0.04558378458023071 0.11305342614650726 -0.036990948021411896 0.5288742184638977 -0.10767421126365662 0.07596056908369064 0.09595740586519241 -0.2096751630306244 -0.05364319309592247 -0.18357603251934052 0.38200610876083374 -0.12519793212413788 0.19360163807868958 0.06361809372901917 0.06750742346048355 0.14033548533916473 0.01792486011981964 -0.018514370545744896 -0.15073928236961365 0.009454593062400818 -0.25991421937942505 0.27410489320755005 0.23412328958511353 0.24583964049816132 -0.4719294607639313 -0.17636926472187042 -0.3018820285797119 -0.25740599632263184 0.38704389333724976
by 0.010834195651113987 -0.1883138120174408 -0.0407138355076313 0.1869301050901413 0.11058718711137772 0.039704255759716034 -0.04384101927280426 0.006936552934348583 -0.059299569576978683 -0.053890474140644073 0.09664934128522873 0.05992187559604645 0.16688087582588196 -0.14263145625591278 0.32979100942611694 -0.04913213849067688 -0.09608309715986252 0.0635504499077797 0.012176779098808765 -0.4045267105102539 -0.19109132885932922 0.07692903280258179 0.03253139927983284 -0.18085643649101257 0.027086997404694557 -0.1461050808429718 -0.09093822538852692 0.07310205698013306 -0.13160550594329834 -0.15282480418682098 0.06857322156429291 0.09233462810516357 0.004510503262281418 0.1252571940422058 -0.25852522253990173 -0.03914611041545868 -0.03205692768096924 0.28871673345565796 -0.1275576949119568 0.08236699551343918 0.21857702732086182 -0.0073850760236382484 -0.0723612979054451 0.042064134031534195 0.002576113911345601 0.06649069488048553 -0.1608918458223343 -0.03354954719543457 -0.09561042487621307 0.15708032250404358 -0.17493818700313568 -0.14226968586444855 -0.012756592594087124 0.06126204878091812 0.31363579630851746 0.1407596915960312 -0.0823538675904274 -0.02617698721587658 0.13850738108158112 0.09327822923660278 -0.010059887543320656 0.08224855363368988 0.13885051012039185 0.2786003351211548 0.12550656497478485 0.21036215126514435 0.06586866825819016 0.09631840139627457 -0.012517552822828293 0.1856863796710968 -0.14131894707679749 0.10489487648010254 -0.07758446782827377 -0.013296017423272133 0.043836336582899094 0.018869923427700996 -0.01910252496600151 0.0204421766102314 0.04275833070278168 -0.10602004081010818 -0.08047609031200409 -0.3496820032596588 -0.029051266610622406 -0.028368966653943062 0.1808868944644928 -0.03254074603319168 -0.06948091834783554 0.11934376507997513 0.16216903924942017 -0.05821314454078674 0.18130865693092346 0.10138256847858429 0.013103127479553223 0.17144779860973358 0.03181518614292145 0.009272227995097637 0.07833408564329147 -0.06126593053340912 0.01938934065401554 -0.22478817403316498
national -0.05166332796216011 0.0643535852432251 0.014688278548419476 0.044129978865385056 0.10105469822883606 -0.02523212507367134 0.007762331049889326 0.019137578085064888 0.05065259337425232 0.036462750285863876 0.010998004116117954 0.08924299478530884 -0.0014850747538730502 -0.025152290239930153 0.08154265582561493 0.00396867236122489 -0.0714256763458252 0.017033927142620087 -0.016644306480884552 -0.10975778847932816 0.013167892582714558 -0.014380918815732002 0.008387673646211624 -0.020117733627557755 0.00569581426680088 -0.007066880352795124 -0.01195613294839859 -0.07539112120866776 0.06014028936624527 0.02128416858613491 -0.08944791555404663 -0.004607068374752998 0.04823048412799835 -0.06518691778182983 0.033449724316596985 0.09050727635622025 -0.02547270432114601 -0.064278744161129 0.06779885292053223 0.1038837879896164 0.016626553609967232 -0.019958026707172394 -0.06703584641218185 -0.027128051966428757 0.1321423500776291 -0.02591651864349842 -0.09432133287191391 0.03354771062731743 -0.027265869081020355 -0.00925329141318798 0.12780942022800446 -0.02530602738261223 0.05845886841416359 -0.029740309342741966 0.06598152220249176 -0.06422442942857742 -0.04415054991841316 0.008093739859759808 0.1700698584318161 0.08019952476024628 0.016250386834144592 -0.0303196981549263 -0.011420734226703644 0.05016879737377167 0.09652590751647949 -0.008808933198451996 -0.13099031150341034 0.14063310623168945 0.00720412191003561 -0.03038332797586918 0.005792739801108837 -0.0923212468624115 0.02868703007698059 -0.04748750478029251 -0.10377886146306992 -0.07638353109359741 -0.06298055499792099 -0.06326503306627274 -0.16383439302444458 0.026002466678619385 -0.06353569775819778 0.10564592480659485 0.060304127633571625 -0.13777655363082886 0.051961105316877365 -0.018768418580293655 -0.007211421616375446 -0.08205869048833847 0.06795661896467209 0.0014895870117470622 0.0766877830028534 -0.06369622051715851 -0.07112875580787659 -0.03494428098201752 -0.04073707386851311 -0.0025441928301006556 0.14970692992210388 0.0013458728790283203 0.0019502087961882353 0.016965094953775406
where 0.21042728424072266 -0.0356130413711071 -0.3846724331378937 0.3096053898334503 0.22090063989162445 0.16630494594573975 -0.016636552289128304 0.12566277384757996 -0.003619235474616289 0.2996409833431244 -0.10162042081356049 0.22350211441516876 0.24196608364582062 -0.09963322430849075 0.004977417644113302 -0.29894140362739563 -0.2556534707546234 -0.28180333971977234 0.33988502621650696 0.3173903524875641 0.021178677678108215 0.2244437038898468 -0.0027283576782792807 0.21585264801979065 -0.16729497909545898 0.17656272649765015 0.19948501884937286 -0.003447069553658366 0.22959406673908234 -0.23004397749900818 -0.40348201990127563 -0.13121730089187622 0.19831344485282898 0.1058303490281105 0.09897410124540329 -0.10946469008922577 0.09173451364040375 -0.22270826995372772 -0.37419870495796204 -0.2204534262418747 0.389702707529068 -0.049836281687021255 0.3133803606033325 -0.27042943239212036 0.07332731783390045 -0.028846513479948044 0.037393130362033844 0.12908226251602173 0.14748123288154602 -0.1685805469751358 -0.46067556738853455 -0.12451336532831192 -0.09642717242240906 -0.03342609480023384 -0.026309123262763023 0.2256184220314026 0.18962031602859497 -0.04791267588734627 -0.09110179543495178 0.020088449120521545 -0.057362306863069534 0.43627792596817017 -0.01201802957803011 0.010944017209112644 0.2364431917667389 -0.04462136700749397 -0.08038920909166336 -0.2027992308139801 -0.3847779929637909 0.06975504010915756 0.11228293180465698 -0.056189410388469696 0.2594335377216339 0.372167706489563 0.010754129849374294 -0.3029111325740814 -0.2103181630373001 -0.24617889523506165 -0.06769884377717972 -0.07855164259672165 0.02569602057337761 0.017537863925099373 -0.136050745844841 -0.10624615848064423 0.05719548091292381 0.2915516793727875 0.029464364051818848 0.11708242446184158 0.07591547816991806 0.1669498234987259 0.055376939475536346 -0.09576200693845749 -0.48926079273223877 0.3446652889251709 -0.11377314478158951 0.1795525848865509 0.4455590844154358 0.10506770014762878 -0.036639515310525894 -0.2899751663208008
after 0.18759796023368835 -0.05752158164978027 -0.18525032699108124 0.08002056926488876 0.1145901307463646 0.04431287199258804 -0.1809983104467392 -0.14237958192825317 -0.014906094409525394 -0.17891760170459747 0.09120068699121475 0.11703713238239288 0.44842594861984253 -0.025204649195075035 0.528452455997467 -0.32100942730903625 0.026014871895313263 0.02431839145720005 0.05234850198030472 -0.3487989008426666 -0.04486837610602379 -0.03132281079888344 0.007263787090778351 0.04590631276369095 -0.008189478889107704 -0.19332343339920044 -0.135898157954216 0.05593524128198624 0.2793996036052704 -0.31860047578811646 -0.06267852336168289 0.014555628411471844 -0.08996899425983429 -0.1531267613172531 -0.0968477725982666 -0.12098205834627151 0.06383511424064636 0.15953081846237183 -0.08626589179039001 -0.1830260306596756 0.5026649832725525 0.1959654688835144 -0.11480777710676193 -0.024488411843776703 0.004520564340054989 0.01760237291455269 -0.06432591378688812 -0.05782771855592728 0.045793455094099045 0.14516279101371765 -0.08053261786699295 -0.10330945253372192 0.12944674491882324 0.02818663977086544 0.44082581996917725 0.18438808619976044 0.09270378947257996 0.2650870680809021 0.12163010984659195 0.2254658192396164 0.013074526563286781 -0.2786659896373749 0.11068706214427948 0.016750739887356758 0.28849053382873535 0.07041983306407928 0.37151822447776794 -0.06676018238067627 0.06498532742261887 0.21081027388572693 -0.2451016753911972 -0.04252300783991814 -0.06026625260710716 0.09809581935405731 -0.0608687624335289 -0.3145536780357361 -0.01848294585943222 0.11945221573114395 0.09996001422405243 -0.29658350348472595 -0.17927739024162292 0.12077349424362183 -0.10962587594985962 0.09535139054059982 0.17946235835552216 -0.2034495323896408 -0.03026076778769493 0.043109048157930374 0.14516045153141022 -0.0049981712363660336 -0.022752264514565468 -0.0973617434501648 -0.28203314542770386 0.3172827661037445 0.0020226365886628628 0.28834018111228943 0.2229333221912384 -0.107996366918087 -0.06198783218860626 -0.2625559866428375
so 0.032918475568294525 0.15792696177959442 0.1411340981721878 -0.0020935703068971634 -0.025770682841539383 -0.02997034229338169 -0.061694514006376266 -0.06684206426143646 -0.09500358253717422 -0.11235363036394119 0.0012087835930287838 0.09257588535547256 0.03417963534593582 -0.09901044517755508 -0.17541462182998657 -0.06272464245557785 0.08992113918066025 0.2664833962917328 -0.3579369783401489 -0.003124755574390292 0.04569246247410774 0.30800744891166687 -0.08597014099359512 0.003353619482368231 -0.14446839690208435 -0.13884079456329346 -0.05236255005002022 -0.04328124225139618 -0.126816987991333 0.14652201533317566 0.13623832166194916 -0.30481967329978943 0.22049666941165924 0.1348770409822464 -0.2809920310974121 -0.13628824055194855 0.12375891208648682 0.11867363005876541 0.06113480031490326 -0.2559140622615814 -0.04177898168563843 -0.08829396963119507 0.13914495706558228 -0.2406463921070099 -0.06051946431398392 -0.05717948451638222 -0.24481186270713806 -0.13667795062065125 -0.025809699669480324 -0.14564722776412964 -0.16040585935115814 -0.22076323628425598 -0.30894067883491516 -0.03482308238744736 0.22487808763980865 0.12545187771320343 -0.09984499961137772 0.3375878930091858 0.08654818683862686 0.044507429003715515 -0.211910679936409 -0.02559790387749672 -0.1332310289144516 -0.10462348163127899 -0.060818541795015335 0.03577275946736336 0.1305261254310608 -0.10912442207336426 -0.15609723329544067 -0.18838968873023987 -0.06308025866746902 0.17857950925827026 -0.1192852333188057 -0.1065894216299057 0.25693756341934204 0.02481689676642418 -0.2941631078720093 -0.01948847807943821 0.20527780055999756 -0.07851909846067429 0.05101144686341286 0.14919835329055786 0.09396302700042725 -0.17173637449741364 -0.308761328458786 0.07170265913009644 -0.10193382203578949 -0.018233923241496086 -0.2183443158864975 0.012079795822501183 -0.10545673966407776 0.09987720847129822 0.1700568050146103 0.15795864164829254 -0.1975068300962448 0.07372479885816574 -0.11870016902685165 0.048174336552619934 -0.3340533971786499 -0.044065363705158234
a 0.1654801219701767 -0.20428475737571716 0.33245110511779785 0.11815328896045685 0.08822225034236908 -0.3888191878795624 -0.07557234168052673 -0.031645312905311584 -0.05806749314069748 -0.22536005079746246 -0.17533065378665924 -0.35432180762290955 -0.01682487316429615 -0.04037885367870331 0.6636675596237183 -0.23057721555233002 0.11271698027849197 0.36784812808036804 0.17162883281707764 -0.15431249141693115 -0.27149173617362976 -0.21624286472797394 0.09171387553215027 0.025997551158070564 -0.27909961342811584 -0.479323148727417 0.01376529410481453 0.28233397006988525 -0.005466725677251816 0.09352683275938034 0.5238808393478394 -0.47841876745224 0.009160523302853107 0.11722923070192337 -0.18877391517162323 0.08572190999984741 0.0680718868970871 -0.011083216406404972 0.2792637050151825 0.2519571781158447 0.05504501610994339 0.028517547994852066 -0.2086823433637619 -0.2302980124950409 0.22126008570194244 -0.08437936753034592 0.09885833412408829 -0.5185807943344116 -0.11848046630620956 -0.22069773077964783 -0.09228042513132095 -0.11196596920490265 0.11482616513967514 0.05883209407329559 -0.1298970878124237 -0.04584120213985443 -0.02704962156713009 0.4679148495197296 0.28120601177215576 -0.08992733061313629 -0.3793357014656067 0.18508927524089813 -0.17793449759483337 0.021275561302900314 0.09186655282974243 0.2217121720314026 -0.13957861065864563 -0.013590866699814796 -0.1724056899547577 0.12217231839895248 0.0036554813850671053 0.2243259847164154 0.42706021666526794 0.02182203345000744 -0.5108702182769775 0.15800614655017853 -0.460993230342865 -0.11462312936782837 -0.20385567843914032 0.184224933385849 -0.1425747573375702 -0.27895215153694153 0.10286497324705124 0.015024141408503056 0.0620727501809597 -0.11301703751087189 0.005403123330324888 0.20502768456935883 -0.19872772693634033 0.015286661684513092 0.14016006886959076 0.09851524233818054 -0.15022023022174835 -0.07025226205587387 0.05792735889554024 0.06256996095180511 0.057086873799562454 -0.148673877120018 0.28451254963874817 -0.02594009041786194
think -0.11463474482297897 -0.2076168656349182 0.17839783430099487 -0.36175742745399475 0.13775166869163513 -0.07804360240697861 -0.27810052037239075 -0.30934053659439087 -0.08990940451622009 -0.015592141076922417 0.0875767320394516 -0.05099649354815483 -0.08633182942867279 0.04031631723046303 -0.23640477657318115 -0.16718590259552002 -0.0052114613354206085 0.11780253797769547 0.0209026038646698 0.19583311676979065 0.3152623176574707 -0.18501587212085724 -0.13768991827964783 -0.22336672246456146 -0.034288372844457626 -0.04503500461578369 0.21310856938362122 -0.23309753835201263 -0.2655382454395294 0.15834951400756836 -0.10778571665287018 -0.023490874096751213 0.14210014045238495 -0.040488578379154205 -0.2600308656692505 0.2686399221420288 -0.12500524520874023 0.0994594544172287 -0.33844390511512756 -0.020329397171735764 0.13287782669067383 -0.09355126321315765 -0.05893654748797417 -0.005654580425471067 0.03202267736196518 -0.04387350752949715 0.07683917880058289 -0.146175816655159 0.14363811910152435 -0.09826522320508957 0.06613882631063461 0.39914923906326294 -0.013430099003016949 -0.061318207532167435 -0.12451392412185669 0.17518465220928192 0.16208720207214355 0.061915285885334015 -0.1962992548942566 -0.005380761343985796 -0.0888742059469223 0.22529906034469604 0.3340638279914856 0.07431988418102264 -0.04846959561109543 0.09807971119880676 -0.13676786422729492 -0.16808414459228516 0.10312652587890625 -0.27799293398857117 -0.09397698938846588 0.004531974904239178 -0.44265517592430115 0.12688350677490234 0.05266790837049484 -0.09795361012220383 0.09133139997720718 -0.06930317729711533 0.1995018869638443 -0.32430869340896606 -0.26380354166030884 -0.11566556990146637 -0.0888642892241478 0.09337104111909866 -0.12950116395950317 0.10052649676799774 -0.06971518695354462 0.39111191034317017 -0.46600139141082764 0.019306786358356476 -0.06272795796394348 0.08300335705280304 -0.3073320686817169 -0.23349381983280182 0.009945799596607685 0.06737250834703445 -0.17188121378421783 -0.10903938859701157 0.10807788372039795 0.004113595001399517
set -0.24618135392665863 -0.15901537239551544 0.2201709896326065 0.10163546353578568 -0.007552604656666517 0.0391613207757473 0.07706897705793381 -0.07170260697603226 0.07037194818258286 0.057448673993349075 0.3665236830711365 -0.030898407101631165 -0.025790764018893242 -0.04979154095053673 0.15065182745456696 0.034801945090293884 0.12041918933391571 7.070000283420086E-4 0.13637447357177734 -0.07959123700857162 0.03348383679986 0.0016639491077512503 0.018318630754947662 -0.13681773841381073 0.1615416407585144 0.053190167993307114 0.10068117827177048 0.033287595957517624 0.1451626420021057 -0.12923312187194824 -0.015842149034142494 0.19496604800224304 -0.12402859330177307 -0.12200669944286346 -0.1513247787952423 -0.023209620267152786 0.0908091738820076 0.3148351013660431 -0.26560941338539124 -0.06003201752901077 0.09868479520082474 0.05036500096321106 0.08676344156265259 0.06795176863670349 -0.02200179360806942 0.18005354702472687 -0.01741620898246765 0.19611242413520813 -0.14222128689289093 0.09113501012325287 0.08715176582336426 0.12303798645734787 0.08963772654533386 0.11684310436248779 -0.0988522320985794 0.046465031802654266 -0.11931973695755005 0.04957561194896698 0.013704366981983185 0.012695676647126675 0.05933250114321709 -0.26544058322906494 0.11677771061658859 0.13840323686599731 -0.07008165866136551 0.14079540967941284 0.18260535597801208 -0.014097191393375397 0.10784238576889038 -0.1350354105234146 -0.057205118238925934 -0.1009589284658432 0.19799718260765076 0.027852848172187805 -0.053836144506931305 -0.17758676409721375 -0.0035735303536057472 0.08673477172851562 -0.09412708133459091 -0.0011256916914135218 0.2687380909919739 0.08294481039047241 0.06340198963880539 -0.0767957866191864 0.10064174979925156 -0.02731212228536606 0.16287396848201752 0.016229648143053055 0.011334314942359924 -0.19001424312591553 0.14525307714939117 0.03523044288158417 -0.39122772216796875 0.13186058402061462 0.0929192379117012 -0.11019501090049744 0.20388120412826538 0.14511461555957794 -0.10351211577653885 0.022629931569099426
