been -0.13328243792057037 0.4717152714729309 0.16032163798809052 -0.3298831880092621 -0.0732349380850792 0.3828328251838684 0.5333999991416931 -0.44412967562675476 0.17123237252235413 0.18134865164756775 -0.22354097664356232 0.36726415157318115 -0.41620415449142456 0.33003053069114685 -0.16565954685211182 0.2925499677658081 0.3828633725643158 0.23784659802913666 -0.08512382209300995 0.11055012047290802 0.4402456283569336 -0.06157965958118439 0.16715370118618011 -0.11520440876483917 -0.007023904472589493 0.11129259318113327 -0.10074766725301743 -0.43369340896606445 -0.28596752882003784 0.3435165584087372 0.07692805677652359 0.4223306179046631 -0.4881148040294647 0.3461674749851227 -0.14089570939540863 -0.025504596531391144 -0.061671528965234756 0.17480848729610443 -0.18382863700389862 0.6815325021743774 -0.35619762539863586 0.292158305644989 -0.049232058227062225 -0.07548991590738297 0.5899830460548401 -0.2590280771255493 -0.6363168358802795 0.049399469047784805 0.3751946687698364 0.5539525151252747 0.041848279535770416 0.5223789811134338 0.24790990352630615 -0.4017483592033386 0.06361677497625351 0.10275577008724213 -0.0931573361158371 0.005368886049836874 -0.26732003688812256 0.20729857683181763 -0.0478140227496624 -0.11225977540016174 -0.1595691293478012 0.0514092892408371 0.04223310574889183 0.22540238499641418 -0.24807891249656677 0.3580089211463928 -0.3351299464702606 -0.399641215801239 0.14320991933345795 0.12449564784765244 -0.12877827882766724 0.24603788554668427 -0.10487523674964905 -0.07585739344358444 0.08523999154567719 -0.054551802575588226 -0.25180500745773315 0.042696986347436905 -0.2676905691623688 0.30899810791015625 -0.24243949353694916 0.0274029690772295 -0.28071677684783936 0.3759675621986389 -0.04046279191970825 0.022376077249646187 -0.14339590072631836 -0.3640248477458954 -0.2531541883945465 -0.38833752274513245 -0.11991666257381439 -0.0739472508430481 -0.06231226772069931 -0.023102160543203354 -0.06804181635379791 -0.4178265929222107 0.1280021369457245 -0.09781879186630249
year -0.21047617495059967 0.19234520196914673 0.2356254607439041 -0.23428286612033844 0.24121685326099396 0.05703319236636162 -0.28659170866012573 0.22955423593521118 0.3064209222793579 0.12740212678909302 -0.07805389910936356 0.033574797213077545 0.06310196965932846 0.013342677615582943 0.5611802935600281 -0.42932987213134766 -0.1756889969110489 -0.0010675383964553475 -0.19730530679225922 0.042735178023576736 -0.1257011890411377 0.09281772375106812 -0.09216412156820297 0.14049099385738373 -0.44529998302459717 0.04912933334708214 0.43331998586654663 -0.12385436147451401 -0.11257746815681458 -0.010683032684028149 0.2125830203294754 0.2416568398475647 -0.018902365118265152 0.037436895072460175 0.034795407205820084 -0.34306034445762634 0.030551044270396233 0.12006644159555435 -0.09713602811098099 -0.0318722128868103 -0.5609681606292725 0.12997747957706451 -0.07828635722398758 -0.16927005350589752 0.49019816517829895 0.09842981398105621 -0.3664623498916626 -0.16789086163043976 -0.18610510230064392 0.10841266065835953 0.022058432921767235 -0.44529837369918823 0.155388742685318 -0.47786977887153625 -0.1045728325843811 -0.19583190977573395 0.3958098292350769 0.06846394389867783 -0.22782696783542633 0.4037296175956726 0.17479053139686584 0.3041018843650818 0.01759381592273712 0.23625674843788147 -0.23408456146717072 -0.1147284209728241 -0.37394189834594727 0.07402514666318893 -0.25656095147132874 0.047260791063308716 0.049745697528123856 0.05021703988313675 -0.014688728377223015 -0.43840110301971436 0.13988572359085083 -0.11784578114748001 -0.20671479403972626 -0.009605922736227512 0.18319673836231232 0.02846326306462288 0.13903671503067017 0.2123074233531952 -0.1461118906736374 -0.032575611025094986 0.17600494623184204 0.2058916985988617 -0.08332714438438416 0.08419135957956314 -0.04549773782491684 0.014273623004555702 0.12384302169084549 0.012161782011389732 0.17615382373332977 0.325406551361084 -0.12441254407167435 -0.14126455783843994 0.04691053181886673 -0.13225649297237396 0.24236363172531128 -0.21014906466007233
about -0.3402852714061737 -0.1874914914369583 0.5651422739028931 -0.23138698935508728 -0.2977451682090759 -0.10927016288042068 0.047844499349594116 -0.03821994736790657 0.23310688138008118 -0.49169713258743286 0.5683848261833191 0.1749878078699112 -0.161468505859375 0.01823105290532112 -0.0398976132273674 0.021907923743128777 0.11009122431278229 0.3942735493183136 -0.009581157937645912 -0.014881756156682968 -0.3930034041404724 0.21442928910255432 0.05351782962679863 0.023722242563962936 -0.07633505761623383 0.36768782138824463 -0.10131616145372391 -0.2650579810142517 0.03598417714238167 0.27666783332824707 0.14759019017219543 -0.08071646839380264 -0.10955769568681717 -0.06115037202835083 0.20667341351509094 0.08334402740001678 0.1971951425075531 -0.20681363344192505 0.22583965957164764 0.10979674011468887 -0.116968534886837 -0.04093434661626816 0.20218437910079956 -0.02239745855331421 -0.28647154569625854 -0.19615165889263153 0.06925807893276215 -0.017938077449798584 -0.05410168319940567 -0.2726082503795624 0.17993047833442688 -0.20311342179775238 -0.09634813666343689 -0.23798306286334991 0.3053930103778839 0.11394038796424866 0.07227656245231628 -0.4033161699771881 -0.12724190950393677 0.1312643140554428 0.4685136675834656 -0.21570929884910583 -0.0882902592420578 0.015114658512175083 -0.2870652675628662 -0.24122044444084167 0.2280382513999939 0.17519226670265198 -0.11924576014280319 -0.15451276302337646 -0.023971686139702797 0.20335808396339417 -0.2357528805732727 -0.09654828161001205 0.13834458589553833 -0.017992541193962097 0.07689009606838226 0.31308096647262573 -0.029310837388038635 0.09589675813913345 0.443317711353302 0.1322510689496994 0.132032573223114 -0.07986773550510406 0.083001047372818 -0.16314655542373657 -0.18314602971076965 -0.0522817000746727 0.02169354259967804 -0.07109205424785614 -0.032796796411275864 -0.3317583501338959 -0.20578284561634064 0.1540539711713791 -0.13565973937511444 0.053640902042388916 -0.04354387894272804 0.06856302171945572 0.2158896028995514 0.0753050446510315
your -0.23395438492298126 0.455301970243454 -0.18115757405757904 -0.14474844932556152 0.10549820214509964 0.2076859474182129 -0.07836663722991943 -0.39345118403434753 0.2744083106517792 -0.43538185954093933 0.04559275507926941 -0.1098652184009552 0.05835513398051262 -0.1732134371995926 -0.0024797667283564806 -0.03666796535253525 -0.05902790278196335 -0.006613978184759617 0.02138897217810154 0.08186580240726471 -0.10256486386060715 0.17613305151462555 -0.35899847745895386 0.11036048084497452 0.23423194885253906 0.06696347892284393 -0.09042683988809586 0.5114967823028564 0.06784918159246445 0.07817696034908295 -0.19766156375408173 -0.12737758457660675 -0.1507435142993927 -0.24425435066223145 -0.06999518722295761 -0.3995746374130249 -0.21354563534259796 -0.1940302550792694 0.4076266288757324 -0.2953529953956604 -0.19929055869579315 -0.018115993589162827 0.03497844561934471 -0.03311501815915108 -0.2555561363697052 0.051767975091934204 0.2017306536436081 -0.20148932933807373 0.030855374410748482 -0.10904784500598907 -0.29740893840789795 -0.22917857766151428 -0.09144025295972824 0.13496540486812592 -0.06623024493455887 0.44617760181427 -0.13766750693321228 -0.09398317337036133 -0.36708807945251465 0.04927000030875206 0.09883542358875275 -0.03487829491496086 -0.07716765254735947 -0.2703043818473816 0.27843764424324036 -0.07337462902069092 0.10949902981519699 -0.2142205685377121 0.026013582944869995 -0.10081165283918381 0.4644135534763336 0.10932360589504242 -0.4633832275867462 0.002087786328047514 0.1048969179391861 -0.15598799288272858 0.0978572741150856 -0.005453607998788357 -0.02131187543272972 0.15953919291496277 0.1874714493751526 0.4168815612792969 0.4093601405620575 0.013836156576871872 0.005686502903699875 0.2161681056022644 -0.1402660310268402 -0.13350898027420044 0.3046724498271942 0.056478071957826614 -0.24049900472164154 -0.11581762135028839 -0.10160502046346664 0.2259952425956726 0.12573084235191345 0.11186930537223816 -0.44730547070503235 -0.18152454495429993 -0.3032163679599762 -0.039101649075746536
without -0.09371043741703033 0.037282250821590424 0.006244010757654905 0.18728788197040558 -0.03243761137127876 -0.060269907116889954 0.12006305903196335 0.028652414679527283 0.08607517927885056 -0.31176522374153137 -0.055835843086242676 0.3666621148586273 -0.10702356696128845 -0.17451921105384827 0.16515706479549408 -0.07650826126337051 0.08321011066436768 0.02995903044939041 -0.0918058305978775 0.19783228635787964 0.23360247910022736 -0.09003959596157074 0.2501528263092041 0.028958627954125404 -0.15053869783878326 -0.0022795393597334623 0.0018645505188032985 -0.10989503562450409 -0.010838044807314873 0.007095508277416229 0.00507777277380228 -0.06005854532122612 -0.18355752527713776 -0.12526747584342957 -0.1622985452413559 -0.04260175675153732 0.15237437188625336 0.2751949429512024 0.14611515402793884 -0.12456625699996948 -0.4036792814731598 0.1451653093099594 -0.04596567898988724 -0.06691541522741318 -0.03205380588769913 0.13699588179588318 0.16543547809123993 -0.029097992926836014 0.04364487901329994 0.21995669603347778 -0.2987607419490814 -0.021350977942347527 0.1204167902469635 -0.04102297127246857 -0.10653220862150192 0.08250957727432251 -0.07297014445066452 0.02710537239909172 0.02147400565445423 0.012505506165325642 0.41329070925712585 -0.270669549703598 -0.004460526630282402 -0.04800623655319214 -0.1425732970237732 -0.022865286096930504 0.20245403051376343 0.46430084109306335 0.13343076407909393 -0.13590863347053528 -0.23360735177993774 -0.17711420357227325 0.06562770158052444 -0.011549383401870728 0.3310462236404419 0.06491924077272415 0.044968824833631516 -0.11654708534479141 0.10655463486909866 -0.06781530380249023 0.2509955167770386 0.04687424376606941 0.013711007311940193 0.014554022811353207 -0.0052097816951572895 0.4473317265510559 -0.1873544156551361 0.11809702962636948 0.5847594738006592 -0.26662537455558777 -0.18629541993141174 -0.1170012503862381 0.29599326848983765 -0.028037257492542267 0.014361879788339138 0.27764618396759033 -0.026247890666127205 0.022009164094924927 0.13160394132137299 -0.03768157958984375
these -0.13758106529712677 -0.1535925269126892 -0.19937092065811157 -0.1860836148262024 0.020293891429901123 0.04470068961381912 0.3485002815723419 0.039000656455755234 0.22840319573879242 -0.10186832398176193 0.13714919984340668 0.2300170511007309 -0.1277485489845276 0.10804443061351776 0.23617728054523468 -0.08608397096395493 0.07263071835041046 -0.11339898407459259 -0.2579374313354492 0.02393648773431778 0.2072232961654663 -0.027012810111045837 -0.17296552658081055 0.3251832127571106 0.07473234087228775 -0.16413754224777222 0.27434492111206055 0.02145681157708168 -0.25994035601615906 -0.39034995436668396 -0.22898119688034058 0.40966981649398804 0.17209230363368988 -0.13072402775287628 -0.2684348225593567 -0.4187367260456085 0.17225094139575958 -0.10809914022684097 0.17516067624092102 -0.09253992140293121 0.42824774980545044 -0.3953312933444977 0.041845813393592834 0.3226229250431061 -0.008021506480872631 -0.10655225068330765 0.4801039695739746 0.35407754778862 0.33625608682632446 8.756241004448384E-5 0.13494737446308136 0.4304656386375427 -0.26060742139816284 0.22328831255435944 -0.4345657229423523 -0.22317226231098175 -0.07648660242557526 0.02715154178440571 0.014684800058603287 -0.047874271869659424 0.2389013022184372 -0.21125750243663788 -0.02152029611170292 0.11835659295320511 0.32258909940719604 -0.027567388489842415 0.27557748556137085 0.3640204966068268 0.0012021660804748535 -0.10796625912189484 0.17567178606987 -0.10817958414554596 -0.06691404432058334 -0.2170858383178711 0.27579620480537415 0.046063199639320374 -0.11623635143041611 0.309402734041214 0.15165932476520538 0.22348365187644958 0.04078713804483414 0.3240996301174164 -0.28718289732933044 0.039353176951408386 -0.15695559978485107 -0.03630370274186134 -0.1433304101228714 -0.2837309241294861 -0.1745024025440216 0.2259119302034378 -0.13921909034252167 -0.009647376835346222 0.03416318818926811 0.11406897008419037 0.25233784317970276 -0.046278759837150574 -0.30405235290527344 0.17028109729290009 0.10835029184818268 0.18219487369060516
companies -0.03148580342531204 -0.01789667084813118 0.07297895103693008 0.04407672584056854 0.22414182126522064 -0.07823270559310913 -0.09158969670534134 -0.013252433389425278 0.06438524276018143 0.14458933472633362 0.054615527391433716 0.009507117792963982 -0.10229185223579407 -0.1008794903755188 -0.06981551647186279 0.056633587926626205 0.15987025201320648 -0.012644249945878983 -0.18315938115119934 0.057349178940057755 0.17438992857933044 0.09454799443483353 -0.20360170304775238 0.06329985707998276 -0.0688677579164505 -0.0010414030402898788 0.1620016247034073 -0.03737437352538109 -0.15781395137310028 -0.2556725740432739 -0.10592419654130936 0.2275390774011612 -0.12713837623596191 -0.013214446604251862 -0.1625761240720749 -0.18101342022418976 0.09352226555347443 -0.002736450172960758 0.21516089141368866 -0.10659442842006683 0.04238367825746536 -0.164199098944664 -0.08148167282342911 0.03071453422307968 0.03674457222223282 -0.008869188837707043 0.22746025025844574 0.22893454134464264 0.11668309569358826 0.15347786247730255 0.13243521749973297 0.05417747423052788 0.023173244670033455 0.020122172310948372 -0.0839591920375824 -0.12231099605560303 0.011332628317177296 0.12883517146110535 -0.003290583146736026 0.18564198911190033 -0.02360265702009201 -0.03971857577562332 0.059096816927194595 0.06645073741674423 0.24485836923122406 -0.07242318987846375 0.0019145903643220663 -0.02326410822570324 0.11901338398456573 -0.08368045836687088 0.027958160266280174 0.07661939412355423 0.2296038120985031 -0.02588973008096218 0.16218696534633636 -0.08339958637952805 -0.07339584827423096 0.1738409548997879 -0.05941835790872574 0.05026768520474434 -0.14122000336647034 -0.25208717584609985 -0.1656189113855362 0.04596564173698425 -0.13126280903816223 0.05598064139485359 0.087032251060009 -0.04711458459496498 -0.05527222901582718 0.17850014567375183 -0.1651051789522171 -0.02190447226166725 -0.030388301238417625 0.16331328451633453 0.1988270878791809 -0.06433267891407013 -0.1032460555434227 0.026997342705726624 0.11209671944379807 0.07416731119155884
music -0.1801462173461914 0.16311825811862946 0.06690355390310287 -0.0737958550453186 0.26468101143836975 -0.1085650771856308 -0.27631595730781555 0.12553368508815765 -0.12264035642147064 0.1082553118467331 -0.04667656123638153 0.12166313827037811 -0.007064939942210913 -0.16104137897491455 -0.1640770584344864 -0.034589726477861404 0.06153297424316406 0.07081491500139236 -0.07189127802848816 -0.3146521747112274 -0.1772809624671936 0.13112115859985352 -0.02581859938800335 -0.09595079720020294 0.2215481549501419 0.04858867824077606 0.03888418525457382 -0.09140504896640778 -0.06439556926488876 0.03739814832806587 -0.021465690806508064 0.10581644624471664 -0.024675467982888222 -0.23601122200489044 0.0034269653260707855 0.0074857925064861774 0.049595028162002563 -0.03518389165401459 0.1808818131685257 -0.045630261301994324 0.05500292032957077 0.11757634580135345 0.24553079903125763 -0.09549465775489807 -0.020807281136512756 -0.10873764008283615 -0.1620456576347351 -0.1252593696117401 -0.052770208567380905 -0.16306905448436737 -0.10220269113779068 0.05027983710169792 0.07851102203130722 0.14018072187900543 0.24069128930568695 0.1236264705657959 0.06979969888925552 -0.06423576921224594 0.0862385630607605 0.15074320137500763 0.05100530758500099 0.3249792456626892 0.04426686093211174 0.11571875959634781 0.13438618183135986 -0.018725071102380753 -0.022296907380223274 -0.11395934224128723 -0.08128499239683151 -0.005138065200299025 0.008533778600394726 0.19686582684516907 -0.059011995792388916 0.052979521453380585 -0.05275268480181694 0.1324506551027298 0.024121200665831566 -0.020247818902134895 0.036573681980371475 0.11061979085206985 0.13239522278308868 -0.25744864344596863 0.1574178785085678 -0.020239222794771194 0.12578192353248596 0.07704872637987137 0.30834734439849854 -0.21853475272655487 -0.028668910264968872 0.14583730697631836 0.24544253945350647 -0.10817429423332214 0.09709685295820236 -0.02104690670967102 0.015185347758233547 -0.022923659533262253 0.2862805426120758 -0.018115347251296043 0.0409671850502491 -0.05010790750384331
would -0.019503196701407433 -0.09624917060136795 0.12594753503799438 -0.14091157913208008 0.03475909307599068 0.19598713517189026 0.0028173457831144333 0.09186936914920807 -0.3201749920845032 -0.06085220351815224 0.045098528265953064 -0.0963275358080864 -0.01145151723176241 0.12833338975906372 -0.09450564533472061 -0.06637045741081238 0.10304579883813858 -0.38454869389533997 0.11824733018875122 -0.07700134813785553 0.05836828798055649 0.2932664752006531 0.07684554904699326 -0.04695494845509529 -0.08653321862220764 -0.30564218759536743 -0.13709412515163422 -0.3901800811290741 -0.19740654528141022 -0.2878117859363556 -0.06843920797109604 0.07114335149526596 0.15527386963367462 -0.3121187686920166 0.04798615351319313 0.006248537916690111 -0.1192047968506813 -0.17785689234733582 -0.03665192052721977 0.10576677322387695 -0.0213630348443985 -0.15098191797733307 -0.08421424776315689 -0.2927488088607788 0.12122933566570282 0.21631543338298798 0.29365405440330505 0.01959952712059021 0.2593660056591034 -0.07117203623056412 -0.2351735681295395 0.24018587172031403 0.5034714937210083 -0.21481333673000336 -0.010780022479593754 0.09541691839694977 -0.1376732885837555 -0.10646746307611465 0.06253062188625336 -0.07367575168609619 -0.011284071952104568 0.03270270675420761 0.12819524109363556 0.08111561089754105 -0.3361606001853943 -0.29302459955215454 -0.16779829561710358 0.31790080666542053 -0.2476891279220581 -0.03989999368786812 -0.14138317108154297 -0.20169886946678162 0.04456600174307823 0.037463050335645676 0.10758072137832642 -0.17061172425746918 0.27950453758239746 0.10041111707687378 0.0410773791372776 -0.17448733747005463 -0.04347323626279831 0.05025455355644226 -0.020277757197618484 -0.025416452437639236 0.01811087690293789 0.005314603913575411 0.24309909343719482 -0.01890523172914982 0.11856289952993393 -0.08811221271753311 -0.3547211289405823 0.3229166269302368 0.3443114757537842 -0.017398640513420105 0.05000033229589462 0.18887366354465485 -0.09109679609537125 0.23944619297981262 -0.24037331342697144 -0.35052093863487244
because -0.06536548584699631 0.08296586573123932 -0.016560440883040428 -0.22610509395599365 -0.07004868984222412 0.03208504244685173 0.009833983145654202 0.09834223985671997 -0.11661123484373093 0.01777312532067299 0.11986873298883438 0.22274406254291534 -0.10807651281356812 -0.10588423907756805 0.041783407330513 -0.0027394010685384274 0.09630873799324036 0.13912449777126312 0.060346558690071106 0.004966109059751034 0.32411715388298035 -0.1818881630897522 -0.028571678325533867 -0.035433996468782425 0.09254087507724762 0.05476474016904831 -0.007423911709338427 -0.14637424051761627 -0.006147810723632574 0.1372416764497757 0.01826624758541584 0.25863417983055115 -0.1834641993045807 -0.2774844467639923 -0.0037280451506376266 0.3116198182106018 -0.07715192437171936 -0.0705181211233139 0.032813262194395065 0.09774182736873627 0.05842261388897896 0.12052085995674133 0.006435041315853596 0.008982495404779911 -0.07327814400196075 0.2861025929450989 0.06516958773136139 -0.09546808153390884 -0.15055067837238312 -0.01845615729689598 0.04835718870162964 0.03895218297839165 0.11092124879360199 0.25823840498924255 0.06892501562833786 -0.14367075264453888 0.03939981386065483 -0.03650413826107979 -0.07283308357000351 -0.025473561137914658 0.22255654633045197 0.04291944205760956 0.07919187098741531 0.08982463926076889 -0.026279764249920845 -0.040193308144807816 0.08700069785118103 0.22944128513336182 0.1436479091644287 -0.043219394981861115 -0.07651170343160629 -0.2636464834213257 -0.04027467593550682 -0.05537683144211769 -0.014261819422245026 -0.03793773800134659 -0.2357599437236786 0.24635660648345947 0.009856301359832287 0.026480184867978096 0.25086888670921326 -0.011497518979012966 -0.08468184620141983 0.0036194741260260344 -0.020501554012298584 0.13844570517539978 -0.10590765625238419 -0.08324500173330307 0.2763112485408783 0.008655578829348087 0.10524621605873108 -0.017801811918616295 -0.014661826193332672 -0.1500079333782196 -0.22096794843673706 0.04252136871218681 0.05056700482964516 0.08003737777471542 -0.2724655270576477 -0.11161097139120102
state 0.07418978214263916 0.16716879606246948 0.2503710389137268 -0.11839775741100311 0.3439672589302063 -0.2421259880065918 -0.26087531447410583 0.15463751554489136 0.21653592586517334 0.13373234868049622 -0.09195172041654587 0.12784649431705475 -0.17377141118049622 0.00776425888761878 -0.16320553421974182 -0.018668893724679947 -0.06739917397499084 -0.01951967179775238 -0.3929024636745453 -0.2966059744358063 -0.07922091335058212 -0.011065222322940826 0.010305739939212799 0.10264629125595093 -0.15633949637413025 0.004872203338891268 0.1858503669500351 -0.030905311927199364 -0.1825445592403412 -0.09271200746297836 0.16841669380664825 0.2266368418931961 -0.13033349812030792 -0.06131155043840408 -0.12411981076002121 -0.24772244691848755 0.14025241136550903 0.20508114993572235 0.3904534876346588 -0.3168686032295227 -0.05723617598414421 0.05287996679544449 0.10861559957265854 0.15482467412948608 0.0017679758602753282 0.005721365101635456 -0.1304554045200348 -0.010812411084771156 -0.0440492145717144 0.09441263973712921 -0.02644740417599678 -0.05918223038315773 0.1660587340593338 -0.002540797693654895 0.05985525622963905 0.005003591068089008 0.2833041250705719 0.031042974442243576 -0.08393643796443939 0.2489050328731537 0.05326331779360771 -0.05969793349504471 -0.1380845010280609 0.07861766219139099 0.10708009451627731 0.13367238640785217 -0.015499803237617016 -0.04401175305247307 -0.08890905231237411 -0.013475021347403526 -0.0034247844014316797 -0.004281365312635899 -0.1034722775220871 -0.08314856141805649 0.2793880105018616 0.1657446026802063 -0.27572864294052124 -0.12021560221910477 -0.03644197806715965 0.1451118141412735 -0.04523120075464249 -0.013117986731231213 -0.05015426501631737 0.003252269234508276 -0.00951412133872509 0.2780768573284149 0.06418608129024506 -0.0028913039714097977 0.0887606292963028 0.13152818381786346 -0.028998689725995064 -0.3304433524608612 0.1857198029756546 -0.06054731830954552 0.09975987672805786 0.1034831777215004 0.02063921093940735 0.05103984475135803 0.2097160667181015 0.021894406527280807
they 0.1129869818687439 -0.13430526852607727 0.19060257077217102 -0.16963453590869904 0.03632941469550133 -0.13946835696697235 -0.14030231535434723 0.048623956739902496 0.24372850358486176 0.05196088179945946 -0.09330645203590393 0.02857905998826027 -0.018471011891961098 -0.04653079807758331 0.04016295447945595 -0.18188433349132538 -0.002130873966962099 0.0783279687166214 0.02808697521686554 0.37090829014778137 0.04001854360103607 -0.31782203912734985 0.19484366476535797 0.13753217458724976 0.11513862013816833 -0.14544446766376495 0.22959980368614197 0.024874789640307426 -0.20067045092582703 -0.4370303452014923 -0.40391406416893005 -0.20251242816448212 0.1643752008676529 -0.1521189659833908 -0.057281494140625 0.0603458471596241 0.12298908829689026 -0.20880725979804993 -0.05409405380487442 -0.20223093032836914 0.0599282830953598 -0.18783290684223175 -0.09174905717372894 0.014416634105145931 0.027976928278803825 0.13911892473697662 0.3951546251773834 0.13359512388706207 0.37923792004585266 0.2178242951631546 0.10613857209682465 -0.19619187712669373 -0.12052170932292938 -0.1741141825914383 -0.05131794884800911 0.13624584674835205 0.02840646728873253 -0.03669801726937294 -0.10445477813482285 -0.27645862102508545 -0.11696559935808182 -0.07617301493883133 0.18637312948703766 0.08607542514801025 0.006672218907624483 -0.030638976022601128 -0.051222268491983414 -0.048544369637966156 0.12277112901210785 -0.2762371897697449 -0.2862478196620941 0.049211010336875916 0.18682827055454254 0.16808593273162842 0.15743042528629303 0.014584299176931381 0.12406548857688904 0.12613657116889954 0.1745087057352066 0.1273970752954483 -0.23876455426216125 0.246794655919075 -0.02449161373078823 -0.23602233827114105 0.1221906989812851 -0.3962741196155548 0.1795109063386917 -0.1708848625421524 -0.07420540601015091 0.06574274599552155 -0.1682502031326294 -0.0769750103354454 -0.11824029684066772 0.2030228227376938 0.044830191880464554 -4.733532841783017E-4 -0.07945035398006439 -0.10696852952241898 -0.015903649851679802 0.14473992586135864
you 0.04937431961297989 -0.34114137291908264 0.16307975351810455 -0.23530565202236176 0.16003118455410004 -0.28520795702934265 -0.09516359120607376 -0.15960128605365753 -0.0068382141180336475 0.30687689781188965 0.3536490797996521 -0.11501540243625641 -0.07851969450712204 -2.834605984389782E-4 -0.09406642615795135 -0.3088180124759674 -0.20840591192245483 0.1767113357782364 0.03885852172970772 0.10267253965139389 -0.08682266622781754 -0.03308393806219101 0.30931681394577026 0.010556351393461227 0.10339340567588806 -0.2631272077560425 0.04033293202519417 0.058839160948991776 0.1749419867992401 -0.16132371127605438 -0.0997319146990776 0.17682835459709167 -0.1302008181810379 0.12538182735443115 -0.08138637244701385 -0.13744276762008667 0.12178806960582733 -0.40728867053985596 -0.21087120473384857 -0.1246035024523735 0.09767589718103409 0.01446138508617878 -0.042851898819208145 -0.013176278211176395 0.06625447422266006 0.13849183917045593 0.2398141771554947 0.011550921015441418 0.34019747376441956 0.24630042910575867 0.24790243804454803 -0.1787051409482956 -0.023526372388005257 0.015205622650682926 0.17827185988426208 0.028183022513985634 -0.1491590440273285 -0.11117380857467651 -0.17516781389713287 -0.1357683688402176 -0.09488575905561447 0.08439099788665771 0.4687475562095642 -0.24209007620811462 -0.1329011768102646 0.06304734200239182 0.09431713074445724 -0.13363702595233917 0.21899907290935516 -0.3116266131401062 0.00837879627943039 -0.0705023929476738 -0.019184444099664688 0.014435166493058205 -0.0036433509085327387 -0.13651199638843536 0.23897932469844818 -0.08767399936914444 0.12314702570438385 0.1385415494441986 6.526059587486088E-4 -0.02098306454718113 0.11093251407146454 -0.17295679450035095 0.036542799323797226 0.1264249086380005 0.08091232180595398 -0.4067767560482025 0.07821677625179291 -0.20065271854400635 -0.28578314185142517 -0.026264898478984833 -0.07072075456380844 0.04249979555606842 0.2924351394176483 0.16296005249023438 -0.031520139425992966 -0.09624949097633362 -0.28879237174987793 0.3007691502571106
$ -0.04545813426375389 -0.01282153744250536 -0.04723820462822914 0.04684653878211975 0.04114922881126404 -0.012351201847195625 -0.01986551284790039 0.003817620687186718 -0.024143310263752937 0.04929482191801071 -0.0353066623210907 0.026944290846586227 -0.0036102740559726954 0.008166068233549595 0.0018617676105350256 -0.028266143053770065 0.0034063460770994425 -0.03041543997824192 -0.013000999577343464 -0.02067367359995842 0.026752125471830368 0.006689809262752533 -0.025667259469628334 -0.021772462874650955 -0.009456649422645569 -0.011530550196766853 0.005582781508564949 0.04784849286079407 -0.01581224799156189 -0.0391770601272583 -0.02325631119310856 0.022549379616975784 -0.010906101204454899 0.00516037130728364 -0.02068645879626274 -0.03564395383000374 -0.002578902989625931 -0.0069788675755262375 0.03590219467878342 -0.0096129784360528 -0.015935013070702553 0.013044817373156548 -0.004849676508456469 0.003276364877820015 0.004238816909492016 0.03318092226982117 0.019917767494916916 -0.005772200413048267 -0.014499577693641186 0.05124124139547348 -0.014939462766051292 -0.01779264211654663 0.0076202042400836945 0.002819980727508664 2.4197413586080074E-4 -0.0055102938786149025 -0.010452738031744957 -0.002207506913691759 -0.008111037313938141 0.008063845336437225 -0.015301747247576714 -0.03074515238404274 0.009102273732423782 -0.01360721979290247 0.03679906949400902 -0.051214080303907394 -0.026372432708740234 0.004500191193073988 -0.005657730624079704 -0.034702565521001816 -0.02080584689974785 -0.009067459963262081 0.060651995241642 0.01096821203827858 -0.011760758236050606 0.01304184552282095 0.00455331290140748 0.010502034798264503 -0.008284398354589939 -0.0051991804502904415 -0.01674356311559677 -0.022072233259677887 0.025951309129595757 0.014175798743963242 8.329269476234913E-4 0.0035937069915235043 -0.013035062700510025 -0.010322893038392067 0.04643181711435318 0.015862273052334785 -0.027975579723715782 0.017518945038318634 0.02257026731967926 0.057793036103248596 0.04209268093109131 -0.010047469288110733 -0.043529871851205826 -0.010386282578110695 0.002415791852399707 -0.005339402239769697
going -0.027111509814858437 0.15624701976776123 0.044747281819581985 -0.19497889280319214 -0.3101871609687805 0.24472898244857788 0.46522989869117737 -0.10198528319597244 -0.005632920190691948 0.01456920150667429 -0.12198206037282944 -0.2515828013420105 -0.2933788597583771 -0.14062444865703583 -0.061570316553115845 -0.12140294909477234 -0.15624333918094635 0.03653191402554512 0.1485413908958435 -0.07343047857284546 0.30540621280670166 -0.009599769487977028 -0.06996072828769684 0.04244998097419739 0.08121419697999954 -0.016983991488814354 -0.37085282802581787 0.5958501100540161 0.10004950314760208 0.18334636092185974 -0.08120612055063248 0.4160199761390686 -0.03908631578087807 -0.31646662950515747 0.12639953196048737 0.19178235530853271 -0.19417282938957214 -0.38895490765571594 0.18447346985340118 -0.12035306543111801 -0.031126167625188828 0.16457593441009521 -0.10979060083627701 -0.2572714686393738 -0.3660815954208374 0.2137925624847412 0.22798149287700653 0.04866735637187958 0.03238381817936897 0.05945589393377304 -0.11142150312662125 -0.18012212216854095 0.09142853319644928 0.09425139427185059 -0.16796258091926575 -0.3153548538684845 -0.17728853225708008 -0.02753189392387867 0.17837801575660706 0.24170327186584473 -0.43959230184555054 0.1003875881433487 0.28031858801841736 -0.37947437167167664 -0.2237074077129364 -0.24821063876152039 -0.37504664063453674 -0.43474051356315613 -0.3583015203475952 0.29961130023002625 -0.17504268884658813 -0.3073650598526001 0.05894719064235687 -0.33504483103752136 -0.07178642600774765 0.14281639456748962 0.10101625323295593 0.13053272664546967 0.3186790943145752 0.024327943101525307 -0.06900998950004578 0.2028607577085495 0.17059145867824554 -0.14709818363189697 0.013621445745229721 -0.054260216653347015 -0.08249527961015701 -0.5639700889587402 0.30770984292030334 -0.10296723991632462 0.03528091311454773 -0.1735883355140686 -0.20732846856117249 0.507193922996521 -0.24969926476478577 0.12170206755399704 -0.10935281962156296 0.25465017557144165 -0.20107178390026093 0.25420132279396057
old 0.19123594462871552 0.18631015717983246 0.056290049105882645 -0.21663443744182587 0.2250509411096573 0.25984278321266174 0.18467466533184052 -0.13930657505989075 -0.07993704825639725 -0.13216929137706757 -0.35271263122558594 -0.22286885976791382 -0.04868026822805405 0.13292749226093292 -0.16005542874336243 0.039804406464099884 0.1133270338177681 -0.07262613624334335 -0.1511891782283783 -0.2186347097158432 0.039921972900629044 0.09064459800720215 0.05027327314019203 0.14251187443733215 0.2195441722869873 -0.09720522910356522 0.2221805900335312 0.2566777467727661 -0.23182539641857147 -0.0725606232881546 0.30605387687683105 0.181741863489151 0.08629622310400009 -0.0013545219553634524 0.02096559852361679 -0.17051219940185547 -0.09686806797981262 0.17825166881084442 0.48328739404678345 -0.3418612480163574 0.19904671609401703 -0.032153815031051636 -0.2103360891342163 0.05396058037877083 -0.0741751492023468 -0.126695916056633 -0.1641107201576233 0.2731966972351074 -0.03195464238524437 -0.024494923651218414 0.08914326131343842 0.29917895793914795 0.14503292739391327 0.08991432934999466 -0.08823615312576294 -0.26918354630470276 -0.14869938790798187 0.15144649147987366 0.2167024463415146 0.03570042923092842 0.10575540363788605 0.17121943831443787 0.16191838681697845 0.058629948645830154 -0.019532816484570503 -0.09836292266845703 0.1866351068019867 0.305026113986969 0.03892810270190239 0.18193981051445007 0.19901560246944427 0.11139918863773346 -0.10472650080919266 -0.22204622626304626 0.017278073355555534 0.25946858525276184 -0.18395252525806427 0.22665487229824066 -0.024968326091766357 0.19937673211097717 0.1208522692322731 -0.20660090446472168 -0.42077958583831787 0.14255176484584808 -0.2271212935447693 0.09336935728788376 0.2068791389465332 -0.13222770392894745 -0.12352006137371063 0.0881991758942604 0.22306843101978302 -0.1502956748008728 -0.10137686133384705 0.19289395213127136 0.3103535771369934 -0.1031118705868721 0.052843127399683 0.04578336700797081 0.1254950910806656 0.1871199905872345
want -0.280566543340683 -0.14848501980304718 -0.07258833199739456 0.2835504412651062 -0.442589670419693 -0.023226696997880936 -0.1627517193555832 0.23833626508712769 -0.07316213101148605 0.08592922240495682 0.15188217163085938 0.36234620213508606 -0.05757955089211464 -0.15758231282234192 0.07862795889377594 -0.15900593996047974 -0.4270913302898407 -0.185808926820755 -0.1056140884757042 0.1730540692806244 -0.08502594381570816 0.21845678985118866 0.27546659111976624 -0.19067420065402985 0.10678496211767197 -0.23804831504821777 -0.16218684613704681 0.11900218576192856 0.34989723563194275 0.005278971046209335 -0.06479236483573914 -0.12057285755872726 -0.07044440507888794 -0.13271543383598328 -0.11873170733451843 0.11984472721815109 0.0672576054930687 -0.09245555102825165 0.19875772297382355 -0.21319012343883514 -0.11895128339529037 -0.11638098210096359 -0.08794614672660828 0.07115943729877472 -0.10997575521469116 0.1354101151227951 0.5559936761856079 -0.10107187926769257 0.28985723853111267 -0.3086986541748047 -0.3044038414955139 0.23409956693649292 0.28492292761802673 -0.0014296447625383735 -0.018592985346913338 -0.1167902871966362 -0.14877638220787048 -0.12055536359548569 0.3250160217285156 0.17005710303783417 0.12934574484825134 -0.19623039662837982 -0.02833590656518936 -0.22992932796478271 -0.24088117480278015 -0.3535270690917969 0.04355321452021599 -0.05845959112048149 0.0022469621617347 0.06853213906288147 0.09773877263069153 -0.36527252197265625 0.002941689919680357 0.05152019485831261 0.21976403892040253 0.1510598063468933 0.33190491795539856 0.11903681606054306 0.10530111193656921 -0.32950058579444885 0.05032997950911522 -0.20129476487636566 0.5326386094093323 0.12806199491024017 -0.06669706851243973 0.02615640126168728 0.0634235069155693 -0.23532076179981232 0.2738059163093567 -0.10117239505052567 -0.22755680978298187 0.14168964326381683 0.19536685943603516 0.20171327888965607 -0.12262272089719772 0.2702163755893707 -0.24731209874153137 0.2007174789905548 -0.010355953127145767 -0.2517761290073395
night -0.21574488282203674 0.005780805367976427 -0.1905144602060318 -0.12422700226306915 0.30343860387802124 0.09649836272001266 -0.297250360250473 -0.15165512263774872 -0.19473375380039215 -0.09553076326847076 -0.2709953188896179 0.07142774760723114 0.18098853528499603 0.03264589607715607 0.1069815382361412 -0.3654616177082062 -0.10167447477579117 -0.11141043156385422 0.19576361775398254 0.17455057799816132 -0.29507067799568176 0.0812794491648674 0.0058042136952281 0.16244862973690033 -0.016494102776050568 0.046266864985227585 0.44507545232772827 -0.07419521361589432 -0.10901162028312683 0.274730920791626 0.21612955629825592 0.0394870862364769 0.11187058687210083 0.17379599809646606 -0.2180035561323166 -0.10384229570627213 0.09896539151668549 0.24924814701080322 0.044546645134687424 0.0869612917304039 -0.238495334982872 0.12577082216739655 0.0846293643116951 -0.36125579476356506 0.337507426738739 0.03797680884599686 -0.23268713057041168 -0.10068374872207642 0.2004660665988922 0.0025256157387048006 -0.24267823994159698 -0.27168115973472595 -0.10719367861747742 -0.34692418575286865 0.03308204561471939 -0.34776097536087036 0.4986492395401001 0.15965233743190765 -0.07592811435461044 0.010195218026638031 0.044027179479599 0.37071534991264343 -0.14280760288238525 0.1497691422700882 -0.2437821477651596 -0.34317776560783386 -0.38819774985313416 -0.10236402601003647 -0.10911267250776291 0.10129041969776154 0.16756267845630646 -0.031161030754446983 -0.11878606677055359 -0.289195716381073 -0.14516885578632355 0.2269422858953476 -0.07600699365139008 -0.21838372945785522 0.05685564875602722 -0.0570581816136837 0.20916202664375305 0.06688379496335983 0.015257695689797401 0.3769240081310272 -0.10047635436058044 0.03814540058374405 0.18061794340610504 0.07792171090841293 -0.05029425024986267 0.023029381409287453 0.3409106135368347 0.09591126441955566 0.11975252628326416 0.38054847717285156 -0.15527616441249847 -0.2603009343147278 0.1161891520023346 -0.2953142821788788 0.291475772857666 -0.06396850198507309
them -0.3719229996204376 -0.059244949370622635 -0.29139280319213867 0.16885262727737427 0.1495555192232132 -2.6961471303366125E-4 0.022580120712518692 0.13265448808670044 -0.014480826444923878 0.31173616647720337 -0.06077924370765686 -0.001715675345622003 -0.04932970926165581 0.028754213824868202 0.015349779278039932 -0.2758027911186218 0.01359626092016697 -0.08964616805315018 -0.09233692288398743 0.2204291969537735 0.021747678518295288 -0.15459686517715454 -0.031785208731889725 0.1440909206867218 -5.993650411255658E-4 -0.1284230798482895 0.18313252925872803 0.01579945720732212 0.06651414185762405 -0.20222344994544983 -0.16230614483356476 0.27677273750305176 0.006421187426894903 -0.24251499772071838 -0.20341137051582336 -0.17990924417972565 0.2529223561286926 -0.10030137747526169 0.07461251318454742 0.09669648110866547 0.038952965289354324 0.11562467366456985 0.12673842906951904 0.12252569943666458 0.2984669506549835 0.35618218779563904 0.14280742406845093 -0.09302302449941635 0.22674357891082764 0.10856155306100845 -0.004463400691747665 0.2721805274486542 0.09230030328035355 0.21177643537521362 0.14944078028202057 -0.2056044638156891 -0.30329230427742004 0.19659799337387085 0.1002197265625 -0.12967869639396667 0.01169468555599451 0.1186160147190094 0.0036770827136933804 0.3247707188129425 0.28196072578430176 -0.2689499258995056 -0.0685059055685997 0.05778108164668083 0.030107513070106506 -0.2545944154262543 0.1392691731452942 -0.13645344972610474 0.16600097715854645 0.018856264650821686 0.052125949412584305 -0.105122871696949 -0.1456933468580246 0.3669769763946533 0.13146758079528809 -0.06074165180325508 0.14379079639911652 0.13242249190807343 0.38373348116874695 -0.09333179891109467 0.02629048191010952 0.22501400113105774 -0.028349729254841805 -0.27648937702178955 -0.2099154144525528 0.12958256900310516 0.06272353231906891 0.1645215004682541 0.061404112726449966 0.21281203627586365 -0.03924788534641266 -0.2586994171142578 -0.25252944231033325 -4.1552979382686317E-4 -0.1679103672504425 0.2731384038925171
then 0.0988558903336525 0.09790635854005814 -0.07881759852170944 -0.05276072397828102 0.14182966947555542 -0.07665789872407913 0.09686681628227234 0.261553019285202 -0.02319713868200779 -0.26165881752967834 -0.44320592284202576 0.0456472709774971 -0.0409521721303463 -0.04683724418282509 -0.054217249155044556 -0.09242096543312073 0.04445640742778778 -0.06686399132013321 -0.0943451002240181 0.0762995257973671 0.0370926558971405 -0.16780054569244385 0.0734078511595726 -0.1278320550918579 0.06173409894108772 0.04603119567036629 -0.09636552631855011 0.22554366290569305 0.07306287437677383 -0.04711202532052994 -0.1326659768819809 0.18870818614959717 0.20598174631595612 0.004462333861738443 0.03538409247994423 -0.10340339690446854 0.3003840446472168 0.06328088790178299 -0.03320622071623802 0.10029905289411545 -0.4446241557598114 -0.17083673179149628 -0.005186218302696943 -0.05798865854740143 0.1703440397977829 -0.1429709494113922 0.15031008422374725 0.1818016618490219 0.11137419939041138 -0.16217125952243805 -0.10571342706680298 -0.3897610008716583 -0.27884048223495483 -0.12154164165258408 -0.1096920445561409 0.0019555583130568266 0.32424619793891907 0.15324635803699493 0.18534289300441742 -0.12801702320575714 -0.12538692355155945 -0.08673777431249619 -0.026292864233255386 -0.015942392870783806 -0.10498135536909103 -0.20808565616607666 0.05058528855443001 -0.24565520882606506 -0.3004382848739624 -0.09431347250938416 0.19234375655651093 -0.27916479110717773 -0.2745117247104645 -0.09475647658109665 -0.11978911608457565 -0.2720682919025421 0.06787685304880142 0.04315505921840668 -0.05546160787343979 -0.09146632254123688 0.2783052623271942 -0.04150450974702835 -0.10295975208282471 0.09030497819185257 -0.14179310202598572 0.07183285802602768 -0.030089203268289566 -0.01855333335697651 0.04137486219406128 -0.008268183097243309 0.09219756722450256 -0.008457472547888756 -0.06887999176979065 0.005028040613979101 -0.09228726476430893 0.22622524201869965 0.16062745451927185 0.15634363889694214 -0.023857664316892624 0.007674441672861576
court 0.010270658880472183 0.18265242874622345 0.0034990180283784866 -0.20972076058387756 0.2534632980823517 -0.06300576776266098 -0.09831409156322479 0.023832060396671295 -0.025394268333911896 0.06391862034797668 -0.09080208837985992 -7.918860646896064E-4 -0.09665025025606155 -0.08588221669197083 -0.01638004742562771 -0.05816814303398132 -0.3348112404346466 -0.09220483154058456 -0.16126441955566406 -0.18286766111850739 0.007959128357470036 -0.15785039961338043 0.023952176794409752 -0.2456090897321701 -0.004033842124044895 -0.014825534075498581 0.12497316300868988 0.15239965915679932 -0.02535887435078621 1.2088301446055993E-4 0.06033070757985115 -0.006443443242460489 -0.019968708977103233 -0.14412753283977509 -0.13971495628356934 0.08423688262701035 -0.09256771206855774 0.09708409756422043 0.21714769303798676 -0.04206365719437599 -0.09553792327642441 0.152029350399971 0.10604874789714813 0.07935391366481781 -0.008034723810851574 0.07051669806241989 0.06282816082239151 -0.03726161643862724 0.13048864901065826 0.034664053469896317 -0.2373788207769394 -0.04782870411872864 0.10115588456392288 -0.0799689069390297 0.10833171010017395 0.09075243026018143 0.181404247879982 0.001057205954566598 -0.04074181243777275 0.11963318288326263 -0.07152765989303589 0.11715615540742874 -0.10733101516962051 -0.12760964035987854 -0.03138754144310951 -0.1387525200843811 -0.048330701887607574 -0.16835570335388184 -0.21683980524539948 0.05829242989420891 0.011033833958208561 -0.03537885472178459 -0.22287781536579132 -0.18440666794776917 -0.10034909844398499 0.32303085923194885 -0.00845245085656643 -0.21916115283966064 0.16202284395694733 0.04768983647227287 -0.03035493567585945 0.014889005571603775 0.08163376897573471 0.0065409340895712376 -0.13777101039886475 0.062428053468465805 0.08222515136003494 -0.03210339695215225 0.2590557932853699 0.030648859217762947 0.10947184264659882 -0.23642972111701965 0.03750588372349739 -0.07864560931921005 -0.02779124304652214 0.17136934399604797 -0.009372536092996597 -0.24295727908611298 -0.049624666571617126 0.17145274579524994
an 0.0163348987698555 0.17998436093330383 -0.015230704098939896 0.05697154626250267 -0.041452471166849136 0.05175672471523285 0.0010410953545942903 -0.26480716466903687 -0.153831347823143 -0.005616879090666771 -0.26059067249298096 -0.1101006492972374 -0.1200011745095253 -0.055426452308893204 -0.19663262367248535 0.024907568469643593 -0.07315077632665634 0.0047600362449884415 0.12686578929424286 -0.032449495047330856 0.3101074695587158 0.038247644901275635 -0.009550616145133972 0.14083196222782135 -0.15527626872062683 0.0638263076543808 0.014542429707944393 0.12950900197029114 0.011978949420154095 0.02351296879351139 0.08091665804386139 -0.12395218759775162 -0.08063820004463196 0.09831824153661728 -0.11391999572515488 -0.36706414818763733 0.22990290820598602 0.230265811085701 0.16290457546710968 -0.32041043043136597 -0.18693071603775024 0.2175177037715912 -0.008056174032390118 0.009164607152342796 0.15552346408367157 0.06206853687763214 0.03642675653100014 0.0019290139898657799 0.18982863426208496 0.084143728017807 -0.08378833532333374 -0.14568164944648743 0.17437316477298737 -0.006100363563746214 0.15730664134025574 -0.1889825314283371 0.01081192959100008 0.1556268185377121 0.003984655719250441 0.23726102709770203 0.01813126914203167 0.05548921227455139 0.1006573736667633 -0.14713767170906067 0.0885046198964119 -0.21772336959838867 -0.01161926332861185 -0.06952587515115738 0.027453511953353882 0.25587695837020874 -0.05843958631157875 -0.15391334891319275 0.035511333495378494 -0.277566522359848 0.055433209985494614 0.14638587832450867 -0.04156586900353432 -0.14828994870185852 -0.061983563005924225 -0.008152579888701439 0.1867583990097046 0.12753640115261078 0.03717949241399765 0.17401425540447235 0.1047380194067955 0.28356900811195374 -0.14186549186706543 0.14449121057987213 -0.10006267577409744 -0.1149342730641365 -0.14958974719047546 -0.20968353748321533 0.02941354177892208 0.3965502679347992 -0.07375103235244751 0.0923280343413353 0.05986372008919716 -0.095242440700531 0.023217692971229553 0.18914420902729034
- -0.015102908946573734 0.05187365040183067 -0.002180783310905099 -0.03338898718357086 0.08567754179239273 -0.0355849526822567 0.010677189566195011 0.07996809482574463 0.02315797097980976 -0.025047296658158302 -0.15388184785842896 0.04469246789813042 -0.10960382223129272 0.003401815425604582 0.009475931525230408 0.02762242592871189 -0.03322558104991913 0.03556127846240997 -0.10420221835374832 -0.07307257503271103 -0.07067793607711792 -0.021747635677456856 0.0018271501176059246 0.053330712020397186 -0.01805654913187027 0.014112306758761406 0.036777298897504807 0.01913585513830185 -0.011162289418280125 -0.038273464888334274 0.10699084401130676 -0.060038261115550995 -0.024644305929541588 -0.024100959300994873 -0.08725936710834503 -0.13077491521835327 0.09707793593406677 -0.0025941599160432816 0.044024791568517685 -0.02067476138472557 -0.14932295680046082 0.1319526731967926 0.008188331499695778 -0.0260382741689682 0.06871218979358673 -0.08253838121891022 -0.08278446644544601 0.017986305058002472 0.0164527278393507 0.021836303174495697 0.014018144458532333 -0.08486489206552505 -0.0902697816491127 -0.12446856498718262 -0.0892641544342041 -0.02973480150103569 0.010814569890499115 0.010808147490024567 0.057579390704631805 0.059123001992702484 0.06982997059822083 -0.017412500455975533 0.061564527451992035 -0.02881726063787937 0.05695392191410065 -0.07385749369859695 -0.12098181992769241 -0.05202054604887962 -0.043514348566532135 -0.034146420657634735 0.07176784425973892 -0.003997699357569218 0.027101606130599976 -0.10693645477294922 -0.025423185899853706 -0.03840065002441406 0.004477713257074356 0.10513657331466675 3.8428304833360016E-5 0.005942593794316053 0.19589480757713318 -0.005163738504052162 -0.028532560914754868 -0.12145199626684189 -0.037051957100629807 0.0939873605966568 0.0022997951600700617 -0.09280943870544434 -0.07570972293615341 0.08357595652341843 0.10449209809303284 -0.05369965359568596 -0.015170629136264324 0.04366297647356987 -0.012290836311876774 -0.06223370507359505 -0.0201564971357584 -0.07481365650892258 0.15605325996875763 0.04002109542489052
each -0.17756594717502594 0.2184908390045166 -0.2937851846218109 0.2924114763736725 0.20425131916999817 0.001312864595092833 -0.14145056903362274 0.11471809446811676 -0.27337750792503357 0.46721982955932617 -0.07390796393156052 -0.024677544832229614 -0.06610001623630524 -0.022539494559168816 -0.024694867432117462 0.18879494071006775 -0.30360788106918335 -0.3491632044315338 -0.04271944612264633 -0.02434966340661049 6.172952707856894E-4 -0.01720355823636055 -0.14744900166988373 0.23043808341026306 -0.21064408123493195 -0.10653131455183029 0.09067267179489136 -0.11926377564668655 -0.1884845793247223 -0.29823240637779236 -0.03312963247299194 0.21815845370292664 -0.1547989547252655 0.038120415061712265 -0.5668706893920898 -0.21682748198509216 0.3687916696071625 -0.03330451622605324 0.22023771703243256 0.053339842706918716 0.17515403032302856 0.10514546930789948 0.12138237804174423 0.1475343555212021 -0.09452733397483826 0.17594566941261292 0.4558973014354706 -0.189255952835083 0.3052045702934265 0.04783397540450096 0.1246047392487526 0.01069814246147871 -0.014165865257382393 -0.009542015381157398 0.005785311106592417 -0.2700379490852356 0.03871193528175354 -0.030020935460925102 -0.03409373015165329 -0.0054895891807973385 -0.1423332244157791 -0.22472704946994781 -0.03603542596101761 0.02794906124472618 0.22492912411689758 -0.561631977558136 -0.3189240097999573 -0.17359831929206848 0.20142245292663574 -0.08746875822544098 0.0964178666472435 -0.05271625518798828 0.7009329199790955 0.16682767868041992 -0.13484874367713928 0.06325434893369675 -0.1793767660856247 0.2379034459590912 -0.15258343517780304 -0.23928989470005035 0.08159346878528595 -0.31483688950538635 0.2715875506401062 0.17665967345237732 -0.23402272164821625 0.2668498456478119 0.12050293385982513 0.15779125690460205 -0.07120684534311295 0.1291930377483368 -0.23393452167510986 0.104865163564682 0.18379180133342743 0.31748679280281067 -0.20497925579547882 -0.19428379833698273 -0.16670575737953186 -0.3029381036758423 -0.283794641494751 0.1472434401512146
former -0.007426167838275433 0.04017450660467148 0.019054511561989784 -0.024685775861144066 0.059866245836019516 -0.01510000228881836 -0.014774883165955544 0.008539514616131783 0.022677388042211533 0.012533214874565601 0.004783873446285725 -0.01627933606505394 -0.006444387137889862 -0.017740998417139053 0.027990393340587616 0.05388496071100235 0.010211641900241375 -0.03013284131884575 -0.022106973454356194 -0.03667903319001198 -0.017588501796126366 0.013772958889603615 -0.022544963285326958 0.023446518927812576 -0.01106759812682867 0.014866000041365623 0.031170843169093132 -0.026259655132889748 -0.033949676901102066 -0.009711839258670807 0.052105799317359924 0.0021204666700214148 -0.002888473914936185 -4.793426487594843E-4 -0.009577099233865738 -0.014627449214458466 -0.009764947928488255 0.024559419602155685 0.032839335501194 -0.019860781729221344 0.003913332708179951 0.016553308814764023 0.045580651611089706 -0.01808551698923111 0.019625674933195114 -0.03833765164017677 -0.03220749646425247 0.021387979388237 -0.023536350578069687 -7.779308944009244E-4 -0.014706302434206009 0.00564425066113472 -0.0046140216290950775 -0.02637370489537716 0.012467878870666027 0.018973805010318756 0.027845388278365135 0.028556814417243004 0.014008410274982452 0.00623576994985342 0.012379514053463936 0.021404292434453964 -0.027971342206001282 -0.0033545498736202717 0.02760646678507328 -0.012351244688034058 -0.022817837074398994 0.01360049843788147 -0.0204524677246809 0.044180989265441895 0.01313861645758152 0.016628118231892586 -0.030480364337563515 -0.013830609619617462 -0.003227749839425087 0.03991331905126572 -0.0323098860681057 -0.03771436959505081 0.02233249507844448 0.033014699816703796 -0.004945897031575441 -0.019895507022738457 -0.02186610922217369 0.0011067125014960766 -0.02176801674067974 0.02888009138405323 0.02513412944972515 0.0017658311408013105 -0.04321219027042389 -0.024638287723064423 0.039081182330846786 -0.04738170653581619 0.0450366735458374 -0.014018992893397808 -0.0028560985811054707 -0.015723273158073425 0.006158989854156971 0.014551164582371712 0.05442243441939354 0.0033061672002077103
as -0.10363589227199554 -0.12798193097114563 -0.12322184443473816 0.13724422454833984 0.34731799364089966 0.09637907892465591 -0.10984700918197632 0.26025113463401794 0.23300454020500183 0.36726027727127075 -0.07260280847549438 0.2686210572719574 0.18764793872833252 0.16969425976276398 0.12049933522939682 -0.08726304769515991 0.2824145555496216 0.17491720616817474 0.11765243858098984 0.013153882697224617 0.06299623101949692 -0.10180751979351044 0.0644712895154953 0.1974795162677765 0.34969040751457214 -0.04107294976711273 -0.15363985300064087 -0.23081150650978088 0.2569119334220886 0.03959418833255768 0.23593200743198395 -0.02911183424293995 -0.07710754871368408 -0.001030840678140521 0.07493764907121658 0.45700570940971375 -0.29725080728530884 0.1079169288277626 -0.031220000237226486 -0.1824696660041809 -0.16258838772773743 0.21967799961566925 -0.07982729375362396 -0.14529886841773987 0.11680903285741806 -0.006808361504226923 0.03211871534585953 -0.42508119344711304 -0.11730863153934479 0.3490124046802521 0.32665738463401794 -0.04911843687295914 -0.31647989153862 0.1890277862548828 -0.2404508739709854 -0.21333818137645721 -0.10412716865539551 0.2578164339065552 -0.5152149796485901 -0.17041325569152832 0.241780623793602 -0.26995277404785156 0.1737399846315384 -0.16907767951488495 -0.0363435372710228 0.040696125477552414 -0.09026141464710236 0.3294093608856201 0.09504983574151993 0.17423281073570251 -0.04400204122066498 -0.06480539590120316 -0.05103059113025665 -0.21937766671180725 0.4228123724460602 -0.010054066777229309 -0.10483843088150024 0.022553997114300728 -0.490285724401474 0.003286080900579691 -0.3061215281486511 -0.11950065940618515 0.18444617092609406 -0.29964080452919006 -0.28195396065711975 0.46657049655914307 0.1517677754163742 0.07371246069669724 -0.1717711240053177 -0.10559217631816864 0.2635595202445984 -0.20236825942993164 -0.09007485955953598 0.3831958472728729 0.08895290642976761 0.022235821932554245 -0.32751375436782837 0.22111864387989044 0.0047938222996890545 -0.08468835055828094
at -0.34416091442108154 0.34139397740364075 0.02272985130548477 -0.11725723743438721 0.10399333387613297 -0.09198217839002609 -0.15216077864170074 -0.37830162048339844 0.48057636618614197 -0.13276523351669312 -0.4803040623664856 0.05751795694231987 -0.15214616060256958 -0.17228367924690247 -0.03771677985787392 -0.0037360975984483957 -0.2177986055612564 -0.2831989526748657 0.35480886697769165 0.03734760731458664 0.16515058279037476 -0.15602810680866241 0.022470863536000252 0.2018115371465683 -0.051748327910900116 -0.061012934893369675 0.2484784871339798 -0.37947720289230347 -0.012463856488466263 -0.02843990921974182 0.49038901925086975 -0.07294456660747528 0.2344348281621933 -0.3605988919734955 -0.015982462093234062 0.15726427733898163 0.252047598361969 0.21466395258903503 0.01109069399535656 0.18598806858062744 0.07536344975233078 0.14171232283115387 -0.03145324066281319 0.13158895075321198 -0.10871592909097672 0.25636953115463257 0.5231747031211853 0.09822755306959152 -0.1704636514186859 -0.13227365911006927 -0.020958973094820976 0.029521519318223 -0.22350436449050903 0.18120676279067993 0.3004421889781952 -0.18235832452774048 0.07667428255081177 0.20232561230659485 0.0378536731004715 -0.022773481905460358 0.1450991928577423 0.0021587542723864317 -0.4070826768875122 0.07862762361764908 -0.28020724654197693 -0.2654055655002594 -0.4306902587413788 0.004744702484458685 -0.021244116127490997 0.11819949001073837 0.36892586946487427 0.259297251701355 0.035267990082502365 -0.15481972694396973 -0.013422995805740356 0.14655038714408875 -0.04483279585838318 0.1722821295261383 -0.2794259786605835 0.1858125776052475 0.2806968688964844 0.2777283489704132 -0.21143509447574615 -0.12925471365451813 -0.306205153465271 -0.17802061140537262 -0.21761870384216309 0.018191751092672348 -0.37446829676628113 -0.2688286006450653 0.2737876772880554 -0.2069234699010849 0.2569946348667145 0.021653935313224792 -0.21672917902469635 -0.15046486258506775 0.12465149909257889 -0.07380417734384537 -0.010995562188327312 0.25237181782722473
left -0.03804604709148407 0.023475199937820435 -0.016172949224710464 -0.1513078510761261 0.1136326864361763 0.1148747131228447 0.23782895505428314 -0.12905897200107574 -0.13712114095687866 -0.26672035455703735 -0.3427017033100128 0.10929805040359497 -0.32131898403167725 0.21544700860977173 -0.04007989168167114 0.1797773391008377 0.38382843136787415 0.131019726395607 -0.2151188999414444 -0.1263996809720993 0.150447815656662 -0.032828155905008316 0.11628801375627518 -0.2257915586233139 -0.11477092653512955 0.1205371618270874 0.0667358860373497 0.09709491580724716 -0.16379815340042114 0.10895631462335587 0.2161281406879425 0.3075468838214874 -0.18134622275829315 0.07016532123088837 0.0284613948315382 -0.03201206773519516 0.06251268088817596 0.00926799513399601 -0.034425776451826096 0.2893265187740326 -0.25967511534690857 0.14122717082500458 0.10706403851509094 -0.06182445213198662 0.2892080843448639 -0.02795812115073204 -0.04098859056830406 0.3424082100391388 0.1268145591020584 0.1326695829629898 -0.09878312796354294 0.18825675547122955 0.04137950390577316 0.03486332297325134 -0.08615250885486603 0.0397225059568882 -0.03513471782207489 3.9482125430367887E-4 0.11624375730752945 0.07153641432523727 0.059164270758628845 -0.03276664391160011 0.05962689593434334 -0.08537960797548294 0.2852367162704468 -0.022027678787708282 -0.006223294883966446 -0.0211194958537817 -0.20229016244411469 -0.20984745025634766 -0.003216414013877511 0.004687377717345953 -0.09265159070491791 -0.01306716538965702 -0.02661854773759842 0.01707664132118225 0.051889874041080475 0.0993439257144928 -0.08582226186990738 0.14557617902755737 0.1730547696352005 -0.1436036080121994 -0.3568233549594879 0.12693385779857635 -0.31778615713119507 0.08598411083221436 0.016013341024518013 -0.11963780969381332 -0.027070635929703712 -0.08396600186824799 0.09796177595853806 -0.13896794617176056 0.2306160181760788 0.0974685326218605 0.21364179253578186 -0.1863986700773239 -0.03836023062467575 -0.09953773021697998 0.04303345829248428 -0.0029794308356940746
much -0.1741660088300705 -0.004107097163796425 -0.11275335401296616 -0.23750372231006622 -0.34483420848846436 0.1616433709859848 -0.12777212262153625 -0.39186984300613403 -0.3724144399166107 -0.2019757479429245 -0.3243219554424286 0.11949533969163895 0.2771996557712555 0.14275141060352325 0.03719639033079147 0.0542420819401741 0.07157992571592331 0.018353164196014404 -0.05711139366030693 -0.09218659996986389 -0.08585213124752045 -0.08428889513015747 0.24690590798854828 0.04548653960227966 -0.05729285255074501 0.17761002480983734 0.09314873814582825 0.06248209625482559 -0.12559545040130615 -0.22744055092334747 -0.3401506245136261 -0.14502054452896118 -0.09532707184553146 -0.04174492880702019 0.3194422423839569 0.17900076508522034 -0.17233626544475555 -0.14295779168605804 0.28763437271118164 -0.20308639109134674 -0.18064989149570465 -0.006036246661096811 -0.33141061663627625 -0.1384381651878357 -0.2052866518497467 0.27361512184143066 -0.23279114067554474 -0.09597806632518768 -0.11314032226800919 -0.048625536262989044 0.05736953392624855 0.002817052649334073 0.8191996812820435 0.16692213714122772 0.1623440980911255 0.09623508900403976 -0.16992542147636414 0.0753970518708229 -0.030841950327157974 0.49603521823883057 3.0086284823482856E-6 0.13588136434555054 0.534275233745575 0.37052106857299805 0.4579284191131592 -0.03898659721016884 0.14185483753681183 0.28058382868766785 0.3874761462211609 -0.18909864127635956 0.17026057839393616 0.2989470064640045 0.5051572918891907 0.4952966868877411 -0.28938111662864685 -0.09216707199811935 -0.13008631765842438 0.15679866075515747 0.13770318031311035 -0.01094616949558258 0.6243299841880798 -0.41641098260879517 -0.11233978718519211 0.05026041343808174 0.12051216512918472 0.08163890242576599 0.18968094885349274 -0.1945376992225647 -0.16849733889102936 0.24062666296958923 0.11837022751569748 0.1053806021809578 -0.24944013357162476 -0.1713504195213318 0.09925372153520584 -0.1489807516336441 0.09429889917373657 -0.21394933760166168 -0.37516385316848755 0.21160843968391418
be -0.06362994015216827 0.08667871356010437 0.06111140549182892 -0.2297280728816986 -0.12507720291614532 0.13978926837444305 0.17081859707832336 0.22127322852611542 0.22250664234161377 0.2706761658191681 -0.022465169429779053 0.018520554527640343 0.28343185782432556 -0.08432894945144653 -0.1810809224843979 0.1258375197649002 -0.19001290202140808 0.5199485421180725 -0.11886312812566757 -0.011785467155277729 0.5095586180686951 0.07463564723730087 0.0632885992527008 -0.17753417789936066 -0.19804292917251587 -0.047464434057474136 -0.15506340563297272 -0.44026657938957214 -0.005520408973097801 -0.016422076150774956 -0.20315170288085938 -0.0729556605219841 -0.47556835412979126 0.11973584443330765 -0.02618986926972866 -0.01604624092578888 0.18273326754570007 0.33604443073272705 -0.1894492506980896 0.13733455538749695 -0.4435085952281952 0.2317173182964325 -0.12129358947277069 0.12059079110622406 0.20412729680538177 0.17850230634212494 -0.24655620753765106 0.22658643126487732 0.09225063025951385 0.22289951145648956 0.24460899829864502 0.3330136239528656 0.20582136511802673 -0.12798362970352173 0.16701997816562653 0.034715861082077026 -0.005596034228801727 0.21008369326591492 -0.3366822600364685 0.12210152298212051 0.2313719391822815 -0.08358541131019592 0.03631467744708061 0.03727148473262787 -0.1509835422039032 0.13366694748401642 0.26738807559013367 0.001319686765782535 0.06342310458421707 0.2987670600414276 -0.17285475134849548 0.1591363549232483 0.04126371443271637 -0.08119819313287735 0.08674833923578262 0.011548600159585476 -0.16040556132793427 -0.03356513753533363 0.336941659450531 -0.0345337837934494 -0.1912095993757248 0.37819236516952515 -0.10987450182437897 -0.09677650779485703 0.2013891637325287 0.17125065624713898 -0.10828898847103119 0.19710172712802887 0.08574330061674118 -0.11528836190700531 0.007611365988850594 -0.25895434617996216 0.0019230394391342998 0.027522554621100426 0.23070013523101807 0.318185418844223 -0.059523697942495346 -0.4413740932941437 -0.10183864831924438 0.11148170381784439
another 0.040397752076387405 0.20787137746810913 -0.30744826793670654 0.07764143496751785 0.07357403635978699 0.2367851287126541 -0.3986718952655792 0.10836570709943771 -0.3591254651546478 -0.12175638973712921 -0.23374274373054504 -0.2960140109062195 -0.05116438865661621 -0.24183759093284607 -0.21846070885658264 0.08450482785701752 -0.11605092138051987 0.019006365910172462 0.11218445748090744 0.07918670773506165 0.0674806460738182 0.13572627305984497 0.07388735562562943 0.020113758742809296 -0.015607274137437344 -0.07269548624753952 -0.09304266422986984 0.18286548554897308 0.036145273596048355 0.26583412289619446 0.14025475084781647 -0.14781349897384644 -0.3937183916568756 0.3030238151550293 -0.03125029802322388 -0.27751681208610535 0.17920231819152832 0.0939667746424675 -0.18552857637405396 -0.13532350957393646 0.003920574206858873 0.4387669563293457 -0.1817786544561386 -0.10969996452331543 0.29497918486595154 0.07768332213163376 0.011473164893686771 0.18194548785686493 0.021595899015665054 0.25865253806114197 -0.061035528779029846 -0.26084721088409424 -0.034595128148794174 -0.44242241978645325 0.05786425247788429 0.39546844363212585 -0.054772429168224335 0.1151098757982254 0.15715286135673523 -0.10944666713476181 0.014247485436499119 -0.049521565437316895 0.12750601768493652 -0.11471658200025558 0.2824290990829468 -0.20320118963718414 0.0026453628670424223 -0.11827921122312546 0.1095758005976677 -9.071142412722111E-4 0.05437631532549858 -0.19597868621349335 -0.2169972062110901 -0.20380982756614685 -0.28326329588890076 -0.26136040687561035 -0.30690327286720276 -0.1798991560935974 0.14375582337379456 0.11160143464803696 0.02241026610136032 0.26668620109558105 0.1945744901895523 0.0720127671957016 0.24626781046390533 0.2675262689590454 -0.20249076187610626 -0.08870698511600494 -0.19582615792751312 0.06339127570390701 -0.04498019814491272 0.20321013033390045 0.31025147438049316 -0.015963859856128693 0.012953265570104122 -0.0081257913261652 -0.1329863965511322 -0.1695288121700287 0.04392610490322113 -0.3434126079082489
two -0.20344987511634827 0.1139516532421112 -0.04841532185673714 -0.10066527873277664 0.4832085967063904 0.2920888662338257 0.021848009899258614 -0.1053503230214119 -0.051902368664741516 -0.24384906888008118 -0.22269350290298462 -0.13280802965164185 -0.24782435595989227 0.023534052073955536 0.28932085633277893 0.10076701641082764 0.06766354292631149 -0.1123170256614685 -0.30548936128616333 -0.08246343582868576 -0.23838935792446136 -0.2782681882381439 -0.1931779682636261 -0.2075783610343933 -0.15563246607780457 -0.02459861896932125 0.359566867351532 0.2454143613576889 -0.18622645735740662 -0.25034603476524353 0.2347581386566162 0.5725259184837341 -0.43025460839271545 0.024485960602760315 -0.3355520963668823 -0.39538997411727905 0.1030605360865593 -0.08797802031040192 0.012652275152504444 0.2668912708759308 -0.5370564460754395 0.1430613100528717 -0.2537142038345337 -0.023645395413041115 0.4447067677974701 -0.2282913327217102 0.16227969527244568 0.18119686841964722 0.06292121112346649 0.45650365948677063 0.06501956284046173 0.04913739487528801 -0.2649323344230652 -0.4138912856578827 -0.2874792218208313 -0.0012366680894047022 -0.12560425698757172 0.03426177054643631 0.05522420257329941 -0.14439059793949127 0.24253541231155396 -0.17496418952941895 -0.00751881767064333 -0.184244304895401 0.3319496512413025 -0.4049794375896454 -0.2624063193798065 0.2799263000488281 -0.18888811767101288 -0.16761794686317444 0.2449503093957901 -0.10233097523450851 0.16490980982780457 -0.4885425865650177 -0.24779485166072845 -0.18219582736492157 -0.168034166097641 0.16742342710494995 0.2264903485774994 -0.012794364243745804 0.1803893893957138 -0.12568317353725433 -0.3508162200450897 -0.15336933732032776 -0.4137776792049408 -0.12442174553871155 -0.005892746616154909 -0.1163928285241127 -0.2074071317911148 0.15930400788784027 -0.09961916506290436 -0.07734520733356476 0.30080318450927734 0.39976784586906433 0.338779479265213 -0.1359030306339264 -0.2025604099035263 -0.25461265444755554 0.20091602206230164 -0.17294885218143463
long 0.02935567870736122 0.24088865518569946 0.15033574402332306 -0.3080960214138031 -0.10123810172080994 0.7053408622741699 0.18067651987075806 -0.4156753718852997 0.10997366905212402 -0.2621133029460907 -0.5867476463317871 -0.35559317469596863 -0.0527707040309906 -0.0647057369351387 -0.01520625501871109 -0.36316725611686707 -0.16238249838352203 -0.04532013088464737 0.14185871183872223 0.4802083373069763 -0.09795276075601578 -0.042633313685655594 0.09571684151887894 0.24375249445438385 -0.48464280366897583 0.09643689543008804 0.05965424329042435 0.18755586445331573 0.015182280912995338 0.16755568981170654 -0.03731570765376091 -0.3589664697647095 -0.0469697080552578 0.20483644306659698 4.52680658781901E-4 -0.023169921711087227 -0.6060687303543091 0.20815260708332062 0.2577415406703949 -0.21212857961654663 0.021467886865139008 0.5193991661071777 -0.6550182104110718 -0.09235800057649612 0.14726395905017853 0.10056599974632263 -0.6010416150093079 -0.22298572957515717 -0.05195215344429016 0.4337605834007263 -0.17816704511642456 -0.2149686962366104 0.07554713636636734 -0.7148526906967163 -0.07285264879465103 -0.06679156422615051 -0.25663676857948303 0.10023201256990433 -0.03646927699446678 0.04945473000407219 -0.16312409937381744 0.12136735022068024 0.14382898807525635 0.11684402078390121 -0.5234082341194153 -0.08576088398694992 -0.08367009460926056 0.3835245966911316 0.07142957299947739 0.26744693517684937 -0.21182960271835327 0.2414606213569641 0.21897615492343903 -0.012982628308236599 -0.12504731118679047 -0.1657915860414505 -0.3087085783481598 -0.02739647403359413 0.11006683111190796 -0.6453838348388672 0.2180590033531189 -0.023817304521799088 -0.26809588074684143 0.2700137794017792 0.25061407685279846 0.29878583550453186 0.04210444539785385 0.010462792590260506 -0.3180386424064636 0.0946856364607811 -0.15274681150913239 0.03626251220703125 -0.599172055721283 0.050621408969163895 -0.005962950177490711 -0.15452928841114044 0.12074454128742218 -0.46781420707702637 -0.14538036286830902 0.1037544384598732
into 0.10524407774209976 -0.15106508135795593 -0.26487860083580017 0.010593051090836525 0.19257228076457977 -0.14267726242542267 -0.14735624194145203 -0.13980910181999207 -0.0245493296533823 -0.10097360610961914 0.04480091109871864 0.0255080945789814 -0.06438827514648438 -0.20875325798988342 -0.16481105983257294 -0.3327135741710663 -0.09384137392044067 0.03978691250085831 0.0995057001709938 0.18822911381721497 0.027381200343370438 -0.09967748075723648 0.03008926287293434 -0.01820623315870762 -0.05270365998148918 -0.24024873971939087 0.005454761907458305 0.08273224532604218 0.12785963714122772 0.1355271190404892 0.05013608559966087 0.03974229469895363 -0.019156571477651596 -0.07380743324756622 -0.2276085466146469 0.0330265611410141 0.1536615639925003 0.2440977692604065 0.10887724161148071 -0.11444301903247833 -0.009071062318980694 -0.10382802039384842 -0.13562364876270294 -0.020261039957404137 0.03932008892297745 0.15951886773109436 0.0789857804775238 0.11203125864267349 0.07959578931331635 0.2560991644859314 -0.24987272918224335 -0.1643185019493103 0.015361747704446316 0.006133043672889471 0.1374376267194748 -0.22108350694179535 -0.07931214570999146 0.021959790959954262 0.027461126446723938 0.03128230571746826 0.02717135287821293 0.009853566065430641 -0.29014644026756287 -0.12054765224456787 -0.19066260755062103 -0.229379802942276 0.043081894516944885 -0.022453980520367622 -0.11851567029953003 -0.1478239744901657 -0.03027917817234993 -0.10869765281677246 -0.12018457055091858 -0.3034258484840393 -0.16295509040355682 0.07880575209856033 -0.052201345562934875 -0.06438179314136505 -0.20046061277389526 -0.047627151012420654 -0.12847238779067993 0.0856301337480545 0.14667688310146332 0.08471331000328064 0.16628709435462952 -0.0018066250486299396 -0.4146755635738373 0.1273481696844101 0.2641708552837372 -0.08067155629396439 0.09613954275846481 0.16571076214313507 -0.1389305293560028 0.116437166929245 0.03456666320562363 -0.15286530554294586 0.03750021755695343 -0.17498497664928436 0.1262778341770172 -0.13283410668373108
how -0.02983691543340683 -0.2132086455821991 -0.1072753295302391 0.3614431917667389 0.1302342563867569 -0.17756354808807373 -0.15987204015254974 0.1073315292596817 -0.2843230962753296 0.2932890057563782 -0.08800949901342392 0.3996236324310303 0.09552367776632309 0.08180830627679825 -0.15969397127628326 -0.2667127847671509 0.049070630222558975 -0.18847401440143585 -0.13926352560520172 0.18809117376804352 -0.18577434122562408 -0.10787871479988098 0.050313856452703476 0.24268954992294312 0.28029346466064453 0.11377791315317154 -0.5012069940567017 6.60611956845969E-4 0.42575305700302124 -0.22607766091823578 -0.2772260308265686 -0.08985156565904617 -0.3087409436702728 0.30715885758399963 -0.18533211946487427 0.3418545126914978 0.19846728444099426 0.07140391319990158 -0.01696663349866867 -0.3576807379722595 -0.010905668139457703 -0.1647203266620636 0.09353898465633392 -0.017044855281710625 -0.1460716426372528 -0.026829324662685394 -0.17333997786045074 -0.42936164140701294 -0.22903816401958466 0.2137514054775238 0.2737799286842346 -0.2483934909105301 0.010798799805343151 0.10024091601371765 -0.17469541728496552 -0.4115840494632721 0.08564300090074539 -0.10366860777139664 -0.30805185437202454 -0.20518562197685242 -0.0324878916144371 -0.29766762256622314 0.28138843178749084 -0.10528744757175446 0.03841926157474518 0.062207017093896866 -0.2646155059337616 0.007986851967871189 -0.13323278725147247 -0.12263589352369308 0.07725046575069427 -0.21475568413734436 0.2268122434616089 0.03484783694148064 0.08365893363952637 -0.35473424196243286 -0.2891126573085785 0.10988201200962067 -0.3141639232635498 -0.04361246898770332 0.4278428554534912 0.011180149391293526 0.21436288952827454 -0.14466845989227295 -0.22179225087165833 0.3905271589756012 -0.10485478490591049 -0.09863367676734924 0.2803790867328644 -0.020418411120772362 0.037154991179704666 0.0961994081735611 -0.3187389075756073 0.1266046017408371 -0.31865042448043823 0.2772999107837677 -0.20896703004837036 0.15934307873249054 0.18394693732261658 -0.05466300621628761
see -0.008542765863239765 -0.3238511085510254 -0.17474956810474396 -0.04707980901002884 0.010506474412977695 0.043741047382354736 -0.0927010327577591 0.14946094155311584 -0.06679538637399673 -0.358605295419693 -0.00686190789565444 0.17838171124458313 0.2043263465166092 -0.14058387279510498 -0.17610013484954834 -0.059283796697854996 0.05254716798663139 0.27461400628089905 -0.03296484425663948 0.16104286909103394 -0.08859287202358246 0.08602629601955414 0.031081531196832657 0.009550658985972404 0.007000262849032879 0.0646040216088295 -0.0904175341129303 -0.06483238935470581 0.08462508767843246 0.047574400901794434 -0.039933886379003525 -0.1258658617734909 -0.15742698311805725 -0.2623266875743866 -0.0019277705578133464 0.0340418815612793 0.21630552411079407 0.20599152147769928 0.10796329379081726 -0.09971757233142853 -0.4051400125026703 -0.0033318425994366407 0.11607033014297485 0.14353443682193756 -0.02983047626912594 0.3007224500179291 0.16607917845249176 0.09718620032072067 0.1500205397605896 -0.14881129562854767 -0.19119314849376678 0.013531648553907871 0.15759246051311493 0.10104992240667343 0.08359017968177795 0.013632749207317829 0.06984934955835342 -0.019582707434892654 0.044468749314546585 0.09570897370576859 0.3530464172363281 -0.4000612199306488 -0.09369497746229172 0.2553935945034027 -0.024487217888236046 0.1833380162715912 0.24290435016155243 0.12848049402236938 0.11922694742679596 -0.07723050564527512 -0.18088102340698242 -0.3864001929759979 -0.15253953635692596 0.16851212084293365 0.2114982306957245 0.031579114496707916 0.10097081959247589 0.044174280017614365 0.2319398820400238 -0.19973301887512207 4.209073958918452E-4 -0.09228960424661636 0.11462613940238953 0.040075331926345825 0.11435964703559875 -0.1840616911649704 -0.25041884183883667 0.13520964980125427 0.2580476403236389 -0.014578660950064659 -0.038959771394729614 0.2859942317008972 -0.057999517768621445 -0.032703787088394165 0.05268644541501999 0.1868400126695633 -0.2755974531173706 -0.17336158454418182 -0.03440374881029129 -0.11657547205686569
found -0.00518850889056921 0.03327833488583565 -0.20387907326221466 -0.3065281808376312 -0.13291242718696594 0.06867223232984543 0.19346749782562256 0.03811836242675781 -0.23333600163459778 -0.2765182852745056 -0.3545491397380829 -0.0202008243650198 -0.19348269701004028 0.23928962647914886 0.014364703558385372 0.14395378530025482 0.2205224484205246 -0.0731968954205513 0.05986941605806351 -0.05707960203289986 0.19850444793701172 0.006576925050467253 0.2697443664073944 0.06178489327430725 -0.3015998303890228 -0.005840818863362074 -0.05766642838716507 -0.13239923119544983 -0.14702175557613373 0.21906286478042603 0.19600456953048706 0.12036534398794174 -0.11826860159635544 0.2025664746761322 -0.10548412054777145 0.15733838081359863 -0.006067237351089716 0.021812858060002327 -0.16012969613075256 0.21946078538894653 -0.2769530713558197 0.20842845737934113 0.22505396604537964 -0.05931827053427696 0.11664913594722748 0.1060420498251915 -0.09178143739700317 0.177394300699234 0.06509837508201599 0.14409376680850983 -0.20018956065177917 -0.10457359254360199 -0.051607128232717514 -0.04294286295771599 -0.012872651219367981 0.010795953683555126 0.11768753826618195 -0.12652184069156647 0.08015532046556473 0.10469041764736176 0.06639079749584198 -0.09632164239883423 0.018238957971334457 0.029913753271102905 0.047075673937797546 -0.14147311449050903 -0.02312222681939602 0.08171554654836655 -0.14182046055793762 -0.03412938863039017 -0.31621021032333374 0.025118941441178322 -0.07673534750938416 0.11692622303962708 -0.05272550880908966 0.139445498585701 0.03911525756120682 0.07539603859186172 -0.142119899392128 0.016497362405061722 -0.007897896692156792 -0.04306162893772125 -0.09160466492176056 0.25590017437934875 -0.25904643535614014 0.2867553234100342 -0.10672208666801453 0.002843061462044716 0.03342367708683014 -0.3106538653373718 -0.03231046348810196 -0.01393964048475027 0.35898929834365845 0.08835966140031815 0.023557106032967567 -0.19376009702682495 -0.03316188603639603 -0.06203238293528557 -0.12667018175125122 -0.1735939234495163
same 0.04593808203935623 0.15364299714565277 -0.1554669886827469 0.14389754831790924 0.7005003094673157 0.019023368135094643 0.1669195592403412 -0.11310150474309921 0.23764042556285858 -0.044130243360996246 -0.09873248636722565 0.286370187997818 -0.27962037920951843 -0.19682350754737854 0.03807603195309639 0.08542943000793457 -0.39924272894859314 -0.03171722590923309 -0.06010742112994194 -0.47592833638191223 0.17353948950767517 -0.04495763033628464 0.15637339651584625 0.13265609741210938 -0.07557263225317001 0.1562030017375946 0.32417604327201843 0.1459420621395111 -0.6699492931365967 -0.04200751334428787 0.4249357283115387 -0.384321391582489 -0.01705935224890709 -0.09209693968296051 -0.23209890723228455 0.14035484194755554 0.1119418665766716 0.4126717150211334 -0.03830527141690254 -0.17896157503128052 0.21904650330543518 0.2179649919271469 -0.1422770917415619 -0.17278873920440674 -0.2871553599834442 -0.0974627360701561 -0.1376887410879135 -0.009262963198125362 0.15168391168117523 0.23850448429584503 -0.1278533637523651 0.24134314060211182 -0.2651371955871582 -0.039067983627319336 0.24299728870391846 0.12633074820041656 -0.07754947245121002 0.016483623534440994 0.29042932391166687 0.16952954232692719 0.24528363347053528 -0.12152665108442307 -0.07723839581012726 0.09293670952320099 -0.08459999412298203 0.08519362658262253 -0.003097424516454339 0.10999956727027893 0.3208899199962616 0.13057494163513184 -0.2864193022251129 -0.010350181721150875 -0.22305822372436523 -0.0621660053730011 -0.2514024078845978 0.21435151994228363 -0.13634008169174194 0.03306251019239426 0.2575174868106842 0.025508377701044083 0.11420635879039764 0.2017931044101715 -0.28732937574386597 -0.1327384114265442 -0.24672435224056244 0.2545371651649475 0.05771617218852043 -0.17317558825016022 0.19232934713363647 -0.23136533796787262 0.07242848724126816 -0.41101670265197754 0.2114352583885193 -0.3846392035484314 -0.0014632412930950522 -0.062042783945798874 -0.027085253968834877 -0.21789096295833588 0.21529030799865723 0.14566630125045776
are -0.36744341254234314 -0.18935410678386688 -0.07003340125083923 0.10796939581632614 0.18670903146266937 0.43603718280792236 0.20169420540332794 0.5667132139205933 0.23892492055892944 0.23948943614959717 -0.25290605425834656 0.21451088786125183 0.3258145749568939 0.4099557399749756 -0.10789109021425247 0.10170797258615494 -0.11072951555252075 0.13153336942195892 -0.324940025806427 -0.2795240581035614 -0.1882867068052292 0.6750361919403076 -0.19307729601860046 -0.05611473694443703 0.5733811259269714 0.17568428814411163 0.15962181985378265 0.14648045599460602 -0.2618146240711212 0.009453529492020607 -0.3359229266643524 0.4191068410873413 -0.11090618371963501 0.09225635975599289 0.03105645626783371 -0.1854785680770874 -0.1509641706943512 0.24518807232379913 0.20842495560646057 0.18295443058013916 0.07378842681646347 -0.06272881478071213 -0.16036316752433777 0.5271480083465576 -0.09602040797472 0.2169366329908371 0.5987012386322021 0.27379757165908813 0.06475956737995148 0.08044520020484924 0.18263575434684753 0.11857280880212784 0.2698154151439667 0.3086076080799103 -0.15397854149341583 -0.13333041965961456 0.3398284912109375 -0.1743779182434082 -0.08431638032197952 -0.1860617697238922 -0.1974412500858307 0.02598533034324646 -0.035455673933029175 0.13317348062992096 -0.029567735269665718 -0.3852490186691284 0.37043023109436035 -0.0855354368686676 0.24613608419895172 0.2476179152727127 0.15078426897525787 -0.02369304560124874 0.24705760180950165 0.3443329930305481 -0.5074203610420227 -0.06076197698712349 0.23735661804676056 0.12016422301530838 0.0182405486702919 -0.2636340856552124 -0.3022015690803528 0.11224652826786041 0.26519501209259033 0.15829657018184662 -0.3800353705883026 0.13380160927772522 0.16960519552230835 -0.14418107271194458 0.17389827966690063 -0.1428278237581253 0.08470895141363144 -0.12740375101566315 -0.18330949544906616 0.1353394240140915 0.20069698989391327 0.03523151949048042 -0.14994479715824127 0.15177519619464874 -0.2652539908885956 0.0037882120814174414
does 0.5089738368988037 0.12454108148813248 -0.20794560015201569 -0.1441466510295868 0.09825572371482849 -0.21284647285938263 0.25392863154411316 -0.4080512821674347 0.15902569890022278 0.219369038939476 -0.5339921712875366 -0.23036792874336243 -0.03683857247233391 -0.4491839110851288 -0.5613646507263184 0.06319586932659149 0.07713335007429123 -0.04222356528043747 0.19563744962215424 0.3117990791797638 -0.28112590312957764 0.14853022992610931 0.2613765299320221 0.48700618743896484 0.010421417653560638 -0.5029301047325134 -0.13487057387828827 -0.38845646381378174 -0.028041880577802658 -0.2502272129058838 -0.17762358486652374 0.2637438178062439 0.14768636226654053 -0.09431762248277664 -0.0032661904115229845 -0.21244455873966217 -0.20573264360427856 -0.1380094587802887 0.07570230960845947 -0.3519015610218048 -0.2546110451221466 -0.21993960440158844 0.20733822882175446 -0.5088092088699341 0.128769651055336 -0.08843330293893814 0.10938718914985657 0.10237477719783783 0.3790832459926605 -0.26598578691482544 -0.05055933818221092 0.07810021936893463 0.3334254324436188 0.04929400607943535 -0.05100734531879425 -0.03131921589374542 -0.08265604078769684 -0.28739264607429504 -0.22175070643424988 -0.06724609434604645 0.15689639747142792 -0.018893202766776085 0.3113274872303009 -0.03832384943962097 -0.45923399925231934 0.09199827164411545 0.09192162752151489 0.19379663467407227 -0.054913897067308426 -0.40658050775527954 0.10127744823694229 0.05652281269431114 -0.055791862308979034 -0.0935947597026825 -0.07390189170837402 -0.1342298835515976 0.4779099225997925 0.006203025113791227 -0.18504352867603302 -0.030666418373584747 -0.1218448206782341 0.20278389751911163 0.32532888650894165 -0.008631721138954163 0.1045980378985405 -0.05398187413811684 0.04136819764971733 0.17032040655612946 -0.5745632648468018 -0.15943533182144165 -0.24153611063957214 -0.2115233689546585 -0.00447282986715436 -0.14504438638687134 -0.08269399404525757 -0.0478224940598011 0.03304656967520714 0.37018242478370667 -0.09228932857513428 -0.03991598263382912
by -0.04409452900290489 -0.01514965295791626 -0.24431771039962769 0.09878221154212952 0.25895270705223083 0.011716975830495358 -0.0956166610121727 0.0073275817558169365 -0.00531240738928318 -0.18574899435043335 -0.19210676848888397 0.04814046621322632 -0.08546387404203415 -0.06294801086187363 -0.08748330920934677 -0.15084542334079742 0.01647367514669895 0.01212488953024149 -0.017619237303733826 0.046362973749637604 -0.12936080992221832 -0.0853959396481514 0.02261512354016304 -0.07189195603132248 0.01977221481502056 -0.051382970064878464 -0.027856219559907913 0.18812745809555054 0.030203551054000854 0.09236983209848404 0.18902386724948883 0.03603881597518921 -0.11694801598787308 0.08894529193639755 -0.005765366833657026 -0.0888708159327507 0.07141575962305069 0.1966238021850586 -0.0032802349887788296 0.12207087874412537 -0.11344508081674576 0.20635198056697845 -0.13126324117183685 0.1290675401687622 0.1848631352186203 0.0037150827702134848 0.0919446051120758 0.1332101672887802 0.003689274424687028 0.34481164813041687 -0.08224423974752426 -0.04092741757631302 -0.07782848924398422 -0.2538137435913086 0.067630335688591 0.05875661224126816 -0.12614871561527252 0.014461823739111423 -0.020150834694504738 -0.17319385707378387 -0.01719946227967739 -0.2700248658657074 -0.1103060394525528 -0.09639883786439896 -0.018516816198825836 -0.17049965262413025 0.03121197409927845 0.1100040152668953 -0.10405077785253525 -0.10201404243707657 -0.0336955264210701 -0.03471106290817261 0.0029848269186913967 -0.1713486760854721 -0.2921484410762787 0.1112387552857399 0.059693776071071625 -0.17818182706832886 -0.07063262164592743 0.027901168912649155 -0.0637470930814743 0.08096722513437271 0.061354734003543854 -0.05955975130200386 -0.023969663307070732 -0.005122113972902298 -0.38132765889167786 -0.012923603877425194 0.08592471480369568 -0.021776065230369568 0.07752703875303268 -0.0016405755886808038 -0.047110751271247864 0.10944878309965134 0.1928001493215561 -0.020207269117236137 -0.09095964580774307 -0.15837211906909943 0.2239365577697754 0.013142898678779602
national -0.06451849639415741 0.16096581518650055 0.01795278862118721 -0.019338075071573257 0.18407410383224487 0.02689719945192337 -0.032882727682590485 0.03661412000656128 0.17390161752700806 0.06075366958975792 -0.04426323249936104 -0.030392393469810486 -0.061252694576978683 -0.06819070130586624 0.08010054379701614 0.07143090665340424 -0.07452505826950073 -0.029579835012555122 -0.07831943035125732 -0.10244430601596832 0.03980928659439087 0.02860518917441368 -0.0393611341714859 -0.03415099158883095 -0.04195322096347809 0.045903999358415604 0.13695265352725983 0.05351618304848671 -0.07636265456676483 0.029868867248296738 0.02494700998067856 -0.0771060436964035 -0.03959478437900543 -0.06145485118031502 -0.044387247413396835 -0.01792576164007187 -0.072661392390728 0.15051037073135376 0.10824369639158249 -0.08086489886045456 0.005548688117414713 0.07495080679655075 0.026834890246391296 -0.033935870975255966 9.205872192978859E-4 -0.09364522993564606 -0.1165192499756813 -0.02865978144109249 -0.03216322138905525 0.053511954843997955 -0.09047398716211319 -0.060589827597141266 -0.06902855634689331 0.03890625759959221 0.06567611545324326 0.02883494645357132 0.026373013854026794 0.045802563428878784 -0.01759944297373295 0.10017500072717667 -0.03219492733478546 0.11487754434347153 -0.05918916314840317 -0.10775446891784668 0.07764646410942078 -0.0035148037131875753 -0.00695489626377821 -0.04970683157444 -0.047670457512140274 0.11428017914295197 0.02075330913066864 0.09271963685750961 -0.08161115646362305 -0.06443914026021957 0.003835608484223485 0.08385635912418365 -0.10185544937849045 -0.07610329240560532 0.018940582871437073 0.016119306907057762 -0.032567232847213745 -0.0451727919280529 0.006320759654045105 0.06146717816591263 -0.019728567451238632 0.1421101689338684 0.06419241428375244 -0.010296152904629707 0.03279580548405647 -0.028533076867461205 0.11610870063304901 -0.19164232909679413 -0.029055992141366005 0.057964716106653214 0.015421513468027115 -0.10853897035121918 0.07845402508974075 -0.0661613941192627 0.08829839527606964 0.060448694974184036
where 0.15845195949077606 -0.04466365650296211 -0.01110479049384594 -0.1443609595298767 0.22340090572834015 0.013461503200232983 0.09262754768133163 0.2311926633119583 -0.10684271156787872 -0.18739472329616547 0.24179641902446747 0.07873893529176712 0.027199430391192436 -0.0562841035425663 0.028804458677768707 -0.28710928559303284 -0.21548621356487274 -0.41797229647636414 -0.19340263307094574 -0.18264584243297577 0.06964065134525299 -0.39813804626464844 -0.22566144168376923 -0.1246328353881836 0.16034545004367828 0.16948647797107697 0.02872346341609955 0.3625045120716095 0.2997075021266937 -0.38968876004219055 -0.09313903003931046 -0.1530311554670334 0.3099941611289978 -0.1261311173439026 -0.32352733612060547 -0.1262069195508957 0.018573708832263947 0.2553859055042267 -0.06988576799631119 -0.3698411285877228 0.12491074949502945 0.0690249353647232 -0.007566882763057947 0.19868914783000946 -0.3251674473285675 0.02563241496682167 0.10629621148109436 -0.019232550635933876 0.14714007079601288 0.12263012677431107 0.022238876670598984 -0.31240060925483704 0.09636734426021576 -0.05500726401805878 -0.03434845805168152 -0.07161825150251389 0.23023621737957 -0.05375450849533081 -0.013682179152965546 -0.4442269802093506 0.1893274337053299 0.019193559885025024 0.04139281436800957 0.002226230688393116 -0.01536752749234438 -0.29290106892585754 0.11793738603591919 0.29185211658477783 -0.17045317590236664 0.3105390667915344 -0.0658741444349289 -0.1630965769290924 -0.10219830274581909 -0.3683124780654907 -0.11752310395240784 -0.037191249430179596 -0.3594900071620941 -0.024596016854047775 -0.2844851315021515 0.001568566425703466 0.3532226085662842 0.40285444259643555 -0.12596562504768372 -0.2876148521900177 0.16770686209201813 0.16642063856124878 -0.29649126529693604 0.568159282207489 0.34245729446411133 0.08505035936832428 0.0780140608549118 -0.135049968957901 -0.23606999218463898 0.12101852148771286 -0.25521495938301086 0.5108031630516052 0.3746032118797302 0.11959557235240936 -0.21710214018821716 0.11320522427558899
after -0.22849027812480927 -0.0954708456993103 0.014624005183577538 -0.2086692899465561 0.18986019492149353 0.10583780705928802 -0.19987212121486664 -0.22483611106872559 0.18269245326519012 -0.18854406476020813 0.09023358672857285 0.19616113603115082 -0.35614150762557983 -0.17818595468997955 -0.1410539746284485 -0.03302275761961937 -0.27376970648765564 0.031477026641368866 -0.058599866926670074 -0.00195487798191607 -0.055457018315792084 0.15134087204933167 -0.060997508466243744 -0.030115636065602303 -4.0808983612805605E-5 0.15324856340885162 0.06380711495876312 -0.12164804339408875 0.037507109344005585 0.06602492183446884 0.23782502114772797 -0.011523055844008923 -0.040916748344898224 -0.0269640926271677 0.01566380076110363 -0.2484854757785797 0.23699592053890228 0.14581280946731567 0.15241660177707672 0.09737659245729446 0.030951282009482384 0.16974472999572754 0.13819533586502075 0.14654101431369781 -0.035777412354946136 -0.1329156905412674 0.3087600767612457 0.2931322157382965 -0.0874912440776825 0.0052329180762171745 -0.21329301595687866 -0.07688041031360626 -0.10344456881284714 -0.12067660689353943 0.04042254760861397 -0.15166433155536652 0.2771928906440735 -0.10383700579404831 0.08348757028579712 -0.04017668589949608 0.13201990723609924 -0.2323237955570221 -0.43479982018470764 0.12216804921627045 -0.07548969238996506 -0.25602492690086365 -0.2576737701892853 0.08822966367006302 -0.3441616892814636 -0.09312612563371658 0.14474724233150482 -0.017842071130871773 -0.09846042841672897 -0.16981466114521027 -0.34944337606430054 -0.13151299953460693 -0.09086725860834122 0.08471325784921646 -0.23238839209079742 0.09100578725337982 0.23274002969264984 0.13482797145843506 -0.1588478535413742 0.04643841087818146 -0.11226551234722137 -0.12426877021789551 -0.25934457778930664 0.09212958067655563 -0.040170542895793915 -0.061941374093294144 0.3390684723854065 -0.19032923877239227 -0.2803577184677124 0.12603096663951874 -0.07753317058086395 -0.1520983874797821 0.26067137718200684 -0.11613922566175461 0.2256052941083908 -0.02243800275027752
so -0.01258113980293274 0.14036734402179718 0.2583065330982208 0.14374913275241852 0.14156843721866608 0.14894607663154602 0.0056777698919177055 0.02848386950790882 -0.23922868072986603 0.10253316164016724 -0.06093817204236984 0.3444218039512634 -0.045046109706163406 0.05028543621301651 -0.019706211984157562 0.08515649288892746 0.2787969708442688 0.39503270387649536 -0.04718589782714844 -0.027462080121040344 -0.16140897572040558 -0.003574179019778967 -0.09168116003274918 -0.06884926557540894 0.2261434644460678 0.2862307131290436 -0.17583690583705902 0.08478370308876038 0.20156468451023102 0.0199031513184309 -0.04610684514045715 0.20851631462574005 0.04272375628352165 -0.09168041497468948 0.02538965456187725 0.06423000246286392 0.034241050481796265 -0.29481151700019836 0.014484250918030739 0.2101065069437027 -0.3065132200717926 0.03242674097418785 0.16494722664356232 -0.0010568759171292186 0.16407330334186554 -0.030209386721253395 0.13980747759342194 0.015324910171329975 -0.05588408187031746 -0.07154790312051773 0.21047742664813995 -0.47894909977912903 -0.21675579249858856 -0.05082618072628975 -0.033002983778715134 -0.137272447347641 0.006103648338466883 0.001138162799179554 -0.02109716832637787 0.058353934437036514 0.050938140600919724 -0.23322239518165588 0.19389860332012177 0.11509988456964493 -0.003974790219217539 -0.14280372858047485 -0.03503069281578064 -0.23241613805294037 -0.24436995387077332 -0.14934873580932617 -0.25316086411476135 -0.037795644253492355 -0.039264991879463196 -0.10038678348064423 0.19464248418807983 -0.23176510632038116 0.06704837828874588 0.2086227834224701 -0.19873574376106262 -0.15189652144908905 0.12010656297206879 -0.21268969774246216 -0.10745271295309067 -0.11809787899255753 -0.13896124064922333 -0.02746823988854885 0.05141940712928772 0.0652427077293396 -0.05391592159867287 0.26048544049263 0.05120806396007538 -0.12705925107002258 0.0011994566302746534 0.11851175129413605 0.07071918249130249 0.358701229095459 -0.16767676174640656 0.08014193177223206 0.08985748142004013 0.11539245396852493
a -0.08147601783275604 0.5236117243766785 -0.17498111724853516 -0.00919556338340044 0.05600391700863838 0.43001222610473633 -0.429110050201416 -0.019798643887043 0.044293925166130066 0.003732458921149373 -0.08932697027921677 0.07430709898471832 -0.22837169468402863 -0.016124926507472992 -0.056586213409900665 0.2943216562271118 0.1021219789981842 0.2692410945892334 0.04435791075229645 0.19919459521770477 0.4844360053539276 0.43649765849113464 -0.14461137354373932 0.08907417207956314 0.046548910439014435 0.020640414208173752 0.18950995802879333 0.2901207506656647 -0.15872660279273987 0.021904684603214264 0.14668041467666626 -0.5264785885810852 -0.46690070629119873 -0.11255620419979095 0.032598238438367844 -0.10936176031827927 -0.3644295632839203 0.08975467830896378 -0.2064710408449173 0.1401311308145523 0.2875555753707886 0.19963131844997406 -0.09668019413948059 -0.2681114077568054 0.2488366663455963 -0.07471245527267456 -0.23661112785339355 0.27718138694763184 -0.15700183808803558 0.04548581689596176 -0.04151328653097153 -0.13273535668849945 -0.06551703810691833 -0.43069958686828613 0.1173778772354126 -0.1509382724761963 -0.35437139868736267 0.23325541615486145 -0.17126823961734772 -0.0667884424328804 -0.06434084475040436 -0.1342519372701645 0.3601163327693939 -0.2632223963737488 -0.13222111761569977 -0.12912333011627197 -0.17223864793777466 -0.21727126836776733 0.05281177908182144 -0.1051551029086113 0.3064865171909332 0.11341521888971329 -0.19366100430488586 0.06847973167896271 -0.034802258014678955 -0.2891237139701843 -0.26877766847610474 0.17707079648971558 -0.25967735052108765 0.22657382488250732 -0.2884168028831482 0.024029549211263657 0.2363593429327011 0.05151703581213951 -0.04292764514684677 0.41719117760658264 -0.2391819804906845 -0.19780585169792175 0.18238116800785065 0.1715945601463318 0.27061399817466736 -0.014971291646361351 -0.28420311212539673 0.2869241535663605 -0.08906548470258713 0.04789349436759949 -0.16565273702144623 -0.1053868979215622 0.14371594786643982 -0.2724398672580719
think -0.19616743922233582 0.0618688203394413 -0.16375112533569336 0.13127034902572632 0.029547523707151413 0.016136817634105682 -0.11379175633192062 0.3049287796020508 0.012109815143048763 0.004351637791842222 -0.012669658288359642 0.3382049798965454 -0.08456432819366455 -0.03874753788113594 0.2582797408103943 -0.16405287384986877 -0.22941027581691742 0.06488285958766937 -0.0019379991572350264 0.03640724718570709 0.09528252482414246 -0.08587691932916641 0.370445191860199 -0.04841327294707298 -0.13344131410121918 -0.1522700935602188 -0.2679571807384491 -0.3919336199760437 0.20544086396694183 0.10302293300628662 0.018727585673332214 -0.07340994477272034 0.1409713625907898 -0.24734829366207123 0.007013165857642889 -0.032889701426029205 0.08192236721515656 0.06491181999444962 -0.27709153294563293 0.09333347529172897 -0.2818743884563446 0.03535463288426399 0.1276848167181015 0.034734901040792465 -0.06535797566175461 0.07647860795259476 -0.14773035049438477 0.04378662258386612 -0.12582731246948242 -0.04536809027194977 -0.14682774245738983 0.161454975605011 -0.12181539088487625 0.1775839626789093 -0.1636911779642105 0.072677843272686 -0.0850825235247612 0.1843336820602417 0.10348113626241684 0.3246694803237915 0.19224585592746735 -0.11578056961297989 0.2161388099193573 0.31743159890174866 0.028428178280591965 0.2655615508556366 -0.06552891433238983 0.16307437419891357 0.34074661135673523 0.1385280340909958 0.005044544581323862 -0.285802960395813 -0.0028328057378530502 0.1484946310520172 0.24661152064800262 -0.2571507394313812 0.06137746199965477 0.391012042760849 -0.1158713698387146 -0.1669921725988388 0.3908623456954956 -0.3458183705806732 -0.12722592055797577 -0.3435034155845642 -0.008226299658417702 0.022083014249801636 -0.08491375297307968 -0.21025723218917847 0.13853397965431213 0.021074026823043823 0.21945345401763916 0.23535168170928955 -0.21453328430652618 -0.3459210693836212 -0.05748838186264038 0.17022985219955444 -0.010537917725741863 -0.09493035823106766 -0.06096804514527321 -0.23015521466732025
set -0.1704457700252533 -0.1428801715373993 -0.16390934586524963 -0.28277215361595154 -0.05395902320742607 -0.04549901932477951 0.1772552877664566 -0.15362811088562012 0.1160433366894722 -0.15421006083488464 -0.2300592064857483 0.05467771366238594 -0.039204105734825134 -0.014391777105629444 -0.06822455674409866 -0.057427339255809784 -0.1584775447845459 -0.090098075568676 -0.02611885406076908 0.009538104757666588 0.060374557971954346 -0.030642082914710045 0.04202956706285477 -0.04667893424630165 -0.08579707145690918 0.07580670714378357 0.10415000468492508 0.18320348858833313 0.02352776564657688 0.1228744387626648 0.06048499420285225 -0.1277117133140564 -0.12962684035301208 0.023445449769496918 -0.1171075627207756 -0.026330089196562767 -0.1146625354886055 0.1537887454032898 0.266956627368927 0.006752165965735912 -0.30781158804893494 0.2681889235973358 0.06307823210954666 -0.14933261275291443 -0.024197550490498543 0.11383035778999329 -0.13264934718608856 0.11127287149429321 0.051116108894348145 0.010174986906349659 -0.31358760595321655 -0.05530956760048866 0.051526885479688644 0.004706096835434437 -0.05412754788994789 -0.06817437708377838 0.16600479185581207 -0.0037861347664147615 0.12707358598709106 -0.11172021180391312 0.025003960356116295 0.04287618026137352 -0.15475256741046906 -0.03198947384953499 -0.07264513522386551 -0.1314941644668579 -0.1410154402256012 0.02412227727472782 0.015237610787153244 0.030681846663355827 0.00873343925923109 -0.13958707451820374 -0.07250725477933884 0.06462569534778595 -0.09999331086874008 0.20204712450504303 0.07901469618082047 -0.010736053809523582 0.22672681510448456 -0.12113568186759949 0.15871264040470123 0.10001137107610703 0.004319213796406984 0.1540171056985855 0.01792432740330696 -0.03998691588640213 -0.07362958788871765 0.026344850659370422 0.19880852103233337 -0.10206928104162216 0.1225416362285614 -0.03742781654000282 0.057263001799583435 0.049899134784936905 0.06429458409547806 -0.09715498983860016 0.01502214465290308 -0.09280818700790405 0.0375651940703392 0.040032561868429184
