been 0.051645636558532715 -0.2912934422492981 -7.943182718008757E-4 0.06902313977479935 0.3160129487514496 -0.162222221493721 0.036277346312999725 -0.16370539367198944 0.04737962782382965 -0.1690858155488968 0.39526501297950745 0.16805747151374817 -0.12315786629915237 0.2553546130657196 -0.22417940199375153 0.34078145027160645 0.3470707833766937 0.44376835227012634 0.44393014907836914 0.07922134548425674 0.16857551038265228 0.7421640157699585 0.2429054230451584 -0.37051475048065186 0.28985729813575745 0.3870284855365753 0.05630345270037651 0.1815020740032196 -0.07817641645669937 -0.44315779209136963 -0.019889017567038536 0.031083764508366585 0.2936329245567322 0.15707449615001678 0.3309421241283417 -0.10046254843473434 0.14831404387950897 -0.18634654581546783 0.2159043401479721 0.1438649743795395 -0.3783808946609497 0.24039432406425476 -0.030303172767162323 0.09146659076213837 0.13505414128303528 -0.6805756688117981 0.1916619837284088 -0.1471247673034668 -0.24801184237003326 -0.06249192729592323 -0.05406210944056511 0.3007323741912842 0.32777392864227295 -0.18127498030662537 -0.5912899971008301 0.26849958300590515 0.23583431541919708 -0.13586938381195068 0.14434027671813965 -0.43573275208473206 -0.020956650376319885 0.4266121983528137 -0.20927788317203522 0.11584939807653427 0.11052475869655609 -0.2957506775856018 0.16541723906993866 -0.17379142343997955 0.4570726752281189 -0.19246500730514526 -0.0999329537153244 0.0027464216109365225 0.004513218533247709 -0.11707360297441483 0.06822886317968369 -0.04640684276819229 0.15556588768959045 0.6694223880767822 -0.23853877186775208 -0.32867318391799927 0.28580567240715027 0.09898372739553452 0.49561381340026855 -0.46970242261886597 -0.23225943744182587 -0.1376209557056427 0.1544519066810608 0.13887371122837067 -0.316748708486557 0.05986294522881508 0.0640808716416359 -0.3212091624736786 -0.21057485044002533 -0.6063622236251831 -0.13589118421077728 0.11214058101177216 -0.4013557732105255 -0.20417183637619019 0.00816341582685709 -0.5579032897949219
year 0.27674970030784607 0.03850178048014641 -0.11112882941961288 0.02042648009955883 0.04909014329314232 -0.4444407522678375 0.27708908915519714 0.1436251997947693 -0.013619392178952694 0.1424894630908966 0.18220724165439606 -0.22773964703083038 -0.32155710458755493 0.05889653414487839 0.47134771943092346 0.3384135365486145 0.2326507866382599 -0.06075301393866539 0.26689907908439636 -0.07730670273303986 -0.08936415612697601 0.03416302800178528 0.1476862132549286 -0.20988281071186066 -0.050268467515707016 -0.09394116699695587 0.24352890253067017 0.13278275728225708 0.17664778232574463 -0.10136979818344116 0.026168085634708405 0.32408177852630615 0.21293531358242035 0.33841049671173096 -0.08513865619897842 0.21467016637325287 -0.1464725285768509 0.13995158672332764 -0.4822094738483429 0.2886587977409363 -0.2939333915710449 -0.09311191737651825 -0.4453648328781128 -0.16140411794185638 -0.1798838973045349 0.00881571788340807 0.11203973740339279 0.18610239028930664 0.12318132817745209 0.0032130531035363674 0.231670081615448 -0.10415294766426086 -0.13654130697250366 -0.2259937822818756 0.03779246285557747 -0.18023422360420227 0.09256059676408768 0.2781124711036682 -0.2866775691509247 0.05818066745996475 0.11810141801834106 0.05258858576416969 -0.16829338669776917 0.6849870085716248 0.29226768016815186 -0.06374256312847137 0.06547664850950241 0.14304198324680328 0.11206094920635223 0.1520904004573822 -0.1965942233800888 0.3965708613395691 -0.012532959692180157 -0.16165916621685028 0.014636751264333725 0.19337421655654907 0.2622467875480652 0.28428053855895996 -0.19613464176654816 0.22330902516841888 0.09771190583705902 0.0315675251185894 0.07987643033266068 -0.22029927372932434 0.5851885080337524 -0.44722869992256165 0.2554251253604889 0.1117570772767067 -0.24872131645679474 -0.0930633470416069 0.22783158719539642 0.11141695827245712 0.05853136256337166 -0.05359736457467079 0.054715801030397415 -0.19083641469478607 -0.008946351706981659 -0.24304069578647614 -0.08006732165813446 -0.06508808583021164
about -0.1692071557044983 0.11018116027116776 0.15342335402965546 -0.13611161708831787 0.2099566012620926 -0.015687236562371254 0.2685519754886627 -0.31229498982429504 -0.42723917961120605 0.029476480558514595 0.23154474794864655 0.0454682819545269 -0.22011037170886993 0.5371240973472595 -0.028723744675517082 -0.13189928233623505 0.25447574257850647 -0.16147097945213318 -0.16392505168914795 0.2770628333091736 0.38517454266548157 -0.1870882213115692 0.12046752870082855 -0.26975616812705994 0.10470022261142731 0.5965301394462585 0.12490295618772507 0.14443902671337128 -0.219490185379982 0.11926347017288208 -0.0877825915813446 -0.03181667998433113 0.027169479057192802 -0.18295201659202576 -0.1890953928232193 0.0999964103102684 -0.029955023899674416 -0.019534923136234283 -0.10362918674945831 -0.0922105610370636 -0.13403227925300598 0.2729088366031647 0.2046005129814148 -0.19038869440555573 0.031580012291669846 0.288390189409256 0.19692347943782806 0.04639895260334015 0.3013443648815155 -0.41504305601119995 0.4182157516479492 0.0604112334549427 -0.03157935291528702 -0.17625004053115845 0.11390667408704758 0.12201430648565292 0.11995527893304825 0.033061254769563675 -0.3574916124343872 0.005891923792660236 0.12540392577648163 0.23395748436450958 0.22070342302322388 -0.22323594987392426 0.19583235681056976 -0.004502386320382357 0.16131438314914703 -0.20373117923736572 -0.13137038052082062 0.29317983984947205 -0.19890032708644867 0.029567478224635124 -0.06135188788175583 -0.11273181438446045 0.035538677126169205 -0.0793256163597107 -0.06486785411834717 -0.27054545283317566 0.17004218697547913 0.34199243783950806 0.05050215870141983 0.14848101139068604 -0.28250959515571594 -0.17094142735004425 -0.03770426660776138 -0.4306245446205139 -0.030609525740146637 -0.1846383512020111 0.04174443706870079 -0.2825404703617096 0.0023407465778291225 0.09766765683889389 -0.296517550945282 -0.31570109724998474 -0.08753696084022522 -0.18066847324371338 0.21138496696949005 -0.224636510014534 -0.03850378468632698 0.06675329059362411
your 0.285394549369812 -0.4099234640598297 0.09366651624441147 -0.28042811155319214 0.0505998432636261 0.6037998199462891 -0.34405651688575745 0.34778496623039246 -0.4144595265388489 0.18820753693580627 0.21735182404518127 -0.33863773941993713 -0.04078565910458565 0.26966047286987305 0.1313069462776184 -0.39554789662361145 0.03868978098034859 -0.10778024792671204 -0.46570178866386414 -0.350521981716156 -0.16461390256881714 0.2451861947774887 0.1796979010105133 -0.00899110920727253 0.18143753707408905 0.15259920060634613 0.04569735750555992 -0.0022341397125273943 -0.027835113927721977 0.029566731303930283 0.13091327250003815 0.08819329738616943 -0.017313336953520775 -0.09597916156053543 0.21322335302829742 -0.0017971195047721267 -0.020660853013396263 -0.10376159101724625 0.13041074573993683 -0.21819977462291718 -0.09024973958730698 0.08929327875375748 -0.040441762655973434 0.03858662396669388 0.040793631225824356 0.2100619077682495 -0.05984294041991234 -0.009917552582919598 0.36186105012893677 -0.009139632806181908 -0.09911832958459854 0.08111218363046646 0.005487723276019096 0.25869420170783997 0.4157840311527252 -0.11570277810096741 0.2879425883293152 0.15170052647590637 0.012484399601817131 0.21100930869579315 -0.3176742494106293 -0.25654804706573486 0.2528457045555115 -0.08272635191679001 0.017355361953377724 0.18077883124351501 0.04737003520131111 -0.08441086858510971 -0.2725104093551636 -0.09784906357526779 0.10642662644386292 0.24046315252780914 0.1298583298921585 -0.1524040699005127 -0.059598345309495926 -0.023353304713964462 0.10278645157814026 0.017440475523471832 0.3367980420589447 0.07309569418430328 0.06527519971132278 0.2341340333223343 0.2873944342136383 -0.43355900049209595 0.01855197176337242 -0.10608965903520584 7.44647579267621E-4 -0.4348870515823364 0.24610090255737305 0.03761526942253113 0.054984237998723984 0.3044113218784332 -0.07849103957414627 0.13860617578029633 -0.30506497621536255 -0.12372802942991257 0.0693134069442749 -0.30264273285865784 0.050447385758161545 -0.33827799558639526
without 0.2065490037202835 -0.16388846933841705 0.15008637309074402 0.17551860213279724 0.05056128278374672 0.21450594067573547 0.22016486525535583 -0.144876167178154 -0.08085933327674866 -0.05851909890770912 -0.3955477178096771 -0.24217167496681213 -0.0651002824306488 0.17345018684864044 -0.40227317810058594 0.20840805768966675 0.050526805222034454 -0.09768117964267731 0.12641361355781555 0.04335195571184158 -0.23711520433425903 0.11398831754922867 0.09879623353481293 -0.26139721274375916 -0.1650962084531784 -0.11427293717861176 0.1678139865398407 -0.05488382652401924 -0.08706542104482651 0.009242122992873192 0.05016406252980232 -0.017619114369153976 0.5260396003723145 -0.08305521309375763 -0.006902538239955902 -0.2611778974533081 -0.35419124364852905 0.1602281928062439 0.013218356296420097 0.1850646287202835 -0.20427657663822174 -0.12171526253223419 0.20154251158237457 0.1155460774898529 0.049738410860300064 0.33820801973342896 -0.04874815419316292 0.11610043793916702 0.29652199149131775 -0.17751726508140564 0.0744314193725586 0.15280021727085114 -0.04277269169688225 0.010405820794403553 -0.017168598249554634 0.04358001798391342 0.11105578392744064 0.14731349050998688 -0.04582053795456886 -0.23832617700099945 -0.1616026759147644 -0.104802206158638 0.022777829319238663 0.1388445794582367 0.05810612067580223 0.021483108401298523 -0.14840726554393768 -0.24366258084774017 0.20643021166324615 0.15031121671199799 0.07815715670585632 0.09521353244781494 0.12856106460094452 0.2760431468486786 -0.07073261588811874 0.08254530280828476 0.15065725147724152 -0.25753340125083923 -0.055114179849624634 -0.18328742682933807 0.08250928670167923 0.15388968586921692 0.017349673435091972 -0.21406248211860657 0.21901856362819672 -0.20305654406547546 0.06656163930892944 -0.06852933019399643 -0.07795782387256622 -0.11077897995710373 -0.09224677830934525 0.0916905552148819 -0.21361114084720612 -0.05752713233232498 -0.14097651839256287 0.1611136645078659 0.03537508845329285 -0.17335960268974304 0.057050980627536774 -0.07443583756685257
these -0.05502583831548691 0.30051034688949585 0.2832125425338745 -0.10079647600650787 0.0013253225479274988 -0.511451780796051 -0.16173474490642548 0.10955417156219482 -0.19126904010772705 0.23570449650287628 -0.19428309798240662 -0.1923978179693222 0.49131157994270325 0.2489248514175415 0.14404216408729553 0.19154755771160126 0.14654375612735748 -0.07806997746229172 -0.40235164761543274 -0.025427477434277534 -0.06748951971530914 0.1675761193037033 0.051785461604595184 -0.21023371815681458 -0.018844742327928543 -0.12062431871891022 -0.1779341846704483 -0.18926222622394562 0.00440235948190093 0.13725563883781433 0.1546134054660797 0.016438664868474007 -0.10236462205648422 -0.07142898440361023 0.04947948455810547 -0.1132260411977768 0.1893397718667984 -0.43316370248794556 0.5261688232421875 -0.1550322324037552 0.1265239715576172 0.18503759801387787 -0.10032567381858826 0.15207988023757935 0.28525370359420776 0.01977519318461418 -0.1642947942018509 -0.11296308785676956 0.02188117429614067 0.2293190062046051 0.28788381814956665 0.45101484656333923 -0.12169189006090164 0.09580589085817337 0.41309845447540283 0.07293308526277542 0.11003874242305756 0.278635710477829 -0.01979658380150795 0.018616830930113792 -0.0798867717385292 -0.0875408872961998 0.251020222902298 0.2946946918964386 -0.21124930679798126 -0.3713802993297577 -0.1442113071680069 -0.1775195449590683 0.36829328536987305 0.2900819480419159 0.11217502504587173 0.14613041281700134 0.019608717411756516 0.07610613852739334 -0.11586283892393112 -0.3579081892967224 -0.12617798149585724 0.02403397671878338 0.2093101590871811 -0.0796557366847992 -0.302764356136322 0.17387665808200836 0.0654817596077919 0.2452397346496582 -0.09699823707342148 0.03780283033847809 -0.08560643345117569 0.14258845150470734 0.050482407212257385 0.25135260820388794 -0.030085301026701927 -0.1285291463136673 0.599719226360321 -0.07351584732532501 -0.1685682237148285 0.3367137908935547 0.09501795470714569 0.06305529922246933 0.0606113038957119 -0.2220456749200821
companies -0.17258413136005402 -0.14307942986488342 0.091995470225811 0.005319417919963598 0.16301511228084564 -0.20115837454795837 0.05949166789650917 0.14721910655498505 0.04077489301562309 0.18218190968036652 -0.3119083046913147 -0.07365023344755173 0.07917150855064392 0.1600838303565979 0.12892849743366241 0.12450804561376572 0.06460541486740112 -0.06355088949203491 -0.231094628572464 -0.020246123895049095 -0.15742403268814087 -0.17061488330364227 -0.036385830491781235 -0.011383146047592163 0.09347562491893768 -0.10130935907363892 -0.04383828118443489 0.036167699843645096 0.08571615815162659 -0.07642681151628494 0.07683391124010086 0.04140579700469971 0.01178025733679533 0.034666404128074646 -0.012187623418867588 0.13112583756446838 0.0018649111734703183 -0.09218265116214752 0.11748048663139343 0.12371005117893219 -0.0774068757891655 0.19611261785030365 -0.03384184464812279 0.054151732474565506 0.13282068073749542 -0.21993164718151093 -0.10028526186943054 0.03582361713051796 -0.03015228733420372 0.07245614379644394 0.060532111674547195 0.1268213391304016 -0.043161820620298386 0.08789795637130737 0.07487983256578445 -0.08489589393138885 -0.028570346534252167 0.19666966795921326 -0.02173442393541336 -0.17012248933315277 0.018444815650582314 0.009576958604156971 0.0642395094037056 0.12792012095451355 -0.18122588098049164 -0.10450931638479233 0.009268239140510559 -0.1481638103723526 0.31163910031318665 0.014916835352778435 -0.12435030192136765 0.032719120383262634 0.021294957026839256 0.13802726566791534 -0.18752670288085938 -0.0763828381896019 -0.07055678963661194 -0.06528995931148529 0.1105552539229393 -0.039311010390520096 -0.009392475709319115 -0.008432026021182537 -0.02168929949402809 0.17550966143608093 0.02760881371796131 0.13723210990428925 -0.18009315431118011 -0.10190822184085846 0.03193441033363342 0.16228288412094116 0.15886054933071136 -0.11919179558753967 0.2869615852832794 -0.08109372109174728 0.04272235184907913 0.058745041489601135 -0.029186153784394264 0.07066331803798676 0.17045409977436066 -0.2416384369134903
music -0.16397155821323395 -0.05220044031739235 0.04991842061281204 0.14977490901947021 0.2251226156949997 0.3030374050140381 -0.22726823389530182 -0.01836291141808033 -0.13793593645095825 0.03297371044754982 -0.04664323106408119 -0.09597180783748627 -0.04000232741236687 0.10628470033407211 0.031321510672569275 -0.05385202914476395 -0.03229893743991852 -0.18977507948875427 -0.08302003145217896 0.048658061772584915 0.09843748807907104 -0.05486859008669853 -0.058602407574653625 0.13867051899433136 0.07059302926063538 -0.06813417375087738 0.13830551505088806 0.03792871534824371 -0.07481276988983154 0.05152938514947891 -0.18759587407112122 0.13060790300369263 -0.1264743059873581 0.058680810034275055 -0.302089124917984 0.20409485697746277 -0.07348700612783432 0.11477678269147873 -0.13618521392345428 -0.09233693033456802 0.14069406688213348 0.14703470468521118 -0.18499357998371124 -0.08716040849685669 -0.07509076595306396 -0.09898853302001953 -0.09120433777570724 0.1902574896812439 -0.27130991220474243 -0.015992503613233566 0.1346869319677353 0.020077349618077278 -0.005940464325249195 -0.19170843064785004 -0.029439596459269524 0.1944960206747055 0.02636021189391613 0.12277035415172577 -0.09654655307531357 -7.42314790841192E-4 0.04861586168408394 -0.2563384771347046 -0.3057791590690613 0.03169520944356918 0.22606775164604187 0.13433553278446198 -0.060833465307950974 0.011329864151775837 -0.06293714791536331 -0.01609705574810505 -0.005505276843905449 0.05411399155855179 -0.2852603495121002 -0.2946576178073883 0.03847142681479454 0.06591977924108505 -0.01447970513254404 -0.015346482396125793 -0.0910954549908638 -0.03642254322767258 0.21454741060733795 -0.02846035175025463 -0.05896073579788208 -0.08896078914403915 -0.059050053358078 0.12540896236896515 0.21590034663677216 -0.10172688215970993 0.10909902304410934 -0.028448086231946945 0.06238766759634018 -0.006676437333226204 0.23578831553459167 -0.0437161959707737 0.14094404876232147 -0.1279945969581604 0.0070674847811460495 0.09810588508844376 0.11357187479734421 0.09571857005357742
would 0.07329674065113068 -0.005810319911688566 -0.22881698608398438 0.3425796926021576 -0.18914051353931427 0.29251599311828613 0.04053288325667381 0.03651036322116852 0.031917113810777664 0.0161301176995039 -0.1407490074634552 0.3675059676170349 0.16524723172187805 0.2567029595375061 0.17384858429431915 0.08421212434768677 0.18850284814834595 -0.0067526730708777905 0.07077142596244812 0.03301551192998886 -0.10560446232557297 0.19260084629058838 0.2291654497385025 0.40694695711135864 0.03736291080713272 -0.40293556451797485 -0.1140516921877861 -0.21870747208595276 -0.024125387892127037 -0.08021197468042374 -0.19416362047195435 0.19937877357006073 0.2548373341560364 -0.013977881520986557 0.42713576555252075 -0.04166959226131439 -0.028539633378386497 0.2024528831243515 -0.0778532549738884 -0.0910138338804245 0.15735270082950592 -0.07053692638874054 0.3152851164340973 0.005308404099196196 -0.0580158606171608 0.06424003839492798 0.25855544209480286 -0.14213551580905914 0.11665084213018417 -0.2725813090801239 0.040198471397161484 0.1788453608751297 0.21459506452083588 -0.07562217116355896 -0.07108522951602936 -0.1009572446346283 -0.5790681838989258 0.034966398030519485 -0.21540309488773346 0.055306918919086456 0.1280497908592224 0.05332052707672119 0.09856117516756058 0.257440447807312 0.1852356195449829 -0.06443002820014954 0.031117409467697144 0.09772929549217224 0.024132944643497467 -0.15676163136959076 -0.04247865453362465 0.44440871477127075 -0.038657523691654205 0.26915857195854187 -0.07241954654455185 -0.09768158197402954 -0.18339601159095764 -0.1834014356136322 -0.2620408535003662 -0.1774178147315979 -0.26467058062553406 0.0588696151971817 -0.11337494105100632 0.05856575071811676 -0.0778612568974495 0.06110105663537979 0.06231513246893883 -0.29951655864715576 -0.08846797794103622 -0.026549484580755234 -0.029961924999952316 -0.32163092494010925 -0.14003080129623413 0.03463546559214592 -0.0911804810166359 0.2282201051712036 0.0174024049192667 0.10190679877996445 -0.0050405170768499374 0.069717638194561
because 0.19643795490264893 0.003325366647914052 0.07028267532587051 0.07800696045160294 0.09646997600793839 0.13316483795642853 0.29520383477211 -0.007139380089938641 -0.05295991525053978 -0.07111197710037231 0.048908449709415436 -0.1805690973997116 0.17030839622020721 -0.0500807985663414 0.10650868713855743 -0.00264004897326231 -0.09899161010980606 -0.07854914665222168 -0.005291538778692484 0.10040464252233505 0.20039179921150208 0.09191194176673889 0.10612040013074875 -0.01078617200255394 -0.17895963788032532 -0.09147918224334717 0.033202290534973145 -0.10022752732038498 -0.03158368915319443 -0.013271975331008434 -0.017532989382743835 0.07160698622465134 0.11478584259748459 -0.11686315387487411 -0.011355701833963394 -0.04301906004548073 -0.08077076077461243 0.2083601951599121 -0.028521502390503883 0.09669384360313416 -0.17254698276519775 0.008419668301939964 -0.09768941253423691 -0.14599071443080902 0.07965212315320969 0.14299573004245758 -0.11450155824422836 -0.012978165410459042 -0.19686724245548248 0.013772223144769669 0.22088387608528137 0.06505188345909119 0.09674906730651855 -0.09424928575754166 0.049615051597356796 0.2777109444141388 -0.1590663492679596 -0.053179893642663956 -0.10613776743412018 -0.07733525335788727 -0.10789765417575836 -0.05388437956571579 -0.20786260068416595 -0.009646682068705559 0.03912445902824402 -0.09899669140577316 0.24376976490020752 -0.2255566418170929 0.011845000088214874 0.15302862226963043 0.22600390017032623 -0.19182176887989044 0.014911762438714504 0.006784029304981232 -0.08765071630477905 -0.24562303721904755 0.06336993724107742 -0.358417809009552 -0.18248125910758972 -0.09540095180273056 0.042591679841279984 -0.057254359126091 0.023033659905195236 0.09625285863876343 -0.10042193531990051 -0.059919197112321854 0.028362033888697624 -0.11663145571947098 -0.27105093002319336 -0.10886061936616898 -0.011421260423958302 0.06744524836540222 -0.05461796373128891 -0.1637803018093109 -0.14593222737312317 0.20540809631347656 -0.07376343756914139 0.11614172905683517 0.04325026273727417 0.2599446177482605
state -0.15884897112846375 0.0579492412507534 0.12429530918598175 -0.026011954993009567 0.3956553339958191 0.05538851022720337 0.05028849095106125 0.018417634069919586 -0.14047859609127045 -0.10437925904989243 -0.32911279797554016 -0.24252453446388245 0.051741018891334534 0.04581736773252487 -0.07589844614267349 0.07907239347696304 0.19962091743946075 -0.08603765070438385 0.006538793910294771 -0.10689006000757217 -0.03890028968453407 -0.16071030497550964 -0.0018065182957798243 0.023099912330508232 -0.014342785812914371 0.027701521292328835 0.060034140944480896 0.05271603912115097 -0.029192090034484863 -0.07613486796617508 -0.14949379861354828 0.1592274010181427 0.09367716312408447 0.24132856726646423 -0.39956969022750854 0.05727941915392876 -0.13830704987049103 0.046518657356500626 -0.028974542394280434 0.0027703167870640755 -0.16591012477874756 0.0905180424451828 -0.18362827599048615 0.02297930419445038 -0.35796409845352173 -0.16889137029647827 0.028329912573099136 0.09023012220859528 0.024409564211964607 -0.19654454290866852 0.08226421475410461 0.04819700866937637 0.1447577327489853 -0.06363900750875473 0.32519009709358215 0.07937489449977875 0.3195381760597229 0.4179714322090149 -0.06083933636546135 0.010484161786735058 0.06606972962617874 -0.28436288237571716 -0.11817937344312668 0.35539257526397705 0.162841796875 -0.05948307737708092 0.029002590104937553 -0.05632002279162407 0.1667771339416504 0.035079531371593475 -0.21949602663516998 0.13196904957294464 -0.06669371575117111 -0.10586408525705338 -0.01463799923658371 -0.05000898987054825 0.016137829050421715 -0.05743945389986038 -0.03600030392408371 -0.14967361092567444 0.3325672149658203 0.11002957820892334 -0.001247446984052658 -0.17426930367946625 0.2704892158508301 0.03259886056184769 -0.025425821542739868 0.09945596754550934 0.008635514415800571 0.32364580035209656 0.11497814953327179 -0.05019586160778999 0.26392662525177 -0.055893152952194214 0.0742838904261589 -0.08883494138717651 -0.22420406341552734 -0.02546791359782219 0.11148574203252792 -0.062396589666604996
they -0.07543983310461044 -0.19459740817546844 -0.061279281973838806 0.24323922395706177 -0.11510538309812546 -0.15942464768886566 -0.08225918561220169 0.0402940958738327 0.1507761925458908 0.22999297082424164 -0.03252890333533287 -0.06355765461921692 -0.004599797073751688 0.02680332586169243 0.045604292303323746 0.22927215695381165 -0.2032451033592224 0.1020251214504242 -0.22148452699184418 -0.1653321087360382 -0.0909046083688736 -0.13265037536621094 -0.005247371271252632 -0.35774433612823486 -0.18763843178749084 -0.10048794746398926 -0.09183671325445175 -0.08047403395175934 -0.15059421956539154 0.10089992731809616 0.1967514306306839 0.033367086201906204 0.22702708840370178 0.16395379602909088 0.13087432086467743 0.08031199872493744 -0.056794892996549606 -0.2725255489349365 0.11257220804691315 -0.17238813638687134 0.016235100105404854 0.24193190038204193 0.021624494343996048 0.1660747081041336 0.0026379369664937258 0.05508403107523918 -0.008286679163575172 -0.32260313630104065 0.23242969810962677 0.014810135588049889 -0.2042611837387085 0.012416442856192589 -0.034680359065532684 0.17978651821613312 0.17632360756397247 -0.3342118263244629 -0.06518672406673431 -0.10475235432386398 -0.2148263156414032 0.037743136286735535 -0.057145703583955765 -0.217551127076149 0.3142469525337219 -0.040799811482429504 -0.02670223079621792 -0.10659075528383255 -0.09153296798467636 -0.30784276127815247 -0.03107294999063015 0.20475070178508759 -0.3436817526817322 0.14279524981975555 0.054898105561733246 -0.04921485111117363 0.06933362782001495 -0.0437680222094059 -0.31456270813941956 -0.08010546118021011 -0.026251472532749176 0.13617198169231415 -0.19842563569545746 -0.2366299331188202 -0.4663780927658081 -9.9669408518821E-4 -0.05165915936231613 0.3625967502593994 -0.07181359082460403 0.045979488641023636 -0.03718221187591553 -0.16420380771160126 0.08794707804918289 -0.1596829742193222 0.13652251660823822 -0.016728250309824944 0.16577106714248657 0.34777864813804626 -0.06254957616329193 -0.18588289618492126 -0.1226828545331955 0.041175682097673416
you 0.17021480202674866 -0.3116087317466736 -0.11874469369649887 0.06613387167453766 0.1615668684244156 0.11940181255340576 0.1518016755580902 0.1301230937242508 0.14185479283332825 0.20966105163097382 0.1661408394575119 0.07563776522874832 0.12203681468963623 0.2747129499912262 0.1540166288614273 -0.018696894869208336 -0.07641679793596268 0.1740521639585495 -0.15078730881214142 -0.28410419821739197 0.054082538932561874 -0.028259117156267166 -0.24658066034317017 0.04598339647054672 -0.06394405663013458 -0.2361183613538742 -0.35693222284317017 -0.007569447625428438 -0.13242551684379578 -0.07334516197443008 0.2693299353122711 -0.0654752105474472 0.0730430856347084 -0.0963013768196106 0.13872352242469788 0.12918514013290405 0.03219711035490036 -0.34815678000450134 0.25223612785339355 0.07147783041000366 -0.01322857290506363 0.1470935195684433 0.15237575769424438 0.1704569160938263 -0.05610429123044014 -0.03650331124663353 0.27137210965156555 -0.020330209285020828 0.012499943375587463 0.0034168835263699293 -0.29996150732040405 0.13847510516643524 0.026403946802020073 -0.03951409086585045 -0.10352379083633423 -0.14407958090305328 -0.04842033237218857 -6.459460710175335E-4 -0.5303217172622681 0.03694593533873558 -0.22082127630710602 -0.1613408625125885 0.14313890039920807 -0.3281996250152588 -0.1381167620420456 -0.13063156604766846 0.0944952666759491 -0.24798551201820374 -0.34933507442474365 0.24689798057079315 -0.23107145726680756 -0.003202937776222825 0.07243218272924423 0.12176181375980377 -0.2666865587234497 0.1394365131855011 -0.33178073167800903 0.13415978848934174 0.03467325121164322 -0.04189867898821831 0.18928895890712738 -0.011832054704427719 -0.08268868178129196 0.15076148509979248 0.27490273118019104 0.1538272351026535 -0.11579571664333344 0.20086510479450226 0.07627715170383453 -0.20173685252666473 0.22029553353786469 -0.0869879350066185 0.020783819258213043 -0.04434552416205406 0.32081013917922974 0.17317847907543182 0.1351989358663559 -0.1162172257900238 0.23285257816314697 0.20400503277778625
$ 0.032215043902397156 -0.007678201887756586 0.03864516317844391 0.012601306661963463 0.025629006326198578 0.034806638956069946 -0.035119690001010895 0.004349064081907272 -0.001164284534752369 0.00882671307772398 -0.06679893285036087 -0.02684793621301651 0.015654053539037704 -0.0022735337261110544 0.033251456916332245 0.021973608061671257 -0.01768985018134117 -0.014369179494678974 -0.03452536463737488 -0.01976875774562359 -0.06943178176879883 0.0261292215436697 0.011724465526640415 8.307419484481215E-4 0.025103317573666573 -0.028836123645305634 0.024062586948275566 -0.007733256556093693 0.02810162492096424 -0.016221962869167328 0.04216572642326355 0.002391034970059991 -0.009698597714304924 0.008469552733004093 0.014615831896662712 -0.008310019969940186 -0.018469661474227905 0.020147357136011124 -0.01271993387490511 0.017653848975896835 -0.005313716363161802 0.00976596586406231 -0.029999975115060806 0.0073471106588840485 0.019479073584079742 -0.01757638342678547 -0.0350501649081707 0.01774095743894577 -0.0014588539488613605 0.001572105335071683 -0.01279929094016552 0.04061497375369072 0.010357717983424664 0.011364373378455639 -3.746766597032547E-4 -0.018365275114774704 -0.03893577307462692 0.04673049971461296 -0.0037787952460348606 -0.0036180466413497925 -0.021285900846123695 -0.02498544566333294 -0.0018604836659505963 0.018566912040114403 -0.040785662829875946 -0.006958324462175369 0.013216675259172916 0.0017044652486220002 0.04162539541721344 0.007825487293303013 -0.008011720143258572 -0.006260066758841276 -0.02217957004904747 0.016705656424164772 -0.02978767640888691 0.022453391924500465 0.027739357203245163 -0.01751949079334736 -0.006039258558303118 -0.006903951056301594 0.005579272285103798 0.00985998846590519 0.026322215795516968 0.005940810777246952 0.009619984775781631 -2.606380730867386E-4 0.005507871508598328 -0.045944686979055405 0.015287165530025959 -0.01970279961824417 0.033919643610715866 -0.014555610716342926 0.025649186223745346 0.03481263667345047 -0.014684103429317474 0.011815732344985008 -0.004378742538392544 0.022790731862187386 0.03542065620422363 -0.039234235882759094
going 0.45100241899490356 0.056824248284101486 -0.06255870312452316 0.3017004728317261 0.39018306136131287 0.35673242807388306 -0.11136260628700256 0.05377921834588051 -0.3276926577091217 -0.05005812272429466 0.21254964172840118 0.4536415636539459 -0.09248796850442886 -0.13405342400074005 0.20790080726146698 -0.15551474690437317 -0.19785498082637787 0.20718827843666077 -0.19984295964241028 -0.04484635218977928 -0.10257890075445175 0.3856038749217987 0.07020014524459839 -0.02810845710337162 -0.1575227528810501 -0.34513476490974426 -0.2023867517709732 -0.026070160791277885 0.07565446197986603 0.4644044041633606 0.1379370540380478 -0.06898220628499985 -0.08029662072658539 0.09272836893796921 0.3718285858631134 -0.07098782062530518 -0.30120208859443665 0.27012598514556885 0.2551864683628082 0.21851064264774323 -0.17031633853912354 -0.3224146068096161 -0.48671606183052063 -0.1676112860441208 0.07071242481470108 0.0711832046508789 0.05184367299079895 -0.03447910025715828 0.28405874967575073 -0.013375566340982914 -0.12153960019350052 0.020443646237254143 -0.11533602327108383 0.5452069640159607 -0.07373137772083282 -0.07942605763673782 -0.053626954555511475 -0.2755087614059448 -0.08860727399587631 0.20167620480060577 -0.05738086253404617 -0.08391249179840088 -0.008604363538324833 -0.07222328335046768 -0.2631656527519226 -0.12079029530286789 0.47106248140335083 -0.23423665761947632 -0.3217028081417084 0.27193760871887207 -0.28208982944488525 -0.020106079056859016 -0.06811798363924026 0.04657423496246338 0.09177034348249435 -0.2784659266471863 -0.15464721620082855 -0.0738602802157402 0.10365293174982071 -0.18374110758304596 0.0897066667675972 0.18455705046653748 0.09257251024246216 0.4732073247432709 -0.13761764764785767 -0.05874815955758095 0.008367156609892845 -0.4971578121185303 -0.044919807463884354 -0.24459393322467804 0.11103581637144089 -0.024862613528966904 0.3358786404132843 0.30204689502716064 -0.25349661707878113 -0.4941808581352234 0.15674744546413422 -0.1154690757393837 -0.20077423751354218 -0.021052785217761993
old -0.01830475777387619 0.1553170382976532 0.001518846838735044 -0.022057320922613144 0.01910022459924221 -0.03781205788254738 0.101902537047863 0.08152054250240326 -0.20306441187858582 0.24324975907802582 -0.2044835388660431 0.006651257164776325 -0.08231274783611298 0.10106708109378815 -0.030617330223321915 0.05537360906600952 -0.08892404288053513 0.02522255852818489 -0.06992132216691971 -0.016090447083115578 -0.02177870087325573 0.07541276514530182 -0.2170284539461136 0.016504663974046707 0.22978128492832184 -0.20761314034461975 0.2004404217004776 -0.13719642162322998 0.14702445268630981 0.3300906717777252 -0.17597706615924835 0.044491786509752274 -0.16200658679008484 -0.11454582214355469 -0.03951726481318474 -0.04927408695220947 0.2932458817958832 -0.050333257764577866 0.05427054315805435 -0.2279612123966217 0.24789191782474518 0.09279096126556396 -0.41775810718536377 0.10496173799037933 0.23082630336284637 -0.3174692988395691 0.057915542274713516 0.38050803542137146 0.026786651462316513 -0.24482065439224243 0.333355188369751 -0.05392932891845703 0.2698878347873688 0.05408656597137451 0.021816765889525414 0.1918535828590393 0.12766169011592865 0.03239809349179268 0.279127836227417 -0.23830389976501465 -0.09233825653791428 -0.2930912375450134 0.13624198734760284 0.035124339163303375 -0.0646076500415802 -0.4079909026622772 -0.16390423476696014 0.0567702054977417 0.2586759328842163 -0.03565901890397072 0.033888936042785645 0.011647108942270279 -0.019041534513235092 0.20362840592861176 0.08288384974002838 -0.31723782420158386 0.03142034634947777 0.004416806157678366 0.04202866926789284 -0.38967961072921753 -0.013849906623363495 0.29276323318481445 0.06633152067661285 0.11521624028682709 -0.051743168383836746 -0.04552781954407692 0.046345990151166916 0.22986193001270294 -0.05741460248827934 0.267032653093338 0.290865421295166 0.12767842411994934 0.7044485807418823 0.15774713456630707 0.04144915193319321 -0.1400475949048996 0.10263507068157196 0.03137184679508209 0.1322323977947235 -0.07631660252809525
want -0.08456694334745407 -0.3228702247142792 -0.0342937596142292 0.11151494085788727 -0.11792682111263275 0.5286690592765808 -0.10631728917360306 -0.0663837119936943 -0.17090676724910736 0.15240974724292755 -0.24644668400287628 -0.008523290045559406 0.15351612865924835 -0.14748486876487732 -0.1315910816192627 -0.12416339665651321 0.18754979968070984 0.041655153036117554 0.031124768778681755 0.20034144818782806 -0.38253870606422424 0.2078319936990738 -0.028026070445775986 0.14238940179347992 -0.33408308029174805 -0.16390834748744965 0.03419163450598717 -0.1902250498533249 0.1357327103614807 0.04291384667158127 0.2580418586730957 0.13325068354606628 -0.08056358993053436 -0.12472031265497208 0.12113146483898163 2.7061879518441856E-4 0.03461655229330063 0.21361804008483887 0.2432032972574234 0.09963636845350266 -0.048012908548116684 -0.21823656558990479 0.4883272647857666 -0.006749579682946205 -0.04081958532333374 0.3662400543689728 0.030302437022328377 -0.011583110317587852 0.10748980194330215 -0.3009699583053589 -0.01717599481344223 0.28178852796554565 -0.019107405096292496 0.01652965508401394 0.08076781779527664 -0.18336202204227448 -0.04548517242074013 0.21022172272205353 -0.5166096687316895 0.40082308650016785 0.045546192675828934 0.005609866697341204 0.08240566402673721 0.051666826009750366 -0.051380470395088196 0.21486487984657288 0.31257164478302 -0.13640187680721283 -0.39106485247612 0.1320173591375351 -0.05274634063243866 0.006308719515800476 -0.03331378102302551 0.5731091499328613 0.08836893737316132 0.2309761941432953 0.057147201150655746 -0.3778928518295288 0.20552636682987213 -0.04860970377922058 -0.1793494075536728 -0.08955725282430649 -0.14564530551433563 0.07522479444742203 0.08696573972702026 -0.25041496753692627 -0.11938893795013428 -0.212516188621521 0.10835767537355423 -0.20441076159477234 -0.2819252908229828 -0.26729831099510193 0.1086559072136879 0.09743709862232208 -0.2748683989048004 -0.06068605184555054 0.32646891474723816 0.17862099409103394 -0.006381056737154722 -0.012996678240597248
night 0.09338752180337906 0.18401901423931122 0.09373991191387177 0.012207459658384323 -0.1569639891386032 -0.14677517116069794 0.10925911366939545 -0.09599925577640533 -0.0406322255730629 0.2840120196342468 -0.29887571930885315 -0.1861860156059265 -0.1810264140367508 -0.08596828579902649 0.4945019781589508 0.15958890318870544 -0.16008637845516205 0.03292044252157211 0.24413082003593445 0.02895333245396614 -0.31335580348968506 0.40225258469581604 -0.11467046290636063 -0.3506760597229004 0.03800424560904503 -0.027085067704319954 0.4457815885543823 -0.1459745317697525 0.25990504026412964 0.0940156877040863 -0.16541314125061035 0.10816122591495514 0.022640913724899292 0.12670256197452545 0.10389561206102371 0.3753341734409332 -0.090562604367733 0.12974689900875092 -0.19454878568649292 -0.09791161119937897 0.15629805624485016 0.07872018963098526 -0.24872025847434998 -0.17633908987045288 -0.17639315128326416 -0.2027125507593155 0.19745349884033203 0.05403514951467514 -0.1311897486448288 -0.017138369381427765 0.2500321567058563 -0.24275127053260803 -0.13855502009391785 -0.24644502997398376 0.0888604149222374 -0.2519778609275818 0.07925648242235184 0.30093660950660706 -0.08667333424091339 -0.11546871066093445 0.020657029002904892 0.07425324618816376 -0.34570029377937317 0.09144563227891922 0.16200602054595947 0.2828763723373413 -0.08804964274168015 0.2762787640094757 -0.13742633163928986 -0.04921744391322136 -0.13091276586055756 0.16776549816131592 -0.02256067842245102 -0.21015286445617676 0.17524762451648712 0.3757103681564331 0.1512177735567093 0.07138931006193161 -0.1283501833677292 -0.08283916860818863 0.026993757113814354 0.08654560148715973 0.14515186846256256 -0.09043344110250473 0.2872023284435272 -0.46095147728919983 0.24662712216377258 0.30363771319389343 -0.36139678955078125 -0.05900363624095917 0.1291598528623581 0.014434206299483776 0.01797129400074482 0.09583449363708496 0.09089276194572449 -0.07829521596431732 0.18943241238594055 -0.048780083656311035 -0.2018747180700302 -0.18022017180919647
them 0.19524678587913513 -0.01939704827964306 0.3126400411128998 0.1416894942522049 -0.06191929429769516 -0.11228612810373306 -0.265049010515213 0.14062370359897614 0.24881993234157562 0.17871075868606567 0.04559522867202759 -0.07969983667135239 0.2895107865333557 0.30282601714134216 0.3651370704174042 0.36889466643333435 -0.1546139419078827 -0.020493118092417717 -0.004483282566070557 0.15022706985473633 -0.1669997125864029 0.2184125781059265 0.19205333292484283 -0.027607308700680733 0.0019618526566773653 -0.1933029443025589 0.20427720248699188 -0.14305439591407776 -0.0791759118437767 -0.12638063728809357 0.35358989238739014 0.0938057079911232 -0.13445912301540375 -0.07770726084709167 0.005238091107457876 0.28353244066238403 -0.02320181019604206 -0.14792440831661224 0.05618096888065338 -0.1328788697719574 0.15118390321731567 0.19953586161136627 -0.31610700488090515 0.21713726222515106 -0.03050713986158371 -0.246246799826622 -0.17845620214939117 -0.04077916219830513 -0.008464680053293705 0.13783617317676544 -0.12297474592924118 0.24933122098445892 -0.09497030824422836 -0.16451522707939148 0.28659719228744507 -0.1452459692955017 -0.08914194256067276 0.010502521879971027 -0.20470556616783142 -0.08397451788187027 -0.17870335280895233 -0.12596595287322998 -0.07955994457006454 0.16973666846752167 -0.1273682862520218 -0.1413748562335968 0.3410082757472992 0.04527745395898819 -0.08704521507024765 0.09136234223842621 0.20278047025203705 -0.06646241992712021 -0.056472960859537125 0.12350413203239441 -0.21252766251564026 0.049044881016016006 0.011919070035219193 -0.18343305587768555 0.054425157606601715 0.08407752215862274 0.036640215665102005 -0.1493169367313385 0.13151709735393524 0.13484258949756622 0.09607721120119095 -0.07088525593280792 0.04931707680225372 -0.15260326862335205 0.014929774217307568 -0.277756929397583 0.02008054032921791 -0.30410444736480713 0.33139875531196594 0.05589227005839348 -0.24648165702819824 0.25288939476013184 0.13521531224250793 0.30286088585853577 0.15305545926094055 -0.03075270913541317
then 0.3335169553756714 -0.14988909661769867 -0.06606043130159378 0.03072918765246868 0.18109841644763947 -0.06523536145687103 0.05728793144226074 -0.23362983763217926 -0.269400954246521 -0.09116774797439575 -0.10314427316188812 0.11439274996519089 -0.035576462745666504 0.16537031531333923 0.04619375243782997 -0.3093167841434479 0.019962415099143982 -0.07761044055223465 0.33515846729278564 -0.16726559400558472 -0.11185692250728607 -0.02904151938855648 -0.12723641097545624 -0.12901553511619568 -0.17523826658725739 -0.314179390668869 0.06631995737552643 -0.24254029989242554 -0.07050242274999619 0.002432371024042368 0.24250006675720215 0.012385440059006214 0.0067682452499866486 0.08301135152578354 0.2194550633430481 0.06952295452356339 -0.038691457360982895 0.04476911574602127 0.01711403764784336 0.05449371412396431 0.06309190392494202 0.1139751747250557 -0.20179107785224915 -0.09903082996606827 -0.24196666479110718 0.21169763803482056 0.2137720137834549 -0.18495288491249084 0.11841350793838501 0.18734298646450043 0.11540663987398148 -0.00245561171323061 -0.11918863654136658 -0.2085046023130417 0.3190454840660095 -0.019770637154579163 0.19327296316623688 0.12073739618062973 0.2021581083536148 -0.0057611907832324505 0.23884713649749756 0.1174478679895401 -0.06229857727885246 -0.004814851097762585 0.11133497208356857 0.28162360191345215 -0.1818411648273468 0.1529080867767334 0.011232946999371052 0.05720679461956024 0.00833408534526825 0.06476610898971558 0.2201964110136032 -0.03428077697753906 0.18808245658874512 -0.13271494209766388 0.10576901584863663 -0.006136733572930098 -0.05056964233517647 0.06929376721382141 0.08042608946561813 0.14533960819244385 -0.20563417673110962 0.07909373193979263 -0.03257828205823898 0.03284406661987305 0.2602648437023163 -0.09815510362386703 0.02977009303867817 0.06402155756950378 -0.04586227610707283 0.011292711831629276 0.145655557513237 0.3051615059375763 -0.01730525679886341 0.09395875781774521 -0.004349132068455219 0.05645708367228508 -0.09653860330581665 -0.33378273248672485
court 0.0676584467291832 -0.031095396727323532 0.0768379494547844 0.08349884301424026 0.07324520498514175 0.34821203351020813 -0.05952144041657448 0.08411428332328796 -0.19686086475849152 -0.1580207347869873 -0.16304011642932892 -0.17466731369495392 -0.18156489729881287 -0.10534947365522385 -0.15446141362190247 -0.03478841483592987 -0.04742289334535599 0.14594382047653198 -0.04441444203257561 -0.047815438359975815 -0.06460460275411606 0.12367907166481018 -0.25441476702690125 -0.017609434202313423 0.018049312755465508 -0.07751757651567459 0.044946037232875824 -0.04674338921904564 0.050117600709199905 0.013965065591037273 -0.08490192890167236 -0.07125138491392136 0.11732949316501617 0.18120171129703522 -0.024950595572590828 0.031410448253154755 -0.15033788979053497 0.05697602778673172 -0.10017266124486923 0.0537133626639843 -0.09062790125608444 0.13417483866214752 -0.3467113673686981 -0.017133135348558426 -0.16812841594219208 -0.1800205111503601 0.12026549130678177 -0.06554289907217026 -0.21053007245063782 -0.04937782138586044 0.010279185138642788 0.03845734894275665 0.08680865913629532 0.05568936839699745 0.11815979331731796 -0.06874100118875504 0.01363586075603962 -0.0095293540507555 -0.13230624794960022 0.08847691863775253 0.10461346060037613 -0.2298610359430313 -0.12723714113235474 0.1332855224609375 0.15924878418445587 0.17513854801654816 0.028016436845064163 -0.160255566239357 -0.22369679808616638 0.18273110687732697 -0.10809276252985 0.06055903434753418 0.05010956898331642 -0.29340776801109314 -0.16234470903873444 0.07127232849597931 0.07538655400276184 0.045033764094114304 0.06271777302026749 -0.3173447251319885 0.1348438411951065 0.15830129384994507 0.15334974229335785 -0.15500377118587494 0.03776687756180763 -0.07797256857156754 0.16330581903457642 0.0052022491581737995 -0.19716082513332367 0.10338722914457321 0.07070054113864899 0.0203123576939106 0.12353160977363586 0.1689845621585846 0.05958646535873413 -0.1635218858718872 -0.11213254183530807 -0.05875058472156525 -0.195712611079216 -0.044324226677417755
an 0.17385657131671906 0.1312626302242279 0.12878403067588806 0.11708203703165054 0.01709958165884018 0.22543786466121674 -0.1019647866487503 0.11615125089883804 0.027123400941491127 0.30153077840805054 -0.2096867859363556 -0.13288810849189758 0.02105940878391266 0.13955093920230865 -0.1630273312330246 0.07041538506746292 -0.19352073967456818 0.049218855798244476 -0.04499277472496033 -0.08145442605018616 -0.061804257333278656 -0.028219155967235565 -0.008283750154078007 -0.014756852760910988 0.007139663212001324 -0.13136935234069824 0.1678019016981125 0.16970887780189514 0.1277063935995102 0.09083279222249985 0.08652106672525406 -0.011857924982905388 0.22763314843177795 -0.002882830798625946 0.09629509598016739 0.15839271247386932 -0.08094372600317001 0.09175346046686172 -0.038304831832647324 0.14211398363113403 -0.1739850640296936 -0.07557301968336105 -0.19272783398628235 -0.04180676490068436 -0.07557365298271179 -0.23510387539863586 0.16409902274608612 0.11225288361310959 0.1822849065065384 1.360358000965789E-4 0.23929651081562042 -0.057038869708776474 0.12943793833255768 0.014829058200120926 -0.0024395999498665333 -0.2738398611545563 0.2983345091342926 0.17093218863010406 0.18482474982738495 -0.19694724678993225 0.08827246725559235 0.10980851948261261 0.09365195035934448 -0.13906194269657135 0.0655304491519928 -0.06136435270309448 0.2980280816555023 0.027365291491150856 -0.10673326998949051 -0.2505934536457062 -0.16277998685836792 -0.015170559287071228 0.05781468003988266 0.0537211112678051 -0.01817682385444641 0.03802156820893288 0.1665358692407608 -0.0022023473866283894 0.11827995628118515 -0.20966295897960663 0.1292427033185959 0.23806865513324738 -0.02248077653348446 0.0665057972073555 0.3410291373729706 -0.17713963985443115 -0.18253055214881897 -0.18055041134357452 0.023090537637472153 0.0724831148982048 0.06867407262325287 0.060113344341516495 0.03640814125537872 0.12877067923545837 -0.03177551180124283 -0.20659537613391876 -0.011660300195217133 -0.15787957608699799 0.13744816184043884 -0.1486721783876419
- 0.053192950785160065 0.02958693914115429 0.0017139517003670335 -0.10821535438299179 0.07595068961381912 -0.08010616153478622 -0.04906417429447174 0.051199980080127716 -0.12825529277324677 0.08809105306863785 -0.06445582956075668 -0.050119299441576004 -0.060500167310237885 0.1321229785680771 -0.026503529399633408 0.08553560078144073 -0.021966399624943733 0.013247616589069366 0.05956030637025833 0.0424182265996933 -0.015925193205475807 7.325095939449966E-4 0.019820556044578552 -0.09104593843221664 0.0839633122086525 -0.046768587082624435 0.07688817381858826 0.00868472084403038 0.05436096712946892 -0.002272227080538869 0.024698495864868164 0.01949152909219265 -0.01457567885518074 0.0244564488530159 -0.07317487895488739 0.004729029256850481 -0.020030872896313667 -0.033005986362695694 -0.13062433898448944 0.022913167253136635 -0.11651527881622314 0.05203666910529137 -0.10251688212156296 -0.027963588014245033 -0.01735914871096611 -0.026005826890468597 0.038279641419649124 0.10415224730968475 0.044021036475896835 0.08980011194944382 0.06085009500384331 -0.06181562319397926 -0.11749090999364853 -0.11433137953281403 0.05618144944310188 -0.030040131881833076 0.06626331061124802 0.06292183697223663 0.06640302389860153 -0.025499898940324783 0.04570915922522545 0.03642996400594711 -0.09902650862932205 -0.011127333156764507 -0.005518970545381308 -0.13013550639152527 0.026987049728631973 0.04135294258594513 -0.04636795073747635 0.03592713922262192 -0.06251856684684753 0.10270467400550842 0.017937306314706802 -0.034414276480674744 0.03805452212691307 -0.05953443795442581 -0.028084276244044304 0.07968325167894363 0.09308908879756927 0.029755849391222 0.05581212788820267 0.02663283236324787 -0.1312204897403717 -0.024817051365971565 0.04415425285696983 -0.043845415115356445 0.12212731689214706 -0.009448621422052383 0.04648231342434883 -0.0128307044506073 0.05343392491340637 0.011125383898615837 0.07984267920255661 -0.058630719780921936 0.032968778163194656 -0.1314464509487152 0.0806211605668068 0.04158695042133331 0.033760666847229004 -0.034646838903427124
each -0.07889584451913834 0.06279315054416656 0.12407202273607254 0.01716046780347824 0.04341132938861847 -0.2853107750415802 -0.3325316905975342 0.021437492221593857 0.17728058993816376 0.16491708159446716 -0.6742697954177856 -0.21612019836902618 0.1921573430299759 -0.20672616362571716 0.5077065825462341 0.0637216717004776 -0.36859130859375 -0.12638980150222778 -0.13931481540203094 0.06270069628953934 -0.25044816732406616 0.3358607590198517 -0.01723179779946804 0.07047896087169647 -0.05506248399615288 -0.24653679132461548 0.29394444823265076 -0.15749721229076385 0.30821940302848816 -0.4382677674293518 0.2530125081539154 0.2874014973640442 0.07023327797651291 -0.12878423929214478 -0.07516389340162277 0.1285172551870346 -0.02765362150967121 -0.047755613923072815 -0.07960161566734314 0.2345433086156845 0.2606644034385681 0.4078984260559082 -0.13153910636901855 -0.019962316378951073 0.13459618389606476 -0.23551620543003082 -0.03616485372185707 -0.21534962952136993 -0.015543618239462376 0.1277238130569458 0.20876199007034302 0.27082303166389465 -0.04646096006035805 0.036812521517276764 0.16041286289691925 -0.4675082564353943 -0.2092030644416809 0.19838114082813263 -0.14252911508083344 0.04278505593538284 -0.009748089127242565 0.15009945631027222 -0.08440878987312317 -0.09128469228744507 -0.33905765414237976 0.011661365628242493 0.6882771849632263 0.07287953048944473 0.04144199937582016 -0.06201692670583725 -0.10465209186077118 -0.16604305803775787 -0.05319515988230705 0.3094114065170288 -0.2162066549062729 0.20214316248893738 0.11398118734359741 -0.18204158544540405 0.3260818123817444 -0.2631089389324188 0.044217247515916824 -0.1514796018600464 0.0585593543946743 0.2774794399738312 -0.07802818715572357 -0.08898808062076569 -0.1994880735874176 -0.06377431750297546 -0.0037220867816358805 0.08925739675760269 0.12998418509960175 -0.20979411900043488 -0.006491105072200298 -0.02596551738679409 -0.12779243290424347 -0.01810811460018158 -0.20613689720630646 0.474332720041275 -0.04316597059369087 -0.21898910403251648
former -0.07502797991037369 0.04084892198443413 -0.0014643155736848712 0.004131876863539219 0.06968923658132553 -4.2558633140288293E-4 -0.031860265880823135 0.012742077931761742 0.011106213554739952 0.0012192482827231288 -0.049879178404808044 -0.0488758385181427 -0.07532443851232529 0.021271415054798126 0.00902175810188055 0.029498422518372536 0.03130456060171127 -0.008527982980012894 -0.0012209673877805471 0.044036202132701874 -0.03254910558462143 -0.014086320996284485 -0.036980025470256805 -0.005188151728361845 0.012171881273388863 0.007602680940181017 0.028558768332004547 0.013471871614456177 0.003350023180246353 -0.0011704766657203436 -0.09952142834663391 0.01135062612593174 0.024690264835953712 0.02108113281428814 -0.08349388092756271 0.008393526077270508 -0.01173769123852253 0.002232935978099704 -0.06566808372735977 0.0053224326111376286 0.004602103028446436 -0.0015526220668107271 -0.0539783351123333 -0.004021527711302042 -0.0010793432593345642 -0.043718017637729645 -0.003900340758264065 0.053600214421749115 -0.06630054116249084 0.0027786099817603827 0.0677599161863327 -0.007774805650115013 -0.007513209246098995 -0.024969181045889854 0.04700053855776787 -0.0012846763711422682 0.04313746467232704 0.06677807122468948 0.005705337040126324 -0.016557320952415466 0.004346716683357954 -0.03927883878350258 -0.05109572038054466 0.0534914992749691 0.005430330988019705 -0.03278946131467819 -0.01738278940320015 0.03987054154276848 0.029207546263933182 -0.03397418186068535 -0.038032807409763336 0.0478547029197216 -0.023830192163586617 -0.04853338003158569 -0.026011036708950996 -0.020116133615374565 0.042095303535461426 0.027088185772299767 0.036089710891246796 -0.08247445523738861 0.043251361697912216 0.010741204023361206 0.004596433602273464 -0.002333438955247402 0.024313002824783325 3.608942497521639E-4 0.00908779539167881 -0.005295007489621639 -0.017486073076725006 0.046703584492206573 0.015098372474312782 0.05129503831267357 0.0511743538081646 -0.010862543247640133 -0.0021578287705779076 -0.06523866206407547 -0.045151494443416595 0.009719905443489552 0.011017237789928913 -2.685469517018646E-4
as 0.33606356382369995 -0.03536173328757286 0.17580609023571014 -0.349639356136322 0.20843364298343658 0.23942431807518005 0.2010253518819809 0.16850706934928894 0.07245620340108871 0.08939234167337418 -0.06542041152715683 -0.06273382902145386 -0.3715885579586029 -0.07717490196228027 0.06535251438617706 0.20185425877571106 0.007487569935619831 0.08048119395971298 0.025298604741692543 0.05100707709789276 -0.4263220727443695 0.3807695806026459 0.123260498046875 -0.4120485186576843 0.13581201434135437 0.31876468658447266 0.08924167603254318 -0.01570800319314003 0.16492319107055664 0.055946480482816696 -0.01986255869269371 -0.06117306277155876 0.254814088344574 -0.050218433141708374 -0.24972830712795258 -0.14145426452159882 -0.03321820870041847 -0.06731995940208435 -0.10189666599035263 0.005213960539549589 -0.35615211725234985 -0.3421729803085327 0.09831877797842026 -0.16560488939285278 0.15781307220458984 -0.37797993421554565 -0.14554820954799652 -0.0450294055044651 -0.21269860863685608 0.14588674902915955 0.19604405760765076 -0.08220627158880234 0.15354682505130768 -0.34412530064582825 -0.25415071845054626 0.24877096712589264 -0.023677559569478035 0.2693045139312744 -0.25039151310920715 0.07435257732868195 -0.4584729075431824 0.010720235295593739 -0.14823630452156067 -0.04215768724679947 0.2562718093395233 -0.3906010687351227 -0.14174875617027283 0.06604157388210297 0.39276260137557983 -0.030063774436712265 0.03196639567613602 -0.13819846510887146 0.06768370419740677 0.23587796092033386 0.12509655952453613 -0.0923735573887825 -0.1969035565853119 -0.06928623467683792 -0.015462782233953476 0.10451249033212662 0.4954582154750824 -0.6264353394508362 -0.12206914275884628 0.36330312490463257 -0.05894330143928528 0.1976998746395111 -0.04548397287726402 0.23160892724990845 0.48737266659736633 -0.158945694565773 0.06187229976058006 0.40174242854118347 -0.020501092076301575 0.11386452615261078 -0.15792801976203918 0.344313383102417 0.09583742171525955 0.07378511875867844 -0.03534286841750145 0.20709840953350067
at -0.23229831457138062 0.3873470425605774 0.555415153503418 0.20972050726413727 -0.18746183812618256 -0.05559762567281723 -0.008074906654655933 -0.11326422542333603 0.163752943277359 -0.06152739003300667 0.009645168669521809 0.28536534309387207 -0.1703285127878189 -0.001222463557496667 0.04220545291900635 -0.18621881306171417 -0.4284152686595917 0.15472783148288727 0.007254134397953749 0.09905272722244263 0.03617061302065849 -0.025117142125964165 0.22160518169403076 -0.24269473552703857 -0.4517410099506378 -0.01006332691758871 0.17300541698932648 -0.27391040325164795 0.04820452257990837 -0.12290993332862854 -0.32619553804397583 -0.2129872739315033 0.011960041709244251 -0.17747361958026886 -0.27108070254325867 0.24585355818271637 0.0022024866193532944 -0.23498255014419556 -0.16550996899604797 -0.1329343616962433 0.06060722842812538 0.10793351382017136 -0.5758787393569946 0.05862630158662796 0.03490356728434563 -0.10227721184492111 0.05957867205142975 -0.3227100968360901 0.1550808548927307 -0.13488541543483734 0.42977309226989746 -0.14695163071155548 -0.00825232919305563 -0.20419473946094513 0.37094712257385254 0.0761742815375328 -0.010554452426731586 0.3637208640575409 0.06365173310041428 0.04173572361469269 -0.026400258764624596 -0.19466771185398102 -0.2613367736339569 0.005361814517527819 -0.31786400079727173 -0.20074273645877838 0.3438083827495575 0.2860817015171051 0.05972857028245926 0.13552093505859375 -0.09333286434412003 0.04814537987112999 0.13256551325321198 0.07916621118783951 0.16449575126171112 0.0613347552716732 -0.03739916533231735 0.05288729816675186 0.19774018228054047 -0.26952335238456726 -0.11749395728111267 -0.3427320420742035 -0.13011446595191956 -0.1259387582540512 -0.2741502523422241 -0.3812023401260376 -0.06037686765193939 -0.0971592366695404 -0.39585933089256287 0.030632097274065018 -0.028605615720152855 0.294990211725235 -0.09861142933368683 -0.13514958322048187 -0.26872166991233826 0.24010717868804932 0.08618437498807907 -0.22605809569358826 -0.10781267285346985 -0.11216732859611511
left 0.2308712750673294 -0.1444537341594696 0.05743378773331642 0.0754438266158104 0.10550557076931 -0.061783384531736374 0.0322502963244915 -0.24244284629821777 -0.14360091090202332 -0.04193464666604996 -0.026133960112929344 0.2056172639131546 0.008065419271588326 0.31195518374443054 -0.1912817507982254 0.01889246143400669 0.02601233310997486 0.027317801490426064 0.1653851419687271 -0.009655637666583061 0.08330858498811722 -0.012220817618072033 0.0802772045135498 -0.26476356387138367 0.26862892508506775 -0.24980370700359344 0.008193790912628174 -0.034593306481838226 0.00913503672927618 0.06220416724681854 0.179347425699234 -0.23699980974197388 -0.11504017561674118 -5.766412359662354E-4 0.21828940510749817 -0.17489123344421387 -0.04230567440390587 0.10335073620080948 0.13733553886413574 0.026047920808196068 -0.14136680960655212 0.25541049242019653 -0.022485166788101196 -0.03711039200425148 -0.025823913514614105 -0.4099656045436859 -0.04603765532374382 0.17447829246520996 -0.20874153077602386 0.009680407121777534 0.1730339080095291 0.1864405870437622 -0.1263607144355774 -0.12891922891139984 -0.09232445806264877 0.19955803453922272 -0.09168830513954163 0.14585720002651215 0.1873672753572464 -0.12022107094526291 0.17646755278110504 0.04812745749950409 -0.07947926223278046 0.05330314114689827 0.033590517938137054 -0.1351027637720108 -0.18553738296031952 0.06896338611841202 0.2922402322292328 0.09708061069250107 -0.06570605933666229 0.09378576278686523 0.0026008891873061657 -0.04369761049747467 -0.1229805052280426 -0.08057200163602829 0.1321202963590622 0.17430701851844788 -0.09420003741979599 -0.28461921215057373 -0.005761304870247841 0.16338758170604706 0.166159525513649 -0.16938407719135284 -0.20985721051692963 -0.24105870723724365 0.23958095908164978 -0.07058462500572205 -0.2057785540819168 0.18578390777111053 0.2727207839488983 -0.22108204662799835 0.13177794218063354 -0.16280314326286316 -0.08786804974079132 -0.052823569625616074 -0.24977326393127441 -0.012279712595045567 0.08765088766813278 -0.418418288230896
much 0.21895058453083038 -0.3802230656147003 0.0156507957726717 -0.07742765545845032 -0.10067441314458847 -0.01542218029499054 -0.11816833168268204 0.46862179040908813 0.06971576809883118 0.2923083007335663 0.007894826121628284 0.05082549527287483 0.10452090203762054 -0.1997448056936264 -0.03447980806231499 0.11009730398654938 -0.1760118305683136 -0.21585553884506226 0.1259748935699463 -0.21637725830078125 0.14911483228206635 -0.579491376876831 0.26316049695014954 0.15488098561763763 0.22020553052425385 -0.350556343793869 0.3289652466773987 -0.07867076247930527 0.03447389975190163 -0.13664977252483368 -0.11318275332450867 0.5696930885314941 -0.08863963931798935 -0.4448421895503998 0.0724434033036232 0.25509053468704224 0.1368226706981659 0.28485408425331116 0.027353236451745033 -0.0883692130446434 -0.03348466008901596 0.49613499641418457 -0.18030422925949097 0.1894359588623047 0.5240416526794434 -0.1354742795228958 -0.3619125485420227 0.45453864336013794 -0.08075164258480072 -0.08510636538267136 0.3248731791973114 -0.06393716484308243 0.1135825663805008 0.1748591959476471 -0.3820918798446655 0.2569887340068817 -0.18846029043197632 -0.5408573746681213 -0.10198724269866943 -0.5391972661018372 -0.029435323551297188 -0.15652702748775482 0.45205074548721313 -0.34362661838531494 0.28515198826789856 0.18270525336265564 0.2049795240163803 0.05723874643445015 -0.2938576936721802 0.11397656053304672 0.332209974527359 -0.27440938353538513 -0.14051151275634766 0.17808450758457184 -0.0620369054377079 0.0039460561238229275 -0.043593522161245346 -0.044460345059633255 -0.2294277548789978 -0.08962942659854889 -0.08478191494941711 0.0144268237054348 -0.18135395646095276 -0.26389846205711365 -0.1991361677646637 0.034367579966783524 -0.017466774210333824 -0.2137455940246582 -0.15272048115730286 -0.06798849254846573 0.5319677591323853 -0.2445218861103058 0.04071798548102379 -0.11750799417495728 0.0047993105836212635 0.034400321543216705 -0.09152799099683762 -0.08767078071832657 0.2602270841598511 0.03410326689481735
be 0.38419637084007263 -0.4039389491081238 0.09796546399593353 0.312727689743042 -0.08647067844867706 -0.11244606971740723 0.20189453661441803 0.17110857367515564 0.24866536259651184 -0.04557434469461441 -0.04300420731306076 -0.19411323964595795 -0.04707551747560501 0.09164287149906158 -0.5793581008911133 0.10782326012849808 0.11089445650577545 0.17726849019527435 -0.13981032371520996 -0.08642850071191788 0.16216465830802917 0.11789695918560028 -0.01661468856036663 -0.2716898024082184 -0.14988797903060913 0.27050426602363586 -0.05098460242152214 0.21757136285305023 0.12167588621377945 -0.3314857482910156 0.05108308419585228 0.09051571786403656 0.16264361143112183 0.3488287329673767 -0.2911980152130127 -0.19972355663776398 -0.012940474785864353 -0.3787879943847656 0.08626243472099304 0.23634405434131622 -0.09596928209066391 0.03361690044403076 -0.38852569460868835 -0.2522793412208557 0.010191499255597591 -0.13655096292495728 0.12166742235422134 0.17985515296459198 -0.06512060761451721 -0.03098483197391033 0.04753739759325981 0.019857071340084076 0.3217678368091583 -0.020776448771357536 -0.44603511691093445 0.23198164999485016 -0.18777234852313995 -0.12471940368413925 0.02412283420562744 -0.2729555070400238 0.16894519329071045 0.06671246141195297 0.15209907293319702 0.46496230363845825 0.2128254473209381 0.011081082746386528 0.3174004554748535 -0.33962351083755493 0.12062708288431168 -0.05713159218430519 0.034132808446884155 -0.04000643268227577 0.01754533313214779 -0.13872143626213074 -0.1496099829673767 -0.012111117132008076 0.12436366081237793 0.0469597764313221 -0.03480294719338417 -0.12490102648735046 0.2835606038570404 -0.04765805974602699 0.10966696590185165 0.017084520310163498 0.3223513960838318 -0.07749954611063004 -0.289741188287735 0.18669910728931427 0.06291545182466507 -0.25986045598983765 -0.2509022057056427 -0.08726850152015686 -0.2258652001619339 -0.30402326583862305 -0.11935392022132874 0.17953023314476013 -0.012686463072896004 -0.26704177260398865 -0.19023430347442627 0.024315720424056053
another -0.09991494566202164 -0.24002549052238464 -0.23276934027671814 0.19108496606349945 0.047758251428604126 0.26258885860443115 0.004709345754235983 0.1875065118074417 0.06927899271249771 0.4861837923526764 0.08292844891548157 -0.1882116049528122 -0.10042472928762436 0.15660816431045532 -0.008991475217044353 0.14431381225585938 -0.40820008516311646 -0.2875790596008301 0.1901640146970749 -0.06067366525530815 -0.2038538157939911 0.09597384929656982 0.16608959436416626 -0.06885974854230881 0.2169530987739563 -0.28240033984184265 0.1112837940454483 0.14943981170654297 0.36012667417526245 -0.22807461023330688 0.5098491907119751 0.03322833403944969 -0.016657471656799316 0.1407800018787384 0.0910973846912384 -0.2471546232700348 -0.13372787833213806 0.059798382222652435 -0.12237656116485596 0.12744951248168945 0.21697141230106354 -0.1732254922389984 5.373248131945729E-4 -0.14087256789207458 -0.2151373326778412 -0.20479369163513184 0.10384604334831238 0.28185421228408813 0.08145298063755035 0.2832286059856415 -0.011451107449829578 -0.14041079580783844 -0.008164365775883198 -0.14935162663459778 0.26916810870170593 -0.1728515625 0.1264989972114563 0.09362051635980606 0.3001198470592499 -0.018745867535471916 0.04400388151407242 -0.11617343872785568 0.035921599715948105 -0.10556326806545258 -0.14688004553318024 -0.05472933128476143 0.031124034896492958 0.07569456845521927 -0.16822278499603271 -0.5142982602119446 0.09476456046104431 0.07067383080720901 -0.0071680438704788685 -0.10950994491577148 0.03178396821022034 -0.0801273062825203 0.37144750356674194 0.31006380915641785 -0.02480119653046131 -0.1319861263036728 0.0693332701921463 0.2383938580751419 0.12516358494758606 0.013285757042467594 0.3571207821369171 -0.08626437932252884 -0.0465683788061142 -0.0138254938647151 -0.1033085435628891 -5.094673251733184E-4 0.09518809616565704 -0.04686957225203514 -0.40157708525657654 -0.07945138961076736 -0.08733296394348145 -0.01212429441511631 -0.009900509379804134 0.011616644449532032 -0.10606443136930466 -0.03974773362278938
two 0.2818905711174011 0.07256405055522919 -0.23984993994235992 0.017786404117941856 0.019785156473517418 -0.41527146100997925 0.13058434426784515 0.03591248393058777 -0.3682010769844055 0.028108974918723106 -0.15930570662021637 0.06393957138061523 -0.43888384103775024 0.60747230052948 0.22056441009044647 0.4415190517902374 0.25213849544525146 -0.2670252025127411 0.05007028579711914 -0.07830474525690079 -0.15581011772155762 0.0683024525642395 -0.030570482835173607 -0.30315694212913513 0.26202309131622314 -0.31475022435188293 0.18991073966026306 0.15245415270328522 0.40508314967155457 -0.31044334173202515 0.5643471479415894 -0.006716890726238489 0.07806242257356644 0.2948000133037567 0.3287948668003082 -0.30438992381095886 -0.032013580203056335 -0.2724015712738037 -0.30775484442710876 0.08495113998651505 0.010290204547345638 0.20249783992767334 -0.17755097150802612 -0.257563054561615 0.16939398646354675 -0.4187663197517395 -0.20406602323055267 0.1037762463092804 -0.04650605842471123 0.20899413526058197 0.059862375259399414 0.2928072214126587 -0.2015954852104187 -0.20780417323112488 0.17419636249542236 -0.20320869982242584 -0.17383253574371338 0.34608346223831177 0.10321583598852158 -0.06602083146572113 -0.06717483699321747 -0.16636531054973602 -0.05737937614321709 0.23378188908100128 -0.3347582221031189 -0.21365447342395782 -0.08908368647098541 0.12808556854724884 0.10752321034669876 0.26455458998680115 -0.16806015372276306 0.2725635766983032 0.319524884223938 0.09938842058181763 -0.16172529757022858 -0.15983401238918304 0.1767779290676117 0.3935900926589966 0.2459735870361328 -0.25265270471572876 -0.0208429004997015 0.15297125279903412 0.10082641243934631 -0.04896968603134155 -0.07799244672060013 -0.2813691794872284 0.36705851554870605 0.14096209406852722 -0.26999250054359436 0.17482693493366241 0.24852456152439117 -0.055964913219213486 0.15074867010116577 -0.12443651258945465 -0.07663679867982864 0.002473694970831275 -0.1594889611005783 0.2881411612033844 -0.05683337152004242 -0.6722965240478516
long 0.31048309803009033 -0.1526450365781784 -0.0986345186829567 0.05055352300405502 -0.3619355857372284 0.23256999254226685 0.3789406716823578 0.2162398099899292 0.15354827046394348 0.18551941215991974 0.21952179074287415 -0.05229565128684044 -0.34900492429733276 -0.5143455266952515 0.25003960728645325 0.43027716875076294 -0.11121022701263428 0.08465172350406647 0.2873411476612091 0.07182557135820389 -0.222529336810112 -0.03817314654588699 0.1352795660495758 -0.013980094343423843 0.24837762117385864 -0.07590432465076447 0.22533395886421204 0.27958163619041443 0.1107037141919136 0.07805817574262619 -0.03200756385922432 0.40628597140312195 0.2798527479171753 0.26353275775909424 0.20781616866588593 -0.03685302287340164 -0.019266286864876747 -0.06187722831964493 -0.28461724519729614 -0.027399927377700806 -0.03711918368935585 0.33063969016075134 -0.2885834574699402 0.17492899298667908 0.3160512447357178 -0.3641332983970642 0.1025472953915596 0.26910993456840515 0.6610830426216125 -0.30405116081237793 -0.17854538559913635 -0.35232025384902954 0.013804355636239052 0.26151251792907715 -0.5095212459564209 -0.223758727312088 0.07067214697599411 -0.5478447079658508 0.17733165621757507 -0.7168306708335876 -0.3707605004310608 0.31672418117523193 0.2986483573913574 -0.03368022292852402 0.06073974072933197 -0.05225633084774017 0.28869855403900146 0.027880370616912842 0.08413596451282501 -0.43746891617774963 -0.11794593185186386 -0.006534827873110771 0.11709897220134735 0.34389540553092957 0.29547789692878723 -0.22963665425777435 0.5601460933685303 0.5616164803504944 -0.012661303393542767 0.13191966712474823 -0.2739544212818146 0.19049817323684692 0.0912575051188469 -0.15115603804588318 0.017420604825019836 -0.04357261210680008 0.43003565073013306 0.13669568300247192 -0.47347429394721985 -0.008522466756403446 0.11514808982610703 0.607559084892273 0.020686209201812744 0.008560024201869965 -0.010276846587657928 -0.2137390673160553 0.17067840695381165 -0.2902805805206299 -0.41699281334877014 -0.016925863921642303
into -0.12676164507865906 0.0050848303362727165 0.2792518138885498 -0.029502827674150467 -0.15760627388954163 0.2693781852722168 0.12655244767665863 -0.10048846155405045 -0.07710585743188858 -0.07237397134304047 -0.14352178573608398 -0.07410619407892227 0.05615532770752907 -0.054117586463689804 0.13437128067016602 -0.026194743812084198 -0.3001323938369751 0.02616227976977825 -0.0027012424543499947 0.19312745332717896 -0.17920243740081787 0.2356967329978943 -0.13781002163887024 -0.04234630614519119 -0.027255969122052193 -0.00902507547289133 0.07229558378458023 -0.05103486776351929 0.09442915767431259 0.032424621284008026 0.07534702867269516 -0.22169120609760284 0.18083269894123077 0.05693640559911728 0.0635664090514183 0.2077174186706543 -0.18553514778614044 0.029389511793851852 -0.04249962791800499 0.1488088071346283 -0.12013173848390579 0.043107811361551285 0.02863212116062641 -0.01796889863908291 -0.0028524594381451607 0.09040302038192749 0.1528388112783432 -0.010176458396017551 0.10803209245204926 0.06720465421676636 0.03918439522385597 -0.11146441102027893 0.1682027131319046 -0.256609708070755 0.311442106962204 -0.15208794176578522 -0.03522796183824539 0.030817320570349693 0.06727022677659988 -0.049894679337739944 -0.05615777149796486 -0.16637204587459564 -0.15386630594730377 0.06683531403541565 -0.39160141348838806 0.10381665825843811 -0.08971971273422241 -0.11304907500743866 0.09271100163459778 -0.11552859842777252 0.06661844998598099 -0.11775032430887222 0.18681634962558746 -0.012024987488985062 -0.03256602957844734 0.1686796247959137 -0.012827030383050442 -0.1238417997956276 0.011189799755811691 0.09123718738555908 -0.015599153935909271 0.174147829413414 0.2498900592327118 0.06381747126579285 0.26730877161026 -0.0798272043466568 -0.0886353924870491 -0.03456227481365204 -0.2458007037639618 -0.16376885771751404 -0.006965691689401865 -0.035322751849889755 0.020519955083727837 0.280563622713089 0.2001061588525772 0.10210169106721878 0.3148781657218933 0.0019255203660577536 -0.012223263271152973 -0.1487177610397339
how 0.24041372537612915 -0.1207340657711029 0.1152813732624054 -0.4940400719642639 0.5161981582641602 -0.04095322638750076 -0.023678008466959 0.20641092956066132 -0.15592248737812042 -0.4217377007007599 -0.3201371729373932 -0.04319430887699127 0.03868063539266586 -0.23152406513690948 0.19066664576530457 0.054628416895866394 -0.14610512554645538 -0.03784535080194473 0.11391827464103699 -0.014391092583537102 -0.32153069972991943 0.20099316537380219 0.12743310630321503 -0.29221588373184204 -0.0024205816444009542 -0.20847965776920319 0.1291443407535553 0.06199850142002106 -0.12887005507946014 -0.09563969820737839 0.06265576183795929 0.21413064002990723 0.23484915494918823 -0.05951233580708504 -0.13946576416492462 0.3430723547935486 0.27480068802833557 0.03829954192042351 0.016483183950185776 0.2477673888206482 -0.4030875861644745 -0.2890113294124603 0.14605212211608887 -0.23032696545124054 -0.034877754747867584 -0.006895880680531263 -0.12303391098976135 -0.06712929904460907 0.24485169351100922 0.42402589321136475 -0.07967657595872879 -0.07937261462211609 0.10567045211791992 -0.2553350329399109 0.1244344636797905 -0.06145971640944481 0.0961214229464531 -0.06351222842931747 -0.1848791092634201 0.049612339586019516 -0.4487208425998688 0.1932283192873001 -0.16530296206474304 -0.49902990460395813 0.1902153044939041 0.09659234434366226 -0.01506074145436287 0.014822972007095814 -0.20795892179012299 -0.0951576754450798 0.2562306523323059 -0.26754772663116455 0.3307414650917053 0.5301040410995483 0.23639677464962006 -0.003928070887923241 -0.07710646092891693 -0.16319723427295685 -0.013933401554822922 0.30066564679145813 0.3231332004070282 0.03064640425145626 -0.2777251601219177 0.2885555028915405 -0.07174775749444962 0.19963234663009644 -0.06588608026504517 0.10749970376491547 0.370376855134964 -0.2787308096885681 -0.08329959213733673 -0.10589604079723358 -0.21328666806221008 0.0386049747467041 0.0011978381080552936 0.017326701432466507 -0.010066889226436615 0.18733152747154236 0.2875116467475891 0.020062722265720367
see 0.2919002175331116 -0.2626197636127472 0.18345265090465546 -0.14376799762248993 -0.2910737991333008 0.15257512032985687 0.29018890857696533 0.032870642840862274 0.0069287968799471855 -0.009234176948666573 -0.21375839412212372 -0.20297209918498993 0.20886662602424622 0.18117760121822357 -0.3101937770843506 0.025576172396540642 0.18695931136608124 -0.2754928767681122 0.0018531891983002424 0.1741795688867569 0.03839166834950447 -0.21490298211574554 0.1618112176656723 -0.2826547920703888 -0.046859558671712875 0.18996992707252502 0.2009999006986618 0.13805900514125824 -0.012767397798597813 0.032265082001686096 0.034501951187849045 0.0593998096883297 0.004734876565635204 0.20837852358818054 0.08548691123723984 -0.17917178571224213 -0.35965749621391296 0.17758414149284363 0.18909533321857452 -0.10446426272392273 -0.01146884635090828 0.0992598757147789 0.21699772775173187 -0.005241807084530592 -0.21946834027767181 0.3193691670894623 0.10186035186052322 0.09886614978313446 0.08995895087718964 -0.1473788172006607 -0.016778044402599335 0.02289692685008049 0.011621763929724693 -0.15486960113048553 0.1933714896440506 0.1198381781578064 -0.10169757157564163 -0.12431930005550385 -0.04766107723116875 0.045122966170310974 0.06230933219194412 -0.17703616619110107 0.05406489968299866 -7.971464074216783E-4 -0.07016398012638092 0.2418508380651474 0.051730941981077194 -0.23061466217041016 0.006880573462694883 -0.15906742215156555 0.25545480847358704 -0.08914898335933685 0.019954927265644073 0.10077621042728424 0.017768055200576782 0.12534712255001068 -0.00730603514239192 -0.3883500397205353 -0.06276685744524002 0.07752154022455215 -0.19056709110736847 0.07213539630174637 -0.07857885211706161 -0.008922340348362923 0.14891596138477325 -0.16931547224521637 -0.09665356576442719 -0.05506525933742523 -0.10010722279548645 -0.07979077845811844 -0.18325769901275635 -0.1889604777097702 -0.15124958753585815 0.029364947229623795 -0.2681261897087097 0.24491403996944427 0.17230172455310822 -0.11352279037237167 -0.010688640177249908 -0.09613494575023651
found 0.3816893398761749 -0.14695033431053162 0.006894994992762804 0.17227840423583984 0.001661675632931292 0.010162840597331524 -0.04455044865608215 -0.16640698909759521 0.020613515749573708 -0.13718782365322113 -0.07591743767261505 -0.014894004911184311 0.02734505571424961 0.07402046024799347 -0.12606443464756012 -0.1405203938484192 -0.029710989445447922 -0.062400560826063156 0.33341890573501587 0.074374258518219 -4.640122642740607E-4 0.22250258922576904 0.1668456643819809 -0.11787964403629303 0.14620286226272583 -0.22308769822120667 -0.08326978236436844 -0.06374281644821167 -0.13289989531040192 0.1743764579296112 -0.012557881884276867 -0.17539598047733307 -0.0015099787851795554 -0.06504708528518677 0.09725163131952286 -0.27633288502693176 -0.21738432347774506 0.30851033329963684 0.006170838139951229 0.23284761607646942 -0.04573811963200569 0.20467868447303772 0.0948261246085167 0.02691635489463806 0.058219730854034424 -0.2204940915107727 0.050821054726839066 -0.04910756275057793 -0.07564979046583176 -0.12181635946035385 0.3380025327205658 0.01047695055603981 -0.17646078765392303 -0.34887754917144775 -0.17471225559711456 -0.08356744050979614 -0.17000657320022583 -0.03862054646015167 0.14121748507022858 2.0869811123702675E-7 0.07335522770881653 0.20649749040603638 -0.09101062268018723 0.022888794541358948 -0.06410502642393112 -0.11299555748701096 -0.011994760483503342 -0.05740142613649368 0.1836160272359848 -0.19940054416656494 -0.11132635176181793 0.032361987978219986 -0.16622783243656158 0.037838712334632874 -0.1869974434375763 0.06347406655550003 0.19910186529159546 0.1826239675283432 -0.19834604859352112 -0.10587043315172195 -0.03623393550515175 0.07609537243843079 0.2594898045063019 -0.07126063853502274 0.05126918479800224 -0.2764377295970917 0.22176605463027954 -0.039900436997413635 -0.18384602665901184 0.08367307484149933 0.15349461138248444 -0.052700500935316086 -0.23804357647895813 -0.16820132732391357 -0.07022909075021744 -0.04114338010549545 -0.22144295275211334 -0.05924452841281891 0.0014550224877893925 -0.11181223392486572
same -0.29906025528907776 0.26072296500205994 -0.36862942576408386 0.32775524258613586 0.05930506810545921 0.14619816839694977 0.21328677237033844 0.0186464786529541 -0.21056818962097168 -0.010996936820447445 -0.32644641399383545 -0.3771938681602478 -0.0809226855635643 -0.08637382835149765 -0.36906886100769043 0.42830410599708557 -0.17092126607894897 0.016796555370092392 0.15859520435333252 0.25527969002723694 -0.06130692735314369 0.18671798706054688 0.041555482894182205 -0.370529443025589 -0.027724258601665497 0.0681406706571579 -0.1818998157978058 0.10491304844617844 0.09408968687057495 -0.33217233419418335 -0.5173498392105103 -0.21676020324230194 0.14347507059574127 -0.0627492144703865 -0.6468155384063721 -0.2653668224811554 0.06934142857789993 0.16322630643844604 -0.1119428426027298 -0.2072760909795761 0.2351219207048416 0.2971751093864441 -0.21599486470222473 0.24358625710010529 0.16408933699131012 0.01068994402885437 0.02266029454767704 0.12773439288139343 0.2582879066467285 0.22460848093032837 0.13881760835647583 -0.01221704576164484 -0.04293100908398628 0.032347071915864944 0.001042500720359385 0.1353730857372284 0.17873655259609222 0.08765103667974472 0.22965329885482788 -0.15173514187335968 0.056895092129707336 -0.3559919595718384 -0.23534923791885376 -0.10436014831066132 -0.28525224328041077 -0.291465699672699 -0.09183414280414581 -0.09310214221477509 0.10228358209133148 0.15020476281642914 -0.11774548888206482 -0.11291201412677765 -0.1990017592906952 0.002957814373075962 -0.47285062074661255 0.17914532124996185 0.0805886909365654 0.12440109997987747 0.04056067764759064 -0.5758776068687439 0.20151515305042267 0.1272359937429428 -0.06860189884901047 -0.3186982572078705 -0.02404860407114029 -0.04473509639501572 0.14203545451164246 0.09321396052837372 -0.12468874454498291 0.29035961627960205 0.01299640815705061 0.35745564103126526 -0.024214012548327446 0.10484648495912552 -0.21547017991542816 0.008381307125091553 0.191817045211792 -0.23714491724967957 0.2981260120868683 -0.08459994196891785
are 0.16808004677295685 -0.14181098341941833 0.164791539311409 -0.16015246510505676 0.02328864298760891 -0.08542720228433609 -0.03359566628932953 -0.03730595111846924 -0.18897539377212524 -0.021701524034142494 -0.6014982461929321 -0.23215211927890778 0.12429437041282654 -0.1399649828672409 0.12398926913738251 -0.30879849195480347 0.3790799677371979 0.38958439230918884 -0.0712602511048317 -0.194071963429451 0.07846157252788544 0.2710568904876709 -0.11109494417905807 -0.015653273090720177 0.11284857243299484 -0.07510365545749664 0.00942180585116148 -0.45241865515708923 0.46807539463043213 -0.4904494881629944 0.28807759284973145 0.38998252153396606 -0.4961234927177429 0.15669703483581543 -0.0022106573451310396 -0.011469871737062931 0.2289137989282608 -0.03983183205127716 0.3141600489616394 -0.22229266166687012 0.6342442035675049 0.054805878549814224 0.10534454137086868 -0.019542798399925232 0.028401171788573265 -0.019207751378417015 0.06462547183036804 0.28460848331451416 -0.18693700432777405 -0.0038249026983976364 -7.285379688255489E-4 -0.024836508557200432 -0.14481915533542633 0.3947086036205292 -0.1861283779144287 0.11141625791788101 -0.12050522863864899 0.09196552634239197 -0.1963149458169937 0.23181523382663727 0.041872840374708176 -0.07769472151994705 0.37779322266578674 0.046082817018032074 -0.19118627905845642 0.13858942687511444 0.21807557344436646 -0.06162508949637413 0.2923734188079834 0.29416346549987793 -0.08710648119449615 0.00699251564219594 -0.586617112159729 0.06079534441232681 0.1753067523241043 -0.049918998032808304 0.06463219225406647 -0.376890629529953 0.012362495996057987 0.06119133532047272 0.4407874643802643 0.19325965642929077 0.23780184984207153 0.389711856842041 -0.3663295805454254 0.08837243914604187 0.27488085627555847 -0.06050918623805046 0.28662148118019104 -0.45195579528808594 -0.2752862274646759 0.038007237017154694 0.41715458035469055 -0.1317436397075653 -0.22085921466350555 0.5354812741279602 -0.16724759340286255 -0.24133425951004028 0.07678098976612091 -0.16183792054653168
does 0.003836888587102294 -0.11813879013061523 0.13523618876934052 0.0981760025024414 -0.22113536298274994 0.08813676983118057 -0.3943254351615906 0.08416657894849777 -0.055042143911123276 0.2335437685251236 0.1264294683933258 0.007196440827101469 0.3584289252758026 0.5422630310058594 0.20396439731121063 -0.23982514441013336 0.4263656735420227 0.2656947672367096 0.20337100327014923 -0.07830490171909332 -0.0500926598906517 0.31571146845817566 -0.01024729385972023 -0.07695501297712326 0.032024309039115906 -0.14316406846046448 -0.2123541235923767 -0.12309257686138153 -0.2590427100658417 0.13009221851825714 -0.23728729784488678 0.08912231773138046 0.1194513589143753 -0.21377134323120117 0.1788763552904129 0.04900159314274788 -0.13484551012516022 -0.22625617682933807 0.09408901631832123 -0.16174224019050598 -0.07503339648246765 -0.19635647535324097 0.030215635895729065 0.2628982961177826 0.15999653935432434 0.23684120178222656 0.6057000160217285 -0.1326538771390915 0.16976915299892426 -0.2891063988208771 0.07982688397169113 -0.23981158435344696 0.606968104839325 -0.44310054183006287 -0.08919555693864822 -0.13902877271175385 0.02507341466844082 -0.1483941227197647 0.14251402020454407 -0.23758679628372192 -0.08236755430698395 -0.14616820216178894 0.2620566189289093 0.22113047540187836 -0.06976046413183212 0.0816551223397255 -0.18382467329502106 0.176931694149971 -0.13121415674686432 -0.536361038684845 -0.3663690686225891 0.21706435084342957 0.3198951184749603 0.30341461300849915 0.12455803155899048 -0.12449810653924942 -0.40564098954200745 0.23980769515037537 0.03412190079689026 -0.12788133323192596 0.1642923802137375 -0.32881906628608704 -0.3542638123035431 0.3495534360408783 0.05497986823320389 0.4765172600746155 -0.08312591165304184 -0.36031460762023926 -0.3526885509490967 0.2555803954601288 0.18561914563179016 -0.22609947621822357 0.21423077583312988 -0.054685138165950775 0.22100456058979034 -0.02776666171848774 0.19157539308071136 -0.15565383434295654 0.3859730064868927 -0.0037198534701019526
by -0.050412144511938095 0.10194802284240723 0.20534858107566833 8.700183825567365E-4 0.026183953508734703 0.033350870013237 0.05630096420645714 -0.15394844114780426 -0.07525395601987839 -0.00823550671339035 -0.12400121241807938 0.003987287636846304 -0.20623189210891724 0.10954554378986359 -0.09036917239427567 0.14240995049476624 -0.14218614995479584 0.017636504024267197 0.13124586641788483 0.11531097441911697 -0.1961231678724289 0.11425348371267319 0.016450271010398865 -0.27988943457603455 0.13621459901332855 0.02790890261530876 0.1726394146680832 0.038657255470752716 0.19745410978794098 -0.10025741904973984 0.2881278991699219 -0.1652882844209671 -4.6598375774919987E-4 0.20406265556812286 0.11853514611721039 -0.23908601701259613 -0.18208648264408112 -0.179189994931221 -0.11403823643922806 0.06106926128268242 0.03313795477151871 -0.07581581175327301 -0.049635909497737885 -0.04155262932181358 -0.02272518165409565 -0.06303057074546814 0.06375393271446228 0.15165948867797852 0.07039053738117218 -0.012662138789892197 -0.06014864519238472 0.05619008466601372 0.023455724120140076 -0.14169786870479584 0.10916347801685333 -0.06343099474906921 -0.08607976138591766 0.024402102455496788 0.0042138793505728245 -0.04644377529621124 -0.1136464923620224 -0.15511897206306458 -0.005773012526333332 -0.07721278071403503 -0.22488293051719666 0.02451152727007866 -0.11492253839969635 0.10504914820194244 0.006350327283143997 0.013730580918490887 -0.039183977991342545 0.029398731887340546 0.08612342178821564 -0.05507921054959297 0.07793400436639786 0.13596156239509583 0.08547975867986679 0.24587321281433105 0.06375723332166672 -0.012463453225791454 0.034848786890506744 0.2926981747150421 0.1391073614358902 0.030222991481423378 0.05274135619401932 -0.07145016640424728 0.18346917629241943 0.058676622807979584 -0.12737442553043365 -0.23720209300518036 0.048670846968889236 0.12647151947021484 -0.1792936772108078 0.11214522272348404 0.04345818608999252 0.08491210639476776 0.04484870284795761 -0.09230641275644302 -0.11732841283082962 -0.16848240792751312
national -0.07960061728954315 -0.035893458873033524 0.041629936546087265 0.02571876347064972 0.10400976985692978 0.1006922721862793 -0.05904801934957504 0.05152326822280884 -0.03685212507843971 0.03494596853852272 -0.09115196019411087 -0.1367541253566742 -0.10795377939939499 -0.024029813706874847 0.004389203619211912 -0.04342232272028923 -0.0439089797437191 0.02284805104136467 -0.04196479916572571 -0.0011876953067258 -0.06058042123913765 0.05804596096277237 -0.08526735752820969 -0.001805618405342102 -0.03862471133470535 0.03741562366485596 -0.003753978991881013 0.021700993180274963 -0.0016703000292181969 0.016040850430727005 -0.1236962303519249 0.0011503103887662292 0.04936569929122925 0.03851127624511719 -0.14336447417736053 0.007336418144404888 -0.01992376148700714 0.003956667147576809 -0.1086149513721466 0.02271258644759655 -0.045085031539201736 0.06489524990320206 -0.13963057100772858 0.03421982377767563 0.04276197403669357 -0.06701891869306564 -0.1040930449962616 0.07019747793674469 -0.08704745769500732 -3.254951152484864E-4 0.033402252942323685 -0.08596480637788773 -0.012725415639579296 0.0725279301404953 0.038685932755470276 -0.009660180658102036 0.05372730270028114 0.10659769922494888 0.015170841477811337 -0.037160489708185196 -0.026788951829075813 -0.09499567002058029 -0.11422566324472427 0.10952415317296982 -0.012344010174274445 -6.737885996699333E-5 -0.02105889841914177 0.03554289788007736 0.034755438566207886 0.030527103692293167 -0.12239637225866318 0.02259713038802147 -0.07838160544633865 -0.12397386878728867 -0.030542807653546333 0.022718967869877815 0.12235769629478455 0.09220262616872787 -0.003561090212315321 -0.08909483999013901 0.0876871794462204 0.03788403049111366 0.033154647797346115 -0.12446629256010056 0.025056811049580574 0.024641824886202812 0.1068134754896164 -0.019960934296250343 -0.022930411621928215 0.05296630039811134 0.0749167799949646 0.22986364364624023 0.1366940140724182 0.007903405465185642 0.034289874136447906 -0.0995630994439125 -0.039261721074581146 -0.023033075034618378 0.03309843689203262 -0.034446924924850464
where 0.25027018785476685 0.5258266925811768 -0.008858582936227322 -0.04969547316431999 -0.04440852254629135 0.047748059034347534 0.14048226177692413 0.03823511675000191 -0.38371944427490234 -0.18764081597328186 -0.24159203469753265 -0.3429509997367859 0.2005210518836975 -0.4067058265209198 -0.21747899055480957 -0.0067256782203912735 -0.23518343269824982 0.008494825102388859 -0.06579351425170898 0.04157199710607529 0.2331833839416504 0.011550744995474815 -0.311106413602829 0.08525590598583221 -0.13907979428768158 -0.24651168286800385 0.2822006940841675 0.24689342081546783 0.04878074675798416 -0.004763992037624121 0.18604214489459991 0.284660667181015 0.6282984018325806 0.16120599210262299 -0.07076182216405869 -0.06773561984300613 0.07476426661014557 -0.10826528072357178 -0.38426342606544495 0.10829589515924454 0.011240088380873203 -0.21886572241783142 -0.174713134765625 0.017319737002253532 -0.07844880223274231 0.18711261451244354 0.09376256167888641 -0.31296345591545105 0.3505927324295044 0.2982848882675171 0.018722428008913994 0.022875608876347542 0.16568660736083984 -0.0996437817811966 0.39510661363601685 -0.30419111251831055 -0.005177521146833897 0.0519062764942646 0.05723714828491211 0.22858743369579315 -0.08215061575174332 -0.09119657427072525 0.18430277705192566 -0.16519694030284882 0.15778662264347076 0.04716745391488075 -0.05599745735526085 -0.13354800641536713 0.032287925481796265 0.30339956283569336 0.28322768211364746 0.07138717174530029 0.20155930519104004 -0.035661838948726654 -0.03475349396467209 -0.2514875531196594 0.11302503943443298 -0.07944104075431824 0.05217659845948219 -0.03855891525745392 0.20383839309215546 0.506527841091156 -0.09251448512077332 0.09978938102722168 0.007348415907472372 -0.13698410987854004 0.10391364246606827 -0.20296399295330048 0.14444378018379211 -0.03376062959432602 -0.2195642739534378 0.4986766576766968 0.05580536276102066 0.3995574414730072 0.20395919680595398 0.3490857481956482 0.10269934684038162 0.018309738487005234 0.09660214930772781 0.3290316164493561
after -0.29454031586647034 0.35260075330734253 0.10207383334636688 -0.08470422029495239 0.02937556616961956 -0.11135991662740707 0.25711825489997864 -0.23679132759571075 -0.2876747250556946 -0.048308733850717545 -0.1462527960538864 -0.05571524053812027 0.04031272977590561 0.2487405240535736 -0.06629644334316254 -0.23930764198303223 -0.20671015977859497 0.0473746731877327 -0.050408054143190384 0.3211432099342346 0.1999695599079132 0.06878223270177841 0.0716492235660553 -0.24542708694934845 8.111005299724638E-4 0.0654720738530159 0.3005470931529999 0.1531054973602295 0.12100673466920853 -0.14922942221164703 -0.0021187616512179375 -0.03581271320581436 0.020884862169623375 0.19882184267044067 -0.12033017724752426 0.18206286430358887 -0.11299412697553635 -0.11829680949449539 0.01571809872984886 0.03137572854757309 -0.07549836486577988 0.258126437664032 -0.1795336753129959 -0.2521728277206421 -0.007890692912042141 -0.08442429453134537 0.13518516719341278 0.12003841251134872 0.22336111962795258 -0.07730087637901306 0.3191668391227722 -0.14932923018932343 -0.14557120203971863 -0.32033663988113403 0.32570287585258484 -0.12622947990894318 0.10895007103681564 0.2690894305706024 -0.06660167127847672 -0.052586015313863754 0.07337559014558792 -0.03523556888103485 -0.21055854856967926 -0.007713636849075556 -0.4084005355834961 0.07576499134302139 0.05074957758188248 0.18793611228466034 0.058286748826503754 0.16756956279277802 -0.05039692297577858 0.19739849865436554 0.004433035384863615 -0.10697688907384872 0.2615845501422882 0.05274700000882149 0.1143714115023613 0.22244001924991608 0.198773592710495 -0.01935925893485546 -0.06476330757141113 0.26537495851516724 0.11705731600522995 -0.06722632050514221 -0.18606160581111908 -0.3301369845867157 0.018043100833892822 -0.22349484264850616 -0.4352704584598541 -0.1842890977859497 -0.1313723921775818 0.21072067320346832 0.0468362420797348 0.012505996972322464 -0.030544741079211235 0.030973205342888832 0.07830716669559479 -0.19887706637382507 -0.048216793686151505 -0.1592308133840561
so 0.30114078521728516 -0.07419557124376297 0.04619301110506058 -0.1637209951877594 0.30947011709213257 0.06848864257335663 0.2268621325492859 -0.19704319536685944 -0.25917768478393555 -0.1152404397726059 0.012152677401900291 0.247105211019516 -0.14921756088733673 0.1343582421541214 -0.028171870857477188 0.19129768013954163 0.2655874788761139 -0.2119113653898239 0.0022768480703234673 -0.1713813692331314 0.014031491242349148 -0.2281840741634369 -0.1087244376540184 -0.10506901144981384 0.28260117769241333 -0.0049522873014211655 0.1480242908000946 0.14253975450992584 0.23647798597812653 -0.07592716068029404 0.1884259283542633 0.018422696739435196 -0.07697615772485733 -0.0014731254195794463 0.12173567712306976 0.006722531747072935 -0.10791624337434769 -0.006942161824554205 0.11175929009914398 0.08795219659805298 -0.2435617744922638 0.24933041632175446 -0.08285631239414215 -0.08582207560539246 -0.1950397789478302 -0.11161105334758759 0.13457247614860535 -0.2311505824327469 -0.022924531251192093 0.10119707882404327 0.1388452649116516 -0.008625471033155918 -0.10666082054376602 -0.16323956847190857 -0.16010424494743347 0.08207479864358902 0.2074442356824875 0.2976625859737396 -0.04250344634056091 0.10798540711402893 0.04071695730090141 0.2177223265171051 -0.20087012648582458 -0.18030832707881927 0.16138549149036407 -0.024677766487002373 0.04575579985976219 -0.04854492470622063 0.13589933514595032 0.10088443756103516 -0.00530296191573143 0.026549752801656723 0.20109045505523682 -0.05990933999419212 0.10593628883361816 -0.1319441944360733 -0.1770574152469635 -0.33310189843177795 -0.07706402242183685 0.21845242381095886 0.11281630396842957 -0.16905124485492706 -0.37172091007232666 0.21288380026817322 -0.2917141914367676 0.18367500603199005 0.07595396786928177 -0.12375868111848831 0.17859037220478058 -0.08503247052431107 0.06945150345563889 -0.16393297910690308 0.03487669304013252 0.14352981746196747 -0.04394758120179176 -0.05601905658841133 -0.01242160052061081 0.07649049162864685 -0.017495442181825638 -0.10258545726537704
a -0.20815761387348175 -0.6446768045425415 0.02385827526450157 0.03864022716879845 0.2620251774787903 0.3031366169452667 0.103829026222229 0.05288603529334068 0.022439947351813316 0.21274489164352417 0.36474254727363586 -0.5062182545661926 -0.22251471877098083 -0.07001326233148575 0.1680079996585846 0.1553295999765396 -0.30711671710014343 0.15453344583511353 -0.2482551634311676 0.13011381030082703 -0.18500153720378876 0.33073511719703674 0.17754152417182922 -0.0028193118050694466 0.11460408568382263 0.16169597208499908 0.24128200113773346 -0.06830346584320068 0.33687832951545715 -0.02438012696802616 0.300730437040329 -0.08712466806173325 -0.25665006041526794 0.07097221165895462 -0.016298705711960793 -0.3323126435279846 0.39131203293800354 -0.09774261713027954 0.03575983643531799 0.28399205207824707 -0.209088996052742 -0.01926940679550171 -0.28328341245651245 -0.02053447999060154 -0.053084105253219604 -0.27242887020111084 0.17958205938339233 0.18980520963668823 0.08348303288221359 0.3861847221851349 -0.1601305603981018 -0.42037510871887207 0.15788476169109344 0.06309875845909119 -0.1627526432275772 0.24903802573680878 0.06632906943559647 0.18685732781887054 0.009365091100335121 -0.11578952521085739 -0.1154422014951706 0.11138605326414108 -0.19825029373168945 -0.05829734355211258 -0.16377976536750793 -0.2862533628940582 -0.058977287262678146 0.31516459584236145 0.2437496781349182 -0.265075147151947 0.11955741047859192 0.4906974732875824 -0.0692857876420021 0.009826915338635445 -0.005770175252109766 -0.17527203261852264 0.2770906388759613 0.11938497424125671 -0.21904851496219635 0.01981622539460659 -0.047279439866542816 0.24346868693828583 -0.08085857331752777 -0.22637422382831573 -0.017432009801268578 0.18059395253658295 -0.37092161178588867 -0.42117875814437866 -0.03101894073188305 -0.27944135665893555 0.2102886587381363 0.26278576254844666 -0.30930477380752563 -0.0027527662459760904 -0.1805773675441742 -0.2123062163591385 -0.03814106062054634 0.14694011211395264 -0.2675320506095886 -0.2592046856880188
think 0.2055014967918396 -0.2511681914329529 -0.1385202556848526 -0.18226751685142517 -0.08524744212627411 0.021196560934185982 0.3122459948062897 0.23938080668449402 -0.044895365834236145 0.12759362161159515 0.05682915449142456 -0.07396572828292847 0.2888800799846649 -0.310940682888031 -0.23723821341991425 0.08668884634971619 0.051624566316604614 -0.25716498494148254 0.17775970697402954 0.3141641318798065 0.044167257845401764 -0.2079712450504303 0.34430399537086487 0.07163889706134796 -0.24307458102703094 -0.25045737624168396 0.13508106768131256 -0.08072037249803543 -0.4143744707107544 -0.2305258959531784 -0.053605817258358 0.12988616526126862 -0.21608637273311615 -0.11314262449741364 -0.14832893013954163 -0.09753791242837906 -0.027495654299855232 0.20056851208209991 -0.05580826848745346 0.08813972771167755 -0.21008507907390594 0.08648575842380524 -0.032593466341495514 -0.08398474752902985 -0.08520754426717758 0.25119462609291077 -0.14554215967655182 -0.12244077771902084 0.09849946945905685 -0.007202045526355505 0.053223371505737305 0.1911768764257431 -0.25981083512306213 -0.22795872390270233 -0.10858803987503052 0.45839205384254456 0.024254221469163895 0.01010077353566885 -0.09772150963544846 -0.21994906663894653 0.12302108108997345 0.11113797873258591 -0.37815800309181213 0.08295311778783798 -0.1056198999285698 0.0549311526119709 0.09652722626924515 -0.07573728263378143 -0.004032755270600319 0.13761404156684875 0.26597118377685547 0.041413649916648865 0.009600750170648098 0.3178746998310089 0.12031719833612442 0.08684027940034866 -0.17488060891628265 -0.01817251369357109 0.04394496604800224 0.05040687695145607 -0.08185374736785889 -0.2549874186515808 -0.1621135026216507 -0.22194640338420868 0.06944600492715836 0.11745089292526245 0.20400533080101013 0.04612883925437927 0.1087125837802887 -0.10275138169527054 -0.2532379925251007 -0.0284067802131176 -0.07724537700414658 -0.09398826956748962 -0.15752547979354858 0.2157411426305771 0.3683856427669525 0.28081655502319336 0.12863695621490479 0.22155995666980743
set 0.343333899974823 -0.06750821322202682 0.08295325189828873 0.10584637522697449 -0.04423746466636658 0.04283071681857109 -0.017027249559760094 -0.04108843207359314 -0.1950753927230835 -0.06600674986839294 -0.17253044247627258 -0.10335095971822739 -0.05488460883498192 -0.103544220328331 -0.1828254610300064 -0.03507710248231888 -0.11032478511333466 0.09691349416971207 0.043113768100738525 -0.03845866769552231 -0.003531352849677205 0.1271585375070572 -0.003694375278428197 -0.1632591187953949 -0.013981732539832592 -0.05099612474441528 0.09103472530841827 -0.12250594049692154 -0.02739619091153145 0.20098693668842316 -0.04652100056409836 -0.022194981575012207 0.03143143281340599 0.07786691188812256 0.08679342269897461 0.14311672747135162 -0.3164234757423401 0.14505667984485626 0.005151276011019945 -0.12127094715833664 -0.009061633609235287 0.039867982268333435 -0.16780135035514832 0.02164369821548462 0.09247799962759018 -0.05385094881057739 0.011457032524049282 0.12692654132843018 0.11077240109443665 -0.10789622366428375 -0.08775520324707031 -0.11080611497163773 -0.19350163638591766 -0.08526261895895004 0.012168214656412601 -0.18279848992824554 -0.10655945539474487 -0.012193244881927967 0.14250582456588745 -0.1896200180053711 -0.01220941636711359 -0.03525606915354729 0.0018955369014292955 0.04022403433918953 -0.026480546221137047 0.20224186778068542 -0.08525171875953674 -0.009271555580198765 -0.16813573241233826 0.08877183496952057 -0.018690040335059166 0.028153764083981514 -0.014747164212167263 -0.0821273997426033 -0.020145026966929436 0.013055200688540936 0.1804487109184265 0.013864883221685886 -0.05171459913253784 -0.1309414803981781 0.010133371688425541 0.16717609763145447 0.12364692986011505 -0.14137428998947144 -0.026607384905219078 -0.38788050413131714 0.11949917674064636 -0.13249987363815308 -0.3388325273990631 0.04913037642836571 -0.009744858369231224 -0.07857505977153778 0.03082357533276081 -0.04767439886927605 -0.15226168930530548 0.012506736442446709 0.17626051604747772 -0.01875913515686989 0.0038150050677359104 -0.11791940778493881
