been -0.21997494995594025 -0.04546026140451431 0.3977978229522705 0.15598157048225403 0.30187538266181946 0.4426303505897522 -0.11752949655056 -0.2359650582075119 0.8130912780761719 0.43891674280166626 -0.1584673523902893 0.15312324464321136 -0.3318946659564972 0.18261227011680603 0.0074113900773227215 0.17054544389247894 -0.04233217611908913 0.1682737022638321 0.17614762485027313 0.3097606599330902 0.20397868752479553 0.21699614822864532 -0.20784202218055725 0.5842522382736206 0.010038159787654877 -0.2693306803703308 -0.16129644215106964 -0.17497266829013824 0.062180761247873306 -0.7285797595977783 0.021329190582036972 -0.353633850812912 0.2080041617155075 0.033417899161577225 0.208653524518013 0.45631712675094604 0.2265879511833191 0.06535990536212921 -0.20657117664813995 0.31080612540245056 0.32678282260894775 0.3002954423427582 -0.33474722504615784 0.24134720861911774 0.23396803438663483 -0.16084358096122742 -0.08151448518037796 -0.2688923478126526 0.02319382317364216 -0.23189739882946014 0.2734738886356354 0.03741957247257233 0.16236871480941772 -0.3285636007785797 0.29341059923171997 -0.06532709300518036 0.1312633603811264 0.1414937824010849 0.31150323152542114 -0.2839474678039551 -0.4003894627094269 -0.35151737928390503 -0.4345213770866394 0.044634848833084106 -0.16439247131347656 -0.15915393829345703 -0.21023698151111603 0.5509920120239258 -0.6324297785758972 0.3149064779281616 -0.03501152992248535 0.10388142615556717 0.1906152069568634 -0.11391685903072357 0.22359293699264526 0.11053034663200378 0.3329778015613556 0.24686236679553986 -0.06437124311923981 0.08571719378232956 -0.47119879722595215 0.00961838848888874 0.284405380487442 -0.1424172967672348 -0.5830645561218262 0.5294536352157593 -0.0250161811709404 -0.10944143682718277 0.14326076209545135 -0.10145940631628036 0.17747941613197327 0.42012327909469604 0.09657249599695206 -0.07761115580797195 -0.0708313137292862 -0.009312555193901062 0.014211008325219154 -0.6834232211112976 0.33581438660621643 -0.0016770265065133572
year 0.24886804819107056 -0.5164417028427124 0.007225668989121914 0.14043277502059937 -0.5565335154533386 -0.3168891668319702 0.18938536942005157 -0.03483890742063522 0.09436753392219543 0.2891910970211029 -0.2362336665391922 0.6703863739967346 0.11869584769010544 -0.13527262210845947 -0.3587103486061096 -0.0449560210108757 0.048794690519571304 0.16731154918670654 -0.18105535209178925 0.29223719239234924 0.4871950149536133 0.30410000681877136 -0.0852552056312561 0.18771764636039734 -0.0744832307100296 -0.06352542340755463 0.08475442975759506 -0.11721701174974442 0.386507123708725 -0.12169571220874786 0.27653828263282776 0.2043074071407318 0.09746376425027847 0.1296830177307129 0.007312976289540529 0.12442503124475479 0.10709307342767715 -0.43377843499183655 -0.049704380333423615 -0.49442192912101746 0.1322069764137268 0.18639670312404633 -0.10210693627595901 0.07706573605537415 0.08085949718952179 0.02162010595202446 -0.15406298637390137 -0.24987976253032684 0.016254622489213943 -0.08767540007829666 -0.21718907356262207 0.31004586815834045 -0.41611552238464355 0.37904423475265503 0.33881208300590515 0.02720385603606701 -0.24709229171276093 0.04640638083219528 0.18086957931518555 -0.2889011800289154 0.1681557446718216 0.24360446631908417 -0.4044605791568756 0.07548398524522781 0.23277175426483154 -0.5454272627830505 0.06823455542325974 -0.11047977954149246 0.13541539013385773 -0.20790742337703705 0.16564658284187317 -0.102940134704113 -0.12800940871238708 -0.0790635347366333 0.042851679027080536 0.05359417945146561 -0.04236539080739021 -0.01613723300397396 -0.05896990746259689 -0.06133878976106644 -0.3329181969165802 -0.16033290326595306 0.40943241119384766 -0.15429764986038208 -0.239366814494133 -0.08482972532510757 -0.08298079669475555 0.2841203510761261 0.131077840924263 0.058237288147211075 -0.36766231060028076 -0.2607897222042084 -0.10126978904008865 -0.5077189803123474 0.023415863513946533 0.07040426880121231 0.14464853703975677 -0.22305911779403687 0.1615985482931137 0.1270441859960556
about -0.001062949188053608 -0.2592812478542328 -0.13819441199302673 0.2635901868343353 0.04033326730132103 -0.22800415754318237 0.19900155067443848 0.24497927725315094 -0.08661710470914841 0.2861165404319763 -0.17139092087745667 0.3963240683078766 -0.3577357232570648 -0.0013580681988969445 -0.18947675824165344 0.021465951576828957 -0.33361321687698364 0.09423733502626419 -0.41475003957748413 0.1619289666414261 0.12825413048267365 -0.3299013376235962 0.09619258344173431 0.05414308235049248 -0.26964524388313293 -0.2532445788383484 0.2500210702419281 -0.118044912815094 -0.14353668689727783 0.20452095568180084 -0.060991428792476654 0.03548559173941612 -0.1893826276063919 0.29709020256996155 0.22547589242458344 -0.11465216428041458 0.07600466907024384 -0.08515135198831558 0.21695241332054138 -0.2153540551662445 -0.23576082289218903 0.16848039627075195 0.20785965025424957 0.08893343806266785 -0.11307293176651001 0.21664664149284363 0.33758994936943054 0.28732919692993164 -0.14415918290615082 -0.12554283440113068 -0.23826511204242706 0.12894853949546814 0.1617332547903061 -0.2717095911502838 0.002526978263631463 -0.12332744151353836 -0.14546336233615875 0.17698808014392853 0.19224922358989716 -0.05142482742667198 -0.39783531427383423 -0.26287585496902466 -0.39214789867401123 -0.0669080838561058 -0.2659577429294586 0.18926240503787994 -0.3069501519203186 -0.33281925320625305 -0.12786555290222168 0.12610092759132385 0.06922971457242966 0.0054818675853312016 0.16254694759845734 0.10168556123971939 -0.3715396225452423 0.0791044756770134 0.0624542273581028 0.15168863534927368 0.09489743411540985 -0.17018914222717285 -0.2508637607097626 0.040661804378032684 0.10086772590875626 0.4295727610588074 -0.11764150857925415 0.21855609118938446 -0.049775078892707825 0.033444371074438095 0.4635477066040039 0.28587964177131653 0.024731526151299477 -0.203159362077713 -0.3223397433757782 -0.18801844120025635 0.3630618155002594 0.3329561650753021 -0.03845704719424248 -0.019494276493787766 -0.17285625636577606 0.351016640663147
your -0.024412229657173157 -0.13849736750125885 -0.17671285569667816 -0.11663854867219925 0.14595603942871094 -0.12823237478733063 -0.10657960921525955 -0.10183492302894592 0.09910546988248825 -0.3085300028324127 0.16969656944274902 0.39659377932548523 -0.0218571275472641 -0.025255918502807617 0.2977723777294159 0.08177807927131653 0.33329740166664124 0.36750084161758423 0.12728777527809143 -0.4250580668449402 0.17471428215503693 -0.15994076430797577 -0.33669790625572205 -0.024819450452923775 -0.30137884616851807 -0.20738717913627625 0.21732424199581146 0.07719238847494125 0.03201260417699814 -0.18817831575870514 0.6182473301887512 0.04320032522082329 -0.4072549045085907 -0.012347366660833359 -0.264137327671051 -0.4719209372997284 -0.1496594101190567 0.038457438349723816 0.10500365495681763 -0.003005743259564042 -0.005335316993296146 -0.09200510382652283 0.002839439082890749 -0.19262568652629852 -0.14662010967731476 -0.4290585517883301 0.32160377502441406 0.13145360350608826 -0.03712695091962814 -0.12541216611862183 0.018498608842492104 0.051788028329610825 -0.011375773698091507 0.043372757732868195 -0.11559654027223587 -7.246884051710367E-4 0.48806923627853394 0.23992608487606049 -0.14328564703464508 -0.18932779133319855 -4.3099955655634403E-4 -0.054396096616983414 -0.22420240938663483 -0.0972912535071373 0.07804039120674133 0.07904837280511856 -0.05493506044149399 -0.08355187624692917 0.050566986203193665 -0.13717396557331085 -0.15326912701129913 -0.014882119372487068 -0.03331424668431282 0.11545050889253616 -0.0750410258769989 0.2926463484764099 0.11501288414001465 0.2830866277217865 -0.06554897129535675 -0.474609911441803 -0.3318464159965515 0.20622889697551727 -0.5040059685707092 0.0472605936229229 0.24371729791164398 -0.07655772566795349 -0.27086299657821655 -0.4410833418369293 0.26128119230270386 0.0677187368273735 -0.006005492992699146 0.039132967591285706 -0.19531984627246857 0.028773892670869827 0.06723415851593018 -0.35712870955467224 -0.08915625512599945 -0.12881025671958923 -0.24973733723163605 0.160385400056839
without -0.04144393280148506 -0.2469639778137207 0.04115092754364014 0.1272231638431549 0.43694624304771423 0.0807051733136177 -0.16885705292224884 -0.059840891510248184 -0.1275220662355423 -0.1684463620185852 0.06682293117046356 0.08103047311306 -0.06132055073976517 -0.06903908401727676 -0.04826337471604347 -0.06215754896402359 -0.05538634583353996 -0.10265403985977173 -0.13477689027786255 0.08123885095119476 -0.17389239370822906 0.012857692316174507 -0.29742875695228577 0.17445027828216553 0.05507531017065048 -0.11707975715398788 -0.012962104752659798 0.3661210238933563 0.0806569829583168 0.1312907189130783 0.29167675971984863 -0.25544387102127075 0.19456951320171356 -0.10446269065141678 0.3341613709926605 0.012054409831762314 -0.04464465752243996 -0.002696169074624777 -0.010777694173157215 -0.21045412123203278 0.20935246348381042 0.03338604047894478 0.26976922154426575 -0.00424202810972929 0.22139473259449005 -0.29427337646484375 -0.20890459418296814 -0.23401552438735962 0.13441766798496246 -0.16369716823101044 0.2106715738773346 0.37264353036880493 -0.3508012294769287 -0.03888504579663277 0.121799997985363 -0.12739327549934387 0.1006527990102768 -0.09771054983139038 0.2845838665962219 -0.06820778548717499 -0.12729455530643463 0.11831973493099213 -0.21072043478488922 0.13710662722587585 -0.4398645758628845 -0.18660882115364075 -0.14098407328128815 -0.19501134753227234 0.07665089517831802 0.36358195543289185 0.10583481192588806 0.07235249131917953 -0.0312778577208519 0.24819470942020416 0.03145774453878403 0.10499397665262222 0.2592940032482147 -0.04302681237459183 -0.06521391123533249 -0.11112169176340103 -0.3325018882751465 -0.045176852494478226 -0.007704341784119606 0.036280885338783264 0.10505294799804688 0.32722464203834534 -0.012277930974960327 -0.12131496518850327 -0.042589280754327774 0.1335935741662979 -0.12447091192007065 -0.20941342413425446 -0.3634289801120758 -0.03012477234005928 0.3423827290534973 0.06783427298069 0.1773836761713028 -0.20157426595687866 0.011075949296355247 0.23656713962554932
these 0.32041606307029724 0.08711887896060944 -0.13194981217384338 0.28855201601982117 0.30793675780296326 -0.24299371242523193 -0.14303137362003326 -0.19135022163391113 -0.1631326526403427 0.017042171210050583 -0.27114391326904297 0.09380077570676804 0.2794356048107147 -0.16047237813472748 -0.20623184740543365 -0.02309449017047882 -0.2277761548757553 -0.0013099429197609425 0.22421254217624664 0.076006680727005 -0.11817217618227005 -0.2117319107055664 0.519982635974884 0.20168130099773407 0.3139382600784302 -0.21946978569030762 -0.08567246049642563 0.10750550776720047 -0.09907136112451553 0.20828628540039062 0.07013647258281708 -0.42730021476745605 -0.054344598203897476 -0.2189653515815735 0.3041127622127533 -0.15601091086864471 0.11686965823173523 0.4276771545410156 0.11537652462720871 0.14329048991203308 -0.15128877758979797 0.13931424915790558 -0.16146071255207062 -0.20401343703269958 0.2344038039445877 -0.042608216404914856 0.2072579711675644 0.14552785456180573 0.27757400274276733 -0.06276530772447586 0.12127683311700821 0.21348842978477478 0.277097225189209 0.05612800270318985 -0.04685349762439728 -0.13083204627037048 -0.21330392360687256 0.17971453070640564 0.0825357735157013 -0.08060972392559052 0.07261689752340317 0.3594362437725067 0.19523309171199799 0.06634406745433807 0.007327173836529255 0.3225139081478119 0.3272400200366974 0.06385193020105362 0.30769824981689453 0.010505763813853264 0.4673728942871094 0.1916583627462387 -0.19505108892917633 -0.18702836334705353 -0.35619232058525085 0.07346765697002411 -0.13739857077598572 0.1999964416027069 -0.16395187377929688 0.25386950373649597 -0.1020130142569542 0.1972740888595581 -0.32074087858200073 0.1028381735086441 0.3383364677429199 0.14152891933918 -0.338699072599411 -0.1898106038570404 -0.22684739530086517 0.15150363743305206 -0.06974165886640549 0.4308408200740814 -0.13253310322761536 -0.3499603569507599 0.35805660486221313 -0.37240028381347656 -0.280718058347702 -0.25554996728897095 -0.20224520564079285 -0.27648353576660156
companies 0.1245441660284996 0.028811808675527573 -0.12616293132305145 0.0975831001996994 0.20194080471992493 0.16122908890247345 -0.025304438546299934 -0.09583049267530441 -0.09846026450395584 0.09316307306289673 -0.24927029013633728 -0.11713602393865585 0.03423241525888443 -0.11028929799795151 0.011874981224536896 0.061848320066928864 -0.013978605158627033 -0.23372240364551544 0.07920501381158829 0.06956764310598373 0.027804872021079063 -0.012186148203909397 0.12584717571735382 -0.026378139853477478 0.10845176875591278 -0.026750043034553528 0.25755029916763306 0.15570460259914398 0.041340719908475876 0.0928008183836937 -0.027834758162498474 -0.10059761255979538 0.08686330914497375 -0.2242601364850998 0.112629234790802 -0.13584697246551514 0.1017671748995781 0.18792885541915894 -0.08490411192178726 -0.05656948313117027 0.029553379863500595 0.0996844619512558 1.757773570716381E-4 0.19870270788669586 0.1452147215604782 -0.109137162566185 0.11369103193283081 0.2063164860010147 0.14246615767478943 0.01738550141453743 -0.02560749091207981 0.186316579580307 0.1524580419063568 0.0935986340045929 0.007123596966266632 -0.12329942733049393 -0.09512480348348618 0.06942805647850037 0.16015641391277313 0.013641852885484695 0.13541945815086365 0.16267946362495422 -0.3330698013305664 -0.2185584306716919 0.06441374868154526 0.005317162722349167 -0.027315989136695862 -0.022365545853972435 0.11598124355077744 -0.2510013282299042 -0.05158230662345886 0.23246809840202332 0.09107723832130432 -0.13898758590221405 0.13266655802726746 0.11996295303106308 -0.24982206523418427 0.2909400463104248 -0.11994143575429916 -1.1310080299153924E-4 -0.14431174099445343 -0.01754339039325714 0.08851104229688644 0.004091696813702583 0.08076778054237366 -0.2943974435329437 -0.05795668065547943 -0.24592311680316925 -0.3514138460159302 0.06325720250606537 -0.21522799134254456 0.25089436769485474 -0.11471480876207352 -0.09366335719823837 0.19830934703350067 -0.11911230534315109 -0.17939209938049316 0.07759863138198853 0.1475091427564621 -0.164085254073143
music 0.10616622120141983 -0.2216261625289917 -0.021984241902828217 -0.0016790548106655478 0.07553499191999435 0.03534261882305145 0.12479203194379807 -0.0081800427287817 0.05648484826087952 0.22801357507705688 0.0036505183670669794 -0.08338544517755508 0.11697401851415634 0.02741839736700058 0.19927144050598145 0.036030083894729614 0.10593238472938538 0.06716641038656235 -0.05320606008172035 -0.036518413573503494 0.2061712145805359 -0.2903086245059967 -0.039970267564058304 -0.06314073503017426 -0.03517458960413933 -0.3154999911785126 0.07833775132894516 0.153295636177063 0.04298366233706474 0.15520459413528442 -0.10534440726041794 0.21084997057914734 0.031772106885910034 0.07136892527341843 -0.27574995160102844 -0.2652197480201721 0.25119534134864807 0.09727499634027481 -0.17057088017463684 0.16904720664024353 -0.23356106877326965 0.14623743295669556 0.12886683642864227 0.2841765582561493 -0.044822052121162415 0.1207873523235321 0.1497032642364502 -0.04477313533425331 0.0754067599773407 0.05959353223443031 -0.12132370471954346 -0.07191723585128784 -0.17421896755695343 0.26435303688049316 0.03275630623102188 -0.05186193436384201 -0.04287698119878769 -0.41261398792266846 -0.032137032598257065 0.0038010794669389725 -0.04620768502354622 0.06869925558567047 0.02392575517296791 -0.38262924551963806 -0.017311785370111465 -0.3192288875579834 -0.0757945254445076 -0.1113181784749031 -0.06231585144996643 -0.05027061328291893 -0.14941301941871643 0.20244501531124115 0.04256678372621536 -0.17573775351047516 -0.10624628514051437 0.0666562020778656 -0.17014917731285095 0.09633965790271759 -0.1782274842262268 -0.3100120425224304 0.06284776329994202 0.1429048329591751 0.05014011636376381 0.04325692355632782 -0.15699250996112823 -0.04637446999549866 -0.09755011647939682 0.11877233535051346 0.05569952353835106 -0.05752798169851303 0.2550065219402313 -0.08738266676664352 -0.17586302757263184 -0.012612586840987206 -0.16739335656166077 0.14495724439620972 -0.06468236446380615 0.11691173166036606 0.030742235481739044 0.1628398895263672
would 0.23732811212539673 -0.20029182732105255 -0.015598645433783531 -0.22505256533622742 0.12208842486143112 0.21436117589473724 0.058530453592538834 -0.16577163338661194 -0.3238323926925659 -0.1553204357624054 -0.10220278054475784 0.1134999692440033 -0.373741090297699 0.12308639287948608 0.12219148129224777 0.09387717396020889 -0.1342514455318451 -0.5107437968254089 0.2646246552467346 -0.041721735149621964 0.11590036004781723 0.04686290770769119 -0.12057854235172272 0.16535885632038116 0.1290864199399948 -0.011484449729323387 -0.20016752183437347 -0.19029363989830017 -0.28643450140953064 -0.11036156862974167 0.06816484779119492 -0.005325749982148409 -0.24728968739509583 -0.005682713817805052 -0.14521001279354095 -0.10106747597455978 0.008908753283321857 -0.04346516355872154 -0.04967021197080612 -0.030130445957183838 0.13687755167484283 -0.2647278606891632 0.29570472240448 0.3971242606639862 0.29333755373954773 -0.16023895144462585 -0.28006619215011597 -0.11477377265691757 0.03799194470047951 -0.27208584547042847 0.0149611197412014 -0.08629798144102097 -0.1520896703004837 0.1011854037642479 0.24079124629497528 -0.04675929248332977 -0.3227333724498749 0.010271048173308372 0.10495414584875107 0.25827211141586304 0.21062231063842773 -0.11117096990346909 3.1732406932860613E-4 0.068183533847332 -0.29087206721305847 -0.20095166563987732 0.20770607888698578 -0.027455221861600876 0.4025711417198181 0.06432870775461197 0.04749610275030136 0.02792591042816639 -0.1543409824371338 -0.08335593342781067 -0.040603477507829666 -0.11420392245054245 0.2572011947631836 0.047944847494363785 -0.11277052015066147 0.012885628268122673 -0.13292661309242249 0.1638309806585312 0.17589646577835083 -0.11560814082622528 -0.004013955593109131 0.0894438847899437 -0.05327271670103073 -0.1877925992012024 -0.16027909517288208 0.14638718962669373 0.10573877394199371 0.006736938841640949 -0.22991874814033508 0.14985306560993195 -0.09842901676893234 0.015985099598765373 0.06115546077489853 -0.5068153142929077 0.0011773814912885427 0.08356868475675583
because 0.07660079002380371 -0.17111432552337646 -0.256500780582428 -0.2641160190105438 0.00487979780882597 -0.12997889518737793 0.03529033064842224 0.0028039594180881977 -0.2524752616882324 0.04475223273038864 0.08482064306735992 0.07889929413795471 0.07778539508581161 0.07210594415664673 0.06921401619911194 -0.03178507089614868 0.006339713931083679 0.08258812874555588 -0.03350701928138733 0.1483743041753769 -0.10529723018407822 0.1343201845884323 -0.04925254359841347 0.018272198736667633 0.0986151173710823 -0.11344189196825027 -0.2907301187515259 0.13521558046340942 0.11173548549413681 -0.002355250995606184 0.07570721954107285 -0.05338776484131813 0.1696455031633377 -0.022035103291273117 0.11398419737815857 -0.04790773242712021 9.524659253656864E-4 0.09212573617696762 -0.1274648755788803 0.009571066126227379 -0.02412998676300049 -0.06454814225435257 0.19089099764823914 0.1703786998987198 0.0864134356379509 -0.0019241598201915622 0.16199296712875366 0.08741333335638046 0.08489728718996048 0.07769954204559326 0.38943395018577576 0.1895347237586975 0.15839119255542755 0.19670447707176208 -0.24740402400493622 0.13852368295192719 -0.0797525942325592 -0.09363579750061035 -0.09432919323444366 0.24002818763256073 -0.38378384709358215 0.19931823015213013 0.041840437799692154 -0.03135659545660019 -0.193242609500885 -0.14127138257026672 -0.00611161720007658 0.0818924754858017 -0.055806949734687805 0.10880338400602341 -0.13312217593193054 0.2191585749387741 -0.006383083760738373 0.13033607602119446 -0.06543685495853424 -0.12139995396137238 0.03716377168893814 0.20208558440208435 -0.16927330195903778 -0.0028980292845517397 -0.20039571821689606 -0.11542654037475586 -0.05912942439317703 0.15004324913024902 -0.10201341658830643 0.2905116081237793 -0.08709478378295898 0.09793777763843536 0.04454109072685242 0.04982398822903633 0.03833441063761711 0.10924448072910309 -0.027027811855077744 -0.05790341645479202 -0.11510089784860611 -0.02307496964931488 0.22073833644390106 -0.0013677901588380337 0.04506149888038635 0.1963261365890503
state -0.031552597880363464 -0.18826724588871002 0.020684119313955307 0.23410862684249878 0.034473828971385956 0.1483018547296524 -0.025055259466171265 -0.11768285185098648 0.2624644637107849 0.12151608616113663 0.018412141129374504 0.15227010846138 0.14900802075862885 -0.19060121476650238 6.665766704827547E-5 0.07220346480607986 0.020576167851686478 -0.08947175741195679 0.04616635665297508 -0.07504431903362274 0.21775533258914948 -0.27194973826408386 0.2636752128601074 0.1425582617521286 0.23487985134124756 -0.10925813764333725 0.13244733214378357 0.19639793038368225 0.10931259393692017 0.20483355224132538 0.005743044428527355 -0.04474310204386711 0.16136853396892548 0.11208690702915192 -0.1502859890460968 -0.3194558024406433 0.018322188407182693 -0.02550184167921543 -0.017947988584637642 -0.11872557550668716 0.1261085718870163 0.26906704902648926 0.04517359286546707 -0.003683548653498292 0.10845840722322464 -0.15190060436725616 -0.1387059986591339 -0.039278265088796616 0.162735715508461 0.11422718316316605 -0.20461268723011017 0.2529418170452118 0.10698314011096954 0.22984616458415985 -0.10107553750276566 -0.07407565414905548 0.179657444357872 -0.22332994639873505 0.44636690616607666 -0.1191883236169815 -0.09930820763111115 0.3138633072376251 -0.18461471796035767 -0.20667076110839844 0.040810324251651764 -0.2150414139032364 0.14769130945205688 -0.004555071704089642 0.180744469165802 -0.01308040227741003 -0.23364302515983582 -0.10380908846855164 0.07031094282865524 0.0221245177090168 0.12136579304933548 0.0862131118774414 -0.2301599234342575 0.035378046333789825 -0.18093326687812805 -0.41046997904777527 -0.0714305192232132 0.12686264514923096 0.14607715606689453 -0.027439836412668228 -0.10364578664302826 -0.11052361130714417 0.09731275588274002 0.06410251557826996 0.055494606494903564 0.14601662755012512 -0.1973438262939453 0.15518008172512054 -0.19682477414608002 -0.155805304646492 0.11147528141736984 0.3010372221469879 0.14812280237674713 -0.027608374133706093 0.005799747072160244 -0.20078083872795105
they 0.24702604115009308 -0.05974211171269417 -0.27310699224472046 0.3069501221179962 -0.026859737932682037 -0.10023528337478638 -0.25012537837028503 0.09572220593690872 -0.08573846518993378 -0.06547104567289352 -0.06902404129505157 -0.15151746571063995 -0.08248511701822281 0.13230770826339722 0.07440192252397537 -0.21841932833194733 -0.015339896082878113 -0.22697953879833221 0.03631292283535004 -0.2663460969924927 0.00872508529573679 -0.04038884863257408 -0.05497350916266441 -0.12462099641561508 -0.1250477433204651 -0.16948212683200836 0.09382522106170654 0.07540389895439148 0.09711211919784546 0.14131687581539154 -0.14761923253536224 -0.24293427169322968 -0.0496312715113163 -0.41842034459114075 0.0842139944434166 0.0753246396780014 0.024490248411893845 0.08186229318380356 -0.11926140636205673 -0.07849687337875366 -0.08033701777458191 0.06700973212718964 0.22007060050964355 -0.014276104047894478 -0.034500475972890854 -0.008991317823529243 0.0848517119884491 0.2064054161310196 0.003476826474070549 -0.2495035082101822 3.89966182410717E-4 0.09065166860818863 -0.05260153487324715 -0.15785446763038635 -0.09758660942316055 -0.23375895619392395 -0.15693460404872894 -0.00710562989115715 0.09822475910186768 0.007693612948060036 0.451043963432312 -0.08657559007406235 -0.07318072021007538 -0.08425499498844147 -0.243857279419899 0.20551186800003052 0.4241018295288086 0.08699560165405273 0.16976194083690643 -0.18638163805007935 0.17545069754123688 -0.3397669196128845 0.015616240911185741 -0.06196504086256027 0.006974979303777218 0.08811505883932114 0.13615667819976807 0.22217972576618195 -0.033663295209407806 -0.1346566081047058 -0.3234661817550659 0.10053025186061859 0.1892065405845642 0.3360395133495331 0.2898138165473938 0.070063516497612 -0.3203977048397064 0.045887336134910583 0.10500822216272354 -0.04794333130121231 -0.30981507897377014 0.05556013435125351 0.08998050540685654 -0.15634864568710327 0.10719721764326096 -0.2924548089504242 -0.45785343647003174 -0.10659271478652954 0.1110481470823288 0.013393927365541458
you 0.23390626907348633 -0.2606355845928192 -0.31495293974876404 0.17529401183128357 0.10574375092983246 0.12153687328100204 -0.3052881062030792 -0.18923211097717285 -0.3383878171443939 0.10983795672655106 0.09244722127914429 -0.14391577243804932 -0.2919567823410034 -0.0645112618803978 0.08769764006137848 -0.08210431039333344 0.25963398814201355 -0.38741832971572876 0.23998847603797913 -0.13342300057411194 0.17513015866279602 -0.16452272236347198 -0.2543191909790039 0.03634444996714592 0.00529586523771286 -0.13343414664268494 0.1595178097486496 -0.10164070129394531 0.07159003615379333 -0.05483337864279747 0.039057038724422455 -0.1770058572292328 -0.25095027685165405 -0.04466770589351654 0.26483502984046936 -0.020215999335050583 -0.007712028454989195 -0.09247589111328125 -0.03746797516942024 -0.10782564431428909 0.13176867365837097 -0.17038308084011078 0.47791826725006104 0.23829689621925354 -0.02470526099205017 0.20894333720207214 0.203597754240036 -0.02577638439834118 -0.023997914046049118 0.0523848682641983 0.11140806972980499 0.2085903435945511 0.3799518048763275 -0.18210163712501526 0.015187343582510948 0.022611364722251892 0.03763256222009659 -0.13472387194633484 0.1343255192041397 -0.10821420699357986 -0.010109334252774715 -0.060300543904304504 -0.14215853810310364 -0.2729892432689667 0.08687908202409744 -0.005907339975237846 0.16507863998413086 0.07226209342479706 0.04737524315714836 -0.2695971131324768 0.22343710064888 -0.12500858306884766 -0.09782939404249191 0.2219690978527069 0.15339383482933044 -0.141622394323349 -0.16280944645404816 -0.0035263460595160723 0.41562819480895996 -0.236543670296669 -0.06283467262983322 -0.07951585948467255 -0.1036452203989029 -0.04149381071329117 0.3515720069408417 4.926212131977081E-4 -0.06372268497943878 0.0022823666222393513 0.1743762493133545 -0.2732718884944916 0.045526258647441864 -0.07833327353000641 0.2570641040802002 -0.07877326011657715 -0.14655612409114838 -0.43913495540618896 -0.26523417234420776 -0.008556483313441277 2.0052504260092974E-4 -0.00803983025252819
$ 0.02558305859565735 -0.04510420188307762 -0.015015042386949062 -0.022472815588116646 0.03394819051027298 -0.012725872918963432 0.01017310842871666 -0.07269032299518585 0.010380078107118607 -0.006876782514154911 -0.05435830354690552 -0.01723776012659073 0.024976486340165138 -0.07516220211982727 -0.010818207636475563 0.025531046092510223 0.028102219104766846 -0.005524628795683384 0.041426680982112885 -0.013530855067074299 0.04960564151406288 -0.00988420657813549 -0.039687152951955795 0.0049774544313549995 -4.6526407822966576E-4 -0.02063869684934616 0.03128884732723236 0.04736093804240227 0.012591027654707432 0.013431565836071968 0.06694312393665314 -0.03622109815478325 0.07701718807220459 -0.05344891920685768 -0.03328440338373184 -0.02927009016275406 0.04202553629875183 -0.007449118420481682 -0.01050027646124363 -0.01969396322965622 -0.025654222816228867 0.008146950975060463 0.015580331906676292 0.023893501609563828 0.016239112243056297 -0.0689605250954628 -0.011500978842377663 -0.02841819077730179 0.012394651770591736 0.00931614451110363 0.006829769350588322 0.0195239819586277 6.728116422891617E-4 0.054487913846969604 -0.0024052381049841642 -0.02079610340297222 0.018875403329730034 0.014652295038104057 -0.04045860096812248 -0.0248275026679039 0.007371437735855579 0.051881060004234314 -0.04795980826020241 -0.007939961738884449 -0.011344058439135551 -0.06753532588481903 -1.3604032574221492E-4 0.015171978622674942 0.009964804165065289 -0.05674608796834946 -0.03126976266503334 0.06876525282859802 -0.023693963885307312 -0.03727174922823906 -0.01028190366923809 0.010284727439284325 -0.0011187870986759663 0.027697741985321045 -0.017133571207523346 0.03857731446623802 -0.015874922275543213 0.05502207204699516 0.00953727774322033 -0.05258144810795784 -0.007236182689666748 -0.028801601380109787 -0.005926649551838636 -0.052403904497623444 -0.040476713329553604 0.029011696577072144 0.026677068322896957 4.148161970078945E-4 -0.01772635616362095 -0.025560274720191956 0.014621313661336899 -0.025374554097652435 0.011782599613070488 0.01713666319847107 0.01168355718255043 0.0011074249632656574
going 0.6164945960044861 -0.4260198771953583 -0.4021644592285156 -0.15160898864269257 -0.047147687524557114 -0.02407744899392128 0.07127708941698074 -0.19111323356628418 -0.32575511932373047 -0.3540508449077606 0.22077547013759613 0.1528462916612625 0.48447084426879883 -0.2185845971107483 -0.0014611328952014446 -0.06265614926815033 -0.3557218313217163 0.206551656126976 -0.09027960896492004 -0.21069814264774323 0.290532648563385 0.07385209947824478 -0.5126340389251709 0.0806453600525856 -0.1480807065963745 0.493336021900177 0.09174999594688416 -0.3455639183521271 -0.17668287456035614 -0.23427651822566986 0.271106481552124 -0.1155269593000412 -0.23933060467243195 -0.20063666999340057 0.012119458056986332 -0.22241173684597015 -0.36285412311553955 0.17239613831043243 -0.08224821835756302 0.08628351986408234 -0.31307676434516907 -0.014807654544711113 0.10276006162166595 0.29311230778694153 -0.2755137085914612 -0.10531057417392731 0.08069424331188202 -0.15319985151290894 -0.03628344461321831 -0.48557713627815247 0.23684535920619965 -0.26829254627227783 -0.037793174386024475 0.06870097666978836 -0.29008057713508606 0.09030193090438843 -0.05080467835068703 0.0299534872174263 -0.17671577632427216 0.16390864551067352 -0.005631179548799992 -0.10509620606899261 -0.30057868361473083 -0.11244195699691772 0.055723123252391815 -0.023189278319478035 -0.20143094658851624 0.1415911316871643 0.15545542538166046 -0.2059044986963272 -0.09772433340549469 0.03673693165183067 -0.13658744096755981 0.21133071184158325 -7.551637245342135E-4 0.08907639980316162 0.06423032283782959 0.18934406340122223 0.3652973473072052 0.022015826776623726 -0.14650829136371613 -0.07750359177589417 -1.9778648857027292E-4 -0.16632601618766785 -0.017722418531775475 0.37312188744544983 -0.13660776615142822 -0.015223601832985878 -0.11104629933834076 -0.03021504357457161 0.014495136216282845 -0.27223822474479675 0.10388448089361191 -0.24800559878349304 -0.29187893867492676 -0.21448077261447906 -0.18139106035232544 -0.21283982694149017 -0.5858384966850281 -0.06257530301809311
old 0.330954372882843 -0.3759981393814087 0.38736483454704285 0.12557536363601685 0.24895291030406952 0.01477433554828167 -0.15745440125465393 -0.040515098720788956 -0.03136446326971054 0.2518578767776489 0.10823924839496613 -0.002057748381048441 0.40099790692329407 -0.03345637768507004 -0.06773408502340317 -0.017022736370563507 -0.5070518255233765 0.0225193053483963 0.09804924577474594 0.00782014336436987 -0.0827818214893341 -0.03352104127407074 -0.029451344162225723 0.08438081294298172 0.11638607084751129 -0.04296565428376198 0.610401451587677 -0.1492142379283905 -0.0726177990436554 0.4265904426574707 0.22658632695674896 -0.03640124574303627 0.1774749457836151 -0.525456428527832 0.03126971423625946 -0.434549480676651 0.24100083112716675 0.05144500732421875 -0.1466076672077179 0.10269373655319214 0.10139364004135132 -0.22435827553272247 -0.1554783284664154 0.07504924386739731 0.09522508084774017 0.12640859186649323 0.23304487764835358 -0.013217264786362648 0.07512664049863815 -0.009312662295997143 -8.565501775592566E-4 -0.1537325084209442 0.07181416451931 0.24555589258670807 -0.1875571757555008 -0.005980051588267088 -0.14885196089744568 -0.08982457220554352 0.07160361856222153 0.04580935463309288 0.03400229662656784 -0.07354328781366348 0.11066924035549164 -0.17577730119228363 -0.10567623376846313 -0.06774180382490158 -0.19275633990764618 0.31411346793174744 0.07981349527835846 -0.0221649631857872 -0.17461591958999634 0.32407793402671814 -0.33008965849876404 -0.11350895464420319 -0.09269087016582489 -0.2812740206718445 -0.17927826941013336 0.286496102809906 -0.2948574721813202 0.04008881747722626 0.17791245877742767 0.5591616034507751 -0.1575668752193451 0.05616970732808113 0.05082721263170242 0.08583228290081024 0.33615729212760925 -0.02374703250825405 -0.053762659430503845 0.172255277633667 0.10283355414867401 0.37025001645088196 -0.1212427169084549 -0.2205442190170288 0.2746194899082184 -0.1769716441631317 0.03354087471961975 0.09027981013059616 -0.04260101169347763 -0.20742297172546387
want 0.41951045393943787 0.021374965086579323 -0.1263316422700882 -0.0671374723315239 0.183327779173851 0.21111096441745758 0.14305664598941803 -0.22282937169075012 -0.3327140808105469 -0.03138904273509979 0.3861897885799408 -0.40383967757225037 -0.06158292666077614 -0.29154065251350403 0.18838785588741302 -0.11150624603033066 0.037977296859025955 -0.16266945004463196 -0.1994159072637558 -0.18495671451091766 -0.08902882784605026 -0.1885039061307907 0.1532258242368698 0.3184477984905243 0.033329859375953674 0.12069284915924072 -0.06332854926586151 0.07295945286750793 -0.16468393802642822 0.36498650908470154 0.26108694076538086 -0.005574342329055071 -0.13306312263011932 0.18526393175125122 -0.3893522024154663 -0.07346577942371368 -0.2242264449596405 -0.18598948419094086 -0.027225935831665993 -0.035204313695430756 -0.31852009892463684 -0.18113559484481812 0.3889681398868561 0.32743099331855774 0.023642508313059807 -0.36921226978302 -0.06380538642406464 -0.3680614233016968 0.033047210425138474 0.08288920670747757 -0.07634907215833664 0.07373450696468353 0.02533029578626156 -0.19117967784404755 0.18685981631278992 -0.3170447051525116 0.10573100298643112 -0.03311808034777641 -0.15625742077827454 0.20949086546897888 -0.17902995645999908 0.045867688953876495 0.10216420888900757 0.21071606874465942 -0.24237866699695587 -0.006156378425657749 -0.16340969502925873 -0.4508381187915802 0.19756321609020233 -0.15559040009975433 -0.1288028359413147 0.058947257697582245 -0.05373837798833847 0.3150312006473541 -0.3273687958717346 0.2806936502456665 0.21610447764396667 -0.3121204972267151 -0.04878784716129303 0.041887179017066956 -0.2264929860830307 -0.16918277740478516 0.08661843836307526 0.031010786071419716 0.1988161951303482 -0.19947807490825653 -0.14053364098072052 -0.2518821060657501 -0.21239157021045685 -0.09974640607833862 0.25686895847320557 -0.19679565727710724 -0.36067450046539307 0.09214986860752106 0.03279433026909828 -0.24424947798252106 -0.15993277728557587 -0.3566747009754181 -0.44776877760887146 0.2238321304321289
night 0.24401727318763733 -0.4473303258419037 -5.805332912132144E-4 -0.027831271290779114 -0.21552099287509918 0.07376819103956223 0.055228814482688904 0.006777447648346424 0.21535508334636688 0.4497765898704529 -0.01082370150834322 0.14290854334831238 0.21274873614311218 -0.2259991616010666 -0.39301565289497375 0.13222914934158325 -0.17382852733135223 0.36139899492263794 -0.18469759821891785 0.08208838850259781 0.3650819957256317 0.09664633125066757 -0.16206003725528717 0.24978959560394287 -0.21056422591209412 -0.2670752704143524 -0.017333021387457848 -0.044691942632198334 0.23213592171669006 0.4050634205341339 0.37047508358955383 0.31545859575271606 -0.028285423293709755 0.18007288873195648 -0.5007912516593933 0.3521060645580292 0.30323103070259094 -0.11243202537298203 -0.023394597694277763 -0.41842517256736755 -0.1515227109193802 0.23926472663879395 -0.09735389798879623 0.16466161608695984 -0.23726443946361542 0.21597081422805786 0.09362725913524628 -0.062137529253959656 0.1337307095527649 -0.272358238697052 0.026687026023864746 0.07633861154317856 -0.07992634922266006 0.26546788215637207 0.3816032409667969 -0.013874906115233898 0.13766725361347198 -0.18988420069217682 -0.15412268042564392 0.06164044886827469 0.02054034173488617 -0.12014982104301453 -0.06035942584276199 0.2245156466960907 -0.16657070815563202 -0.5305963158607483 0.22034768760204315 -0.012618163600564003 -0.024082479998469353 -0.12429186701774597 0.1652442365884781 -0.16815227270126343 -0.06709719449281693 -0.18824328482151031 -0.07144336402416229 -0.11094881594181061 -0.025925567373633385 -0.1682237982749939 -0.04597197100520134 0.06516440212726593 -0.2610134184360504 0.26983436942100525 0.31321749091148376 -0.3400183618068695 -0.19459816813468933 -0.0037335415836423635 0.10497142374515533 0.2381390780210495 -0.1985979825258255 0.1411060094833374 -0.2607486844062805 -0.24293389916419983 -0.17078447341918945 -0.027298828586935997 0.003061344614252448 -0.15389952063560486 0.09052816778421402 0.041548263281583786 0.16416513919830322 -0.030620431527495384
them 0.6956005096435547 0.11184784770011902 -0.43332651257514954 -0.07151618599891663 -0.010077358223497868 -0.3000180423259735 0.08955277502536774 -0.15503327548503876 0.07507029920816422 0.009052294306457043 -0.23806585371494293 -0.10281224548816681 -0.17566215991973877 -0.19350378215312958 -0.09067929536104202 0.03770200163125992 0.052210189402103424 0.024654099717736244 0.3105698823928833 -0.006781016476452351 0.06446950137615204 0.07608162611722946 0.2115868479013443 0.14011022448539734 0.21939870715141296 -0.2334054410457611 0.030240513384342194 0.15947312116622925 0.08689269423484802 0.03256765380501747 -0.1991298496723175 -0.27848121523857117 0.17991259694099426 0.06856804341077805 -0.03551611304283142 -0.1405266523361206 -0.07049709558486938 0.043551310896873474 -0.2592504024505615 -0.19616587460041046 -0.18770186603069305 -0.0285771656781435 0.033123474568128586 0.30855312943458557 0.10586294531822205 -0.3330213725566864 0.13237212598323822 0.09917811304330826 0.14885926246643066 0.15682296454906464 0.046798285096883774 0.26833727955818176 0.2971075475215912 0.19242173433303833 0.10212390869855881 -0.16419196128845215 0.11573702841997147 0.3621702194213867 -0.15113641321659088 0.056764621287584305 0.19215746223926544 0.32276761531829834 -0.04441479593515396 0.022829055786132812 0.15468168258666992 -0.29819923639297485 0.28973624110221863 0.22803334891796112 -0.19506874680519104 -0.13687258958816528 0.12036504596471786 0.31338226795196533 -0.04681268706917763 -0.16680650413036346 -0.1729886531829834 -0.11584270000457764 -0.1741369217634201 0.21995516121387482 0.14922012388706207 0.16092175245285034 -0.14869767427444458 0.22232523560523987 -0.006053737364709377 -0.050056446343660355 0.22006507217884064 -0.0738634467124939 -0.25659626722335815 -0.13474325835704803 -0.175956130027771 0.0033235521987080574 0.04632944241166115 -0.0671650692820549 0.0565015934407711 -0.4336802661418915 -0.08781833946704865 -0.3382887840270996 -0.03907610476016998 -0.14003649353981018 0.18043316900730133 -0.05081243813037872
then 0.005570810288190842 0.2942611575126648 0.18914590775966644 -0.04367031902074814 -0.24127070605754852 -0.0893794521689415 -0.034576259553432465 0.23869282007217407 -0.3060539662837982 0.08151356875896454 0.04081890732049942 -0.09131964296102524 0.18590359389781952 -0.006047232076525688 -0.25740984082221985 -0.15463866293430328 0.03194749355316162 0.14781203866004944 0.0428256057202816 -0.2028052806854248 -0.035384781658649445 -0.1997811645269394 0.1273917555809021 0.0403175987303257 0.05367467924952507 0.1482149064540863 -0.28324630856513977 0.16499966382980347 -0.06528256088495255 -0.0962437093257904 0.3623448312282562 -0.022604675963521004 0.1673794537782669 -0.17237256467342377 -0.32033291459083557 -0.17054462432861328 -0.11742061376571655 0.05330377072095871 0.003985939081758261 -0.1825322061777115 -0.04482593014836311 0.28626561164855957 -0.1303320825099945 0.10749377310276031 -0.2250482439994812 -0.06918366998434067 0.1804320067167282 0.057189956307411194 -0.008350590243935585 -0.22604148089885712 0.3182480037212372 0.26343443989753723 -0.31801074743270874 0.04519694298505783 -0.006689058616757393 -0.044142503291368484 -0.04906638339161873 -0.0560731366276741 -0.011254200711846352 0.07776995003223419 0.02883097529411316 -0.18608668446540833 -0.05837510898709297 0.0010393810225650668 0.11137065291404724 -0.437030166387558 0.3308621644973755 0.01190638542175293 -0.11198027431964874 0.11905267089605331 -0.049655213952064514 -0.2194809913635254 -0.08677760511636734 0.04783417284488678 0.03285367041826248 0.05685586482286453 -0.3281545341014862 0.02383038029074669 0.35359859466552734 -0.10914251953363419 -7.686857134103775E-5 0.020955972373485565 -0.005575408227741718 -0.17098701000213623 0.40298333764076233 0.022360535338521004 -0.13096019625663757 -0.25418442487716675 0.08634227514266968 0.32019054889678955 -0.30787304043769836 -0.15488041937351227 0.03894738480448723 -0.29641860723495483 0.2128193974494934 0.0010400911560282111 0.026239432394504547 -0.2173381894826889 -0.06150225177407265 0.01422042865306139
court -0.009023883379995823 -0.23707084357738495 0.024518005549907684 0.029880069196224213 -0.17634230852127075 0.11085981875658035 0.015565126203000546 -0.3201139569282532 0.1095331609249115 -0.09986605495214462 0.03191927447915077 -0.2537856698036194 0.19367285072803497 -0.2128758281469345 -0.2806415855884552 -0.054006341844797134 -0.12611694633960724 -0.012042401358485222 0.07376173883676529 -0.22153177857398987 0.42480748891830444 -0.17606781423091888 -0.303107887506485 0.06089232489466667 -0.05836399272084236 -0.038089778274297714 0.029310867190361023 -0.11955557018518448 0.25039374828338623 0.06819707900285721 0.20554406940937042 -0.19740213453769684 0.19028429687023163 -0.050514593720436096 -0.39363980293273926 -0.0694354996085167 0.09156502038240433 0.13055412471294403 0.12170223891735077 -0.01685679703950882 -0.06504110991954803 0.03903304785490036 0.14056918025016785 0.039423100650310516 -0.14579160511493683 -0.13534870743751526 -0.08790228515863419 -0.0981692224740982 0.09422905743122101 0.011978397145867348 0.09008748829364777 -0.09852820634841919 -0.3287530839443207 0.22229550778865814 -0.21660979092121124 0.13788379728794098 0.24632669985294342 -0.2590910792350769 0.10899980366230011 0.07662741839885712 -0.23185256123542786 0.16143886744976044 -0.09989869594573975 -0.2739733159542084 -0.01312153972685337 -0.2526335120201111 0.027954846620559692 0.13643251359462738 0.08587589114904404 -0.06781048327684402 -0.25926101207733154 -0.0793033018708229 0.03119623474776745 0.1523863822221756 0.05203499644994736 0.1349087357521057 0.11744795739650726 0.1263621747493744 -0.029810527339577675 -0.05209878087043762 -0.0670226663351059 0.053441956639289856 -0.028921984136104584 -0.12061265110969543 -0.13320709764957428 -0.010177839547395706 0.14762349426746368 0.09867652505636215 -0.117563396692276 -0.1305101364850998 -0.03733072429895401 0.012128612026572227 -0.0912521481513977 -0.17698423564434052 0.005005301907658577 0.09106265753507614 -0.026186326518654823 0.02211676351726055 0.015478885732591152 -0.005017578136175871
an 0.15353229641914368 -0.43337270617485046 -0.18409088253974915 0.06722977757453918 -0.10596523433923721 0.1340899020433426 -0.23473064601421356 -0.01670917496085167 0.264305055141449 0.13004346191883087 0.09159526228904724 -0.030689017847180367 -0.01054737064987421 -0.19967275857925415 0.022887730970978737 0.19960051774978638 0.09565386176109314 0.030869703739881516 -0.08636743575334549 -0.010839208029210567 0.045407894998788834 0.29655182361602783 -0.28606414794921875 0.128987118601799 -0.2716849446296692 0.20960398018360138 0.35685500502586365 0.12327919155359268 0.07024959474802017 0.3110639750957489 0.2576446533203125 -0.12735338509082794 -0.00969303771853447 -0.20590250194072723 -0.18085595965385437 -0.16670463979244232 -0.11389673501253128 -0.1831636130809784 -0.14389050006866455 0.16651329398155212 -0.06747040152549744 0.015385501086711884 -0.04839056357741356 0.271806925535202 -0.039610955864191055 -0.31191301345825195 -0.20364950597286224 -0.16486035287380219 -0.0727294310927391 -0.0955176129937172 0.22654038667678833 0.2569442391395569 0.23276400566101074 0.09778448194265366 0.04007001593708992 0.1701558381319046 0.13154269754886627 0.0521763414144516 0.3334310054779053 0.06900261342525482 -0.1481178104877472 -0.2169703245162964 -0.1485302746295929 -0.1069718524813652 -0.05206378549337387 -0.18818292021751404 -0.2505331039428711 -0.11750153452157974 0.12507668137550354 -0.17258471250534058 -0.1682618111371994 -0.045021213591098785 -0.2138688862323761 0.071922667324543 0.09607963263988495 0.2178027480840683 -0.1599271148443222 -0.04164997488260269 0.09294802695512772 -0.07308390736579895 -0.13051562011241913 0.2036418914794922 0.10818544775247574 -0.005883513949811459 0.047188568860292435 -0.07384604960680008 0.3167943060398102 -0.1563323438167572 -0.020658519119024277 0.27437883615493774 -0.1530059278011322 -0.21544145047664642 -0.03155460208654404 -0.06634468585252762 0.05982302874326706 0.013497142121195793 0.09427850693464279 0.06460157036781311 0.04566420614719391 -0.2217944860458374
- 0.11523427069187164 -0.21761180460453033 0.017806516960263252 0.10588372498750687 -0.10386084765195847 -0.045218776911497116 0.07857383787631989 0.09585810452699661 -0.031061479821801186 0.22450755536556244 -0.06941500306129456 0.06022600084543228 -0.05263754352927208 -0.09566828608512878 -0.0369202196598053 0.1393233835697174 0.07921984046697617 0.1308385580778122 0.026053130626678467 0.05868322402238846 0.08677935600280762 0.05221598595380783 0.004768309183418751 0.1501436084508896 -0.0031607155688107014 -0.15612705051898956 0.09231124073266983 0.056950245052576065 0.06989149004220963 0.1330832988023758 0.10774774104356766 0.028797168284654617 0.123548224568367 -0.030734611675143242 0.10502060502767563 -0.08757533133029938 0.12638267874717712 -0.13068555295467377 -0.03545999154448509 0.009333346039056778 -0.09598380327224731 0.04848212003707886 0.03865326941013336 0.1489447057247162 -0.09376807510852814 -0.11606692522764206 0.03619393706321716 0.018392663449048996 -0.01614340767264366 -0.02394924685359001 0.005723211448639631 0.014044411480426788 -0.05191846936941147 0.09837140887975693 -0.02103808894753456 -0.0042918953113257885 0.00430758111178875 -0.0673486515879631 0.07618772983551025 -0.0029215195681899786 0.043653454631567 0.027385057881474495 -0.045066893100738525 0.0806455910205841 -0.02121739462018013 -0.12564343214035034 -0.005753587000072002 -0.1051911786198616 -0.01908194087445736 -0.011340216733515263 0.04443853348493576 0.05633002147078514 -0.010408091358840466 -0.01073907408863306 0.008798645809292793 0.15621629357337952 -0.047242432832717896 -0.045528773218393326 0.040720149874687195 0.024485748261213303 -0.06959424912929535 0.08104091882705688 0.10507571697235107 -0.057898636907339096 0.030058102682232857 0.02704509347677231 -0.05410939082503319 -0.07646501809358597 0.06889503449201584 0.038850393146276474 -0.10349922627210617 -0.03065958246588707 -0.019788462668657303 -0.24971334636211395 0.0892537459731102 0.2048327922821045 -0.05066656693816185 -0.031017299741506577 0.07485894113779068 0.027949180454015732
each 0.22437062859535217 -0.3857986330986023 -0.5574698448181152 0.005435260012745857 0.00910895224660635 -0.2670285999774933 -0.272396445274353 -0.16586080193519592 -0.07774553447961807 0.03134665638208389 -0.2752019166946411 -0.5217171311378479 -0.035902224481105804 -0.3435930609703064 -0.09858600795269012 0.2977798581123352 0.1772185117006302 -0.2514345347881317 -0.263939768075943 0.12422219663858414 0.26188379526138306 0.28292831778526306 0.08598959445953369 -0.09911496937274933 -0.1553294062614441 -0.024616235867142677 -0.1322372704744339 -0.04388641566038132 0.3804447650909424 0.21639792621135712 -0.097121961414814 -0.04979684203863144 0.3662089705467224 0.03381560370326042 -0.4364488124847412 0.11174138635396957 -0.11874008178710938 0.353708952665329 -0.06033182889223099 -0.16887634992599487 -0.06157192587852478 0.20102174580097198 0.18855071067810059 0.254736065864563 0.16504506766796112 -0.571108877658844 0.09585879743099213 0.3348783850669861 -0.2358892261981964 0.006418077275156975 -0.04637709632515907 -0.2386298030614853 0.4123091995716095 0.21067331731319427 0.22938965260982513 0.11463349312543869 0.1987028568983078 0.11485567688941956 -0.2825910747051239 0.215317040681839 0.15085600316524506 -0.06055840849876404 -0.3292068541049957 -0.032118573784828186 -0.13209238648414612 -0.010059910826385021 0.2861235737800598 0.23424746096134186 0.2497977316379547 -0.4033433198928833 -0.17411856353282928 0.262090802192688 0.07502184063196182 -0.2509310245513916 0.20012222230434418 -0.08545510470867157 -0.10798145830631256 -0.2900044322013855 0.03980519250035286 0.5218600034713745 -0.06807024776935577 0.531526505947113 0.08512555062770844 -0.29501986503601074 -0.08176197856664658 -0.3466563820838928 -0.1355939656496048 -0.45387375354766846 -0.6404744386672974 0.13121476769447327 -0.19561180472373962 0.16046857833862305 -0.055105555802583694 -0.046647947281599045 -0.0430266335606575 -0.09247517585754395 -0.3189273476600647 -0.18110544979572296 0.1845981329679489 -0.273764967918396
former -0.013193675316870213 -0.12487795203924179 0.07642603665590286 0.028453603386878967 -0.012739939615130424 -0.005037697963416576 0.03915349021553993 0.012586141005158424 0.1125945895910263 0.15416909754276276 -0.08763501048088074 0.037463150918483734 0.07715800404548645 -0.07355546951293945 -0.04390178248286247 0.08281229436397552 -0.014036543667316437 0.060796432197093964 0.04667765647172928 0.0012690043076872826 0.0674925222992897 -0.05719340592622757 -0.009029972366988659 0.08177055418491364 0.03612523525953293 -0.0641990602016449 0.07017792016267776 0.04754294455051422 0.0523330420255661 0.09890124201774597 0.014167172834277153 -0.032715342938899994 0.09300107508897781 0.01655745506286621 -0.09926445037126541 -0.1012379378080368 0.05198928341269493 5.787359550595284E-4 0.0028032446280121803 0.02948789857327938 0.0012369552860036492 0.037402521818876266 -0.03577311709523201 0.039920903742313385 0.0062924157828092575 -0.06385316699743271 9.160012705251575E-4 -0.012033664621412754 0.040714021772146225 -0.0030443400610238314 -0.03212446719408035 0.06134415790438652 -0.05312095582485199 0.06864544749259949 0.01144784688949585 0.02516774833202362 0.049165260046720505 -0.11264213174581528 0.0860898494720459 4.164408892393112E-5 -0.04114319011569023 0.044250380247831345 -0.05413488298654556 -0.0621781088411808 0.0011819128412753344 -0.04871841147542 -0.032465942203998566 0.032626502215862274 0.008049992844462395 0.021830812096595764 0.037784453481435776 0.0234152190387249 -0.029730426147580147 -0.013105249963700771 -0.0147002674639225 0.06659292429685593 -0.06664729863405228 0.003130730241537094 -0.13167236745357513 -0.05338917672634125 0.038220684975385666 0.0637516900897026 0.02674245275557041 -0.016251806169748306 -0.09901494532823563 -0.027908461168408394 0.0780033990740776 -0.056965284049510956 -0.023119306191802025 0.023697156459093094 0.026765376329421997 0.03991593047976494 -0.052719347178936005 -0.09578119218349457 0.016860583797097206 0.1036321371793747 -0.0015225273091346025 -0.01865512505173683 0.04514272138476372 -0.06261466443538666
as 0.22097016870975494 -0.38173240423202515 -0.0906844288110733 0.09314128011465073 0.16295675933361053 0.1583004742860794 0.11203636229038239 0.036990389227867126 -0.14190717041492462 0.33664464950561523 -0.2984449565410614 0.2804087698459625 0.18378405272960663 -0.25785696506500244 0.28150832653045654 -0.08626499772071838 0.20682953298091888 0.04458189010620117 0.29333993792533875 -0.026126384735107422 -0.1065591424703598 0.32813021540641785 -0.156736820936203 0.49916666746139526 0.06760656833648682 -0.13228079676628113 -0.08426225930452347 0.26637279987335205 0.27783074975013733 0.06285537034273148 0.13168402016162872 -0.02781691774725914 0.21426235139369965 -0.18384332954883575 0.35553494095802307 0.3932473361492157 -0.13556423783302307 0.20709680020809174 -0.30654338002204895 -0.1463579386472702 0.169930100440979 -0.13009725511074066 -0.011524601839482784 -0.14806261658668518 -0.1912013739347458 0.17820876836776733 -0.13636049628257751 -0.3001636266708374 -0.19452454149723053 -0.01721130684018135 0.1933903694152832 -0.17857857048511505 0.5056183934211731 0.2600560486316681 -0.16593195497989655 -0.4140233099460602 0.08627346903085709 -0.31685614585876465 -0.4529373347759247 0.13924579322338104 -0.026637466624379158 0.2638743817806244 -0.2701554000377655 -0.27328234910964966 -0.24620284140110016 0.04071672633290291 0.33977851271629333 -0.209899440407753 0.015787707641720772 -0.08984255790710449 0.24843460321426392 0.1309424191713333 0.48118987679481506 -0.05149746686220169 -0.1380700320005417 -0.052469536662101746 0.16448834538459778 -0.1709344983100891 -0.03368358686566353 0.41333451867103577 0.02069893106818199 -0.10209386795759201 0.07283633947372437 0.14131057262420654 -0.009099659509956837 0.17399317026138306 0.30832600593566895 -0.016776062548160553 0.2534015476703644 0.10829098522663116 0.015839628875255585 -0.3648803234100342 0.08838929235935211 0.22563019394874573 0.34400609135627747 -0.4093775451183319 0.029108069837093353 -0.1934039443731308 0.40942394733428955 0.003398129716515541
at 0.10434501618146896 -0.3442062735557556 0.031220316886901855 -0.1717931479215622 -0.17474550008773804 -0.2975243330001831 -0.17929527163505554 -0.1013377383351326 -0.083616703748703 0.49088314175605774 0.09067637473344803 0.1873258650302887 0.015427419915795326 -0.02433588355779648 -0.3335382342338562 -0.14756517112255096 -0.1622132807970047 0.1060248464345932 0.11468229442834854 -0.3519238829612732 0.20852191746234894 -0.005497328005731106 -0.14606645703315735 0.054481398314237595 0.0696234330534935 -0.37331292033195496 -0.4853271543979645 -0.3818553686141968 0.1934746354818344 0.33588525652885437 0.006659793667495251 -0.3617071211338043 0.20795850455760956 -0.11992478370666504 -0.3178306221961975 -0.0687233954668045 0.06644546240568161 0.40672388672828674 -0.31499311327934265 -0.2215856909751892 -0.14469893276691437 0.03090260736644268 0.054921746253967285 0.26221346855163574 -0.04818210378289223 0.00793248601257801 -0.09714645892381668 0.19153611361980438 -0.22570163011550903 -0.086905837059021 -0.08357006311416626 0.4451312720775604 -0.06717714667320251 -0.09821978211402893 -0.3057696223258972 -0.15872111916542053 0.21944914758205414 0.18799909949302673 -0.022029468789696693 -0.0815141350030899 0.0770704448223114 -0.042180296033620834 0.08899708092212677 0.46158573031425476 -0.29047781229019165 0.4598839581012726 -0.16379430890083313 0.29513680934906006 -0.09001503884792328 0.022132040932774544 -0.19768977165222168 0.005676996894180775 0.014467647299170494 -0.16986794769763947 -0.07361207157373428 0.2817835509777069 -0.2974894046783447 -0.21909362077713013 -0.3954547643661499 0.0636158138513565 0.09488825500011444 0.26142948865890503 -0.03829224407672882 0.01657036319375038 -0.19471603631973267 0.2523001730442047 0.16007322072982788 0.112369604408741 -0.12037255614995956 0.43882736563682556 -0.14273948967456818 -0.20317815244197845 -0.01620139181613922 -0.5303338170051575 -0.05078476294875145 -0.10912398248910904 0.08581141382455826 0.0056181540712714195 0.3435763418674469 0.01263686828315258
left -0.24637402594089508 -0.11978837847709656 0.19525764882564545 -0.23408600687980652 0.159443199634552 0.025589510798454285 0.08031033724546432 -0.07437311112880707 0.02343611977994442 0.12987007200717926 -0.10328735411167145 -0.13000287115573883 0.14089412987232208 -0.3206992447376251 -0.2712695002555847 -0.10948428511619568 -0.13841411471366882 0.07062476128339767 0.3294050097465515 0.1720171570777893 0.13183143734931946 -0.058615755289793015 -0.1299971342086792 0.1022016778588295 0.05879108980298042 -0.23615720868110657 0.14495371282100677 -0.12924233078956604 -0.055464424192905426 -0.2407284379005432 0.06413435935974121 -0.2975457012653351 0.13043926656246185 -0.270804226398468 -0.012000959366559982 -0.0827820673584938 0.23639513552188873 0.1264933943748474 -0.1215616762638092 0.3016151487827301 0.21431785821914673 0.18813808262348175 -0.1580372303724289 0.32675620913505554 0.039517857134342194 -0.16880951821804047 0.16037368774414062 -0.06622843444347382 -0.036830756813287735 -0.09274649620056152 0.10383307188749313 0.2004602700471878 -0.04473550245165825 0.005110948346555233 -0.15335313975811005 -0.27837029099464417 -3.935133572667837E-4 -0.18315699696540833 0.33643776178359985 0.001238830853253603 -0.06565265357494354 -0.13107439875602722 -0.19612598419189453 -0.021403616294264793 -0.02129438892006874 0.005182707216590643 -0.07679810374975204 0.37613794207572937 -0.1516057401895523 0.10667042434215546 0.05385996401309967 0.2649408280849457 -0.1245533674955368 -0.07387637346982956 -0.08208875358104706 0.08142285794019699 -0.15468686819076538 0.34083083271980286 0.16246087849140167 0.03271997347474098 0.08799111843109131 0.11512848734855652 0.2954908013343811 -0.036444276571273804 -0.05210748687386513 0.32797688245773315 0.02968081831932068 -0.29941117763519287 -0.08847801387310028 0.15192577242851257 0.14731408655643463 0.14779824018478394 -0.014282888732850552 -0.30803996324539185 0.15874816477298737 0.29589053988456726 0.052892860025167465 -0.1046866849064827 0.23454055190086365 -0.012013617902994156
much 0.35865557193756104 0.11517500877380371 0.14810185134410858 -0.23839114606380463 0.24888531863689423 -0.26376423239707947 -0.1645185351371765 -0.31118983030319214 -0.2338228076696396 -0.4018593430519104 0.17862994968891144 -0.597988486289978 -0.4977106750011444 0.21894969046115875 -0.044166211038827896 -0.34037479758262634 -0.013962255790829659 0.004634332377463579 -0.21443596482276917 0.3952867388725281 0.11852771788835526 0.28885316848754883 0.15237762033939362 0.03528490662574768 -0.42464718222618103 -0.3669629693031311 0.3378267288208008 0.08787351846694946 0.38609373569488525 -0.04994620382785797 0.27377355098724365 0.4088389575481415 0.22249054908752441 -0.3394649624824524 0.11968184262514114 -0.3074881434440613 0.06027897074818611 -0.38466113805770874 -0.4006233811378479 0.27179041504859924 -0.033707212656736374 -0.3762276768684387 -0.048712920397520065 0.3917154371738434 0.2016480416059494 0.07926101982593536 0.32029587030410767 0.15138322114944458 -0.40251246094703674 0.20919634401798248 0.005023340228945017 -0.03027687594294548 -0.002174356020987034 0.2734510898590088 0.1053273007273674 -0.06799866259098053 -0.43117770552635193 0.08210813254117966 0.3371315598487854 -0.07176695764064789 0.12212617695331573 -0.009609557688236237 0.05753793567419052 -0.18995152413845062 -0.1705130636692047 -0.20259921252727509 -0.31170305609703064 0.2940767705440521 -0.25181832909584045 -0.1256418228149414 -0.3733469545841217 0.3233676254749298 -0.010925982147455215 -0.0986621081829071 -0.03938710689544678 -0.2397860735654831 0.1712152659893036 0.35851386189460754 0.1124301552772522 0.05499201640486717 -0.21726660430431366 0.2538418471813202 -0.1831902712583542 0.3211965262889862 0.12227491289377213 -0.1301320493221283 0.07301555573940277 0.06211067736148834 0.24516351521015167 0.10044389218091965 0.020440837368369102 -0.03497673198580742 -0.026357438415288925 0.1892419308423996 -0.18645212054252625 -0.10893969982862473 -0.17133188247680664 0.14635172486305237 0.15059539675712585 0.37576642632484436
be 0.21624921262264252 -0.07430770993232727 -0.18789462745189667 0.4272643029689789 -0.008929932489991188 0.01358440425246954 -0.2514348328113556 -0.09084891527891159 0.27917784452438354 0.18993408977985382 0.0866328701376915 0.31125882267951965 -0.07925130426883698 0.24928772449493408 -0.08695957809686661 -0.11924238502979279 0.012345366179943085 -0.06232589855790138 0.13980886340141296 -0.12271136045455933 0.12242873013019562 0.044175997376441956 -0.4786325991153717 0.3897990584373474 -0.1082029640674591 -0.10350824892520905 -0.25091588497161865 0.184067502617836 0.3296482264995575 -0.11432843655347824 0.01859099231660366 -0.048918530344963074 0.18005095422267914 0.1105017140507698 0.31967446208000183 0.26693829894065857 0.1448674201965332 0.10433774441480637 -0.034283701330423355 -0.09125843644142151 0.08906736969947815 -0.07627919316291809 0.06067653372883797 0.13153377175331116 0.4788999855518341 -0.17779767513275146 -0.21220628917217255 -0.21213509142398834 -0.09034311026334763 0.2228672057390213 0.3751707971096039 0.24672453105449677 0.05771573260426521 -0.13325141370296478 -0.17366310954093933 0.3146888315677643 -0.005263409577310085 0.26418501138687134 0.2696707546710968 -0.08860641717910767 -0.03060842491686344 -0.18113145232200623 -0.08172217011451721 -0.27702319622039795 0.1144564300775528 -0.24014396965503693 -0.2780744433403015 0.4159056842327118 -0.07471097260713577 0.17952492833137512 -0.04732867330312729 0.043957725167274475 0.05375741794705391 0.04258032888174057 0.2785084545612335 0.12359575927257538 0.4800664484500885 0.21209870278835297 -0.15134313702583313 -0.2179328352212906 -0.25022634863853455 -0.2892199456691742 0.4226687252521515 -0.029688995331525803 -0.03524503856897354 0.1562228947877884 0.18213911354541779 -0.13250546157360077 -0.16392545402050018 0.023174991831183434 0.0272164735943079 -0.042269766330718994 -0.2599749267101288 -0.2562046945095062 0.14968344569206238 -0.07619882375001907 0.08840247243642807 -0.037184860557317734 0.1089448481798172 0.2514955997467041
another -0.18748922646045685 -0.10654057562351227 -0.03698022663593292 0.0768338143825531 -0.11948776990175247 -0.2699631154537201 -0.13020071387290955 0.0752158984541893 0.07131140679121017 0.11215019971132278 0.17237965762615204 0.09666714817285538 0.13167878985404968 -0.2874743938446045 0.201895609498024 0.22755907475948334 0.14932890236377716 -0.0268261656165123 0.4606580436229706 0.37227296829223633 -0.332233190536499 0.22779874503612518 -0.34123021364212036 0.05464562028646469 0.10256202518939972 0.15426500141620636 0.14146436750888824 -0.10171188414096832 0.4975672662258148 -0.21317695081233978 0.13483965396881104 0.09193217754364014 -0.16101087629795074 0.09091152995824814 -0.22480915486812592 -0.14952734112739563 0.07761780172586441 -0.46206408739089966 0.13309955596923828 -6.236520130187273E-4 -0.1738758683204651 -0.13476885855197906 0.23420529067516327 -0.18571044504642487 0.034785639494657516 -0.08983243256807327 -0.020819803699851036 -0.14214816689491272 0.007793983910232782 0.23848149180412292 0.2595774531364441 0.1614462286233902 0.018633749336004257 0.11750639975070953 0.2110060155391693 0.3311033248901367 0.021802937611937523 -0.2342490255832672 -0.1828310489654541 0.09550963342189789 0.1077849268913269 -0.2896018624305725 -0.026618797332048416 -0.04837599769234657 0.1513439267873764 -0.3042466640472412 0.04067486524581909 0.2572287321090698 -0.0800362303853035 -0.23415708541870117 0.10473556071519852 -0.2161499261856079 -0.4125761091709137 0.17254425585269928 0.07084197551012039 0.30734488368034363 0.033044908195734024 -0.20775461196899414 0.05492696166038513 -0.08501024544239044 -0.14852356910705566 0.4406469166278839 0.12835705280303955 -0.4679105281829834 0.0642533153295517 0.12256956100463867 0.03935208544135094 -0.4014650881290436 0.15783627331256866 -0.029704781249165535 -0.16359387338161469 0.02631348930299282 -0.09580975770950317 -0.27172574400901794 0.20204558968544006 0.14471101760864258 -0.009045498445630074 0.08837397396564484 0.2592473030090332 0.02918930910527706
two -0.4129111170768738 -0.027644598856568336 0.09359578788280487 0.23800894618034363 -0.15861199796199799 -0.15502828359603882 0.14471103250980377 0.08740804344415665 -0.3576678931713104 0.062101900577545166 -0.45037469267845154 0.133572056889534 0.181820809841156 -0.5706994533538818 -0.39464107155799866 0.09183412790298462 -0.07603637129068375 -0.31847938895225525 0.4656416177749634 0.26193177700042725 0.31702396273612976 0.43803614377975464 -0.13961026072502136 0.1228521391749382 0.0033023436553776264 -0.36791694164276123 0.36611872911453247 -0.5327703356742859 0.28456833958625793 -0.15338990092277527 0.3239254951477051 -0.1414770931005478 0.24318361282348633 -0.19275934994220734 0.0377444326877594 -0.11030036956071854 0.31056681275367737 -0.11303912103176117 0.43499600887298584 -0.31266751885414124 0.046985723078250885 0.13565105199813843 -0.10869692265987396 0.2808993458747864 -0.0353398397564888 0.06500232964754105 0.25251439213752747 0.042273398488759995 -0.06949285417795181 -0.016424251720309258 0.12859593331813812 0.16674916446208954 -0.09647411853075027 0.38901060819625854 0.05924338102340698 -0.10890794545412064 0.04129282385110855 -0.1253964602947235 0.16291047632694244 -0.14708268642425537 0.09876728802919388 0.3717321753501892 -0.41307613253593445 0.061627086251974106 0.07606089115142822 -0.10436340421438217 -0.013414381071925163 0.07663064450025558 -0.11540195345878601 -0.20401915907859802 0.37511733174324036 0.1897752285003662 0.009531908668577671 -0.26070159673690796 0.11683941632509232 0.24850930273532867 0.08492067456245422 -0.03880888223648071 0.16733136773109436 -0.01491763349622488 0.17313337326049805 0.5088843107223511 0.1508687436580658 -0.23170310258865356 0.08532699197530746 0.12979939579963684 -0.24349479377269745 -0.4598660171031952 -0.3182518780231476 0.07230207324028015 -0.13089881837368011 0.18836574256420135 0.0013551241718232632 -0.7583101391792297 0.36069104075431824 0.17603613436222076 -0.07209920138120651 -0.45924609899520874 0.38409268856048584 -0.011980922892689705
long 0.2909814417362213 -0.4679563343524933 0.4144468903541565 0.10499417036771774 -0.26636457443237305 0.09651830047369003 -0.38078853487968445 -0.2574630081653595 0.15695545077323914 0.053551726043224335 0.5531579852104187 -0.13135689496994019 -0.3840555250644684 -0.12868183851242065 0.16379956901073456 -0.09015646576881409 -0.3317488729953766 0.046719714999198914 -0.4439348578453064 0.3655470907688141 0.22848691046237946 0.7395933866500854 -0.32960301637649536 0.22150562703609467 -0.23946703970432281 -0.2555626928806305 0.6691892147064209 -0.30285701155662537 0.18835189938545227 -0.18855226039886475 0.41183844208717346 -0.1320558786392212 -0.14854802191257477 -0.2903318405151367 0.28608986735343933 0.12755227088928223 -0.09737332165241241 -0.5912712216377258 -0.2264145016670227 -0.2922648787498474 0.08169171214103699 -0.5229431390762329 -0.487028568983078 0.09090196341276169 -0.19671130180358887 -0.07676700502634048 -0.1459304392337799 -0.04319208487868309 0.051050860434770584 -0.49653348326683044 0.2850385010242462 -0.26470947265625 -0.33849313855171204 0.18415296077728271 0.01850118674337864 0.5555782914161682 -0.12702439725399017 0.483359694480896 -0.0627107247710228 -0.011351305991411209 0.24602365493774414 -0.2299160212278366 -0.17244645953178406 0.21007955074310303 0.4467969834804535 -0.11508285999298096 -0.0702553391456604 -0.06714504957199097 -0.32537779211997986 0.0943782702088356 -0.10185156017541885 -0.3036014437675476 -0.017202995717525482 -0.2912256121635437 0.24991318583488464 -0.351980596780777 0.3997742831707001 0.21271058917045593 -0.2562297582626343 -0.0444895401597023 -0.1811412274837494 0.3250286877155304 -0.15686817467212677 -0.13043992221355438 -0.5264849662780762 0.17295266687870026 0.4563519060611725 -0.034314583986997604 0.13800084590911865 0.05154143646359444 -0.2897431254386902 0.10919201374053955 -0.13114199042320251 0.0173362884670496 0.20857156813144684 -0.17334973812103271 -0.1941394805908203 0.242628812789917 0.4583529233932495 0.018735047429800034
how -0.017997562885284424 -0.4693047106266022 -0.09012693911790848 0.14204058051109314 0.377949059009552 -0.007091322913765907 0.3533579707145691 -0.04883318766951561 -0.2134782373905182 0.27342745661735535 -0.19947318732738495 -0.1088750809431076 -0.10964435338973999 -0.08273231238126755 0.19975613057613373 0.026846548542380333 0.26272153854370117 0.2243611067533493 -0.23254193365573883 -0.1323137879371643 -0.006144688464701176 0.2812148332595825 0.015334002673625946 0.29514122009277344 0.10205837339162827 0.19334176182746887 -0.013183865696191788 0.4158737361431122 0.3103748857975006 0.042406316846609116 0.08745235949754715 0.2402626872062683 0.16990457475185394 -0.14100190997123718 0.31805288791656494 -0.029899664223194122 -0.32048842310905457 0.05146998167037964 -0.3018015921115875 -0.08562057465314865 -0.03518608585000038 0.17961178719997406 -0.1320599913597107 0.11785327643156052 -0.1677437126636505 -0.09548762440681458 0.24301262199878693 0.004845607094466686 -0.04485735669732094 0.05117044597864151 0.25973188877105713 -0.12346141040325165 0.29843077063560486 0.46319812536239624 -0.028155149891972542 -0.3819698393344879 0.1779431253671646 0.033180683851242065 -0.04415140300989151 0.07536621391773224 -0.07735203206539154 -0.07667528092861176 -0.22543425858020782 0.050209593027830124 -0.09506770968437195 -0.1627209484577179 0.20938338339328766 -0.018369877710938454 -0.12342240661382675 -0.26014244556427 -0.2158125340938568 -0.21598491072654724 0.41422316431999207 0.341933935880661 0.04893478378653526 0.07397127896547318 -0.06597723066806793 -0.4566054344177246 0.48320379853248596 0.17431390285491943 -0.25109145045280457 -0.22731077671051025 -0.06982236355543137 0.08609636127948761 -0.022497089579701424 -0.1548701971769333 -0.2303377091884613 0.17956829071044922 0.04330314323306084 0.263477623462677 -0.054267093539237976 -0.2515236437320709 0.22214151918888092 0.5086824297904968 0.31834638118743896 -0.28600579500198364 -0.06792235374450684 -0.1961982101202011 -0.1497313529253006 -0.04736243933439255
into 0.1830275058746338 -0.1972428560256958 -0.1350398063659668 -0.1330559253692627 0.11282955855131149 0.18953865766525269 0.13419201970100403 0.014963967725634575 -0.1516512632369995 0.14954803884029388 -0.04354606941342354 -0.04954605549573898 -0.013069918379187584 0.06704316288232803 -0.04466186463832855 -0.16035613417625427 0.12346246838569641 -0.15763695538043976 -0.07584401220083237 -0.15090139210224152 -0.07612019777297974 0.01817525550723076 -0.25975969433784485 0.042163364589214325 0.02443339116871357 0.0013659955002367496 0.0582273043692112 -0.11693952232599258 -0.012156268581748009 0.20168516039848328 0.2370372712612152 -0.21385051310062408 -0.22899465262889862 -0.1207529678940773 -0.3022010326385498 0.0638725534081459 0.2173391431570053 0.026467109099030495 0.12363456189632416 -0.3272553086280823 -0.24032284319400787 0.03292389586567879 0.05627061426639557 -0.1855027824640274 -0.04718402773141861 0.03911745175719261 -0.06644510477781296 -0.1771969497203827 0.24174563586711884 0.2523781359195709 0.21921175718307495 0.40391820669174194 -0.0461239330470562 0.061772193759679794 0.13910405337810516 -0.09291420131921768 0.09355822205543518 0.23913080990314484 -0.35559529066085815 -0.06839846074581146 0.0025565249379724264 -0.0017990076448768377 -0.31668221950531006 0.018842417746782303 -0.14871376752853394 -0.22935523092746735 0.024737650528550148 -0.1422138512134552 -0.15373818576335907 -0.1033855527639389 -0.015494373627007008 -0.18339917063713074 0.03080061450600624 0.16888584196567535 -0.10251416265964508 0.1404692679643631 -0.0038269730284810066 -0.11908052861690521 0.03966952860355377 0.030009018257260323 -0.10634223371744156 0.13053008913993835 -0.0752580538392067 -0.12670917809009552 -0.09038091450929642 -0.0847386047244072 0.12888264656066895 0.05426701903343201 -0.06547930091619492 0.13906829059123993 -0.05032519996166229 0.09859193861484528 0.1346023678779602 -0.03389250114560127 0.21947814524173737 -0.174313023686409 0.0673706904053688 0.4343835115432739 0.0893370732665062 -0.18326738476753235
see 0.01256483793258667 -0.09620720893144608 -0.024169741198420525 0.2631322741508484 0.18627403676509857 0.057932108640670776 0.2386176884174347 0.39943793416023254 0.016618046909570694 -0.2136608213186264 0.0670791044831276 -0.03399495407938957 0.00483244564384222 -0.20057891309261322 0.003531233174726367 -0.2217400223016739 -0.06560847163200378 -0.1257612258195877 -0.07998963445425034 0.14184191823005676 -0.04246017709374428 -0.04996603727340698 0.010791480541229248 -0.04489652067422867 0.029353713616728783 -0.0993073508143425 -0.23058626055717468 0.15818992257118225 0.04745589941740036 0.12427030503749847 0.20805516839027405 0.0620899461209774 -0.11233814060688019 -0.05659780651330948 -0.20275412499904633 0.09749303013086319 0.15682142972946167 0.1744258552789688 0.1865922510623932 -0.3779647648334503 -0.10880604386329651 -0.2178073674440384 0.25293004512786865 -0.03873079642653465 0.1831410825252533 -0.05512125417590141 0.024540835991501808 -0.21390223503112793 0.045147854834795 0.22110266983509064 0.16182154417037964 0.14292718470096588 0.00961092859506607 0.007103863637894392 0.1614835113286972 0.04172339662909508 -0.08472172915935516 0.38060086965560913 -0.0358300656080246 -0.010651865974068642 -0.07808683067560196 -0.03946616128087044 -0.062337376177310944 0.04554791375994682 -0.23294585943222046 -0.23484748601913452 0.04395128786563873 -0.25168800354003906 0.09866324812173843 0.06336653232574463 -0.22781197726726532 -0.0420440249145031 0.07329166680574417 0.05788540840148926 -0.25145864486694336 0.08530701696872711 0.2180941253900528 0.05584001913666725 0.14314165711402893 0.07471407949924469 -0.3678653836250305 -0.053826671093702316 -0.03362899646162987 0.23779873549938202 0.4180969297885895 0.2539658844470978 -0.021420439705252647 -0.1593036949634552 -0.07873038947582245 0.025888552889227867 -0.13837093114852905 0.06426221132278442 -0.25967079401016235 0.13678525388240814 0.2842774987220764 0.10526774823665619 -0.024020371958613396 0.21210625767707825 -0.0715930312871933 0.24669264256954193
found -0.0949518084526062 -0.28434011340141296 0.08709630370140076 -0.09706475585699081 0.010173262096941471 0.13318166136741638 -0.15274153649806976 -0.037027787417173386 -0.01578783243894577 0.10708889365196228 0.09186774492263794 -0.14669141173362732 0.07855800539255142 -0.3545711934566498 -0.23314626514911652 0.12375689297914505 -0.08595853298902512 -0.10909484326839447 0.04986667260527611 0.2248905599117279 0.20464059710502625 0.06626569479703903 0.17129892110824585 -0.0068792300298810005 -0.03369906172156334 0.001209939131513238 -0.3118365705013275 -0.0705655962228775 0.08638716489076614 -0.3670923709869385 0.21916496753692627 -0.10973863303661346 0.08929189294576645 -0.12075595557689667 -0.13983412086963654 0.04048517718911171 0.05368157476186752 0.11574804782867432 0.13605479896068573 0.06778886914253235 0.17511138319969177 0.04181487485766411 -0.10809415578842163 0.0862397775053978 0.2138815075159073 -0.3028666377067566 0.15934035181999207 -0.32358452677726746 0.009726369753479958 -0.20668922364711761 0.06582692265510559 0.20779751241207123 -0.035068079829216 -0.12651431560516357 0.12177086621522903 0.02941615879535675 -0.048480719327926636 -0.13501735031604767 0.25930845737457275 -0.05753389745950699 -0.0635039284825325 -0.16314147412776947 -0.14218495786190033 0.1710086613893509 -0.3026042580604553 -0.15108555555343628 0.042693980038166046 0.2545841634273529 -0.13108979165554047 0.2676865756511688 0.17584210634231567 0.004657168872654438 -0.1902838796377182 0.09603414684534073 -0.19835165143013 -0.10700622946023941 0.28142428398132324 0.024059999734163284 0.14036105573177338 0.2920668423175812 -0.0050996751524508 -0.018417567014694214 0.20853057503700256 -0.11691368371248245 -0.11625516414642334 0.3091507852077484 0.15339286625385284 -0.195094496011734 -0.1111961081624031 0.2912482023239136 0.2050105482339859 0.0031495769508183002 0.146860733628273 0.16723918914794922 -0.22039030492305756 0.3451809585094452 0.21650055050849915 0.006347232032567263 0.21176379919052124 0.17514954507350922
same -0.17112329602241516 -0.36321648955345154 0.36076784133911133 0.3449040651321411 0.4076297879219055 -0.41432344913482666 -0.4781767725944519 -0.2656637132167816 0.3934193253517151 0.45745420455932617 -0.21368399262428284 -0.04432997852563858 -0.25251951813697815 -0.43978366255760193 -0.15960001945495605 0.09043547511100769 -0.40579670667648315 -0.21066120266914368 0.1675407886505127 -0.07523879408836365 -0.12538260221481323 -0.05720981955528259 -0.2586446702480316 -0.16826584935188293 0.16692401468753815 -0.2576937675476074 0.04107261076569557 0.33106860518455505 0.2797229290008545 0.3226064443588257 -0.05235351622104645 -0.2911674976348877 0.41098713874816895 -0.10197596251964569 0.0828428864479065 -0.3096540868282318 0.2767997086048126 -0.0016955235041677952 -0.08185554295778275 -0.1811266541481018 0.2731212079524994 -0.33171316981315613 0.24744397401809692 -0.10831618309020996 -0.12774059176445007 -0.21324943006038666 -0.008294650353491306 -0.05807352066040039 0.163014218211174 -0.2238600105047226 0.09317613393068314 -0.0809025838971138 -0.268425315618515 0.21627049148082733 -0.34511706233024597 0.3379254937171936 0.028322771191596985 -0.35590144991874695 0.0853055790066719 -0.10438387095928192 -0.26462888717651367 0.17942875623703003 0.1669243425130844 0.04851981997489929 -0.42140910029411316 -0.4331110417842865 -0.3878336250782013 -0.005658045411109924 0.07522109150886536 0.049287278205156326 0.045586369931697845 0.05732597038149834 -0.1899232119321823 0.14351844787597656 0.0659598633646965 0.7017636299133301 -0.12126843631267548 0.04604776203632355 -0.27072787284851074 0.2558656334877014 -0.20373420417308807 0.03907845541834831 0.004782375413924456 0.10173586010932922 -0.4752112030982971 0.21818359196186066 -0.003920144401490688 0.2658678889274597 0.12080014497041702 -0.034846920520067215 -0.20344918966293335 0.10509678721427917 -0.10555380582809448 -0.15947681665420532 0.21633675694465637 0.2981966435909271 -0.025156382471323013 0.1392100602388382 0.3107694387435913 0.1298208236694336
are -0.0310580562800169 0.05294831842184067 -0.02785365656018257 -0.08533450961112976 0.08924586325883865 0.15140321850776672 -0.31872624158859253 -0.19918705523014069 0.20776620507240295 -0.25471019744873047 -0.1995154470205307 -0.21916329860687256 0.30453696846961975 0.007625379133969545 -0.09140244126319885 0.10133197158575058 0.0979795828461647 -0.11319288611412048 -0.09331735968589783 0.06622796505689621 -0.11709524691104889 -0.5463864207267761 0.4305092394351959 0.18945907056331635 -0.042135871946811676 -0.031254786998033524 -0.005597943440079689 0.033144157379865646 0.05372118204832077 0.19359932839870453 -0.08358898758888245 -0.06005682796239853 0.18935999274253845 -0.10365106165409088 0.05983205884695053 0.1876736432313919 0.21902188658714294 0.297430157661438 -0.22077302634716034 -0.2421085238456726 -0.19890914857387543 -0.12189136445522308 0.10956497490406036 -0.13091939687728882 0.30993521213531494 -0.33059439063072205 0.5542405843734741 -0.21144668757915497 -0.5030531883239746 -0.09687603265047073 -0.07099846005439758 -0.34466037154197693 0.008876847103238106 0.12716339528560638 -0.28863638639450073 -0.17820775508880615 0.1709699183702469 0.13271847367286682 -0.3246942162513733 0.39365872740745544 -0.0028607924468815327 0.059578560292720795 -0.05295233055949211 -0.30061548948287964 0.32026177644729614 0.05387808382511139 0.30087992548942566 0.03285551443696022 -0.08081403374671936 -0.36461299657821655 -0.2615737020969391 0.4506853222846985 -0.5138800144195557 -0.2536601126194 -0.03646782413125038 -0.13561134040355682 -0.07321711629629135 0.025566820055246353 -0.011916039511561394 0.2564561665058136 -0.32564064860343933 -0.11510085314512253 -0.026710214093327522 -0.3490462303161621 0.12306244671344757 0.08370707929134369 -0.2048303186893463 -0.12963566184043884 -0.3795108497142792 3.700130619108677E-4 -0.18430444598197937 0.01941687799990177 -0.8045838475227356 -0.055971041321754456 0.2527318298816681 -0.4564586877822876 0.2179173231124878 -0.39310458302497864 -0.2842962145805359 0.2313532829284668
does 0.38992395997047424 -0.16010157763957977 0.07784716784954071 0.3182826042175293 0.3252324163913727 0.4480333626270294 -0.10272132605314255 -0.0015347893349826336 0.2231866717338562 0.2023480087518692 -0.17850644886493683 -0.006607286166399717 -0.23152273893356323 0.4821908175945282 0.15725547075271606 -0.3191359341144562 -0.06430340558290482 -0.08486668020486832 0.11422210931777954 -0.13904616236686707 0.20358020067214966 -0.014853152446448803 0.24445629119873047 0.6380434632301331 0.04438670724630356 0.21126234531402588 -0.042389336973428726 0.10268900543451309 -0.5370460748672485 -0.048717331141233444 -0.1660071164369583 -0.4103003442287445 -0.2256040722131729 -0.3418152332305908 -0.33687829971313477 -0.1807018220424652 0.13685981929302216 -0.21452976763248444 -0.07473108172416687 -0.019221294671297073 -0.11940134316682816 -0.5323486924171448 0.13148826360702515 0.1632348746061325 -0.08902053534984589 -0.10058847814798355 0.12691697478294373 -0.1594383865594864 0.17915084958076477 -0.14651338756084442 0.2043796330690384 0.23977798223495483 0.13338668644428253 -0.08304670453071594 0.22560030221939087 0.09604448825120926 -0.3620094954967499 -0.19203932583332062 0.038765113800764084 -0.1332339346408844 0.5520655512809753 -0.22530628740787506 -0.25420600175857544 -0.1790282428264618 -0.32677891850471497 0.3062170147895813 -0.06753795593976974 -0.08858262002468109 0.15062612295150757 0.0036400840617716312 -0.10177147388458252 -0.4688872694969177 -6.587174721062183E-4 -0.2010498046875 -0.21931985020637512 0.07509235292673111 -0.27984991669654846 -0.24126030504703522 0.00267639197409153 -0.022042997181415558 0.033033937215805054 0.16618390381336212 -0.3204059600830078 -0.08371483534574509 0.14559181034564972 -0.13340359926223755 -0.08513897657394409 -0.15934020280838013 0.3461587429046631 0.27358749508857727 0.052090778946876526 -0.09696648269891739 0.23681844770908356 -0.16568948328495026 -0.34367305040359497 -0.05817185714840889 0.09670344740152359 -0.4131070077419281 -0.08396416902542114 -0.12112190574407578
by -0.3014448881149292 -0.2491849958896637 0.11745304614305496 0.14293687045574188 0.09200282394886017 -0.05053931102156639 0.002724048215895891 -0.033079568296670914 0.04315450042486191 0.04096347093582153 -0.07342281937599182 0.017678214237093925 -0.16046229004859924 -0.1158166378736496 -0.17036399245262146 6.781099364161491E-4 0.12215879559516907 0.009889957495033741 0.23401425778865814 -0.0463399700820446 0.11416345089673996 0.03493034094572067 -0.37477248907089233 -0.012333865277469158 -0.007751407101750374 -0.07845254987478256 0.09856447577476501 -0.17344611883163452 0.015844736248254776 -0.025214914232492447 0.28728601336479187 -0.23655514419078827 0.005052727181464434 -0.09116626530885696 -0.05854428932070732 0.11634630709886551 0.16952715814113617 -0.10941153764724731 0.18153047561645508 -0.2389725297689438 -0.10549517720937729 0.05071515217423439 0.18618819117546082 -0.037590499967336655 -0.131926491856575 0.11638887226581573 -0.09934549033641815 -0.12281525880098343 -0.059806033968925476 0.1853787750005722 0.026327097788453102 0.18599426746368408 -0.048913415521383286 -0.08817938715219498 0.09532123804092407 -0.09307025372982025 0.19282856583595276 0.17001517117023468 -0.26800844073295593 -0.13525593280792236 0.08094058185815811 -0.050880905240774155 -0.18911880254745483 0.03889600560069084 0.05559120699763298 -0.05825304985046387 0.04813079535961151 -0.046948742121458054 -0.15628288686275482 -0.15594933927059174 0.07668888568878174 -0.06590016186237335 0.07438385486602783 -0.013825266622006893 -0.04065803438425064 0.10919586569070816 0.07316429913043976 -0.11220164597034454 0.1779719591140747 0.08179093897342682 -0.010740857571363449 0.2955399453639984 -0.00994572788476944 -0.28605347871780396 -0.023515550419688225 0.20342987775802612 0.05630851909518242 -0.19736328721046448 -0.017912637442350388 0.05238020047545433 0.037101466208696365 -0.19734764099121094 -0.040176279842853546 -0.17530660331249237 0.31170573830604553 -0.04177991300821304 0.13513489067554474 0.1984921246767044 0.06819574534893036 0.07533763349056244
national 0.011726229451596737 -0.21276205778121948 0.052704934030771255 0.016669610515236855 -0.06014184281229973 -0.06523652374744415 -0.007169091608375311 -0.11054975539445877 0.10132887959480286 0.0174834206700325 -0.018896661698818207 0.0330166332423687 0.1660558432340622 -0.12718415260314941 0.001534357899799943 0.09672199934720993 0.022871660068631172 0.106144480407238 -0.05418269336223602 -0.05291616544127464 0.10758906602859497 -0.10518382489681244 -0.10546977072954178 0.07601994276046753 -0.02607448399066925 -0.15149685740470886 0.09953514486551285 0.14535006880760193 0.1065506637096405 0.1514119654893875 0.025519749149680138 -0.09652164578437805 0.10807134211063385 -0.04729817807674408 -0.07208763808012009 -0.10681271553039551 0.0334421843290329 -0.031148351728916168 -0.02262250892817974 0.007804143242537975 0.012340936809778214 0.01885758899152279 -0.09522587805986404 -0.02992246299982071 -0.05548734962940216 -0.07161696255207062 -0.018725469708442688 -0.10022594034671783 0.02544005960226059 -0.04585113376379013 -0.029720492660999298 0.0018568228697404265 -0.13688576221466064 0.10868647694587708 -0.03681538626551628 0.10122542083263397 0.09859587252140045 -0.1111735999584198 -0.014111865311861038 -0.05370044708251953 -0.048102930188179016 0.10846514254808426 -0.08584806323051453 -0.10987690836191177 0.03440190106630325 -0.027629205957055092 -0.031933605670928955 -0.024961180984973907 0.012083671055734158 0.030618222430348396 -0.02173873595893383 0.023358579725027084 -0.03490888699889183 -0.032269928604364395 0.049515850841999054 0.10559756308794022 -0.06394728273153305 0.020793914794921875 -0.20400986075401306 -0.097404345870018 0.019412517547607422 0.06157441437244415 0.02176884561777115 -0.03637588769197464 -0.1976565569639206 0.021199144423007965 0.04101280868053436 0.014879562892019749 -0.03517055884003639 0.02186158299446106 0.004633045755326748 -0.040861740708351135 -0.09905526787042618 -0.1325288861989975 -0.03228671848773956 0.10416845232248306 -0.062153663486242294 0.06691485643386841 0.10921531915664673 -0.05526148900389671
where -0.27250945568084717 -0.3943467140197754 -0.007845389656722546 -0.08168099820613861 -0.24096672236919403 -0.3996383845806122 0.004794416017830372 0.14806702733039856 -0.45754098892211914 -0.0660434365272522 -0.02802165597677231 -0.09487485140562057 -0.33772149682044983 0.3724120855331421 -0.0760020762681961 0.29123714566230774 0.16465650498867035 -0.14834432303905487 -0.3458760976791382 -0.19094425439834595 -0.0035741571336984634 0.10014472901821136 -0.16244257986545563 -0.09143058210611343 0.0065507227554917336 -0.11800878494977951 -0.14043274521827698 0.11983324587345123 0.05867611616849899 0.3121712803840637 0.14346174895763397 -0.2399492859840393 0.07201957702636719 -0.16430538892745972 -0.05715813860297203 -0.18270768225193024 -0.18110643327236176 0.012909149751067162 -0.005843432620167732 -0.2335064709186554 -0.25038084387779236 0.18034426867961884 -0.048117153346538544 -0.2515105605125427 0.15740470588207245 -0.3231293857097626 -0.04955708235502243 -0.06051293760538101 0.09409666806459427 -0.25084543228149414 0.13332316279411316 -0.16407504677772522 -0.26195621490478516 0.43052971363067627 -0.11582625657320023 0.16550888121128082 -0.04209714010357857 0.05989033728837967 -0.06575427204370499 0.049618929624557495 -0.4217555522918701 0.17777812480926514 0.3358631134033203 -0.43017029762268066 0.1621302217245102 -0.30777671933174133 0.326693058013916 -0.34662267565727234 0.33087456226348877 -0.20551197230815887 0.13723772764205933 -0.23951034247875214 0.02932770736515522 0.12505456805229187 -0.22031055390834808 0.18811890482902527 -0.04838947951793671 -0.20092003047466278 0.20022518932819366 0.1519327461719513 -0.0871211364865303 0.11590337753295898 -0.31202465295791626 0.34554922580718994 -0.09287410229444504 -0.07752092182636261 0.17487645149230957 0.14893311262130737 0.2684401571750641 0.17599891126155853 -0.3553183376789093 -0.0773918628692627 0.0899963527917862 -0.07944239675998688 0.32371026277542114 -0.21674072742462158 -0.015034643933176994 0.09443549811840057 -0.42085111141204834 -0.2147911787033081
after -0.257887065410614 -0.2983904182910919 0.12379083037376404 0.029141485691070557 -0.08282294869422913 -0.1074225902557373 0.13213910162448883 0.005323932506144047 -0.2939552962779999 0.3005163073539734 -0.10868080705404282 0.11235965043306351 -0.015188896097242832 -0.02482185699045658 -0.4646971821784973 0.26929402351379395 0.0587993860244751 0.07151490449905396 -0.03440478444099426 0.0895092561841011 -0.10482057183980942 -0.11281151324510574 -0.17530259490013123 0.2165994644165039 0.06878525018692017 -0.19892211258411407 -0.13982848823070526 -0.40237095952033997 -0.08639971911907196 0.3435376286506653 0.2461233139038086 -0.32257944345474243 -0.16213153302669525 0.16656634211540222 -0.06813989579677582 -0.056932657957077026 0.09335027635097504 0.1663440465927124 -0.05654866248369217 -0.24441586434841156 -0.33652347326278687 0.2683184742927551 0.10640639811754227 0.044424738734960556 0.014296910725533962 0.21061387658119202 0.1869211345911026 -0.10752255469560623 -0.040700145065784454 0.2269267439842224 0.06912273913621902 0.14489607512950897 -0.11434301733970642 0.2027774602174759 -0.07199335098266602 -0.0897839218378067 0.029980530962347984 0.39710533618927 -0.17150385677814484 -0.18237382173538208 -0.16640430688858032 -0.26580873131752014 -0.26179325580596924 0.18963152170181274 -0.15119831264019012 -0.02633911743760109 -0.09186634421348572 0.09979449212551117 0.04822300001978874 -0.17910800874233246 -0.06418132036924362 -0.1944325864315033 -0.006556358188390732 -0.0576447919011116 -0.24088558554649353 0.2189895659685135 -0.25481921434402466 -0.22532916069030762 -0.07306627929210663 0.03965660557150841 -0.15585172176361084 0.24431954324245453 0.0177023746073246 -0.1498233675956726 -0.19043882191181183 0.237935870885849 0.1347411721944809 -0.0854935422539711 -0.09958267211914062 0.17926320433616638 -0.27221187949180603 0.12274398654699326 -0.13015905022621155 -0.47598642110824585 0.3432637155056 0.10341700911521912 -0.15621903538703918 0.14707960188388824 -0.050600625574588776 -0.008719859644770622
so 0.07057420909404755 -0.03400977700948715 0.04395158961415291 0.2848508656024933 -0.16939620673656464 0.044598229229450226 0.12386057525873184 0.35005226731300354 -0.27634763717651367 0.09342045336961746 -0.36125749349594116 0.07719483226537704 0.14791341125965118 -0.2076067477464676 -0.018051274120807648 -0.03959115967154503 0.04756984859704971 0.008539481088519096 -0.042128656059503555 -0.04812992736697197 0.028019603341817856 -0.0058367191813886166 0.05145670846104622 0.06078387796878815 -0.02310171350836754 -0.004801918286830187 -0.10491041839122772 0.10542462021112442 -0.10366140305995941 -0.3065471351146698 0.0017105031292885542 -0.06777428835630417 -0.060761332511901855 -0.112127386033535 0.14370933175086975 -0.017931919544935226 0.04996947944164276 0.10464029014110565 -0.16903552412986755 -0.03239501267671585 0.04444632679224014 0.22234538197517395 0.02901426889002323 0.39060020446777344 -0.09389998763799667 -0.011951521039009094 -0.01130262203514576 0.1272924840450287 -0.20422475039958954 -0.13653381168842316 0.21638524532318115 -0.116483673453331 0.16649635136127472 0.13722045719623566 -0.09330905228853226 -0.1768871545791626 0.061530232429504395 -0.1817714273929596 -0.02937675081193447 0.13175664842128754 -0.1576441526412964 -0.22413606941699982 -0.26770949363708496 -0.005577134899795055 0.03144766017794609 -0.28000757098197937 0.06631876528263092 -0.4814961850643158 0.003018971998244524 -0.2247835397720337 -0.1996573805809021 0.09866230189800262 0.3422471880912781 -0.1247299313545227 -0.08432364463806152 -0.1146467998623848 -0.04173228144645691 0.2781606912612915 0.3225715160369873 -0.19627125561237335 -7.382538169622421E-4 0.012378963641822338 0.2106630951166153 0.20432494580745697 0.17297843098640442 0.09730509668588638 -0.037352290004491806 -0.3289529085159302 0.15028052031993866 0.10873866081237793 0.09621956944465637 -0.19689898192882538 -0.0742540955543518 -0.18485401570796967 0.0758771225810051 0.15919244289398193 -0.0292928759008646 -0.08922335505485535 0.05150272324681282 0.12842978537082672
a 0.1552080512046814 0.034509722143411636 0.02954716421663761 -0.07990636676549911 0.016082482412457466 0.03948356583714485 0.25995194911956787 0.1395474523305893 -0.12331601977348328 0.6815295815467834 -0.04129626601934433 0.4373975396156311 -0.006875850725919008 -0.0154726542532444 -0.07599346339702606 0.22524888813495636 0.2671014666557312 0.4876003563404083 0.1279587596654892 0.09423772990703583 -0.06013086065649986 0.2942676246166229 -0.5083346962928772 -0.15700595080852509 0.1914093792438507 -0.08279123157262802 0.18831215798854828 0.07728507369756699 0.2958405911922455 -0.3523499667644501 0.04187430813908577 -0.34956276416778564 0.0010251537896692753 -0.1778741478919983 0.2256375551223755 -0.09697035700082779 0.06977597624063492 -0.2827012240886688 -0.15495415031909943 0.05753941461443901 0.29485657811164856 -0.24121718108654022 0.009441658854484558 -0.03848562389612198 0.1609666347503662 -0.1640806496143341 0.11162813007831573 0.018747130408883095 -0.10747656226158142 -0.27760472893714905 0.05955313891172409 -0.30645865201950073 -0.006677750498056412 -0.04323652759194374 0.328723669052124 -0.05527851730585098 0.27053284645080566 -0.12354995310306549 -0.47410714626312256 0.1389954835176468 -0.18749713897705078 -0.31458768248558044 -0.19210784137248993 -0.01519379299134016 0.06729289889335632 0.13257025182247162 -0.016715679317712784 0.19379344582557678 -0.11676245927810669 -0.4364630877971649 -0.45372989773750305 0.1684003621339798 -0.3035067021846771 0.10803262144327164 0.17365677654743195 0.23801065981388092 0.08349961042404175 0.059125423431396484 -0.30767685174942017 0.033472441136837006 -0.4424314498901367 0.12715694308280945 0.1665584295988083 -0.13154809176921844 -0.11647044122219086 0.11993017047643661 0.11006636172533035 -0.3663744628429413 0.33939990401268005 -0.2056300789117813 0.044592779129743576 0.08045419305562973 -0.10438909381628036 -0.2143392711877823 0.07139446586370468 0.0630016103386879 -0.30062687397003174 0.28177911043167114 -0.05216054990887642 0.06786586344242096
think 0.23742812871932983 0.0025624469853937626 0.05916444584727287 -0.06186643987894058 0.019548388198018074 0.11078225821256638 -0.020623506978154182 0.14055998623371124 -0.1951582133769989 0.17283980548381805 0.21668113768100739 -0.11126401275396347 -0.13068000972270966 -0.0032090339809656143 0.1367562711238861 -0.25565075874328613 0.06836122274398804 0.09310613572597504 -0.14111822843551636 0.06518355011940002 0.17726634442806244 0.04561622813344002 0.3542802929878235 0.02312278375029564 0.24278022348880768 -0.25481846928596497 -0.32389190793037415 0.23287974298000336 0.047075118869543076 -0.0929947942495346 0.2659796476364136 0.4247206449508667 0.1452786922454834 -0.0172976553440094 0.182450532913208 0.07684605568647385 0.018159041181206703 -9.579164907336235E-5 -0.17392973601818085 0.07952498644590378 0.0048761372454464436 -0.10600955784320831 0.09769655019044876 0.16386587917804718 0.050948090851306915 -0.020377997308969498 -0.09495986998081207 -0.08864615857601166 0.08780789375305176 0.3170451521873474 0.29019394516944885 0.1667463332414627 -0.2017807513475418 -0.008921624161303043 -0.21977101266384125 -0.052052028477191925 -0.1947709619998932 0.08205074071884155 -0.06484945118427277 0.2164326310157776 0.12411819398403168 0.1623937338590622 0.15350739657878876 0.23938721418380737 -5.871711764484644E-4 -0.12223607301712036 -0.12026281654834747 -0.1521252542734146 0.1786399930715561 0.12755714356899261 -0.06485239416360855 0.32418838143348694 0.23922130465507507 0.018562855198979378 -0.09209812432527542 0.3327344059944153 0.16410519182682037 -0.07647224515676498 0.0031154637690633535 0.5611830949783325 -0.2830847203731537 -0.3970223665237427 -0.09475497156381607 0.14410415291786194 0.027507295832037926 0.1966547966003418 -0.18509218096733093 0.15269508957862854 0.12590759992599487 -0.02239006757736206 0.046018388122320175 -0.056175775825977325 0.13594157993793488 -0.15536761283874512 0.06720615923404694 0.034516893327236176 -0.1314851939678192 0.29885393381118774 0.1829095482826233 0.4805251657962799
set 0.1526852697134018 -0.12980909645557404 0.04407187178730965 -0.1469079554080963 -0.09062015265226364 0.07792894542217255 -0.011276086792349815 -0.054001227021217346 -0.0737263411283493 -0.1624801754951477 0.22711209952831268 -0.1727350503206253 0.014440068043768406 -0.14448094367980957 -0.24147774279117584 -0.09965846687555313 -0.1889801025390625 0.2599508762359619 0.19463180005550385 0.01155825424939394 0.048003051429986954 -0.0030044580344110727 -0.19373273849487305 0.29713404178619385 -0.16877683997154236 -0.2491702139377594 -0.04331394284963608 -0.026345960795879364 -0.01725163869559765 0.14177203178405762 0.24759924411773682 -0.08952988684177399 -0.010729608125984669 -0.0601382814347744 -0.21297593414783478 -0.13243843615055084 0.06887540966272354 -0.10647688060998917 0.19083207845687866 -0.29375022649765015 -0.29684603214263916 0.031455494463443756 -0.03329908847808838 0.11696179956197739 -0.027198342606425285 -0.11666781455278397 0.18849973380565643 -0.27421441674232483 0.049886662513017654 -0.24274936318397522 0.01296632643789053 0.1668175756931305 -0.16129687428474426 0.05015122890472412 -0.10002696514129639 -0.06061209738254547 0.0533672496676445 0.06482915580272675 0.07981245219707489 0.0341888889670372 0.05629342049360275 0.06404189765453339 -0.013643428683280945 0.09446515887975693 -0.10839451104402542 -0.10864448547363281 -0.10323019325733185 0.30000054836273193 -0.13281792402267456 0.14223843812942505 0.0037140678614377975 -0.11327563971281052 -0.16853640973567963 0.12299951910972595 -0.12048164010047913 0.0016113065648823977 0.2392767071723938 0.10781708359718323 0.12033256888389587 -0.12738589942455292 -0.08121365308761597 0.02323879674077034 0.10465957224369049 -0.11146088689565659 -0.03472183644771576 0.16372719407081604 0.053061068058013916 -0.05195387825369835 -0.08085542917251587 0.09064537286758423 -0.14423868060112 -9.229212300851941E-4 -0.0022535964380949736 -0.024880077689886093 -0.17282208800315857 0.10765208303928375 0.11641471832990646 0.09825931489467621 -0.07592517137527466 0.1503930687904358
