been 0.1645606905221939 -0.17256712913513184 -0.10695165395736694 -0.00818373542279005 -0.02197728492319584 0.10029388219118118 -0.34060823917388916 0.3395073711872101 -0.3390780985355377 0.005688705947250128 -0.30192047357559204 0.10031408816576004 -0.5230382680892944 -0.12561161816120148 -2.600398729555309E-4 -0.292121946811676 0.25209248065948486 -0.5097577571868896 -0.42093294858932495 0.26249706745147705 -0.2629729211330414 -0.10215343534946442 -0.05776355788111687 0.09613829106092453 -0.08910419046878815 -0.13323810696601868 -0.502678394317627 -0.6500325202941895 0.30254238843917847 0.26703929901123047 0.312228798866272 -0.11962947249412537 0.21673043072223663 0.29774922132492065 0.19123494625091553 0.019135896116495132 0.13948388397693634 -8.687158697284758E-4 -0.11869426816701889 0.15815536677837372 0.04118390008807182 0.6077820658683777 -0.2877628207206726 -0.5211209654808044 -0.2062591165304184 0.12661810219287872 -0.6853810548782349 0.5611494183540344 -0.031517185270786285 0.01855016127228737 0.26516789197921753 -0.05555693060159683 0.06716178357601166 0.47229576110839844 0.3793293833732605 0.15884031355381012 -0.5370842218399048 0.2587910294532776 0.24079756438732147 -0.1802673488855362 0.007521375082433224 -0.2015494555234909 -0.1011907085776329 -0.33350032567977905 0.47808143496513367 -0.026531657204031944 0.16910576820373535 0.29250040650367737 -0.09451949596405029 0.20305685698986053 -0.32926779985427856 0.26577475666999817 0.022709857672452927 -0.021494217216968536 0.5377200841903687 -0.0017000045627355576 -0.05837773531675339 0.003521412843838334 -0.2281428724527359 0.23026487231254578 0.09167174994945526 0.4640919268131256 0.11411035805940628 -0.16494624316692352 0.23777209222316742 0.25608548521995544 0.01997590810060501 -0.034262869507074356 0.20404401421546936 0.10927767306566238 0.07528983801603317 0.20223316550254822 0.11360989511013031 -0.002869372023269534 -0.29223474860191345 -0.5296535491943359 -0.6129927039146423 -0.41702374815940857 -0.11348752677440643 0.07754397392272949
year -0.26280805468559265 0.05492871254682541 -0.2844182252883911 0.08525602519512177 0.03582406044006348 0.11083775013685226 0.1234910637140274 -0.20853838324546814 -0.17907923460006714 -0.16105638444423676 0.2693804204463959 0.047687772661447525 0.06502214074134827 -0.34301355481147766 -0.18056416511535645 0.004308073781430721 0.42850130796432495 0.004949693568050861 0.11935266107320786 -0.12016947567462921 -0.03174753114581108 -0.08773066103458405 0.11140578240156174 -0.1034684032201767 0.024012070149183273 0.02286406420171261 0.0013125997502356768 0.3795357942581177 0.14475975930690765 -0.012829219922423363 -0.3824106454849243 -0.12210710346698761 -0.556462287902832 0.1356031745672226 0.16558367013931274 0.2094895839691162 0.1142280101776123 -0.2598116993904114 -0.12357708811759949 0.07459601759910583 0.11619748175144196 0.38275250792503357 0.2525339722633362 -0.3841659128665924 0.1133064329624176 0.0930500254034996 -0.024988437071442604 0.02269156090915203 -0.18624699115753174 0.23737424612045288 -0.10991566628217697 0.22407622635364532 0.060472115874290466 0.3923916518688202 -0.21197377145290375 0.041402775794267654 0.04198956489562988 0.028971072286367416 0.11707412451505661 -0.13735391199588776 0.10151152312755585 0.022291844710707664 0.012402327731251717 -0.26705697178840637 0.10273312032222748 0.16876019537448883 0.13990503549575806 0.3751216232776642 -0.08769764751195908 0.11267084628343582 0.027250900864601135 -0.19571849703788757 -0.10798053443431854 -0.0397588349878788 0.3059101104736328 0.015155465342104435 -0.42646774649620056 -0.2312965989112854 -0.2853895425796509 0.018453912809491158 0.2284616082906723 0.03016240894794464 0.030219072476029396 -0.4383295774459839 0.08304525166749954 -0.10867412388324738 -0.1464550793170929 -0.143188014626503 0.5689954161643982 0.15361633896827698 -0.46334704756736755 -0.06467699259519577 0.3338378369808197 -0.18760709464550018 0.4097892642021179 -0.08296869695186615 0.0757896676659584 -0.023348627611994743 0.10481921583414078 0.5013052821159363
about 0.12706774473190308 0.2724701762199402 0.1046682670712471 0.4389830231666565 -0.15301984548568726 0.04446705803275108 -0.29338645935058594 -0.4349825978279114 -0.1073683351278305 0.23202316462993622 0.3743751347064972 0.0622025802731514 -0.24763700366020203 0.3127191662788391 -0.0014506429433822632 0.438904732465744 -0.05423848703503609 0.26080644130706787 -0.1986720860004425 -0.2569141685962677 -0.02253745123744011 -0.06134064868092537 -0.0555279478430748 -0.014840839430689812 -0.06523813307285309 0.2911015748977661 -0.04861200973391533 -0.02834508940577507 0.21771864593029022 -0.22611191868782043 0.002211066195741296 -0.13908542692661285 -0.16016365587711334 0.09344690293073654 -0.1373072862625122 0.18476706743240356 -0.0239704716950655 -0.13752137124538422 -0.048887379467487335 0.14955197274684906 -0.01251770555973053 0.21136586368083954 -0.12392988801002502 0.26377955079078674 0.08407872915267944 0.03723318874835968 -0.5878599882125854 0.039892956614494324 0.3322538137435913 0.1755329668521881 -0.23636901378631592 -0.31942808628082275 0.268684059381485 0.10234881192445755 0.013223112560808659 -0.2658240497112274 0.1285037100315094 0.12697619199752808 0.08834849298000336 0.02443639375269413 6.376919336616993E-4 0.15893791615962982 -0.1282709836959839 0.04956526681780815 -0.09135647118091583 0.17258843779563904 -0.10737662762403488 -0.2921943664550781 0.10748506337404251 0.23316983878612518 -0.061282891780138016 0.044735655188560486 -0.12513747811317444 0.030167128890752792 -0.16946345567703247 -0.02499360591173172 -0.009667037054896355 -0.19367444515228271 -0.26405543088912964 -0.160065159201622 -0.027685921639204025 0.4925197660923004 0.3180096447467804 0.1870538741350174 -0.22175216674804688 0.14952774345874786 -0.14272050559520721 0.2857188582420349 -0.0025484191719442606 0.24130618572235107 -0.35739776492118835 -0.10429554432630539 0.45156651735305786 -0.16584612429141998 0.2581469416618347 0.19563110172748566 -0.0081941494718194 -0.06643914431333542 0.08817622810602188 -0.28538259863853455
your -0.016447285190224648 -0.3457677662372589 0.04086087644100189 -0.0862138569355011 0.22392919659614563 0.16809047758579254 -0.19219094514846802 0.05328698456287384 0.0753459632396698 0.4925777018070221 -0.45652061700820923 -0.09044308960437775 -0.07728229463100433 0.21439994871616364 -0.2328624725341797 0.3738567531108856 -0.25524410605430603 0.3210159242153168 0.1276940405368805 -0.13942424952983856 -0.12277248501777649 0.1884588897228241 0.2835283577442169 -0.012263183481991291 0.23006710410118103 -0.2625029981136322 0.020539462566375732 0.26003211736679077 -0.3265630304813385 -0.17658330500125885 -0.11403608322143555 0.10994963347911835 0.1479978710412979 0.4912969470024109 -0.30144011974334717 -0.531436026096344 -0.014575887471437454 -0.049685075879096985 -0.02827800065279007 -0.1944744884967804 -0.17620374262332916 0.0931168645620346 0.16244085133075714 0.16363735496997833 -0.3957192301750183 0.08323965966701508 -0.30569806694984436 -0.25263145565986633 0.22593115270137787 0.2550979256629944 -0.11211755126714706 -0.08415346592664719 0.35827043652534485 0.10983757674694061 -0.1221151053905487 0.2709451913833618 0.14238481223583221 0.3283211886882782 0.1468438357114792 -0.32640358805656433 -0.05942556634545326 -0.28771865367889404 -0.06231580674648285 -0.021294983103871346 -0.011613801121711731 0.17370451986789703 -0.0891013965010643 0.13996125757694244 0.030578264966607094 0.30951932072639465 -0.07272947579622269 -0.1775520145893097 0.2846444249153137 -0.2310660481452942 -0.056238215416669846 0.368888258934021 -0.06564617902040482 0.2824646532535553 -0.009777843952178955 -0.1960076093673706 -0.027475375682115555 0.18810053169727325 0.017885655164718628 0.08434218913316727 0.16234190762043 0.030294079333543777 -0.10708171129226685 0.07373253256082535 -0.22517529129981995 -0.25544479489326477 -0.1612076312303543 0.13369937241077423 -0.17630703747272491 -0.28227174282073975 0.3146247863769531 0.19822098314762115 0.14989601075649261 0.06555627286434174 0.2400546669960022 -0.06160777062177658
without 0.21749234199523926 0.029220519587397575 -0.018120208755135536 0.12337486445903778 -0.06783438473939896 -0.43215760588645935 -0.17646755278110504 -0.15018858015537262 -0.1715519279241562 0.08816594630479813 -0.16473177075386047 0.061719078570604324 0.12916460633277893 -0.1166744977235794 -0.14220906794071198 -0.12431909888982773 0.16654764115810394 -0.04873679578304291 -0.014902787283062935 0.03753920644521713 -0.3477989733219147 -0.2464812994003296 0.20550470054149628 0.05372435599565506 -0.16304364800453186 0.28539738059043884 -0.031192492693662643 -0.22850312292575836 -0.14176364243030548 0.050227921456098557 -0.16021443903446198 -0.019663454964756966 -0.13991545140743256 0.13657143712043762 0.0899541899561882 0.18426613509655 -0.21511051058769226 -0.003072767285630107 -0.18730176985263824 -0.0046679372899234295 0.18208958208560944 -0.2419203817844391 -0.02013380639255047 -0.11173763871192932 -0.2666310966014862 2.9826341778971255E-4 -0.1548534631729126 0.12912309169769287 0.039900537580251694 0.3636264204978943 0.0047953808680176735 -0.06198420375585556 -0.06105780228972435 0.079193614423275 0.11645882576704025 0.07876712083816528 0.5194595456123352 0.07218658179044724 0.489185094833374 -0.1806531846523285 -0.40982338786125183 -0.25972315669059753 0.11678427457809448 0.16478100419044495 -0.21845722198486328 0.29883670806884766 0.2488882690668106 0.08298396319150925 0.05994272977113724 0.07583897560834885 0.06203503534197807 0.07196944952011108 0.1911754012107849 0.09899212419986725 0.10906048864126205 -0.11094018816947937 -0.07150577753782272 -0.00410619517788291 -0.1534312516450882 0.0650835633277893 -0.07471895962953568 0.015052367933094501 0.16362211108207703 0.044988103210926056 -0.2303496152162552 0.042934294790029526 0.1679745316505432 -0.323589563369751 0.1356768012046814 -0.08084971457719803 -0.11855195462703705 0.09786520153284073 0.050919000059366226 -0.255461722612381 0.11356837302446365 -0.03674658387899399 -0.11334031820297241 0.2531989812850952 0.003701198846101761 0.019989512860774994
these 0.33372947573661804 0.4337003827095032 0.12917330861091614 0.27092164754867554 0.33599233627319336 0.06260402500629425 -0.26832810044288635 0.3560337722301483 0.2862955927848816 0.014623962342739105 0.2741810083389282 -0.22363656759262085 -0.248921200633049 -0.03925316408276558 -0.22120411694049835 0.04597660154104233 0.08502824604511261 -0.12124297767877579 0.31268489360809326 0.17299672961235046 -0.39016884565353394 -0.17395207285881042 -0.053748633712530136 -0.01823781616985798 0.20217129588127136 -0.12453769147396088 0.11844343692064285 0.5820777416229248 -0.05093905329704285 -0.31201401352882385 0.09330899268388748 -0.24034430086612701 0.025620751082897186 -0.2820141911506653 0.2571728527545929 0.3886762857437134 -0.23429715633392334 0.13369330763816833 0.07521864771842957 0.015670502558350563 0.17902882397174835 -0.04524444788694382 -0.0330931656062603 0.03753574565052986 0.2088097631931305 0.09805413335561752 -0.2878583073616028 0.021842123940587044 0.09852556884288788 0.1327066719532013 -0.006278410088270903 0.007794851437211037 0.23441722989082336 -0.22215025126934052 0.2181246131658554 0.15236447751522064 0.09997638314962387 0.10743425041437149 -0.13497278094291687 -0.185649111866951 0.11813834309577942 -0.06438703089952469 -0.028882039710879326 0.1303820013999939 -0.16387677192687988 -0.3241294026374817 0.27658623456954956 0.007504034321755171 -0.13235525786876678 0.29116305708885193 0.090846948325634 -0.04711151868104935 0.10181356966495514 -0.28876805305480957 -0.1924644559621811 -0.06207950785756111 0.007994911633431911 0.5334663391113281 -0.05145692825317383 -0.04933031648397446 0.03159583732485771 -0.1952412724494934 -0.12449528276920319 0.028834419324994087 0.26063427329063416 0.037215642631053925 0.3598288893699646 -0.19985899329185486 -0.2778058648109436 -0.27547529339790344 0.19435933232307434 0.5735530257225037 0.03751160204410553 0.013918235898017883 0.11787950992584229 -0.09284505993127823 0.017428835853934288 -0.12975355982780457 0.16169434785842896 0.14583821594715118
companies 0.040824536234140396 0.19856826961040497 -0.13185222446918488 0.06145545840263367 0.056461259722709656 -0.07218651473522186 -0.02446233294904232 0.23830437660217285 0.07380323857069016 -0.15903067588806152 -0.020373983308672905 -0.04922737553715706 -0.24131670594215393 -0.031016768887639046 0.003357676789164543 -0.10714435577392578 -0.06369117647409439 -0.047407981008291245 -0.049142349511384964 -0.05999118834733963 -0.10460317134857178 0.02759356051683426 -0.09472962468862534 -0.003527489025145769 0.09276313334703445 -0.24081777036190033 -0.01396036148071289 0.12787799537181854 -0.13065417110919952 -0.0298522487282753 -0.11033810675144196 -0.1593112051486969 0.010298725217580795 0.04617897421121597 0.1592341512441635 0.21293064951896667 -0.09916043281555176 -0.1342608630657196 0.01158375758677721 0.041504502296447754 0.362509548664093 0.047507334500551224 -0.0726163387298584 -0.06504562497138977 0.19187664985656738 -0.03115004673600197 -0.026414407417178154 -0.13639213144779205 -0.1759020984172821 0.13309246301651 -0.1388540118932724 -0.010120611637830734 0.16834017634391785 -0.01729191467165947 0.010955478996038437 0.08565865457057953 0.05482979491353035 -0.019880661740899086 -0.20636802911758423 0.011298639699816704 0.21730950474739075 0.046188127249479294 0.004419275093823671 -0.09401824325323105 -0.10841066390275955 -0.12821689248085022 0.17954282462596893 0.03804833069443703 0.13443443179130554 0.04370317980647087 -0.08400367200374603 -0.04612288251519203 0.050766631960868835 -0.1282111257314682 -0.051658157259225845 0.010192743502557278 -0.007386116776615381 0.16382113099098206 0.01069556176662445 -0.031338874250650406 -0.23159055411815643 -0.18878234922885895 0.10539925843477249 -0.17461542785167694 0.09321054071187973 -0.08946684002876282 0.22002816200256348 -0.18884244561195374 0.03778407722711563 -0.27432361245155334 0.009631369262933731 0.20386765897274017 -0.11347541958093643 0.0631166622042656 -0.09547987580299377 -0.1458044946193695 -0.13627849519252777 0.0656893253326416 -0.05156996101140976 -0.009821288287639618
music -0.2848656177520752 -0.03598995506763458 -0.18254230916500092 0.04168752208352089 -0.11253882944583893 -0.009661214426159859 0.03583958372473717 -0.03391477093100548 0.22860687971115112 -0.18527716398239136 0.10169988125562668 -0.06142352521419525 0.0378229022026062 -0.08737325668334961 0.15452350676059723 0.07402762770652771 -0.051833171397447586 -0.08695510774850845 0.15369188785552979 -0.04481906071305275 0.14021781086921692 0.0988784208893776 0.08674352616071701 0.038976963609457016 -0.08076734095811844 -0.10136109590530396 0.23158766329288483 -0.04866815358400345 -0.08093857020139694 -0.09386134892702103 -0.047698523849248886 0.13377000391483307 0.08378271758556366 0.4088289141654968 -0.30185893177986145 0.03940551355481148 -0.055832117795944214 -0.07716809213161469 0.04750481992959976 0.2193516492843628 -0.11115417629480362 -0.14660507440567017 0.0016094245947897434 0.06331566721200943 0.08829426765441895 -0.0922139510512352 -0.06153317913413048 0.013122563250362873 0.17972232401371002 -0.07470070570707321 -0.22583939135074615 0.10254769772291183 0.004382783081382513 0.05212743207812309 -0.04166502505540848 -0.0015631434507668018 -0.06722721457481384 0.11212442070245743 -0.201147198677063 0.09103528410196304 -0.04988052323460579 0.020313303917646408 -0.15322986245155334 -0.17752306163311005 -0.029139120131731033 -0.11621414124965668 -0.08685465902090073 0.11014977097511292 0.03855031728744507 -0.0991721898317337 0.06753005087375641 -0.14991600811481476 -0.06037205085158348 0.19476337730884552 0.04178871586918831 0.06504075974225998 0.36181697249412537 0.0909847542643547 -0.1142873466014862 -0.180960550904274 0.054785825312137604 0.003476678393781185 0.021154427900910378 -0.27186810970306396 0.11478985846042633 -0.19879670441150665 -0.16713254153728485 -0.021468590945005417 0.12342334538698196 0.1576763242483139 0.0492238886654377 -0.10881456732749939 0.25440964102745056 0.030788758769631386 -0.015731584280729294 -0.003178743878379464 -0.2646554112434387 0.03642269968986511 0.006609371397644281 -0.21779443323612213
would -0.033194784075021744 -0.10459902137517929 0.1236802265048027 0.19419166445732117 -0.24183990061283112 -0.0020271155517548323 -0.24293169379234314 0.10105520486831665 -0.2338406890630722 0.011433006264269352 -0.07088147848844528 -0.22131216526031494 0.17211201786994934 -0.16733253002166748 -0.06564690917730331 -0.36401525139808655 4.989590379409492E-4 0.18675929307937622 0.26096078753471375 -0.16106963157653809 0.15427657961845398 0.12048287689685822 0.22448097169399261 0.14917954802513123 0.04767181724309921 0.2958477735519409 0.2639482021331787 -0.06701480597257614 0.2219475358724594 0.2704295814037323 -0.03155688941478729 0.18695662915706635 0.23139023780822754 -0.283694326877594 -0.050046034157276154 -0.10896839946508408 -0.14323171973228455 0.11637522280216217 0.2253926396369934 0.22548452019691467 0.0014520520344376564 -0.20298457145690918 0.030098946765065193 -0.16954821348190308 0.26230061054229736 -0.12948019802570343 -0.12178555876016617 0.18072587251663208 -0.2399234026670456 0.15025904774665833 0.009933331049978733 -0.301222562789917 0.2055065780878067 -0.06835608929395676 0.26934072375297546 0.39388227462768555 0.12492606043815613 0.04405461996793747 -0.006918841507285833 0.27332112193107605 -0.20550960302352905 0.012730535119771957 -0.3984002470970154 0.17730151116847992 0.20900903642177582 -0.03675052896142006 -0.01613020710647106 0.22533154487609863 -0.1007939949631691 0.03016829304397106 0.07603518664836884 0.09464073181152344 0.015456421300768852 -0.10629383474588394 -0.04141289368271828 -0.09030666202306747 -0.2955435812473297 -0.24548164010047913 -0.12228921055793762 -0.1656576246023178 -0.15354135632514954 -0.21437802910804749 0.10728567093610764 -0.28278011083602905 0.001346119912341237 0.5626365542411804 0.3177514672279358 -0.13080960512161255 0.21347260475158691 -0.06702296435832977 0.07372759282588959 -0.10724551230669022 -0.21535752713680267 -0.12761591374874115 -0.1957288384437561 0.2423623502254486 0.007162222173064947 0.07987956702709198 -0.030131587758660316 -0.0656411275267601
because 0.05591396242380142 0.22375746071338654 -0.16730254888534546 -0.087435781955719 -0.12920737266540527 -0.13960017263889313 0.039431605488061905 0.05315691605210304 -0.1509000062942505 0.04184089973568916 -0.08732501417398453 -0.14504483342170715 0.12839441001415253 0.1719261109828949 0.015075325965881348 0.03813368082046509 0.08057037740945816 0.13537293672561646 0.23077809810638428 -0.17205144464969635 -0.008331609889864922 -0.15260639786720276 0.1421521008014679 0.22380563616752625 -0.031343866139650345 0.018223274499177933 -0.03132489323616028 -0.03715318813920021 -0.17209598422050476 0.1267136037349701 0.03268325328826904 -0.12446646392345428 0.045933958142995834 -0.08888571709394455 0.10099298506975174 0.042071640491485596 -0.15026827156543732 0.03243575990200043 -0.028420163318514824 0.32003095746040344 -0.17825016379356384 -0.15092599391937256 -0.09484268724918365 0.025457564741373062 0.15324881672859192 0.031772058457136154 -0.2681318521499634 -0.016144201159477234 0.1663689762353897 0.13917994499206543 -0.1467348337173462 0.1447524130344391 -0.14593032002449036 -0.1320199966430664 0.05372807756066322 -0.12064312398433685 0.14213761687278748 0.05553371459245682 0.11760099977254868 9.818470571190119E-4 -0.177375927567482 -0.03898531198501587 -0.066280297935009 -0.07957810163497925 0.012149177491664886 -0.02019697055220604 -0.029393700882792473 0.10369616746902466 -0.2129877805709839 0.11378731578588486 -0.0593564473092556 0.10112407803535461 -0.08505567908287048 0.16848748922348022 0.18088370561599731 -0.27555418014526367 -0.0663250982761383 0.10726455599069595 -0.040442660450935364 -0.0245294738560915 -0.19187098741531372 0.017561225220561028 -0.14463503658771515 0.0016991214361041784 -0.10397687554359436 -0.07384742051362991 -0.014730850234627724 0.06585089862346649 0.04851226136088371 0.09570542722940445 0.07342567294836044 -0.0963430404663086 0.15012188255786896 0.025116970762610435 0.06576891243457794 -0.0767424926161766 -0.047199949622154236 -0.04062715172767639 -0.215688556432724 -0.14726006984710693
state -0.031634677201509476 0.03359782695770264 0.006518834736198187 0.05114137753844261 0.03258418291807175 -0.07471884042024612 0.2646169066429138 0.06464481353759766 0.1220296174287796 -0.3328625559806824 0.04413716122508049 -0.07576208561658859 -0.050973743200302124 -0.33431512117385864 -0.025162501260638237 0.08425793796777725 0.05509551241993904 -0.03844095766544342 -0.15581485629081726 0.061299245804548264 -0.06563496589660645 -0.16732895374298096 0.05385613441467285 -0.1872110813856125 -0.11276762187480927 0.028668144717812538 0.0022077630273997784 0.08335771411657333 -0.07401838153600693 -0.19949328899383545 -0.4169314503669739 -0.14745453000068665 -0.11603792756795883 0.3053417503833771 -0.21614105999469757 0.28522518277168274 -0.08146652579307556 -0.13836029171943665 -0.13929574191570282 0.18928422033786774 0.11883515119552612 0.04651948809623718 -0.19157925248146057 0.12773336470127106 -0.04681948572397232 -0.2561984658241272 -0.018190771341323853 0.13022352755069733 0.0020104607101529837 0.03009149804711342 -0.11675409227609634 -0.043052177876234055 0.032091401517391205 0.043579064309597015 -0.04262896254658699 0.062365029007196426 0.202651709318161 0.19803404808044434 -0.14669543504714966 -0.16691328585147858 0.05181961506605148 0.014136180281639099 -0.021864959970116615 -0.22371312975883484 0.07624351233243942 -0.10902366042137146 0.06927137821912766 0.18055707216262817 0.187325581908226 0.25750115513801575 -0.10944490134716034 -0.14560186862945557 -0.020351404324173927 0.0902177095413208 -0.006200558040291071 0.05522468686103821 0.1980534940958023 0.16509492695331573 -0.049995891749858856 -0.16164061427116394 -0.17401930689811707 0.058462582528591156 -0.01092771627008915 -0.20983609557151794 0.1475585252046585 -0.263891339302063 -0.011459815315902233 -0.24670791625976562 0.3593246638774872 0.05809885263442993 -0.25887948274612427 0.1620166003704071 -0.07877308875322342 -0.09961268305778503 0.02239271067082882 -0.1509009450674057 -0.12708956003189087 -0.05331007391214371 0.18372592329978943 0.18494971096515656
they 0.23403342068195343 -0.08703818917274475 0.3002093434333801 0.20820428431034088 0.10307611525058746 -0.1605294644832611 -0.027239596471190453 -0.12554095685482025 0.0349346399307251 0.1117878407239914 0.0010479430202394724 -0.09494614601135254 -0.2318851351737976 -0.10872721672058105 -0.025477906689047813 -0.2077912539243698 -0.3354538083076477 -0.005412618163973093 -0.2543182671070099 0.17409320175647736 0.13871563971042633 -0.20457302033901215 -0.18878157436847687 0.06027049943804741 0.24101512134075165 -0.08819178491830826 -0.09011310338973999 0.2804003655910492 0.01632240042090416 -0.10094250738620758 0.03241584077477455 0.06503714621067047 -0.04150843620300293 -0.26237741112709045 0.23857128620147705 -0.10420878231525421 0.06309527903795242 -0.05569273233413696 -0.21470579504966736 -0.0773286521434784 -0.012462574988603592 0.01004602387547493 0.08898097276687622 0.05969611182808876 0.22878943383693695 -0.2497907131910324 -0.17100940644741058 -0.15606704354286194 -0.16101111471652985 -0.20674116909503937 -0.25609636306762695 -0.0437956228852272 0.05734725296497345 -0.1249057799577713 0.021317873150110245 0.19188326597213745 0.139552041888237 -0.09281238913536072 -0.1705685406923294 -0.032422617077827454 -0.24173223972320557 0.07854775339365005 -0.05088995397090912 0.38707706332206726 -0.18917325139045715 -0.003822194878011942 0.12875641882419586 -0.003928320482373238 0.10521730780601501 -0.002639208920300007 -0.054526977241039276 -0.19697418808937073 0.14485357701778412 -0.14243224263191223 -0.21621526777744293 0.22285513579845428 -0.5140370726585388 0.028576042503118515 -0.08022617548704147 0.05033433437347412 -0.20788739621639252 -0.31327003240585327 -0.08102297782897949 -0.19645771384239197 -0.051687899976968765 -0.23021462559700012 0.08566946536302567 -0.10397590696811676 0.07745372503995895 -0.1605101078748703 0.24561156332492828 0.1165957823395729 0.013572425581514835 -0.11971095204353333 0.1539032906293869 0.1358000636100769 -0.07796251028776169 -0.3394656479358673 0.01922713592648506 -0.08290735632181168
you -0.023710444569587708 -0.026376185938715935 0.22213129699230194 0.006923931650817394 0.10392717272043228 0.17305243015289307 -0.003565967781469226 0.20678283274173737 -0.11054709553718567 -0.029911398887634277 0.04498498514294624 0.06409462541341782 -0.126531720161438 -0.028743084520101547 -0.09402205795049667 -0.006909788586199284 -0.4428618848323822 -0.12164922803640366 -0.27967482805252075 -0.09866181015968323 0.25061145424842834 0.09321700781583786 -0.19899792969226837 0.20491378009319305 0.10458698123693466 0.18218259513378143 -0.18381071090698242 0.3003425598144531 -0.057304542511701584 0.25424689054489136 0.09754675626754761 0.14774546027183533 -0.030278630554676056 0.10008305311203003 0.09250612556934357 -0.19777758419513702 -0.2575669288635254 0.17348691821098328 -0.17936137318611145 -0.17509782314300537 0.12778957188129425 0.14908942580223083 0.026862340047955513 0.3010478615760803 0.2715771496295929 -0.2540059983730316 -0.3405105769634247 -0.006731449626386166 0.0508994422852993 -0.3258875608444214 -0.09475104510784149 0.008139917626976967 0.01996823213994503 -0.03513297438621521 -0.04610630124807358 0.16297566890716553 -0.050483569502830505 0.012854509986937046 0.07077161967754364 0.11426500231027603 -0.016058865934610367 -0.2398964911699295 -0.10295096784830093 0.14902187883853912 -0.34449541568756104 0.04874616861343384 -0.2667131721973419 0.06841249018907547 0.24867603182792664 -0.0461956150829792 -0.028055652976036072 0.08533118665218353 0.25988292694091797 0.01922011375427246 -0.013569016009569168 0.052774641662836075 -0.30751076340675354 -0.0026487926952540874 0.3583787977695465 0.16107913851737976 -0.35493260622024536 -0.34671252965927124 -0.020999975502490997 -0.16006210446357727 0.05702982842922211 -0.019354110583662987 0.13523805141448975 -0.12633515894412994 -0.015014398843050003 -0.2797287404537201 -0.2058083564043045 0.047059059143066406 0.25577884912490845 -0.09869205206632614 0.12818366289138794 0.2802886962890625 -0.11891811341047287 -0.02244259975850582 -0.3666492700576782 -0.07010120153427124
$ -3.765895962715149E-4 -0.02194126322865486 -0.022747671231627464 -0.03632699325680733 0.023967159911990166 -0.023418471217155457 0.012981357984244823 0.03265542909502983 0.0198821984231472 -0.016512906178832054 -0.04322965070605278 -0.03429054468870163 0.002932538976892829 -0.007533031515777111 -0.020633190870285034 -0.03145763278007507 -0.008172936737537384 -0.01925119012594223 0.03803519159555435 -0.009362546727061272 -0.014582040719687939 0.02183034084737301 1.4157523401081562E-4 0.014682456851005554 0.03879052773118019 -0.03540205955505371 0.028143472969532013 -0.0028495141305029392 -0.018055742606520653 0.004971496760845184 -0.03679059073328972 -0.010612273588776588 0.011559675447642803 0.02487431839108467 -0.0020756686571985483 -0.010034963488578796 -0.04223160818219185 -0.04701448604464531 0.016155626624822617 -0.015586023218929768 0.05619798228144646 -0.0423438623547554 0.00829253438860178 0.013776930049061775 -0.0017385320970788598 0.03253446891903877 -0.0065734186209738255 -0.0038508432917296886 -0.021747859194874763 0.009345943108201027 -0.027073604986071587 0.024494899436831474 4.328796057961881E-4 0.03576650470495224 0.008554168976843357 -0.005787322763353586 -0.012416203506290913 0.017806312069296837 -0.012616543099284172 -0.032792650163173676 -0.013374825939536095 -0.005385825410485268 0.0026641543954610825 -0.05217472091317177 -0.019629642367362976 -0.008106915280222893 0.019204191863536835 0.046305231750011444 0.024244604632258415 0.031093943864107132 0.030968433246016502 -0.008014495484530926 -0.010379382409155369 0.009886755608022213 0.004922098014503717 0.015877295285463333 -0.0038388599641621113 0.027640260756015778 0.005747097544372082 -0.015413885936141014 -0.021772151812911034 -0.0463007390499115 0.006752021610736847 -0.033373769372701645 0.007227085065096617 0.028387660160660744 0.019924908876419067 -0.04020708426833153 -0.005857100710272789 -0.06410811841487885 -0.01268550381064415 -0.0031858705915510654 0.0016659237444400787 -0.04190459102392197 0.00963160302489996 -0.015418529510498047 -0.0016256824601441622 0.019339965656399727 -0.01714998483657837 -0.01110818237066269
going 0.014343221671879292 0.1541629284620285 0.618898868560791 -0.25509655475616455 -0.014652607031166553 0.12858523428440094 0.007592075504362583 -0.285809189081192 0.0919826328754425 0.357811838388443 0.014891513623297215 -0.21613796055316925 0.07141539454460144 0.3559221923351288 0.1514052450656891 0.2300039678812027 -0.24589042365550995 -0.1346236914396286 0.6074187159538269 -0.3595181107521057 0.13973000645637512 0.15710234642028809 0.4635774791240692 0.020980415865778923 -0.04166582226753235 0.035900477319955826 0.05011877790093422 0.039962705224752426 -0.15722672641277313 0.3297693133354187 -0.21165189146995544 0.013631499372422695 0.4831477403640747 -0.17083729803562164 0.16591830551624298 -0.3453354835510254 0.08037926256656647 0.015783023089170456 0.17457439005374908 -0.08893018960952759 0.2708650827407837 -0.09897772967815399 0.15872126817703247 0.04465102776885033 0.20746484398841858 0.197756826877594 -0.1385050266981125 -0.24287717044353485 -0.020036857575178146 -0.0605618990957737 -0.37506914138793945 0.5499869585037231 -0.09230706840753555 0.23679812252521515 0.15642163157463074 0.11211124807596207 -0.18192864954471588 0.371322900056839 -0.23527926206588745 -0.5053776502609253 0.03317370265722275 -0.3506866991519928 -0.24379433691501617 0.020998455584049225 -0.11719153076410294 0.16492262482643127 -0.04823363944888115 0.09756715595722198 0.021031102165579796 0.10915227234363556 -0.06599423289299011 -0.28386780619621277 0.07766471803188324 -0.027571160346269608 0.23966668546199799 0.05056196078658104 -0.3181280195713043 -0.035220805555582047 -0.002243906492367387 -0.20804138481616974 0.011292909272015095 -0.3453454375267029 0.07121217250823975 -0.07504118978977203 -0.2790473997592926 0.04522477835416794 -0.06399919092655182 0.12540996074676514 -0.3484228849411011 -0.15986981987953186 -0.34002840518951416 -0.2794879078865051 -0.1065095067024231 0.01928935945034027 -0.14485447108745575 -0.13200367987155914 0.15129539370536804 -0.2768876552581787 -0.30125749111175537 -0.03638089448213577
old -0.14663901925086975 0.33503100275993347 -0.05932588875293732 0.20177018642425537 0.2486342489719391 0.06109483167529106 -0.028966814279556274 0.17219297587871552 0.5087620615959167 -0.1240495815873146 -0.1641095131635666 -0.18988962471485138 -0.03250531107187271 0.09996140748262405 0.24581927061080933 0.10251554101705551 0.018488040193915367 0.10754507780075073 0.24931956827640533 -0.09453403949737549 -0.04047510772943497 -0.08866655826568604 0.06097356230020523 -0.23923306167125702 -0.11926481127738953 -0.024257974699139595 -0.17528021335601807 0.13426880538463593 -0.3277301490306854 -0.10365773737430573 -0.09949196875095367 -0.018854733556509018 -0.031158333644270897 0.08237331360578537 -0.07577237486839294 0.22487255930900574 0.14479869604110718 0.03568153455853462 0.23057575523853302 0.2878865897655487 0.39146727323532104 -0.02780725620687008 0.13266095519065857 -0.11858095228672028 0.12930172681808472 0.08188887685537338 -0.056469984352588654 0.08977866172790527 0.08109872043132782 0.13129162788391113 0.11511190980672836 0.22306028008460999 -0.2256917953491211 0.011097042821347713 0.11500775814056396 0.2734181582927704 -0.13736078143119812 0.12982825934886932 -0.12374740839004517 -0.00400320440530777 0.24428881704807281 -0.07847084850072861 -0.442671000957489 -0.07013298571109772 0.0059518469497561455 -0.2664708197116852 0.3294026255607605 0.017379943281412125 0.2120441347360611 0.04179481789469719 -0.09474309533834457 0.13972097635269165 -0.03282325714826584 0.03158917650580406 -0.1480409801006317 0.07490198314189911 0.2871137261390686 -0.12077104300260544 0.020975666120648384 0.014604088850319386 -0.09456426650285721 0.09648805111646652 -0.20302468538284302 -0.005737579893320799 0.3260742425918579 7.101387600414455E-4 -0.012292485684156418 -0.4450317919254303 -0.2736288607120514 0.04902716726064682 0.05944622680544853 0.42628881335258484 -0.10596367716789246 -0.1506902426481247 -0.1767193228006363 -0.19001254439353943 0.1391018033027649 0.1474655121564865 -0.037593502551317215 0.05339591205120087
want -0.1940779983997345 -0.035721130669116974 0.15349502861499786 0.06396859884262085 -0.2725895643234253 0.04439786821603775 -0.04643320292234421 -0.2439984232187271 -0.4148736894130707 0.14133717119693756 -0.2156197726726532 -7.300350698642433E-4 0.21679674088954926 0.06845076382160187 -0.0790189579129219 -0.0456109382212162 -0.17641527950763702 -0.10738083720207214 0.04725410044193268 -0.4394187927246094 -0.028196698054671288 0.18459519743919373 0.32444486021995544 0.08322737365961075 0.2775081694126129 0.21871796250343323 0.20961345732212067 -0.004152979701757431 -0.047206297516822815 -0.008943368680775166 -0.03502823784947395 -0.06601951271295547 0.07168218493461609 -0.27588778734207153 0.09928172081708908 0.12396277487277985 -0.2503699064254761 0.16381677985191345 0.28454092144966125 0.09650523960590363 0.00282650301232934 -0.5388556122779846 0.17048221826553345 0.38758528232574463 -0.17471982538700104 -0.10464060306549072 0.2986027002334595 -0.07091159373521805 0.1864662915468216 -0.026004763320088387 -0.027063565328717232 -0.036398302763700485 0.17033222317695618 0.00545709952712059 0.1745210736989975 0.030567767098546028 0.08051485568284988 -0.07185276597738266 0.14605005085468292 0.045846227556467056 -0.13240821659564972 -0.13840647041797638 -0.05690472573041916 0.3902154564857483 -0.3269417881965637 0.06773412227630615 0.11446701735258102 -0.05076819285750389 0.03453958034515381 0.16236092150211334 0.2640555500984192 -0.3405577540397644 0.31448549032211304 0.09748363494873047 0.10052676498889923 -0.08218202739953995 -0.04664513096213341 0.18474943935871124 0.16378237307071686 -0.2646220028400421 -0.15428313612937927 -0.057607900351285934 0.225601464509964 0.07190409302711487 -0.09425050020217896 0.3336212933063507 0.29497769474983215 0.036907121539115906 -0.0049362825229763985 -0.5942038893699646 -0.3489171862602234 -0.3715652525424957 -0.033160220831632614 -0.17504654824733734 -0.01357310265302658 0.30840161442756653 -0.003395686624571681 0.12445292621850967 0.15241564810276031 -0.1529768407344818
night -0.47304102778434753 -0.013047168031334877 0.0013750044163316488 -0.027286982163786888 0.031068630516529083 0.03953402489423752 -0.1829153597354889 -0.4803065061569214 0.014050944708287716 -0.13547389209270477 0.18359774351119995 0.15175466239452362 -0.17174503207206726 -0.1286132037639618 -0.11200960725545883 0.04063688591122627 0.34122294187545776 -0.2661967873573303 0.058671437203884125 -0.19543145596981049 0.012497044168412685 0.25866469740867615 0.08023512363433838 -0.12347853183746338 0.1847614198923111 -0.011058688163757324 0.2729420065879822 -0.07788080722093582 0.009635170921683311 -0.4123799800872803 -0.04149741679430008 0.09501752257347107 -0.5917866230010986 0.05762770399451256 -0.11827057600021362 -0.05203592777252197 -0.03204077109694481 -0.30033761262893677 0.03150198981165886 0.18326538801193237 0.18180926144123077 0.20765741169452667 0.178933247923851 -0.17413850128650665 0.12063408643007278 0.038720693439245224 0.31145137548446655 -0.07864277064800262 -0.23169483244419098 0.15871360898017883 0.1457732617855072 0.43986669182777405 -0.32049360871315 0.20240595936775208 -0.17295332252979279 -0.004342722240835428 -0.22027093172073364 0.050654951483011246 0.16504131257534027 0.13227449357509613 -0.0031201557721942663 -0.008145280182361603 -0.09108663350343704 -0.22143679857254028 0.04734734818339348 -0.004497160203754902 0.11178405582904816 0.37099489569664 -0.06795582175254822 -0.02083558216691017 0.25684255361557007 -0.06265408545732498 -0.16998082399368286 0.08212803304195404 0.29144152998924255 0.05936719849705696 -0.2258717566728592 -0.23444487154483795 -0.27744168043136597 0.13529391586780548 0.010844409465789795 0.023343877866864204 0.02516973577439785 -0.18435531854629517 0.09455182403326035 -0.01693243347108364 -0.37543487548828125 -0.31693968176841736 0.2150474190711975 -0.03597020357847214 0.19163168966770172 -0.023462414741516113 0.36792948842048645 -0.16556856036186218 0.1825116127729416 0.026823092252016068 -0.02955058589577675 -0.04541673883795738 0.31947168707847595 0.32613426446914673
them -0.035064924508333206 0.047000471502542496 -0.20645490288734436 0.007638976909220219 0.21677076816558838 0.07816865295171738 0.03267687186598778 0.20450127124786377 0.029351990669965744 -0.25606638193130493 0.09703956544399261 -0.08552906662225723 -0.17254789173603058 -0.2265988439321518 -0.07291240990161896 -0.08222470432519913 0.10793635249137878 -0.27716466784477234 0.17422789335250854 -0.16945239901542664 0.08592552691698074 -0.12206529080867767 -0.0033231035340577364 -0.06697592884302139 0.3681011497974396 -0.43993157148361206 0.1913318783044815 0.2961324155330658 0.13629542291164398 0.02095973677933216 0.13001865148544312 -0.14254193007946014 -0.026067061349749565 0.06864789873361588 0.09139508008956909 0.01585380919277668 -0.36702877283096313 0.03236007317900658 0.23471984267234802 0.0726306140422821 0.1626095473766327 -0.2427426427602768 0.23647509515285492 0.10483048111200333 -0.0190348532050848 0.07013265043497086 -0.3448992073535919 -0.061094529926776886 -0.04204339161515236 -0.014501729980111122 -0.0265713632106781 0.077962227165699 -0.13552622497081757 -0.1687149554491043 0.07689278572797775 -0.09320483356714249 -0.134973406791687 0.03297986835241318 0.1254851520061493 -0.08539535105228424 -0.2720303237438202 -0.09376120567321777 -0.03347605839371681 0.020624319091439247 0.152845561504364 0.09417950361967087 -0.016565095633268356 0.050424568355083466 -0.24607673287391663 0.09673020988702774 0.0875931829214096 -0.20851995050907135 -0.0935998260974884 0.05492474138736725 0.09288791567087173 0.1294085532426834 -0.25507834553718567 0.4539870023727417 0.13512517511844635 -0.14987891912460327 -0.1737690269947052 -0.3745253384113312 -0.08529115468263626 -0.1447918564081192 0.3440067768096924 0.19073763489723206 0.29158815741539 0.009888753294944763 0.0433516800403595 -0.3114696741104126 0.16092877089977264 -0.04374825209379196 0.22091245651245117 -0.0010208713356405497 0.2648613452911377 -0.010969621129333973 -0.011691599152982235 -0.04370129108428955 -0.20962989330291748 -0.06361635774374008
then -0.13869890570640564 0.03728116303682327 0.05635590851306915 0.012863928452134132 0.1448546051979065 -0.05108090490102768 -0.2041546255350113 -0.1804000288248062 0.057498205453157425 0.007038593292236328 0.16585998237133026 0.038033295422792435 -0.08988688141107559 -0.016890749335289 -0.09033335000276566 -0.09748741239309311 0.24529868364334106 0.045529622584581375 0.011851486749947071 -0.15864171087741852 0.0970117598772049 0.003970114979892969 -0.11964317411184311 -0.33395129442214966 -0.06934692710638046 0.041546907275915146 -0.060582298785448074 0.04831897094845772 -0.15476971864700317 0.03192304074764252 -0.08922133594751358 0.291032075881958 0.19440650939941406 -0.045589644461870193 0.043953850865364075 -0.02130150981247425 -0.13144928216934204 -0.158324733376503 -0.19986605644226074 0.09734417498111725 0.020895523950457573 -0.129989355802536 -0.07552376389503479 0.006534983869642019 0.08237176388502121 -0.02524181455373764 0.13486312329769135 -0.20889459550380707 -0.09169814735651016 0.009180650115013123 -0.057247746735811234 0.344379723072052 -0.09686604887247086 0.28289684653282166 -0.30257922410964966 0.09443865716457367 0.40694111585617065 0.019861837849020958 0.14873114228248596 -0.15578295290470123 0.1461556851863861 -0.12377671152353287 0.17644676566123962 0.2554880976676941 0.10947955399751663 0.05389377102255821 -0.010776578448712826 0.033728186041116714 -0.18432801961898804 0.14143788814544678 -0.25980809330940247 0.011721582151949406 0.24112416803836823 -0.34539225697517395 0.03422810137271881 -0.29759570956230164 -0.011681624688208103 0.123785100877285 0.05825166031718254 -0.21068760752677917 0.17141763865947723 -0.033542294055223465 -0.058868590742349625 0.08691566437482834 0.13110561668872833 0.15585319697856903 -0.19305004179477692 0.009082945995032787 0.0853351354598999 0.010140377096831799 0.12916751205921173 -0.21105161309242249 0.08819987624883652 -0.11269108206033707 -0.09468712657690048 -0.0869113877415657 -0.07973193377256393 0.20845185220241547 0.29267460107803345 -0.014178804121911526
court -0.1233145222067833 -0.08218039572238922 0.1732991486787796 -0.07506036758422852 -0.09100592881441116 -0.02193702943623066 0.10432986170053482 -0.21275781095027924 0.10888530313968658 -0.1912361979484558 -0.19583919644355774 -0.12667644023895264 -0.002801255788654089 -0.27997374534606934 -0.01092243380844593 0.1133868396282196 0.20320117473602295 -0.15294741094112396 0.1673225313425064 0.1750078797340393 -0.06598316133022308 0.15804056823253632 0.09652908146381378 0.05326694995164871 0.03718920424580574 0.0630926638841629 0.02325306460261345 -0.1832992434501648 -0.20046496391296387 -0.14262600243091583 -0.22562502324581146 0.2454427033662796 -0.04003022983670235 0.06285730004310608 -0.1517336666584015 -0.06319557875394821 -0.06544940173625946 -0.1776760071516037 -0.08441812545061111 -4.01126075303182E-4 -0.08310238271951675 0.07747945934534073 -0.037969235330820084 0.13886547088623047 0.004710203967988491 -0.14101895689964294 0.07129334658384323 -0.13482056558132172 0.03790371119976044 -0.08212414383888245 0.028893979266285896 0.3248434066772461 -0.24016809463500977 0.15667970478534698 -0.023217372596263885 -0.04328430816531181 6.27598783466965E-4 0.3253101408481598 -0.10811588913202286 -0.22238150238990784 0.02243264578282833 -0.20903658866882324 -0.040683113038539886 -0.15643219649791718 -0.09265556931495667 -0.0720343142747879 -0.014339487999677658 0.2627949118614197 0.05679074302315712 0.11765807867050171 -0.007874562405049801 -0.06158025190234184 0.2054765224456787 0.0753057450056076 0.20613519847393036 0.015160474926233292 0.014288035221397877 0.1647612452507019 0.07223976403474808 -0.0835750550031662 -0.10417738556861877 0.04465620219707489 0.08264557272195816 -0.07789772003889084 -0.030434928834438324 -0.07491618394851685 -0.1621602177619934 -0.1510627120733261 0.1396811157464981 -0.043908439576625824 -0.16124160587787628 -0.03501418977975845 -0.14708846807479858 -0.18106387555599213 0.024129794910550117 -0.006290835328400135 -0.09937428683042526 -0.08855824172496796 -0.10826975852251053 0.0057374173775315285
an 0.02271205373108387 -0.050811365246772766 0.16518695652484894 -0.18408089876174927 0.10638076812028885 -0.12152642756700516 -0.008528072386980057 -0.03380587697029114 0.19904713332653046 -0.159279927611351 -0.08015156537294388 0.13621360063552856 0.022030267864465714 0.09813901036977768 -2.2937849280424416E-4 0.06893044710159302 0.004636380355805159 -0.09121647477149963 -0.12048866599798203 -0.34968557953834534 -0.18244726955890656 0.11576343327760696 0.04869558662176132 -0.04741266369819641 -0.08657868206501007 -0.009291354566812515 -0.2537457346916199 -0.17006902396678925 -0.04430515691637993 -0.10530053079128265 -0.1871277242898941 -0.027257611975073814 -0.048375654965639114 0.19607745110988617 -0.11536937952041626 -0.14167313277721405 -0.05266160890460014 -0.13581545650959015 0.07847937941551208 -0.1833696812391281 0.41856756806373596 0.029452968388795853 0.21412773430347443 0.09173377603292465 -0.1232742890715599 0.058931853622198105 0.043969832360744476 -0.03439289331436157 -0.33462202548980713 0.018225541338324547 -0.010275008156895638 0.04705757275223732 -0.2625700533390045 0.12574316561222076 -0.023223254829645157 0.1291505992412567 0.09585953503847122 0.0580722950398922 0.18842895328998566 -0.0766756534576416 0.03535046800971031 -0.15526431798934937 -0.21964527666568756 0.08629575371742249 0.1557200849056244 0.19691681861877441 0.105897456407547 0.18802133202552795 0.24317024648189545 0.1698675900697708 0.09672970324754715 -0.20534129440784454 -0.07292282581329346 0.09523715078830719 0.1344003826379776 8.642565808258951E-4 -0.03950474411249161 0.024393681436777115 -0.1292836219072342 -0.19984650611877441 -0.03033759817481041 0.030894674360752106 0.2111995369195938 -0.03738090768456459 0.218649759888649 -0.03468862920999527 -0.17189307510852814 -0.3142239451408386 -0.12204385548830032 -0.056790176779031754 -0.2850329875946045 -0.021426254883408546 0.023278338834643364 -0.15611840784549713 -0.006988381035625935 -0.17666985094547272 0.20188051462173462 4.899494233541191E-4 -0.1282355785369873 0.0820293202996254
- -0.07796675711870193 0.02742057666182518 -0.03082810528576374 0.07723820209503174 0.08052046597003937 -0.034752991050481796 -0.044616296887397766 0.010522762313485146 0.07400689274072647 -0.12970557808876038 0.052542880177497864 0.038082197308540344 -0.05347105860710144 0.02529384382069111 0.04019288346171379 0.11423606425523758 0.10638377070426941 0.07321155816316605 -0.0626821368932724 -0.05306220427155495 -0.019788416102528572 0.017779827117919922 -0.01193511113524437 -0.11257653683423996 0.04440789297223091 -0.026802314445376396 -0.0015907237539067864 0.12442086637020111 0.10251063853502274 0.047688983380794525 -0.017196176573634148 0.0760602280497551 -0.03305055946111679 0.13599465787410736 -0.02447454072535038 0.11368797719478607 -0.019616475328803062 -0.0833321288228035 -0.09313570708036423 0.11091127246618271 0.12690185010433197 0.07637006789445877 0.06551691144704819 -0.0690324679017067 0.05993565171957016 0.15171824395656586 -0.05949108675122261 -0.09660705178976059 0.021433604881167412 -0.030902745202183723 -0.08989034593105316 0.05811097100377083 0.01143229752779007 0.030638838186860085 -0.07871352136135101 0.028002925217151642 -0.021907173097133636 0.007920363917946815 0.001107491785660386 -0.038871318101882935 -0.0031938294414430857 -0.02016567811369896 0.01915241777896881 0.0249882023781538 0.009871712885797024 0.019848646596074104 0.015716323629021645 0.07119221240282059 -0.025679953396320343 0.10882380604743958 -0.028122497722506523 -0.031945571303367615 -0.0760476291179657 -0.026566877961158752 -0.026624195277690887 0.016703002154827118 0.09578114748001099 -0.04121607169508934 -0.1139586865901947 -0.00846813153475523 0.06673114746809006 0.025586484000086784 0.07198921591043472 -0.03335205838084221 0.026565684005618095 -0.020350245758891106 -0.03146014362573624 0.006559280212968588 0.06817495822906494 0.05653499439358711 -0.132469043135643 0.053433530032634735 0.03849322348833084 -0.11673960834741592 -6.517046131193638E-4 -0.07169842720031738 -0.11013740301132202 -0.05664202198386192 0.0716814324259758 0.06486049294471741
each -0.12218664586544037 0.003139456734061241 -0.2817624509334564 -0.17608579993247986 0.0787811204791069 -0.01121679600328207 -0.2660561800003052 0.06444605439901352 0.09423068165779114 -0.4186243712902069 -0.3770681619644165 -0.015084604732692242 -0.22628602385520935 -0.010688195936381817 0.13903328776359558 -0.11477312445640564 0.13048133254051208 -0.3412189185619354 -0.05825529620051384 -0.3719865679740906 -0.13405293226242065 0.25800397992134094 -0.19093263149261475 0.16278047859668732 0.3158654570579529 -0.41457894444465637 0.2648400664329529 0.014508017338812351 0.24475964903831482 0.0065247355960309505 -0.09975756704807281 -0.19350817799568176 0.06515635550022125 -0.18615789711475372 0.12535615265369415 -0.06536021828651428 -0.2858251631259918 -0.311937540769577 0.40904954075813293 0.18376874923706055 0.4914482831954956 -0.22321967780590057 -0.021821394562721252 0.3401125967502594 0.19862061738967896 -0.0075418041087687016 0.10864098370075226 -0.2496889978647232 -0.2793567180633545 0.16360899806022644 -0.037548210471868515 -0.14360924065113068 -0.30636289715766907 -0.304837167263031 0.11872553825378418 -0.04017855226993561 -0.23123058676719666 -0.08180797100067139 0.19768789410591125 -0.16406534612178802 -0.044038817286491394 0.2632201910018921 -0.08937227725982666 -0.21374087035655975 0.07240961492061615 -0.137426495552063 -0.011432366445660591 0.04727305471897125 -0.11889645457267761 0.2168807089328766 0.323564738035202 -0.2677486538887024 -0.30089688301086426 -0.1798960119485855 0.28424888849258423 -0.05571943521499634 -0.055976565927267075 0.2879965305328369 0.046524420380592346 -0.011327850632369518 -0.3264617323875427 -0.6449508666992188 0.13124693930149078 0.2191961705684662 0.23382875323295593 -0.16978108882904053 0.32254570722579956 -0.08194643259048462 0.07104508578777313 -0.4950908124446869 0.043474212288856506 -0.1185026690363884 -0.1562862992286682 -0.08058318495750427 0.050321195274591446 -0.12715475261211395 -0.13141782581806183 -0.24211204051971436 0.1384214609861374 0.13486598432064056
former -0.03440741077065468 0.028804868459701538 -0.010462561622262001 0.017881568521261215 0.011010470800101757 0.0026973248459398746 0.02347567118704319 0.019982313737273216 0.04623502492904663 -0.07166527211666107 -0.009509512223303318 0.024751028046011925 0.0028062418568879366 -0.037963151931762695 0.02379600703716278 0.03456133231520653 0.045182663947343826 -0.02184426225721836 0.032417405396699905 6.323292036540806E-4 -0.04307180270552635 -0.013647574000060558 -0.016127385199069977 -0.04869157075881958 -0.04718373343348503 -0.05474225804209709 0.009562638588249683 0.004983015824109316 0.00214329338632524 -4.1454751044511795E-4 -0.02345668338239193 -0.006835814565420151 -0.025857605040073395 0.05415857210755348 -0.06299525499343872 0.04710398614406586 -0.009507354348897934 -0.046447813510894775 -0.026750437915325165 0.047312915325164795 0.03570336848497391 0.04205843806266785 -0.021743085235357285 0.004779352806508541 -0.015092505142092705 -0.017138030380010605 0.012431496754288673 0.040483202785253525 -0.028042910620570183 0.006859447341412306 2.697032759897411E-4 -0.016353784129023552 0.0352601483464241 0.0025032011326402426 0.006245342083275318 0.013578583486378193 -0.012661621905863285 0.04148750379681587 -0.04242483526468277 0.02539893612265587 0.06254958361387253 0.0015725643606856465 -0.027158981189131737 -0.06108543649315834 0.03315311670303345 -0.050041358917951584 -0.015662964433431625 -0.002920751925557852 0.03467940166592598 0.018516965210437775 -0.0035742642357945442 -0.030388083308935165 0.008547771722078323 -0.019521785899996758 0.022338751703500748 -0.024531595408916473 0.10017460584640503 -0.001877038273960352 -0.015965450555086136 -0.02996945008635521 0.005121536087244749 0.010501669719815254 0.04243931546807289 -0.04213635250926018 0.039224773645401 -0.08438045531511307 -0.02333921752870083 -0.03057570569217205 0.010237031616270542 0.0349029004573822 -0.04465001821517944 0.07508904486894608 -0.04963371530175209 -0.01736096478998661 0.01537146233022213 -0.03699206933379173 0.007822924293577671 -0.04285901412367821 0.025752870365977287 0.04706095531582832
as -0.08321106433868408 0.150409996509552 0.14979512989521027 -0.08337049186229706 0.09970937669277191 -0.2746902406215668 0.13192810118198395 0.3049011528491974 -0.20448002219200134 -0.2341572344303131 -0.14910921454429626 0.6452791690826416 0.2229064553976059 0.12701377272605896 -0.19611619412899017 0.22222717106342316 -0.10775575786828995 0.12763912975788116 -0.2888006269931793 0.17771822214126587 -0.3500173091888428 -0.3649759888648987 -0.19266265630722046 -0.43752676248550415 -0.014255145564675331 -0.37387797236442566 0.24691885709762573 -0.1566954404115677 -0.21786104142665863 0.3280927240848541 0.12166757136583328 -0.5062768459320068 -0.040430739521980286 -0.2148488461971283 -0.16984136402606964 -0.12962189316749573 0.04558015242218971 -0.10785640776157379 0.17682458460330963 0.10850019752979279 0.1242499053478241 -0.07109047472476959 -0.2848469018936157 -0.2917880117893219 -0.02044960856437683 0.26150646805763245 -0.1371408849954605 0.29280269145965576 0.32439926266670227 0.3459973931312561 -0.305447518825531 0.2837556302547455 -0.04172097146511078 0.15893225371837616 0.09806928783655167 0.1855888068675995 -0.3887856900691986 -0.22705073654651642 0.12187708914279938 -0.03387943282723427 -0.10374489426612854 -0.09172657132148743 0.05817658454179764 0.03959132358431816 -0.19551856815814972 0.07505892962217331 0.04968135431408882 0.5322079062461853 -0.07719792425632477 -0.1934429109096527 0.260111927986145 -0.2540750801563263 -0.2141520231962204 0.312359094619751 -0.01567702181637287 -0.18920359015464783 -0.16804952919483185 -0.13136616349220276 0.2545032501220703 0.31624001264572144 0.003009456442669034 -0.03366734832525253 -0.20681142807006836 -0.15727198123931885 -0.16096848249435425 -0.11134643852710724 -0.01708468422293663 -0.11018884927034378 0.05106684938073158 -0.08370968699455261 -0.07615801692008972 0.20167939364910126 0.016963860020041466 -0.22434724867343903 0.3082442581653595 0.15383881330490112 -0.1951160728931427 -0.10513968765735626 -0.008637798950076103 0.07546523213386536
at -0.22738587856292725 0.25256460905075073 -0.2616162598133087 0.2696249485015869 0.2985225021839142 -0.4312720000743866 -0.13063549995422363 -0.42052385210990906 0.18909764289855957 -0.18558987975120544 -0.016432099044322968 -0.09612291306257248 -0.3024955987930298 0.06700743734836578 -0.38488078117370605 0.12034501135349274 0.3228555917739868 -0.034472640603780746 0.31154972314834595 -0.2234097570180893 0.0626245066523552 -0.13863900303840637 0.009813372977077961 -0.3110697269439697 -0.5316970348358154 -0.032856158912181854 -0.05019184947013855 0.12224802374839783 0.34895041584968567 -0.14915570616722107 0.18455098569393158 0.04261123389005661 0.022489557042717934 -0.3304922878742218 0.021190112456679344 -0.13666240870952606 -0.17320629954338074 -0.6340312957763672 0.04154215753078461 0.09587199240922928 0.11452120542526245 0.01445133239030838 0.0677880123257637 0.2509263753890991 0.044019799679517746 0.03776945546269417 0.1767708659172058 0.3759610652923584 0.24065613746643066 -0.07193626463413239 0.29505354166030884 -0.08638317137956619 0.1083383783698082 -0.09010816365480423 -0.22582492232322693 -0.2361602783203125 -0.16595588624477386 0.03436746820807457 0.13396258652210236 0.029734937474131584 -0.23283593356609344 -0.22837701439857483 0.06011899560689926 0.05751002952456474 0.18489010632038116 -0.05071965977549553 0.11290738731622696 0.1622183918952942 -0.0774318128824234 0.12435930222272873 0.009799562394618988 -0.019334638491272926 -0.32203203439712524 0.3260999917984009 0.24272996187210083 0.14342346787452698 -0.047513604164123535 0.17760905623435974 -0.19737973809242249 -0.11747809499502182 -0.19454705715179443 -0.11817625164985657 -0.18099083006381989 -0.06695646792650223 0.07188136875629425 -0.23291422426700592 -0.31905508041381836 0.2869599163532257 -0.24121655523777008 -0.06187637522816658 0.07606097310781479 0.277138888835907 -0.15497004985809326 -0.13538722693920135 0.13931748270988464 -0.18368905782699585 0.392294317483902 -0.44512417912483215 0.22191140055656433 -0.05961522087454796
left 0.07609140127897263 0.20180660486221313 0.02138763666152954 -0.09635010361671448 0.038927335292100906 0.07414733618497849 -0.2011995166540146 0.0957292690873146 0.08971235156059265 -0.1272866576910019 0.0368705689907074 -0.051271118223667145 -0.2370930314064026 0.10945247113704681 -0.07455281168222427 -0.11091167479753494 0.19693081080913544 -0.103389672935009 0.21380001306533813 -0.012681709602475166 -0.13015981018543243 -0.09554269909858704 -0.04736890271306038 -0.10161206126213074 -0.04416705295443535 0.013790055178105831 -0.1241813600063324 -0.33664393424987793 0.07026713341474533 0.026465725153684616 0.19802170991897583 0.10154399275779724 0.002855682512745261 0.17147842049598694 0.1903200000524521 0.117622971534729 -0.03635001927614212 -0.2790322005748749 -0.16906124353408813 0.22278831899166107 0.219875767827034 0.1345878690481186 0.010837865062057972 -0.43294158577919006 0.05983312427997589 0.11090441048145294 -0.16933904588222504 -0.10214400291442871 0.05969474837183952 -0.18322642147541046 -0.05317109823226929 0.23512525856494904 0.05482352524995804 0.16091181337833405 0.019756799563765526 -0.018432047218084335 -0.09648538380861282 0.2965756356716156 0.1661083698272705 -0.06170693412423134 -0.016816772520542145 -0.2510349750518799 -0.006176837719976902 -0.07841953635215759 0.10261234641075134 -0.010166279971599579 0.16473940014839172 0.11418184638023376 0.11088164150714874 0.1517726331949234 -0.29352110624313354 0.21436665952205658 -0.022633720189332962 -0.09289507567882538 0.052671730518341064 -0.15422847867012024 0.46643906831741333 0.07626465708017349 -0.1254584789276123 0.06259795278310776 -0.10170277208089828 0.2046908736228943 0.15119175612926483 0.040342144668102264 0.1371614634990692 0.29135897755622864 0.1882362812757492 -0.2651017904281616 0.008876831270754337 -0.0037864719051867723 0.06268613785505295 0.1695932000875473 0.07234708219766617 -0.1294531375169754 -0.18699334561824799 -0.29329296946525574 -0.28190088272094727 0.06218850985169411 -0.03103755973279476 0.010832852683961391
much -0.06818844377994537 -0.2472483217716217 -0.6566999554634094 -0.29200097918510437 -0.042079634964466095 0.31179317831993103 -0.13824637234210968 0.034824177622795105 0.2113654464483261 -0.3127216398715973 -0.23277533054351807 -0.3080185353755951 -0.00819863099604845 0.07331008464097977 0.22121722996234894 -0.3589145243167877 -0.345758318901062 0.49224787950515747 0.07758680731058121 -0.46951937675476074 -0.10186108946800232 -0.13653157651424408 0.23560038208961487 0.1687495857477188 -0.18194317817687988 -0.08074318617582321 -0.3366754651069641 -0.16420187056064606 -0.3558233082294464 -0.10522227734327316 0.06916183978319168 0.16004715859889984 -0.2761034667491913 0.11126603931188583 0.2925914525985718 -0.11040753871202469 0.07152634859085083 0.2057364583015442 0.23263557255268097 -0.1916661113500595 -0.014914080500602722 -0.15579694509506226 0.3130481541156769 -0.20018473267555237 0.3558898866176605 0.3152293562889099 -0.42357325553894043 -0.4221400022506714 0.17989571392536163 0.10828738659620285 -0.027355432510375977 -0.15783526003360748 -0.29014167189598083 -0.17263498902320862 0.10405515879392624 0.08100177347660065 0.07037969678640366 -0.30776309967041016 0.18426117300987244 0.2223447859287262 -0.27623409032821655 0.1364719569683075 -0.4293111264705658 -0.08309778571128845 -0.18712006509304047 -0.17713555693626404 0.2107095867395401 -0.07012917101383209 0.1718432456254959 0.14688855409622192 -0.2191571742296219 0.23616032302379608 -0.3193228542804718 0.012867151759564877 0.11633370071649551 0.5312051773071289 0.23567353188991547 0.19382959604263306 0.07993613183498383 0.1344565898180008 -0.3315270245075226 -0.005810875445604324 -0.11938750743865967 0.08901619166135788 0.23206281661987305 -0.3263131380081177 0.1694428026676178 0.019612543284893036 0.21820716559886932 0.18941311538219452 0.3025771677494049 -0.37387531995773315 0.30610397458076477 -0.08667849004268646 -0.24580904841423035 -0.0684577226638794 -0.07949909567832947 0.1245042085647583 -0.2685064971446991 -0.28420475125312805
be 0.36398759484291077 -0.11375338584184647 -0.2113656997680664 0.3615286350250244 -0.029833847656846046 -0.24664761126041412 -0.04512838274240494 -0.1555524319410324 -0.0745014175772667 -0.1039915457367897 -0.030650340020656586 0.056025706231594086 -0.2015245109796524 -0.09981748461723328 -0.219248428940773 -0.14655239880084991 -0.08127426356077194 0.03452334553003311 -0.26834332942962646 0.36129477620124817 -0.2810734212398529 -0.007534422911703587 -0.22512127459049225 0.17898395657539368 0.11784111708402634 0.28514212369918823 -0.38344714045524597 -0.4172801971435547 0.02765202708542347 0.29067811369895935 -0.1409466415643692 -0.23200948536396027 -0.01879694126546383 0.11960992962121964 0.03502776846289635 0.0012878264533355832 0.20828364789485931 0.057309627532958984 -0.005688434932380915 -0.16681061685085297 -0.2541450262069702 0.22585366666316986 -0.23928147554397583 -0.1284872591495514 -0.12562917172908783 0.0360766164958477 -0.23406843841075897 0.10176737606525421 0.014447096735239029 -0.10305377095937729 0.01155189611017704 -0.0675124078989029 -0.12145813554525375 0.4616260528564453 0.2505047619342804 -0.028168989345431328 0.06740688532590866 -0.16964749991893768 0.11865343898534775 -0.18821285665035248 -0.07242480665445328 0.12488788366317749 -0.12093304097652435 -0.12446410208940506 0.3514591157436371 0.24624763429164886 0.0505899079144001 0.34272101521492004 -0.3232784569263458 0.1836545467376709 -0.002991647459566593 0.001652271836064756 0.2119748890399933 0.5214203000068665 0.21166498959064484 0.024182070046663284 -0.06585001945495605 0.1576600968837738 0.1643364131450653 -0.16041094064712524 -0.0680810883641243 0.03098328597843647 -4.248418554197997E-4 -0.19045917689800262 0.20379403233528137 -0.23778516054153442 0.21061012148857117 -0.2991458773612976 0.12287499755620956 0.043828606605529785 -0.26960456371307373 -0.09078020602464676 0.04297107830643654 0.059058185666799545 0.2109355926513672 -0.20662808418273926 0.1841663420200348 -0.24642635881900787 -0.6008613109588623 0.21270281076431274
another -0.12005104124546051 -0.22941096127033234 0.04690532013773918 0.07172871381044388 -5.666407523676753E-4 0.0017571358475834131 0.00797953736037016 0.06479217112064362 0.08828767389059067 0.05406755954027176 -0.21593163907527924 -0.1274854838848114 0.1103106290102005 -0.17300987243652344 0.039817240089178085 -0.07777152210474014 -0.03424292057752609 -0.04527493938803673 -0.06417393684387207 -0.20650671422481537 -0.041353072971105576 0.13294163346290588 -0.13541406393051147 0.11049942672252655 0.3561032712459564 -0.15528297424316406 0.00343728088773787 -0.161091610789299 -0.1525634080171585 0.4824424982070923 -0.013865489512681961 -0.09296759217977524 -0.12546376883983612 0.43604668974876404 0.040393732488155365 -0.3843802213668823 -0.13202112913131714 -0.2285582423210144 -0.3864944875240326 -0.13101035356521606 0.05921540781855583 0.10888130962848663 0.3442460894584656 -0.1826990395784378 -0.22382792830467224 -0.008306634612381458 0.14317168295383453 -0.25312381982803345 -0.38939645886421204 -0.2913396656513214 0.10616954416036606 0.056382399052381516 -0.04562119022011757 -0.012005075812339783 -0.1658625453710556 0.21555104851722717 0.08549270778894424 -0.1562788039445877 0.36907100677490234 -0.05149848014116287 0.046969905495643616 -0.13909965753555298 -0.23523849248886108 -0.04249613732099533 0.43121758103370667 -0.07220808416604996 0.002850963268429041 0.09777333587408066 -0.11515303701162338 0.27468597888946533 0.36345478892326355 -0.14384737610816956 -0.02454964816570282 -0.08716627955436707 -0.015604168176651001 -0.055954087525606155 0.046118296682834625 -0.07616390287876129 0.0023458164650946856 -0.03220249339938164 0.03825140371918678 0.09924041479825974 0.19662903249263763 -0.008804221637547016 0.24064508080482483 5.286998930387199E-4 -0.2750672399997711 -0.0350770577788353 -0.277715265750885 0.12438464909791946 -0.1359998732805252 0.00804582517594099 -0.02124341018497944 0.07681141048669815 0.03510994091629982 -0.07950247824192047 -0.05346362665295601 0.4523029625415802 0.0030130872037261724 0.46841850876808167
two -0.022654831409454346 0.32290178537368774 -0.16723589599132538 0.33977338671684265 0.5234185457229614 0.1047767624258995 -0.414208322763443 0.1597856879234314 0.009281640872359276 -0.31688016653060913 -0.10800731927156448 -0.18727540969848633 -0.4184304177761078 -0.25045642256736755 -0.1620824635028839 0.030421635136008263 0.5458345413208008 -0.10488245636224747 0.1996513456106186 0.0713246539235115 -0.1909550130367279 0.07785482704639435 -0.245277538895607 0.13005782663822174 0.30082109570503235 -0.35720857977867126 -0.13675539195537567 0.22729440033435822 -0.0827355608344078 0.2565818130970001 0.10444393754005432 0.02411053143441677 0.07832635194063187 0.19321683049201965 0.4476359486579895 0.3175879716873169 -0.02717255800962448 -0.6772770881652832 -0.0961892232298851 0.003753992496058345 0.41865208745002747 0.3715048134326935 0.1877748668193817 -0.3845800757408142 0.039514366537332535 0.08664748072624207 -0.011621282435953617 -0.30082523822784424 -0.21197889745235443 0.07602859288454056 -0.13646121323108673 0.37831398844718933 0.16783444583415985 -0.025364411994814873 -0.15963433682918549 -0.11547183245420456 -0.021095234900712967 0.2262808084487915 0.28384023904800415 -0.41736435890197754 0.25223055481910706 -0.2692498564720154 -0.2542765140533447 -0.046498097479343414 0.1864910125732422 -0.2691705524921417 0.19609659910202026 0.32622450590133667 -0.19427481293678284 0.24272015690803528 -0.2268015742301941 0.055308349430561066 -0.1060129851102829 -0.3062884509563446 0.028085870668292046 0.1639658808708191 0.2391359508037567 -0.1484849900007248 -0.005176033359020948 0.12421037256717682 -0.05600346624851227 -0.16533012688159943 0.18395686149597168 -0.15660947561264038 -0.031701069325208664 0.4123933017253876 0.042531222105026245 -0.0442388653755188 0.231155127286911 -0.22094601392745972 -0.13507454097270966 0.3282559812068939 -0.10803715139627457 -0.24310263991355896 0.04226075857877731 0.15881311893463135 -0.3312722444534302 0.2144293487071991 -0.037853121757507324 0.49626484513282776
long -0.29196152091026306 -0.430938720703125 -0.19731229543685913 -0.11766347289085388 0.23334747552871704 0.14383253455162048 -0.04410769045352936 -0.40018385648727417 0.3841581344604492 0.11967635899782181 -0.3719015419483185 -0.4677116274833679 -0.018273726105690002 -0.2870137393474579 0.4220716655254364 0.007373273838311434 0.2652733027935028 0.1052841767668724 0.011047403328120708 -0.18414118885993958 0.20060977339744568 0.06477271765470505 0.1388532966375351 0.09149762243032455 0.20045797526836395 -0.06119911000132561 -0.7898752689361572 -0.30528172850608826 -0.22350428998470306 0.44473159313201904 0.09064499288797379 -0.11404167860746384 -0.21689379215240479 -0.11308958381414413 0.388701856136322 -0.21249441802501678 0.7642345428466797 0.037241823971271515 0.3353617191314697 -0.19018606841564178 0.3896940350532532 0.37487173080444336 0.32959312200546265 -0.5056123733520508 0.07784295082092285 0.012283673509955406 -0.2797669768333435 0.15877528488636017 -0.32869672775268555 0.6015539765357971 0.27071458101272583 -0.07396403700113297 -0.221269428730011 0.17978958785533905 0.009411534294486046 0.24604959785938263 -0.13577991724014282 -0.2669980823993683 0.3541770577430725 -0.33823487162590027 -0.03691279515624046 -0.008708097971975803 0.008112067356705666 -0.13389740884304047 -0.04303516075015068 0.22711847722530365 0.5038660764694214 0.09995491057634354 0.1595955342054367 -0.2002323567867279 0.030992012470960617 0.2101803719997406 -0.18808773159980774 0.15354317426681519 0.04751025512814522 0.31403204798698425 -0.6312358975410461 -0.21595406532287598 -0.25976330041885376 0.1695864349603653 0.0022718477994203568 0.29392555356025696 -0.10801897943019867 0.10227203369140625 0.13600264489650726 0.0016189772868528962 -0.3670547604560852 0.030230877920985222 -0.013370675034821033 0.5198620557785034 -0.07356949895620346 0.010925804264843464 0.03133212402462959 0.09742767363786697 -0.07441762834787369 0.3167702257633209 0.43017175793647766 0.19944800436496735 0.007190833333879709 0.061508987098932266
into -0.049588531255722046 0.10475629568099976 0.09398721158504486 0.022404322400689125 0.030202455818653107 -0.11879235506057739 0.04091688245534897 -0.14135374128818512 -0.025716574862599373 0.10108346492052078 -0.0490611232817173 -0.1715054214000702 -0.10412128269672394 0.01900724321603775 -0.1220104992389679 0.026979681104421616 0.03478771075606346 -0.10327579081058502 -0.06105971708893776 -0.0341448150575161 -0.008941889740526676 0.08792564272880554 -0.030029093846678734 0.06275594234466553 0.15342573821544647 -0.2183247208595276 0.05208126828074455 -0.022957291454076767 -0.056630585342645645 -0.012873627245426178 -0.17078854143619537 0.07359343767166138 0.12219089269638062 -0.07558667659759521 -0.03097613900899887 0.047785211354494095 -0.2775750756263733 -0.14656732976436615 -0.06334768235683441 -0.14534436166286469 0.0855940505862236 0.0350639671087265 0.10533203184604645 0.17551733553409576 -0.2516866624355316 -0.1706176996231079 0.13585729897022247 0.01623339205980301 -0.13447760045528412 0.1456642597913742 0.24694645404815674 0.10153588652610779 -0.3105289936065674 0.17641092836856842 -0.16479630768299103 -0.14287827908992767 0.05126264691352844 -0.13193289935588837 0.12087637186050415 0.06097491830587387 -0.03238091990351677 0.0038627716712653637 0.20390687882900238 -0.1434810310602188 -0.07540110498666763 0.03943588584661484 0.07932982593774796 0.07138856500387192 0.06661680340766907 0.08870579302310944 0.11530490964651108 -0.09533035755157471 -0.043557606637477875 0.23151294887065887 0.08390507847070694 -0.0416581928730011 -0.38257113099098206 -0.12952060997486115 -0.02697633020579815 -0.009046298451721668 -0.18147976696491241 0.04548345133662224 0.06974063068628311 -0.09022970497608185 -0.10978207737207413 0.2615923285484314 -0.2283286154270172 -0.2301234006881714 -0.26340845227241516 -0.2308816909790039 0.09094235301017761 0.10436655580997467 0.10085690021514893 0.12017593532800674 0.10783803462982178 0.018005691468715668 0.132484570145607 0.3558971583843231 0.010227728635072708 -0.10828257352113724
how -0.21787944436073303 0.005973722320050001 0.05785979703068733 -0.29993975162506104 0.12207893282175064 -0.1305169016122818 0.011079004034399986 0.09405316412448883 -0.5867735743522644 -0.03538741171360016 -0.14465242624282837 0.34158238768577576 0.23533743619918823 0.21075204014778137 0.06022048741579056 0.14801402390003204 -0.03841320052742958 -0.050238534808158875 -0.6245993375778198 -0.28709474205970764 0.0520777627825737 -0.08324408531188965 -0.1892138570547104 -0.41709059476852417 0.033484987914562225 -0.26559051871299744 0.1315411627292633 0.13394422829151154 -0.2554253041744232 0.19825074076652527 -0.09722160547971725 -0.6155838370323181 0.04147405922412872 -0.1533961296081543 -0.049013711512088776 0.12915806472301483 -0.3579276204109192 0.22678382694721222 0.20467539131641388 -0.11588150262832642 -0.06972455978393555 -0.12112989276647568 -0.03861524909734726 0.05631502345204353 -0.26353463530540466 0.1708683967590332 -0.1531544029712677 -0.47538822889328003 0.0675884261727333 0.27348968386650085 -0.12225833535194397 -0.11492007225751877 -0.1922479122877121 0.14681456983089447 -0.19511884450912476 0.1711072027683258 -0.04287125915288925 -0.33719632029533386 0.2196992039680481 -0.17377877235412598 -0.056576233357191086 -0.11734005808830261 0.3202371895313263 -0.07394371926784515 -0.0852118730545044 0.20588338375091553 -0.29490917921066284 0.16367655992507935 0.011430183425545692 0.07634498924016953 -0.006732043344527483 0.015179268084466457 -0.2104867845773697 -0.08927948772907257 0.11029928922653198 -0.10516006499528885 -0.18522928655147552 0.06795050948858261 0.1269260197877884 0.06464633345603943 0.1196741834282875 -0.29167553782463074 -0.40292394161224365 0.15740391612052917 -0.3788122832775116 -0.20297907292842865 -0.14569289982318878 -0.18666143715381622 0.017419125884771347 -0.17875763773918152 -0.05937237665057182 -0.34820041060447693 0.3105698525905609 -0.20437322556972504 -0.24379369616508484 0.15248306095600128 -0.40361952781677246 0.1856905072927475 0.03191434219479561 -0.157911479473114
see 0.38687995076179504 -0.024504588916897774 0.0189666710793972 0.30348485708236694 -0.12778542935848236 -0.12185191363096237 -0.1025799885392189 -0.350818008184433 -0.1885889768600464 0.19127057492733002 0.0685625895857811 0.138892263174057 0.058083802461624146 0.002829756122082472 -0.11661684513092041 -0.05413985624909401 -0.10144802927970886 0.28828907012939453 -0.16973352432250977 -0.0902319923043251 -0.1526140570640564 0.053915832191705704 0.0944092720746994 -0.02712172456085682 0.3139677047729492 0.2173517346382141 0.10542214661836624 -0.27586087584495544 -0.2226048856973648 -0.04403255507349968 -0.33089593052864075 0.012289533391594887 -0.17597487568855286 -0.01199253834784031 0.10383402556180954 0.20068874955177307 0.0257390346378088 0.05419560521841049 -0.2313748449087143 -0.13746990263462067 -0.13474763929843903 -0.25592854619026184 0.0055548264645040035 -0.03170229122042656 -0.24333404004573822 0.011420845985412598 -0.022124111652374268 0.06443916261196136 0.07286527007818222 0.04167122766375542 0.095382459461689 0.14858242869377136 0.004841845948249102 -0.10714688152074814 0.048602111637592316 -0.004541909787803888 0.28385820984840393 0.001361023518256843 0.10575840622186661 0.022099895402789116 -0.467120498418808 0.1127084270119667 0.1787613183259964 0.11857539415359497 0.029444076120853424 0.04851802811026573 0.06718263030052185 -0.055429719388484955 -0.21005193889141083 0.20180615782737732 -0.04498032480478287 0.18281517922878265 -0.05820722505450249 0.2561012804508209 -0.08221937716007233 -0.06775658577680588 -0.0010539453942328691 0.1449257880449295 0.001522235805168748 -0.2749115824699402 -0.19209936261177063 0.14662675559520721 0.07066347450017929 0.09835293143987656 -0.05882129818201065 0.27533799409866333 0.10512089729309082 -0.059283893555402756 0.07418354600667953 -0.25801217555999756 0.04639764875173569 -0.09166702628135681 0.14320650696754456 0.042665719985961914 0.23705007135868073 0.10761985927820206 0.19095869362354279 0.32596829533576965 0.07314575463533401 -0.18864870071411133
found 0.05205952376127243 -0.014361275359988213 0.03566266968846321 -0.20081055164337158 0.05918917804956436 0.013577183708548546 -0.14170147478580475 0.011597800999879837 -0.08027231693267822 -0.10010872781276703 -0.13057826459407806 -0.040172088891267776 -0.12607881426811218 0.19163820147514343 -0.06235487759113312 -0.15876533091068268 0.06033054739236832 -0.08444199711084366 0.2859323024749756 -0.10435188561677933 -0.25496014952659607 -0.1684197038412094 -0.05362078920006752 -0.024957338348031044 -0.04917797073721886 0.1759970784187317 0.03219751641154289 -0.6164959669113159 0.25375497341156006 0.2737117409706116 0.0252555962651968 0.1447497308254242 -0.023431409150362015 0.03503597155213356 0.1406179666519165 -0.029318340122699738 -0.00600504782050848 -0.18721090257167816 -0.2202608585357666 0.2609268128871918 0.09283275157213211 0.050384946167469025 -0.054096486419439316 -0.4051007628440857 0.11543592810630798 0.05375596508383751 -0.03863133117556572 0.10514574497938156 -0.2608543932437897 -0.13947631418704987 0.20712041854858398 0.1307215839624405 -0.019059715792536736 0.19013838469982147 0.008502300828695297 -0.039337437599897385 0.007532834075391293 0.20931167900562286 0.39350107312202454 0.006468355655670166 -0.3341388702392578 -0.017349401488900185 0.10020389407873154 -0.062030110508203506 0.11728649586439133 0.03407580405473709 0.03920713812112808 -0.0012033178936690092 0.08505608141422272 0.007074862718582153 0.13060224056243896 0.06153079494833946 -0.13463878631591797 -0.1275707334280014 0.17642101645469666 -0.20048950612545013 0.019355827942490578 -0.07002406567335129 -0.15349772572517395 0.07176094502210617 0.13313069939613342 0.12526758015155792 0.30042293667793274 -0.05352610722184181 0.12017306685447693 0.2936546206474304 0.24300368130207062 -0.14832133054733276 0.1285526156425476 0.11041001230478287 0.037972670048475266 0.06289069354534149 -0.010393980890512466 -0.10711118578910828 -0.06376560032367706 -0.22191183269023895 -0.009518591687083244 0.06361763924360275 0.07259263843297958 -0.04574286937713623
same -0.10388607531785965 0.024302054196596146 0.09379786252975464 0.3327193856239319 0.056234508752822876 -0.39746007323265076 0.06837945431470871 -0.06817421317100525 0.5695229768753052 -0.42397385835647583 -0.39829134941101074 -0.08055222779512405 0.030416633933782578 -0.2053053379058838 -0.15282194316387177 0.1591939479112625 0.44853219389915466 -0.14871267974376678 0.26783737540245056 0.3239797353744507 -0.07430952042341232 0.009152133949100971 0.1950041949748993 0.26240554451942444 -0.28333282470703125 0.056796446442604065 -0.10840216279029846 -0.1518978774547577 -0.013997291214764118 0.2061721533536911 -0.20511770248413086 0.02701026014983654 -0.4658166766166687 -0.00990024209022522 -0.04626040160655975 0.3728848695755005 -0.24875281751155853 -0.20968639850616455 -0.5500243306159973 0.12414655089378357 0.027552563697099686 -0.0310162715613842 -3.5240486613474786E-4 0.42106884717941284 -0.42735281586647034 0.17913852632045746 -0.20672325789928436 0.2707599401473999 -0.08051188290119171 0.04264606535434723 0.13121575117111206 -0.11335715651512146 0.017864307388663292 0.10089811682701111 0.05536716803908348 0.4836624562740326 -0.266227662563324 0.41354793310165405 0.21881058812141418 -0.018390215933322906 -0.09766092151403427 0.08569452911615372 -0.03949098661541939 -0.020426934584975243 -0.2197919338941574 -0.007370051462203264 0.25825315713882446 -0.22149933874607086 -0.049048468470573425 0.12103460729122162 -0.014963530004024506 0.06353619694709778 -0.19603022933006287 0.25056973099708557 0.10324747115373611 0.24934011697769165 0.31554266810417175 -0.019129663705825806 0.07106555998325348 0.09491865336894989 -0.072077676653862 -0.09462012350559235 -0.11367008090019226 0.18052710592746735 -0.1584383100271225 -0.3724173307418823 -0.13173945248126984 -0.32456159591674805 -0.21145989000797272 0.22724629938602448 0.026191173121333122 0.485462486743927 -0.07421635091304779 -0.14035654067993164 -0.15616697072982788 -0.15353430807590485 0.008360474370419979 -0.11453388631343842 0.14614176750183105 0.0889967679977417
are -0.14384350180625916 -0.2637503743171692 -0.14897671341896057 -0.03705146908760071 0.014500717632472515 0.21908573806285858 -0.06432224065065384 -0.025818660855293274 0.012899825349450111 0.06402774900197983 -0.018445076420903206 0.05042918398976326 -0.08233167976140976 0.44768285751342773 -0.20640452206134796 -0.3993159234523773 0.015258503146469593 -0.05956808850169182 0.23456114530563354 0.10535027086734772 -0.23874060809612274 -0.16229206323623657 -0.10646235197782516 0.36990848183631897 0.750304639339447 0.3289375305175781 0.03193311020731926 0.07195496559143066 -0.4189678132534027 0.043673500418663025 -0.2297016680240631 -0.15334822237491608 0.13069714605808258 -0.06969307363033295 -0.2457481175661087 0.016708560287952423 0.01711612567305565 -0.08968949317932129 0.5144048929214478 0.06289707869291306 0.3110690414905548 -0.29948922991752625 -0.5744350552558899 0.336076945066452 0.2937145233154297 0.14489823579788208 0.10527610778808594 0.09345199167728424 0.16667984426021576 -0.0865764319896698 -0.5804845094680786 0.1318746656179428 -0.021481569856405258 0.04049598053097725 0.24358844757080078 0.21772490441799164 -0.3612448573112488 -0.15391401946544647 -0.08216800540685654 0.03858748450875282 0.14734327793121338 0.06093244254589081 0.23805969953536987 -0.14240655303001404 0.2934398949146271 -0.04865805059671402 0.4173514246940613 -0.34855443239212036 -0.3308418393135071 0.31519463658332825 0.21604642271995544 0.21782264113426208 0.3362756669521332 -0.052077267318964005 -0.1105949804186821 0.24636636674404144 0.3816775381565094 0.30522647500038147 0.6141189336776733 -0.23308032751083374 3.47285094903782E-5 -0.040095094591379166 -0.39400196075439453 -0.19248417019844055 0.1380557268857956 0.3027435839176178 0.20515099167823792 -0.08634516596794128 -0.06900130957365036 -0.31006836891174316 0.16498370468616486 -0.07948529720306396 0.21667402982711792 -0.23158662021160126 -0.07339569926261902 -0.03098776564002037 -0.10094300657510757 -0.28571704030036926 0.22086594998836517 0.12930722534656525
does -0.14918853342533112 -0.20847004652023315 0.21937710046768188 0.1996033489704132 0.3317692279815674 -0.06980402022600174 -0.17747646570205688 0.061778053641319275 0.0658295527100563 -0.05046752840280533 0.11132437735795975 0.2187621146440506 -0.0601503886282444 0.021848317235708237 -0.07165177166461945 -0.025958899408578873 -0.19291016459465027 0.07942768186330795 -0.2095877230167389 -0.42340704798698425 0.04141858592629433 0.22428348660469055 -0.21652507781982422 -0.18948251008987427 -0.21833084523677826 -0.18768514692783356 -0.18673229217529297 0.048600465059280396 0.1757911741733551 0.23728390038013458 -0.2832309901714325 0.33778658509254456 0.5868666172027588 -0.11378341913223267 -0.05890154093503952 -0.2547563314437866 -0.10314520448446274 0.7659509778022766 -0.039532266557216644 0.12565790116786957 0.22776532173156738 -0.08113377541303635 0.19261452555656433 -0.32646769285202026 0.12639683485031128 -0.24123914539813995 -0.3442094027996063 0.3693409264087677 0.024560250341892242 0.12658564746379852 0.3269745409488678 -0.23773722350597382 -0.18175199627876282 -0.07207618653774261 0.1292310208082199 0.2828296422958374 0.3164667785167694 -0.04991893470287323 0.05521386116743088 0.38628217577934265 -0.07727763801813126 0.16986602544784546 0.04258597269654274 0.46608230471611023 -0.05436978489160538 -0.17230790853500366 -0.27069342136383057 0.02192460559308529 0.21708975732326508 0.1457497477531433 -0.24927785992622375 -0.31075289845466614 0.18042930960655212 -0.07457128167152405 0.13601632416248322 0.216331347823143 -0.05057008937001228 -0.3029954135417938 -0.04159846529364586 -0.2413407564163208 -0.05935993045568466 0.024783264845609665 0.14811041951179504 -0.7366203665733337 0.16844600439071655 0.31305423378944397 -0.1404849886894226 -0.0623430572450161 -0.15861670672893524 -0.24469968676567078 0.412649005651474 0.23063528537750244 0.04238089546561241 -0.08585845679044724 -0.10835033655166626 0.05018826574087143 0.22449234127998352 -0.40831729769706726 0.22880075871944427 0.037254951894283295
by 0.051999468356370926 -0.11017816513776779 0.10753053426742554 0.20696888864040375 0.12833309173583984 -0.13541343808174133 -0.1476815938949585 -0.21695616841316223 0.0734083354473114 0.07118381559848785 -0.05429898574948311 -0.11130037158727646 -0.07024339586496353 -0.21764981746673584 -0.05987243354320526 -0.08520969748497009 0.22644905745983124 -0.1520509272813797 -0.02222295291721821 0.09679526090621948 -0.1697881817817688 -0.034487344324588776 -0.19538141787052155 -0.034303776919841766 0.21429699659347534 -0.12755298614501953 0.0012224001111462712 -0.1509629786014557 0.009806129150092602 0.13762232661247253 0.0463707260787487 0.07622949033975601 0.030945440754294395 0.003930023871362209 0.0023763657081872225 -0.11391861736774445 -0.12063032388687134 -0.36767396330833435 -0.1140265166759491 -0.3090123236179352 0.20416884124279022 0.13305896520614624 0.1394907385110855 -0.10591293126344681 -0.24997340142726898 -0.03991159796714783 0.05583866685628891 0.040966231375932693 -0.025639468804001808 -0.03183061257004738 0.08742829412221909 0.1390397548675537 -0.17794008553028107 0.19482773542404175 -0.07084860652685165 -0.14599619805812836 -0.06024158000946045 -0.07525793462991714 0.06389422714710236 -0.12040996551513672 -0.028760654851794243 -0.21194177865982056 0.0652432069182396 -0.09335852414369583 0.03552032634615898 -7.580528617836535E-4 0.07667490094900131 0.12261445075273514 0.03652021661400795 0.17318597435951233 0.13542328774929047 0.1817828267812729 -0.0019384418847039342 0.03540050610899925 -0.024934347718954086 0.08342595398426056 0.06883268058300018 -0.14849646389484406 -0.0658571645617485 0.0834013819694519 0.007746313698589802 0.08211711049079895 0.04753552004694939 0.027524268254637718 -0.16036100685596466 0.21529118716716766 -0.17407259345054626 -0.10469601303339005 -0.20773306488990784 -0.1167377158999443 -0.062490012496709824 0.11974894255399704 0.1030668169260025 -0.03900476172566414 0.049421247094869614 0.1284981369972229 -0.06819135695695877 0.16396011412143707 0.04008764401078224 0.1404973715543747
national -0.14888058602809906 -0.09456396102905273 -0.05843554809689522 -0.04488150402903557 0.031697869300842285 -0.03241340070962906 0.08292718976736069 -0.08425987511873245 0.16251470148563385 -0.10216380655765533 -0.07968395948410034 -0.012607847340404987 0.042477790266275406 -0.09593481570482254 0.05415419116616249 0.043948400765657425 0.10447929054498672 -0.06488770991563797 0.11245141178369522 0.05434533208608627 -0.015596444718539715 -0.021378977224230766 0.034789230674505234 0.04176142439246178 -0.060220178216695786 -0.07740955054759979 -0.011732230894267559 -0.0398559533059597 -0.006454714108258486 -0.06271011382341385 -0.05759117379784584 0.044680155813694 -0.06297025084495544 0.10753997415304184 -0.10845144838094711 0.028041047975420952 0.04011691361665726 -0.09064607322216034 0.008650985546410084 0.005900758784264326 -0.0011065249564126134 0.04119270667433739 -0.014232764951884747 0.04343530163168907 -0.09272601455450058 -0.03027997352182865 0.03645436093211174 0.036217570304870605 0.005976694170385599 0.10845363885164261 -0.04682750999927521 0.02328949049115181 0.002240622416138649 0.1277795284986496 0.007926867343485355 0.029776304960250854 -0.01501506008207798 0.018020151183009148 -0.028304249048233032 -0.01827891543507576 0.04287830740213394 -0.0052468734793365 0.07539507001638412 -0.0729864090681076 -0.03143923729658127 -0.01640029065310955 0.06798756867647171 0.05916539207100868 0.05197267606854439 -0.026536814868450165 0.017124077305197716 -0.1373521089553833 0.049155764281749725 0.08188073337078094 0.06685709953308105 0.05564266815781593 0.14106343686580658 0.024379635229706764 -0.012613926082849503 0.00600895332172513 0.020843835547566414 0.06203140318393707 0.022057633846998215 -0.060450468212366104 0.009443600662052631 -0.17353548109531403 -0.12708662450313568 -0.04876887798309326 0.04306861385703087 0.07708603888750076 -0.05375282093882561 0.1132308766245842 -0.02969517931342125 -0.02753317728638649 0.02487768791615963 -0.07867899537086487 -0.034840863198041916 -0.05346750468015671 0.05801122263073921 0.053330883383750916
where 0.1528443843126297 0.12535367906093597 0.23227381706237793 0.02515699714422226 0.19884388148784637 -0.2415446937084198 0.13455896079540253 0.17069606482982635 -0.030000070109963417 -0.0951857715845108 -0.1725160926580429 -0.14042462408542633 0.3808891177177429 0.06677518039941788 -0.10934796929359436 0.2487158179283142 0.6926012635231018 0.21026499569416046 0.09428655356168747 0.15790335834026337 -0.05713183805346489 -0.1175389438867569 -0.20309853553771973 0.1053706705570221 0.11690308898687363 0.1623009741306305 -0.05621856078505516 0.4072602093219757 -0.18825644254684448 -0.2294084131717682 -0.2220773696899414 0.13942158222198486 0.22330516576766968 -0.4022996425628662 -0.5016892552375793 -0.08698826283216476 -0.08020143210887909 -0.203310027718544 0.0591619610786438 -0.267426997423172 -0.14821991324424744 -0.2518124580383301 -0.12085254490375519 0.31550097465515137 0.05072234570980072 -0.29354238510131836 -0.0863388180732727 -0.24878600239753723 -0.23725078999996185 0.2417270988225937 -0.08850914239883423 -0.1462862491607666 -0.5611922144889832 -0.0691228061914444 -0.10975244641304016 0.2625511586666107 0.3510158061981201 -0.18749147653579712 0.21021762490272522 -0.3678545653820038 0.0387524850666523 -0.10689429193735123 0.09220876544713974 0.05828067660331726 0.031144287437200546 8.435217314399779E-4 -0.03387836739420891 0.2510315775871277 -0.05488920211791992 0.1091197207570076 -0.0016767162596806884 -0.029560675844550133 0.12241334468126297 -0.11081362515687943 -0.033966872841119766 -0.3318946063518524 -0.15558136999607086 0.07712235301733017 -0.13514208793640137 -0.12652738392353058 0.043278519064188004 -0.09353142976760864 -0.33629801869392395 0.31948626041412354 -0.2720189690589905 -0.22513750195503235 -0.5203942656517029 -0.1562644988298416 -0.026037367060780525 0.2056719958782196 -0.15199309587478638 -0.06120337173342705 0.039771199226379395 -0.22494761645793915 0.10872089862823486 0.22895261645317078 0.21093182265758514 0.2569129168987274 0.0038635749369859695 -0.04945392534136772
after -0.11171238869428635 0.1801140159368515 0.03003595769405365 0.23630940914154053 0.016457362100481987 -0.10230233520269394 -0.15601105988025665 -0.30723854899406433 0.12220340222120285 0.05856994539499283 0.10769251734018326 -0.12191560119390488 -0.20869001746177673 0.1552763283252716 -0.1885313242673874 0.16042880713939667 0.4231947064399719 -0.07550174742937088 0.09629202634096146 -0.07551486790180206 0.06564300507307053 0.013836578465998173 -0.18830391764640808 -0.20164528489112854 0.1040768176317215 0.05134866386651993 -0.1704082041978836 0.20811809599399567 0.12656517326831818 -0.252221018075943 0.09523691236972809 0.058667030185461044 0.04610314592719078 -0.031836964190006256 -0.14045093953609467 0.16947418451309204 -0.2831595838069916 -0.47672098875045776 -0.012169042602181435 -0.03318388760089874 -0.010174041613936424 0.17041365802288055 0.13032929599285126 0.18319863080978394 -0.07880447059869766 -0.028386784717440605 -0.0668637678027153 0.054550014436244965 0.02642001397907734 -0.044334106147289276 0.03094291128218174 0.034289415925741196 0.06025760993361473 -0.004103777464479208 -0.2518745958805084 -0.08047734200954437 -0.052363310009241104 -0.16586481034755707 0.06979058682918549 -0.02874983660876751 0.0387287512421608 -0.23724636435508728 0.23157888650894165 -0.3358360528945923 0.031013384461402893 -0.2261391133069992 0.1616942584514618 0.05204547196626663 -0.07428272813558578 0.481673002243042 0.05111567676067352 0.10723088681697845 -0.1268654465675354 0.18956293165683746 0.0764661356806755 -0.011384244076907635 0.030206376686692238 -0.129153773188591 -0.12320172786712646 -0.25634056329727173 0.024485934525728226 0.1313362419605255 0.3346015214920044 0.01028844527900219 -0.14027923345565796 0.11740721762180328 -0.47398555278778076 -0.08570824563503265 -0.03867727145552635 0.03745797276496887 -0.03438744321465492 0.17128141224384308 0.16707609593868256 0.012582048773765564 0.030598318204283714 -0.0828404575586319 -0.08353818953037262 -0.02968316152691841 0.19296737015247345 -0.0708036795258522
so 0.021651476621627808 0.24936802685260773 0.10221381485462189 -0.010826870799064636 -0.15012027323246002 -0.20624427497386932 -0.11957920342683792 0.10256088525056839 -0.10372967272996902 -0.12363173067569733 0.3699148893356323 0.35724249482154846 -0.09203179180622101 0.15172256529331207 0.051917918026447296 -0.012425234541296959 -0.08321209251880646 0.13182836771011353 -0.4036676287651062 0.029650921002030373 0.1066059023141861 0.052265409380197525 -0.08747640997171402 -0.371182382106781 -0.08203523606061935 -0.13635586202144623 0.02520080655813217 -0.05102990195155144 -0.19997327029705048 0.17478102445602417 0.012239793315529823 -0.013682173565030098 0.08938122540712357 -0.08063927292823792 0.005272679962217808 -0.07275713235139847 0.1024550125002861 -0.20825716853141785 -0.14985482394695282 0.13140131533145905 0.2419588565826416 -0.05272076278924942 -0.08561385422945023 -0.24123461544513702 0.15891368687152863 0.18639914691448212 -0.023855509236454964 -0.17871354520320892 0.036142293363809586 0.0073169213719666 -0.49578502774238586 0.14581918716430664 0.07936380803585052 0.013795958831906319 -0.11248796433210373 0.02340836636722088 -0.04085968807339668 0.2654816806316376 0.03025289624929428 -0.1978496015071869 0.12321645766496658 0.12420482933521271 0.07835458964109421 -0.014380108565092087 -0.04785200208425522 -0.06099206954240799 0.03452834114432335 0.06110863387584686 -0.12630245089530945 0.10734006017446518 -0.1796223521232605 0.08541524410247803 -0.0826408863067627 -0.05084886774420738 -0.2050994634628296 -0.2176944464445114 -0.10552366077899933 0.18008030951023102 0.04150429740548134 -0.1779060661792755 0.0650084912776947 0.05749921500682831 0.07498983293771744 0.07280184328556061 -0.048841480165719986 0.23471638560295105 -0.022432314231991768 0.12302042543888092 0.19010327756404877 -0.049588412046432495 -0.23692651093006134 -0.3158791661262512 0.09500622749328613 -0.18895578384399414 0.04843936860561371 0.15243905782699585 -0.3417505621910095 -0.02911939099431038 0.001632315688766539 -0.28044554591178894
a -0.3543229103088379 -0.29955416917800903 -0.17751523852348328 -0.0792802944779396 0.10699702799320221 -0.1942470818758011 0.21912263333797455 -0.07118411362171173 0.2862778306007385 0.36136868596076965 -0.4151635766029358 -0.15745002031326294 0.20130260288715363 -0.05636649578809738 0.04451795294880867 -0.06308595091104507 -0.2328770011663437 0.15120375156402588 -0.15291014313697815 -0.07784456014633179 0.004396124742925167 0.08567237854003906 -0.29247310757637024 0.014008411206305027 0.20364946126937866 -0.36783790588378906 0.11441466957330704 -0.007768235169351101 0.18186931312084198 0.46676552295684814 0.4070100486278534 -0.15067465603351593 -0.13834266364574432 0.15732063353061676 -0.04378541186451912 -0.5567395091056824 -0.009887520223855972 -0.3024381995201111 -0.1430356204509735 0.20314565300941467 0.10707452148199081 0.18054452538490295 0.3093815743923187 -0.23737509548664093 -0.2864179313182831 0.3177497386932373 -0.19341503083705902 -0.23618075251579285 -0.06883681565523148 0.21111634373664856 -0.10782486200332642 0.05293731391429901 0.2733036279678345 0.3382919728755951 -0.1256580501794815 0.34890928864479065 -0.17616213858127594 -0.16623708605766296 -0.06781289726495743 -0.1807856559753418 0.19845721125602722 -0.12478504329919815 -0.10423261672258377 -0.38102996349334717 0.04999883845448494 0.10782472044229507 0.18341770768165588 0.06352728605270386 -0.2910957932472229 0.21089503169059753 0.08326924592256546 0.14113301038742065 0.12430797517299652 0.09872216731309891 -0.06496188044548035 -0.26115474104881287 -0.06632918119430542 -0.1518876999616623 -0.13604503870010376 -0.06123373657464981 -0.05546792596578598 0.4979529082775116 -0.035852156579494476 0.029586689546704292 0.04180029779672623 -0.07420659810304642 -0.09192819148302078 -0.05519988760352135 -0.22956015169620514 -0.2446434199810028 -0.23068763315677643 0.11393138021230698 -0.2014569193124771 0.1400577574968338 0.3537759780883789 -0.631516695022583 -0.11672475934028625 -0.07279564440250397 -0.027665121480822563 -0.2655546963214874
think 0.02010563388466835 0.021073317155241966 -0.32590219378471375 0.20033422112464905 -0.03012239746749401 -0.0714733675122261 0.18910866975784302 0.04651636630296707 -0.00629175640642643 -0.06376923620700836 -0.004565099719911814 0.09503868222236633 0.05682937428355217 -0.04604547470808029 -0.12557506561279297 0.05626843124628067 0.05636608973145485 0.14960646629333496 -0.12175039947032928 -0.16705980896949768 -0.008594196289777756 0.1242590844631195 0.21401603519916534 -1.9099596829619259E-4 -0.14293985068798065 0.2716180682182312 0.0049428376369178295 0.04560340195894241 -0.04494451731443405 0.3126673400402069 0.18451286852359772 0.12750552594661713 -0.007829681038856506 -0.0010191421024501324 0.1762118637561798 0.4002789556980133 -0.2787895202636719 0.2117326706647873 -0.14257627725601196 0.11984528601169586 -0.35038602352142334 -0.2588774263858795 0.04029073938727379 -0.15937282145023346 -9.814477525651455E-4 0.39866694808006287 -0.11748290061950684 0.14137913286685944 0.2844409942626953 -0.02882634848356247 0.13790498673915863 0.028063220903277397 0.04550109803676605 -0.15401369333267212 -0.13513393700122833 0.22782038152217865 0.056114815175533295 -0.24851162731647491 0.12208520621061325 -0.04610864445567131 -0.3766845762729645 0.002391781657934189 0.3427940309047699 -0.003882465185597539 -0.3105182945728302 0.10904019325971603 0.2260192185640335 0.10619422793388367 -0.40238797664642334 -0.17464898526668549 -0.031793903559446335 0.02516922727227211 -0.25909292697906494 0.14403432607650757 0.11516629159450531 -0.14366738498210907 0.008525710552930832 0.24068331718444824 -0.16140075027942657 -0.07430631667375565 0.031721312552690506 -0.1397070437669754 -0.08573944866657257 0.17248587310314178 -0.045426949858665466 -0.0934777483344078 0.26871418952941895 0.29987967014312744 0.3172237277030945 -0.014004996977746487 -0.2576606273651123 -0.24256041646003723 0.12061098217964172 0.16990692913532257 -0.0845540389418602 0.08603733777999878 -0.041367799043655396 0.2644539177417755 -0.014938067644834518 -0.11236278712749481
set 0.07697302848100662 -0.013628129847347736 0.04840793460607529 -0.1442716121673584 0.1975896805524826 -0.006663115229457617 -0.04182465746998787 -0.30104246735572815 0.030189916491508484 0.03369537368416786 -0.07000391185283661 0.00628679757937789 -0.09961221367120743 0.0291121955960989 0.017324337735772133 0.07599388808012009 0.09799444675445557 -0.045432429760694504 0.34383803606033325 -0.07307897508144379 0.04999813064932823 0.04329982027411461 0.16563881933689117 -0.01504390686750412 0.1711203157901764 0.20657871663570404 -0.03225313499569893 -0.22820068895816803 -0.04069124162197113 -0.18375346064567566 -0.028645509853959084 0.1919998973608017 -0.18341243267059326 0.10360469669103622 -0.07993669807910919 -0.009451325982809067 0.07708901911973953 -0.028577733784914017 -0.050981324166059494 0.09826397150754929 0.03236350044608116 -0.09570770710706711 0.0018535936251282692 -0.03528174012899399 0.008693376556038857 0.0382547527551651 -0.08196328580379486 -0.08985843509435654 -0.05711227282881737 0.06073959916830063 0.1694421023130417 0.21821711957454681 -0.08713053911924362 0.18799598515033722 0.07218307256698608 -0.07073992490768433 0.06554453819990158 0.09970040619373322 0.2827821969985962 -0.16123178601264954 -0.1405414491891861 -0.12102409452199936 0.08664526045322418 -0.09307891130447388 -0.036476682871580124 0.10631395131349564 0.09869994223117828 0.10345592349767685 -0.022326750680804253 0.2260824590921402 -0.12516193091869354 -0.044569939374923706 0.035393208265304565 0.14111177623271942 0.1967501938343048 0.22083130478858948 0.0522523932158947 -0.017712978646159172 -0.0984891876578331 -0.07736936211585999 -0.04403187334537506 0.12179722636938095 0.1041208803653717 -0.031601447612047195 -0.08120295405387878 0.05676557868719101 0.011913435533642769 -0.20428232848644257 0.04058804363012314 -0.010767006315290928 0.1762339025735855 0.054458457976579666 0.023386552929878235 -0.11223644018173218 -0.09555736184120178 -0.05898727476596832 0.04901576042175293 0.024223243817687035 -0.11527615785598755 -0.048070356249809265
